{"learner":{"attributes":{"scikit_learn":"{\"_estimator_type\": \"regressor\"}"},"feature_names":["temperature_2m_mean","precipitation_sum","wind_speed_10m_max","wind_direction_10m_dominant"],"feature_types":["float","float","float","float"],"gradient_booster":{"model":{"gbtree_model_param":{"num_parallel_tree":"1","num_trees":"100"},"iteration_indptr":[0,1,2,3,4,5,6,7,8,9,10,11,12,13,14,15,16,17,18,19,20,21,22,23,24,25,26,27,28,29,30,31,32,33,34,35,36,37,38,39,40,41,42,43,44,45,46,47,48,49,50,51,52,53,54,55,56,57,58,59,60,61,62,63,64,65,66,67,68,69,70,71,72,73,74,75,76,77,78,79,80,81,82,83,84,85,86,87,88,89,90,91,92,93,94,95,96,97,98,99,100],"tree_info":[0,0,0,0,0,0,0,0,0,0,0,0,0,0,0,0,0,0,0,0,0,0,0,0,0,0,0,0,0,0,0,0,0,0,0,0,0,0,0,0,0,0,0,0,0,0,0,0,0,0,0,0,0,0,0,0,0,0,0,0,0,0,0,0,0,0,0,0,0,0,0,0,0,0,0,0,0,0,0,0,0,0,0,0,0,0,0,0,0,0,0,0,0,0,0,0,0,0,0,0],"trees":[{"base_weights":[2.6868427E-6,2.1241781E1,-1.2334271E1,2.9689138E1,1.3447722E1,-4.325901E0,-1.7154865E1,2.5977919E1,4.685823E1,7.202604E0,1.905183E1,-2.9909365E0,-2.0501059E1,-1.910762E1,-1.438401E1,2.4806911E1,6.2012783E1,3.8593884E1,6.2955647E1,1.3954405E-1,9.346125E0,2.7778069E1,1.4351874E1,-1.3692891E1,-1.697213E0,9.036681E0,-2.1917648E1,-1.3404704E1,-2.0394804E1,-1.2066632E1,-2.0236845E1,2.429533E1,1.7661135E1,2.1530329E1,1.9683403E1,4.225935E1,2.6064285E1,9.366806E-1,6.4785034E1,-3.1142454E0,2.533897E1,1.1557066E1,-2.1404502E0,9.288977E0,3.0762823E1,8.796502E0,2.2880146E1,1.1533419E1,-1.8603033E1,-2.228858E0,1.385194E1,-2.5782518E1,-5.2758408E0,-7.618771E0,-2.2371101E1,-1.0061792E1,-1.9861057E1,-1.7038723E1,-1.0808549E1,-2.0572206E1,2.8296916E0,-2.223309E0,7.4446235E0,-2.633194E-1,8.048907E0,1.3140583E1,3.9550211E0,-4.851093E0,9.706277E0,1.0391453E1,2.1190428E1,9.423036E-1,-4.389065E0,1.2058689E1,1.3002092E-1,2.0912888E0,4.3222885E0,3.4318767E0,-1.884341E0,1.3625262E0,1.2786681E1,9.766919E0,2.0891912E0,-7.8949795E0,2.949949E0,1.4466026E1,5.743992E0,-7.439749E-1,1.3105021E1,-2.9838953E0,-6.3844175E0,-1.8410964E-1,-2.5138307E0,1.026521E1,-3.9382043E-1,-3.9969444E0,-8.66201E0,9.948908E0,-4.883975E0,-3.7825816E0,-5.5037934E-1,4.0169108E-1,-7.7792635E0,9.628811E-1,-6.032342E0,-1.8938204E0,-5.69447E0,5.684705E-1,-3.4272327E0,-5.8348956E0,-8.383896E0,3.6680605E-2,1.2366806E0],"categories":[],"categories_nodes":[],"categories_segments":[],"categories_sizes":[],"default_left":[0,0,0,0,0,0,0,0,0,0,0,0,0,0,0,0,0,0,0,0,0,0,0,0,0,0,0,0,0,0,0,0,0,0,0,0,0,0,0,0,0,0,0,0,0,0,0,0,0,0,0,0,0,0,0,0,0,0,0,0,0,0,0,0,0,0,0,0,0,0,0,0,0,0,0,0,0,0,0,0,0,0,0,0,0,0,0,0,0,0,0,0,0,0,0,0,0,0,0,0,0,0,0,0,0,0,0,0,0,0,0,0,0],"id":0,"left_children":[1,3,5,7,9,11,13,15,17,19,21,23,25,27,29,31,33,35,37,39,41,43,45,47,49,-1,51,53,55,57,59,61,-1,-1,63,65,67,-1,69,71,73,75,77,79,81,83,85,87,89,91,93,95,97,99,101,-1,103,105,107,109,111,-1,-1,-1,-1,-1,-1,-1,-1,-1,-1,-1,-1,-1,-1,-1,-1,-1,-1,-1,-1,-1,-1,-1,-1,-1,-1,-1,-1,-1,-1,-1,-1,-1,-1,-1,-1,-1,-1,-1,-1,-1,-1,-1,-1,-1,-1,-1,-1,-1,-1,-1,-1],"loss_changes":[8.394541E5,7.70935E4,7.817834E4,3.4719844E4,2.1351727E4,1.6414344E4,6.5697812E3,1.81255E4,1.0740734E4,4.4195205E3,1.2848516E4,9.751591E3,4.8195293E3,5.151375E3,6.903633E3,6.4638125E3,4.3682773E3,2.0215625E3,3.3004062E3,5.736472E3,5.7134746E3,5.895008E3,9.842809E3,9.628278E3,5.247116E3,0E0,3.530127E3,7.0407363E3,3.5504062E3,2.1928516E3,1.2030781E3,7.5713438E3,0E0,0E0,6.112925E2,1.7100078E3,5.304955E3,0E0,3.020211E3,4.5121455E3,2.942687E3,2.3572852E3,2.1523887E3,2.4965098E3,3.871039E3,4.9908223E3,6.929117E3,5.965202E3,1.2722188E3,6.0646304E3,6.530454E3,1.3867754E3,5.6157017E3,2.4590054E3,4.592455E3,0E0,3.3662812E3,1.4430918E3,2.4144805E3,6.6502344E2,9.994635E0,0E0,0E0,0E0,0E0,0E0,0E0,0E0,0E0,0E0,0E0,0E0,0E0,0E0,0E0,0E0,0E0,0E0,0E0,0E0,0E0,0E0,0E0,0E0,0E0,0E0,0E0,0E0,0E0,0E0,0E0,0E0,0E0,0E0,0E0,0E0,0E0,0E0,0E0,0E0,0E0,0E0,0E0,0E0,0E0,0E0,0E0,0E0,0E0,0E0,0E0,0E0,0E0],"parents":[2147483647,0,0,1,1,2,2,3,3,4,4,5,5,6,6,7,7,8,8,9,9,10,10,11,11,12,12,13,13,14,14,15,15,16,16,17,17,18,18,19,19,20,20,21,21,22,22,23,23,24,24,26,26,27,27,28,28,29,29,30,30,31,31,34,34,35,35,36,36,38,38,39,39,40,40,41,41,42,42,43,43,44,44,45,45,46,46,47,47,48,48,49,49,50,50,51,51,52,52,53,53,54,54,56,56,57,57,58,58,59,59,60,60],"right_children":[2,4,6,8,10,12,14,16,18,20,22,24,26,28,30,32,34,36,38,40,42,44,46,48,50,-1,52,54,56,58,60,62,-1,-1,64,66,68,-1,70,72,74,76,78,80,82,84,86,88,90,92,94,96,98,100,102,-1,104,106,108,110,112,-1,-1,-1,-1,-1,-1,-1,-1,-1,-1,-1,-1,-1,-1,-1,-1,-1,-1,-1,-1,-1,-1,-1,-1,-1,-1,-1,-1,-1,-1,-1,-1,-1,-1,-1,-1,-1,-1,-1,-1,-1,-1,-1,-1,-1,-1,-1,-1,-1,-1,-1,-1],"split_conditions":[2.7020836E1,2.5589582E1,2.9495834E1,7.9201584E1,7.231619E1,3.3971867E1,3.1185417E1,3.5902668E1,2.2751316E1,6.643117E1,2.6037504E1,6.25737E1,6.25737E1,2.9891665E1,2.298682E2,3.3999999E0,2.5410416E1,2.513125E1,2.4195831E1,3.0302078E1,7.17377E1,2.5643745E1,2.6459387E1,1.5379206E1,2.9412504E1,9.036681E0,9E-1,1.8417822E2,5.0968555E1,2.0364755E2,1E-1,5.686865E1,1.7661135E1,2.1530329E1,2.5491669E1,2.2077717E1,1.3493999E1,9.366806E-1,7.938345E1,6.361924E1,2.6266665E1,2.6037504E1,2.5800003E1,6E-1,3.4387066E1,1.1885453E1,2.6932714E1,2.8316668E1,4.8426876E1,2.8870832E1,6.848582E1,2.7516668E1,7.470515E1,2.9691671E1,1.710284E1,-1.0061792E1,1.4417988E1,8.726736E1,2.0583965E2,2.589662E2,3.1364584E1,-2.223309E0,7.4446235E0,-2.633194E-1,8.048907E0,1.3140583E1,3.9550211E0,-4.851093E0,9.706277E0,1.0391453E1,2.1190428E1,9.423036E-1,-4.389065E0,1.2058689E1,1.3002092E-1,2.0912888E0,4.3222885E0,3.4318767E0,-1.884341E0,1.3625262E0,1.2786681E1,9.766919E0,2.0891912E0,-7.8949795E0,2.949949E0,1.4466026E1,5.743992E0,-7.439749E-1,1.3105021E1,-2.9838953E0,-6.3844175E0,-1.8410964E-1,-2.5138307E0,1.026521E1,-3.9382043E-1,-3.9969444E0,-8.66201E0,9.948908E0,-4.883975E0,-3.7825816E0,-5.5037934E-1,4.0169108E-1,-7.7792635E0,9.628811E-1,-6.032342E0,-1.8938204E0,-5.69447E0,5.684705E-1,-3.4272327E0,-5.8348956E0,-8.383896E0,3.6680605E-2,1.2366806E0],"split_indices":[0,0,0,3,3,2,0,2,2,3,0,3,3,0,3,1,0,0,0,2,3,0,2,2,0,0,1,3,3,3,1,3,0,0,0,2,2,0,3,3,0,0,0,1,2,2,2,0,3,0,3,0,3,0,2,0,2,3,3,3,0,0,0,0,0,0,0,0,0,0,0,0,0,0,0,0,0,0,0,0,0,0,0,0,0,0,0,0,0,0,0,0,0,0,0,0,0,0,0,0,0,0,0,0,0,0,0,0,0,0,0,0,0],"split_type":[0,0,0,0,0,0,0,0,0,0,0,0,0,0,0,0,0,0,0,0,0,0,0,0,0,0,0,0,0,0,0,0,0,0,0,0,0,0,0,0,0,0,0,0,0,0,0,0,0,0,0,0,0,0,0,0,0,0,0,0,0,0,0,0,0,0,0,0,0,0,0,0,0,0,0,0,0,0,0,0,0,0,0,0,0,0,0,0,0,0,0,0,0,0,0,0,0,0,0,0,0,0,0,0,0,0,0,0,0,0,0,0,0],"sum_hessian":[3.202E3,1.176E3,2.026E3,5.63E2,6.13E2,7.62E2,1.264E3,4.65E2,9.8E1,2.91E2,3.22E2,7.05E2,5.7E1,7.38E2,5.26E2,4.52E2,1.3E1,6.7E1,3.1E1,6.8E1,2.23E2,1.11E2,2.11E2,7.5E1,6.3E2,1E0,5.6E1,1.38E2,6E2,3.79E2,1.47E2,4.47E2,5E0,1E1,3E0,5E1,1.7E1,1E0,3E1,6.1E1,7E0,1.87E2,3.6E1,1.6E1,9.5E1,1.29E2,8.2E1,1.2E1,6.3E1,6.1E2,2E1,4.5E1,1.1E1,8.5E1,5.3E1,2.1E1,5.79E2,7.4E1,3.05E2,1.45E2,2E0,7E0,4.4E2,1E0,2E0,4.7E1,3E0,2E0,1.5E1,6E0,2.4E1,4E1,2.1E1,4E0,3E0,7.3E1,1.14E2,8E0,2.8E1,1.5E1,1E0,8.8E1,7E0,3E0,1.26E2,9E0,7.3E1,9E0,3E0,1.6E1,4.7E1,4.84E2,1.26E2,8E0,1.2E1,1E1,3.5E1,2E0,9E0,4.5E1,4E1,7E0,4.6E1,6E0,5.73E2,1.2E1,6.2E1,1.4E1,2.91E2,1.29E2,1.6E1,1E0,1E0],"tree_param":{"num_deleted":"0","num_feature":"4","num_nodes":"113","size_leaf_vector":"1"}},{"base_weights":[3.934471E-2,1.6195707E1,-8.141399E0,1.0732814E1,2.0910984E1,-2.405432E0,-1.2048118E1,1.6820724E1,6.097424E0,1.99257E1,5.0402573E1,-1.1974804E0,-1.3742838E1,-1.1269413E1,-1.628896E1,1.6034237E1,1.2502624E1,5.2540865E0,3.1469679E1,2.2861406E1,1.0782728E1,5.2128956E1,3.1581163E0,-1.5826459E0,3.6216953E1,-4.9594955E0,-2.1415358E1,-2.2106045E1,-1.0903951E1,2.5249802E1,-1.7296354E1,1.8496803E1,5.9828887E0,6.2088027E0,-7.3721895E0,1.1391614E1,5.8075995E0,2.026301E1,3.0944782E1,-1.9236842E0,1.3079807E1,2.0733715E1,3.9293163E1,-7.976645E0,-2.3143876E-1,4.1615284E1,-2.3570253E-1,8.822601E0,-1.3581657E1,-2.4472761E1,2.0269978E0,-1.033946E1,-2.5928438E1,-1.2399631E1,-8.94177E0,-7.0735726E0,4.335154E1,-1.7625349E1,2.4082966E0,4.562649E0,7.407169E0,2.8799741E0,-7.027945E0,1.6004665E0,8.967433E0,-3.8482506E0,3.4677742E0,2.9250824E0,-3.1166267E-1,8.892005E0,4.416279E0,1.0380286E1,3.6490507E0,1.0606942E0,-8.212377E0,2.562501E0,7.311778E0,4.2632966E0,1.28665495E1,3.3394067E0,-3.191799E0,5.061291E-1,-1.0568582E0,1.3383432E1,3.545754E0,9.825021E0,-4.0279646E0,-1.3514369E0,-5.276441E0,-1.0054028E1,-6.1930346E0,6.7137556E0,-1.955783E0,-7.719236E-1,-6.403729E0,-3.1387346E0,-8.045526E0,-2.822095E0,-4.2986674E0,4.156131E0,-2.7373579E0,2.5922482E0,1.5612451E1,-7.326492E0,-5.040619E0,3.7915318E0,-1.5643692E0],"categories":[],"categories_nodes":[],"categories_segments":[],"categories_sizes":[],"default_left":[0,0,0,0,0,0,0,0,0,0,0,0,0,0,0,0,0,0,0,0,0,0,0,0,0,0,0,0,0,0,0,0,0,0,0,0,0,0,0,0,0,0,0,0,0,0,0,0,0,0,0,0,0,0,0,0,0,0,0,0,0,0,0,0,0,0,0,0,0,0,0,0,0,0,0,0,0,0,0,0,0,0,0,0,0,0,0,0,0,0,0,0,0,0,0,0,0,0,0,0,0,0,0,0,0,0,0],"id":1,"left_children":[1,3,5,7,9,11,13,15,17,19,21,23,25,27,29,31,-1,33,35,37,39,41,-1,43,45,47,49,51,53,55,57,59,61,63,65,-1,67,69,71,73,75,-1,77,79,81,83,-1,85,87,89,91,93,95,97,99,-1,101,103,105,-1,-1,-1,-1,-1,-1,-1,-1,-1,-1,-1,-1,-1,-1,-1,-1,-1,-1,-1,-1,-1,-1,-1,-1,-1,-1,-1,-1,-1,-1,-1,-1,-1,-1,-1,-1,-1,-1,-1,-1,-1,-1,-1,-1,-1,-1,-1,-1],"loss_changes":[4.2347578E5,2.7518062E4,4.7634562E4,1.4035578E4,1.5761953E4,1.1802359E4,3.9939219E3,3.5541094E3,5.954302E3,1.47845E4,6.903633E2,1.1312109E4,5.4871895E3,4.0044844E3,8.554836E3,5.1120312E3,0E0,3.3969258E3,1.281251E3,8.257578E3,4.0530547E3,9.9028125E2,0E0,6.685218E3,1.6307148E3,4.873084E3,3.203209E3,1.2611152E3,2.938375E3,5.4415596E3,1.274168E3,3.0661562E3,4.798992E3,5.200954E3,2.2138142E3,0E0,9.1109604E1,1.6349391E4,6.5145625E3,3.153575E3,5.7878594E3,0E0,4.726582E2,6.987037E3,4.0473572E3,9.764551E1,0E0,8.957573E3,8.2992676E2,6.583281E2,1.1895083E3,7.9986707E2,6.352539E1,3.2543047E3,2.013625E3,0E0,7.568574E2,6.359844E2,3.7783575E2,0E0,0E0,0E0,0E0,0E0,0E0,0E0,0E0,0E0,0E0,0E0,0E0,0E0,0E0,0E0,0E0,0E0,0E0,0E0,0E0,0E0,0E0,0E0,0E0,0E0,0E0,0E0,0E0,0E0,0E0,0E0,0E0,0E0,0E0,0E0,0E0,0E0,0E0,0E0,0E0,0E0,0E0,0E0,0E0,0E0,0E0,0E0,0E0],"parents":[2147483647,0,0,1,1,2,2,3,3,4,4,5,5,6,6,7,7,8,8,9,9,10,10,11,11,12,12,13,13,14,14,15,15,17,17,18,18,19,19,20,20,21,21,23,23,24,24,25,25,26,26,27,27,28,28,29,29,30,30,31,31,32,32,33,33,34,34,36,36,37,37,38,38,39,39,40,40,42,42,43,43,44,44,45,45,47,47,48,48,49,49,50,50,51,51,52,52,53,53,54,54,56,56,57,57,58,58],"right_children":[2,4,6,8,10,12,14,16,18,20,22,24,26,28,30,32,-1,34,36,38,40,42,-1,44,46,48,50,52,54,56,58,60,62,64,66,-1,68,70,72,74,76,-1,78,80,82,84,-1,86,88,90,92,94,96,98,100,-1,102,104,106,-1,-1,-1,-1,-1,-1,-1,-1,-1,-1,-1,-1,-1,-1,-1,-1,-1,-1,-1,-1,-1,-1,-1,-1,-1,-1,-1,-1,-1,-1,-1,-1,-1,-1,-1,-1,-1,-1,-1,-1,-1,-1,-1,-1,-1,-1,-1,-1],"split_conditions":[2.675E1,7.3103836E1,2.9495834E1,2.55375E1,2.5313432E2,8.3292694E1,2.4192326E2,3.4145008E1,2.1E0,2.6037504E1,1.3000001E0,8.235606E1,2.871875E1,5.686865E1,1.4417988E1,2.8639803E1,1.2502624E1,7.2776054E1,2.6266665E1,7.976663E1,2.6131247E1,2.5643745E1,3.1581163E0,6.615629E1,9.900001E0,1.9296135E1,2.6128262E2,3.0095833E1,3.1185417E1,1.1885453E1,5.131989E1,2.4522316E1,4E-1,7.26376E1,2.63125E1,1.1391614E1,2.646875E1,7.488175E1,9.9782326E1,3.0602118E1,2.6826641E1,2.0733715E1,2.5800003E1,1.5596767E1,2.7105392E1,2.9383331E1,-2.3570253E-1,1.07085396E2,3E-1,1.07085396E2,1.7654688E1,2.103152E1,1.3830749E1,2.7497026E1,6.822229E1,-7.0735726E0,2.4944386E2,1.9296135E1,2.9968752E1,4.562649E0,7.407169E0,2.8799741E0,-7.027945E0,1.6004665E0,8.967433E0,-3.8482506E0,3.4677742E0,2.9250824E0,-3.1166267E-1,8.892005E0,4.416279E0,1.0380286E1,3.6490507E0,1.0606942E0,-8.212377E0,2.562501E0,7.311778E0,4.2632966E0,1.28665495E1,3.3394067E0,-3.191799E0,5.061291E-1,-1.0568582E0,1.3383432E1,3.545754E0,9.825021E0,-4.0279646E0,-1.3514369E0,-5.276441E0,-1.0054028E1,-6.1930346E0,6.7137556E0,-1.955783E0,-7.719236E-1,-6.403729E0,-3.1387346E0,-8.045526E0,-2.822095E0,-4.2986674E0,4.156131E0,-2.7373579E0,2.5922482E0,1.5612451E1,-7.326492E0,-5.040619E0,3.7915318E0,-1.5643692E0],"split_indices":[0,3,0,0,3,3,3,2,1,0,1,3,0,3,2,2,0,3,0,3,0,0,0,3,1,2,3,0,0,2,2,2,1,3,0,0,0,3,3,2,2,0,0,2,2,0,0,3,1,3,2,2,2,2,3,0,3,2,0,0,0,0,0,0,0,0,0,0,0,0,0,0,0,0,0,0,0,0,0,0,0,0,0,0,0,0,0,0,0,0,0,0,0,0,0,0,0,0,0,0,0,0,0,0,0,0,0],"split_type":[0,0,0,0,0,0,0,0,0,0,0,0,0,0,0,0,0,0,0,0,0,0,0,0,0,0,0,0,0,0,0,0,0,0,0,0,0,0,0,0,0,0,0,0,0,0,0,0,0,0,0,0,0,0,0,0,0,0,0,0,0,0,0,0,0,0,0,0,0,0,0,0,0,0,0,0,0,0,0,0,0,0,0,0,0,0,0,0,0,0,0,0,0,0,0,0,0,0,0,0,0,0,0,0,0,0,0],"sum_hessian":[3.202E3,1.076E3,2.126E3,5E2,5.76E2,8.62E2,1.264E3,2.15E2,2.85E2,5.59E2,1.7E1,7.8E2,8.2E1,1.071E3,1.93E2,2.1E2,5E0,2.77E2,8E0,4.22E2,1.37E2,1.6E1,1E0,7.73E2,7E0,3.9E1,4.3E1,3.3E1,1.038E3,4E0,1.89E2,1.68E2,4.2E1,2.58E2,1.9E1,6E0,2E0,3.22E2,1E2,2.1E1,1.16E2,5E0,1.1E1,1.34E2,6.39E2,6E0,1E0,1.5E1,2.4E1,3.8E1,5E0,9E0,2.4E1,5.86E2,4.52E2,1E0,3E0,1.86E2,3E0,1.12E2,5.6E1,3.8E1,4E0,2.5E2,8E0,1.5E1,4E0,1E0,1E0,1.18E2,2.04E2,8.3E1,1.7E1,1.8E1,3E0,8.4E1,3.2E1,2E0,9E0,1.6E1,1.18E2,4.04E2,2.35E2,5E0,1E0,7E0,8E0,8E0,1.6E1,9E0,2.9E1,1E0,4E0,6E0,3E0,2E0,2.2E1,2.32E2,3.54E2,3E0,4.49E2,1E0,2E0,1.7E1,1.69E2,1E0,2E0],"tree_param":{"num_deleted":"0","num_feature":"4","num_nodes":"107","size_leaf_vector":"1"}},{"base_weights":[5.766981E-2,1.0556362E1,-6.24577E0,1.4877842E1,6.725579E0,-2.799645E0,-8.719253E0,1.2050199E1,2.3196259E1,3.619465E0,9.7154255E0,-1.6629866E0,-1.211196E1,-1.0435043E1,-7.357966E0,1.11669235E1,3.7056812E1,1.5454384E1,2.971612E1,3.7392217E-1,7.4220057E0,1.1532254E1,3.0533588E0,-9.65613E0,-1.1010909E0,-1.358185E1,1.09751215E1,-1.4489441E1,-9.772334E0,-5.9413543E0,-1.0703563E1,1.2624947E1,1.3209765E0,1.3205639E1,8.647152E0,1.3135073E1,1.4609929E1,1.8771732E1,3.6838436E1,3.4879117E0,-7.9159207E0,1.4022982E0,1.0874638E1,1.1126815E1,1.0257568E1,1.1029749E0,3.5446545E1,3.844921E0,-1.08850975E1,5.3163517E-1,-4.6189947E0,-1.5043462E1,5.9453964E-1,-2.413844E0,2.2497292E1,-1.2974838E1,-9.47529E0,6.6197944E0,-9.966322E0,-1.1069747E1,-4.8680267E0,8.800381E0,-1.1064879E1,2.8930268E0,5.121395E0,-3.88607E0,1.7123507E0,-8.8626254E-1,4.0497026E0,5.0796213E0,-1.4188753E0,9.037586E0,1.6606045E0,4.6734905E0,1.2304256E1,2.6970391E0,-9.003076E-2,-4.417919E0,-2.3268443E-1,2.4416246E0,-3.4305923E0,6.765555E0,1.6240457E0,2.5410814E0,4.360289E0,-1.4816954E0,4.1881986E0,1.2035815E1,3.214206E0,-6.653106E0,-2.6075156E0,8.835269E-1,-1.9204807E0,-2.5899801E0,1.5000275E0,-3.9462094E0,-7.972857E0,7.441605E0,-2.9599369E0,1.0427502E1,-2.1428776E0,-5.462324E0,-2.7354767E0,-9.3702066E-1,-3.1107237E0,-1.4684279E0,-4.3660035E0,-5.2793556E-1,-2.032615E0,-3.0251358E0,-5.006094E0],"categories":[],"categories_nodes":[],"categories_segments":[],"categories_sizes":[],"default_left":[0,0,0,0,0,0,0,0,0,0,0,0,0,0,0,0,0,0,0,0,0,0,0,0,0,0,0,0,0,0,0,0,0,0,0,0,0,0,0,0,0,0,0,0,0,0,0,0,0,0,0,0,0,0,0,0,0,0,0,0,0,0,0,0,0,0,0,0,0,0,0,0,0,0,0,0,0,0,0,0,0,0,0,0,0,0,0,0,0,0,0,0,0,0,0,0,0,0,0,0,0,0,0,0,0,0,0,0,0,0,0],"id":2,"left_children":[1,3,5,7,9,11,13,15,17,19,21,23,25,27,29,31,33,35,37,39,41,43,45,47,49,51,53,55,57,59,61,63,65,-1,67,69,-1,71,73,75,77,79,81,83,-1,85,87,-1,89,91,93,95,97,-1,99,101,-1,-1,103,105,107,-1,109,-1,-1,-1,-1,-1,-1,-1,-1,-1,-1,-1,-1,-1,-1,-1,-1,-1,-1,-1,-1,-1,-1,-1,-1,-1,-1,-1,-1,-1,-1,-1,-1,-1,-1,-1,-1,-1,-1,-1,-1,-1,-1,-1,-1,-1,-1,-1,-1],"loss_changes":[2.1203366E5,1.979864E4,1.7040492E4,1.2986625E4,5.8991035E3,8.850021E3,2.644289E3,8.929297E3,6.708336E3,3.8847368E3,3.8985332E3,3.3488696E3,3.2371895E3,1.2367695E3,3.031246E3,5.869129E3,2.3883887E3,4.526452E3,5.232633E3,4.4418867E3,2.9984062E3,1.9622695E3,4.4466226E3,1.4927905E3,4.0230977E3,1.7908975E3,1.4960142E3,1.4026328E3,2.9621758E3,2.483662E3,3.1166074E3,4.5681094E3,3.455439E3,0E0,2.6503143E2,4.421332E3,0E0,4.642206E3,3.3560352E3,2.6080078E3,2.2741353E3,4.7629834E3,5.7448496E3,2.1580254E3,0E0,5.3515737E3,3.2444336E1,0E0,9.7131494E2,8.033985E3,8.615393E3,1.3500586E3,2.5241633E3,0E0,1.7019568E3,1.1659326E3,0E0,0E0,1.1857812E3,1.6281465E3,2.2587021E3,0E0,8.907676E2,0E0,0E0,0E0,0E0,0E0,0E0,0E0,0E0,0E0,0E0,0E0,0E0,0E0,0E0,0E0,0E0,0E0,0E0,0E0,0E0,0E0,0E0,0E0,0E0,0E0,0E0,0E0,0E0,0E0,0E0,0E0,0E0,0E0,0E0,0E0,0E0,0E0,0E0,0E0,0E0,0E0,0E0,0E0,0E0,0E0,0E0,0E0,0E0],"parents":[2147483647,0,0,1,1,2,2,3,3,4,4,5,5,6,6,7,7,8,8,9,9,10,10,11,11,12,12,13,13,14,14,15,15,16,16,17,17,18,18,19,19,20,20,21,21,22,22,23,23,24,24,25,25,26,26,27,27,28,28,29,29,30,30,31,31,32,32,34,34,35,35,37,37,38,38,39,39,40,40,41,41,42,42,43,43,45,45,46,46,48,48,49,49,50,50,51,51,52,52,54,54,55,55,58,58,59,59,60,60,62,62],"right_children":[2,4,6,8,10,12,14,16,18,20,22,24,26,28,30,32,34,36,38,40,42,44,46,48,50,52,54,56,58,60,62,64,66,-1,68,70,-1,72,74,76,78,80,82,84,-1,86,88,-1,90,92,94,96,98,-1,100,102,-1,-1,104,106,108,-1,110,-1,-1,-1,-1,-1,-1,-1,-1,-1,-1,-1,-1,-1,-1,-1,-1,-1,-1,-1,-1,-1,-1,-1,-1,-1,-1,-1,-1,-1,-1,-1,-1,-1,-1,-1,-1,-1,-1,-1,-1,-1,-1,-1,-1,-1,-1,-1,-1],"split_conditions":[2.7116667E1,2.5589582E1,2.9770834E1,7.756514E1,7.26376E1,1.07085396E2,3.0962502E1,3.5902668E1,2.0532627E1,2.7416782E1,3E-1,5.8136005E1,3.0030087E2,6.984084E1,2.298682E2,7.608946E1,2.5410416E1,1.6854453E2,2.498958E1,2.4522316E1,2.6037504E1,2.706458E1,2.658304E2,1.1159999E1,2.7105392E1,2.973542E1,2.8050001E1,2.6554728E1,7.0038185E1,2.0059029E2,1.4417988E1,7.302516E1,2.2702845E1,1.3205639E1,2.5491669E1,2.513125E1,1.4609929E1,2.3576563E1,2.2392462E1,2.6187498E1,2.5744402E1,3.2241615E1,2.6229166E1,2.5862436E1,1.0257568E1,1.7000002E0,2.6187498E1,3.844921E0,2.2306282E1,1E-1,7.478425E1,2.9691671E1,3.7695282E1,-2.413844E0,1.7654688E1,1.9486609E1,-9.47529E0,6.6197944E0,1.7313717E1,2.4993439E1,4.2009083E1,8.800381E0,2.589662E2,2.8930268E0,5.121395E0,-3.88607E0,1.7123507E0,-8.8626254E-1,4.0497026E0,5.0796213E0,-1.4188753E0,9.037586E0,1.6606045E0,4.6734905E0,1.2304256E1,2.6970391E0,-9.003076E-2,-4.417919E0,-2.3268443E-1,2.4416246E0,-3.4305923E0,6.765555E0,1.6240457E0,2.5410814E0,4.360289E0,-1.4816954E0,4.1881986E0,1.2035815E1,3.214206E0,-6.653106E0,-2.6075156E0,8.835269E-1,-1.9204807E0,-2.5899801E0,1.5000275E0,-3.9462094E0,-7.972857E0,7.441605E0,-2.9599369E0,1.0427502E1,-2.1428776E0,-5.462324E0,-2.7354767E0,-9.3702066E-1,-3.1107237E0,-1.4684279E0,-4.3660035E0,-5.2793556E-1,-2.032615E0,-3.0251358E0,-5.006094E0],"split_indices":[0,0,0,3,3,3,0,2,2,2,1,3,3,3,3,3,0,3,0,2,0,0,3,2,2,0,0,2,3,3,2,3,2,0,0,0,0,2,2,0,2,2,0,2,0,1,0,0,3,1,3,0,2,0,2,2,0,0,2,2,2,0,3,0,0,0,0,0,0,0,0,0,0,0,0,0,0,0,0,0,0,0,0,0,0,0,0,0,0,0,0,0,0,0,0,0,0,0,0,0,0,0,0,0,0,0,0,0,0,0,0],"split_type":[0,0,0,0,0,0,0,0,0,0,0,0,0,0,0,0,0,0,0,0,0,0,0,0,0,0,0,0,0,0,0,0,0,0,0,0,0,0,0,0,0,0,0,0,0,0,0,0,0,0,0,0,0,0,0,0,0,0,0,0,0,0,0,0,0,0,0,0,0,0,0,0,0,0,0,0,0,0,0,0,0,0,0,0,0,0,0,0,0,0,0,0,0,0,0,0,0,0,0,0,0,0,0,0,0,0,0,0,0,0,0],"sum_hessian":[3.202E3,1.201E3,2.001E3,5.63E2,6.38E2,8.37E2,1.164E3,4.22E2,1.41E2,3.14E2,3.24E2,7.47E2,9E1,5.12E2,6.52E2,4.09E2,1.3E1,6.6E1,7.5E1,1.7E2,1.44E2,2.54E2,7E1,4.8E1,6.99E2,8.5E1,5E0,6.9E1,4.43E2,4.6E2,1.92E2,3.56E2,5.3E1,1E1,3E0,6.3E1,3E0,3.1E1,4.4E1,1.24E2,4.6E1,5.3E1,9.1E1,2.51E2,3E0,6.7E1,3E0,2E0,4.6E1,4.78E2,2.21E2,7.7E1,8E0,2E0,3E0,6.5E1,4E0,2E0,4.41E2,7.8E1,3.82E2,1E0,1.91E2,2.15E2,1.41E2,1.2E1,4.1E1,1E0,2E0,5.2E1,1.1E1,1.6E1,1.5E1,8E0,3.6E1,5E1,7.4E1,2.3E1,2.3E1,3.5E1,1.8E1,2.8E1,6.3E1,1.43E2,1.08E2,4.6E1,2.1E1,2E0,1E0,6E0,4E1,3.55E2,1.23E2,1.56E2,6.5E1,6.8E1,9E0,2E0,6E0,2E0,1E0,2.6E1,3.9E1,2.5E1,4.16E2,2.9E1,4.9E1,1.46E2,2.36E2,1.65E2,2.6E1],"tree_param":{"num_deleted":"0","num_feature":"4","num_nodes":"111","size_leaf_vector":"1"}},{"base_weights":[6.434401E-2,8.185707E0,-4.047914E0,6.482915E0,1.3792611E1,-5.317648E-1,-5.682121E0,5.9769654E0,2.7711153E1,1.2350243E1,3.0678766E1,-1.3743395E0,7.5468287E0,-5.33843E0,-1.3566784E1,6.7956843E0,-3.203691E0,3.1294739E1,6.449028E0,1.3663644E1,-6.234645E0,3.207249E1,8.3876044E-1,-1.9304207E1,-9.842186E-1,1.7879837E1,4.56234E0,7.05079E0,-5.560776E0,-5.2022123E0,-1.7027739E1,1.0254656E0,7.6387434E0,2.0793053E1,-6.349862E0,2.4662333E1,1.5544314E1,-1.420446E0,6.0000863E0,9.152137E0,1.8850584E1,-1.1428319E1,1.0750571E1,1.2487642E1,2.5196308E1,-2.1646572E1,1.3206277E0,-2.0358827E0,5.252463E0,2.6812794E1,-3.5620468E0,1.0135984E1,-3.245464E0,3.032353E1,-5.684825E0,-9.955164E0,-5.2875633E0,-1.5304054E1,-5.012651E-1,-1.8399368E1,6.0258865E-1,3.0328908E0,-2.8483756E0,3.6182761E0,1.8890439E0,4.7773993E-1,9.5984745E0,-6.4594275E-1,-5.326881E0,7.681971E0,1.8580903E0,3.340453E0,-3.343933E0,7.753016E0,4.3539996E0,-9.937304E0,8.196385E-1,3.2727425E0,8.517463E0,-2.8638422E0,-7.3858104E0,6.2132616E-2,-1.7525498E0,4.9257803E0,-4.6293575E-1,-1.8975068E-2,1.00619135E1,-3.7081506E0,1.9271272E0,-2.1817248E0,4.725116E0,-5.7242146E0,7.77261E-2,1.6346421E0,9.825531E0,-3.4010715E0,1.9700414E0,-3.2440293E0,8.548445E0,3.758283E0,-1.6309246E0,-5.4831376E0,-6.580582E-2,2.496676E0,-2.4477558E0,-1.9869938E0,-5.86679E0,2.4642334E0,-1.4017868E0],"categories":[],"categories_nodes":[],"categories_segments":[],"categories_sizes":[],"default_left":[0,0,0,0,0,0,0,0,0,0,0,0,0,0,0,0,0,0,0,0,0,0,0,0,0,0,0,0,0,0,0,0,0,0,0,0,0,0,0,0,0,0,0,0,0,0,0,0,0,0,0,0,0,0,0,0,0,0,0,0,0,0,0,0,0,0,0,0,0,0,0,0,0,0,0,0,0,0,0,0,0,0,0,0,0,0,0,0,0,0,0,0,0,0,0,0,0,0,0,0,0,0,0,0,0,0,0,0,0],"id":3,"left_children":[1,3,5,7,9,11,13,15,17,19,21,23,25,27,29,31,33,35,37,39,41,43,-1,45,47,49,51,53,55,57,59,61,63,65,67,69,-1,-1,-1,71,73,75,-1,-1,77,79,-1,81,83,85,87,89,91,93,95,97,99,101,103,105,107,-1,-1,-1,-1,-1,-1,-1,-1,-1,-1,-1,-1,-1,-1,-1,-1,-1,-1,-1,-1,-1,-1,-1,-1,-1,-1,-1,-1,-1,-1,-1,-1,-1,-1,-1,-1,-1,-1,-1,-1,-1,-1,-1,-1,-1,-1,-1,-1],"loss_changes":[1.0700418E5,1.0193125E4,1.2218965E4,8.727445E3,5.710129E3,4.6117803E3,3.862336E3,6.110039E3,1.245876E3,5.748168E3,6.4868945E2,4.2688223E3,1.8921057E3,3.8765E3,1.6483828E3,3.611457E3,5.19039E3,8.996504E2,7.009186E2,4.9054766E3,3.9054927E3,1.3357617E2,0E0,8.1716455E2,3.952589E3,2.7770605E3,2.25231E3,7.5822E3,1.5909805E3,8.94605E2,1.0267422E3,9.270316E3,3.7753867E3,1.669707E3,2.8339377E3,8.55459E1,0E0,0E0,0E0,4.8731553E3,2.6578828E3,4.6988813E3,0E0,0E0,2.837334E2,1.9664551E2,0E0,4.3976167E3,6.627326E3,1.8100503E3,5.186991E2,3.0466758E3,1.2258434E3,3.651582E2,1.2516492E3,2.9151538E3,3.4916133E3,2.65078E2,1.01387994E3,4.016621E2,1.98991E2,0E0,0E0,0E0,0E0,0E0,0E0,0E0,0E0,0E0,0E0,0E0,0E0,0E0,0E0,0E0,0E0,0E0,0E0,0E0,0E0,0E0,0E0,0E0,0E0,0E0,0E0,0E0,0E0,0E0,0E0,0E0,0E0,0E0,0E0,0E0,0E0,0E0,0E0,0E0,0E0,0E0,0E0,0E0,0E0,0E0,0E0,0E0,0E0],"parents":[2147483647,0,0,1,1,2,2,3,3,4,4,5,5,6,6,7,7,8,8,9,9,10,10,11,11,12,12,13,13,14,14,15,15,16,16,17,17,18,18,19,19,20,20,21,21,23,23,24,24,25,25,26,26,27,27,28,28,29,29,30,30,31,31,32,32,33,33,34,34,35,35,39,39,40,40,41,41,44,44,45,45,47,47,48,48,49,49,50,50,51,51,52,52,53,53,54,54,55,55,56,56,57,57,58,58,59,59,60,60],"right_children":[2,4,6,8,10,12,14,16,18,20,22,24,26,28,30,32,34,36,38,40,42,44,-1,46,48,50,52,54,56,58,60,62,64,66,68,70,-1,-1,-1,72,74,76,-1,-1,78,80,-1,82,84,86,88,90,92,94,96,98,100,102,104,106,108,-1,-1,-1,-1,-1,-1,-1,-1,-1,-1,-1,-1,-1,-1,-1,-1,-1,-1,-1,-1,-1,-1,-1,-1,-1,-1,-1,-1,-1,-1,-1,-1,-1,-1,-1,-1,-1,-1,-1,-1,-1,-1,-1,-1,-1,-1,-1,-1],"split_conditions":[2.675E1,7.756514E1,2.8870832E1,2.3E0,2.452838E2,2.861875E1,4E-1,4E-1,7.520317E1,3.0821552E1,1.3000001E0,1.2758432E1,2.8647919E1,1.3830749E1,7.556831E1,6.693044E1,1.8228943E1,7.414603E1,2.6370832E1,2.1575987E1,2.6660418E1,2.5643745E1,8.3876044E-1,6E-1,7.815427E1,1E-1,7.520317E1,2.9606249E1,6.585268E1,1.8998314E1,3.0681246E1,6.361924E1,7.070065E1,1.4417988E1,2.6229166E1,2.6266665E1,1.5544314E1,-1.420446E0,6.0000863E0,2.103152E1,2.3838959E1,3.3231335E1,1.0750571E1,1.2487642E1,2.5824999E1,4.8426876E1,1.3206277E0,2.7889585E1,7.976663E1,6.498921E1,3E-1,6.863095E1,1.4417988E1,2.9E1,1.31041975E1,3.2379993E1,6.693044E1,2.9770834E1,2.5744402E1,1.7654688E1,7E-1,3.0328908E0,-2.8483756E0,3.6182761E0,1.8890439E0,4.7773993E-1,9.5984745E0,-6.4594275E-1,-5.326881E0,7.681971E0,1.8580903E0,3.340453E0,-3.343933E0,7.753016E0,4.3539996E0,-9.937304E0,8.196385E-1,3.2727425E0,8.517463E0,-2.8638422E0,-7.3858104E0,6.2132616E-2,-1.7525498E0,4.9257803E0,-4.6293575E-1,-1.8975068E-2,1.00619135E1,-3.7081506E0,1.9271272E0,-2.1817248E0,4.725116E0,-5.7242146E0,7.77261E-2,1.6346421E0,9.825531E0,-3.4010715E0,1.9700414E0,-3.2440293E0,8.548445E0,3.758283E0,-1.6309246E0,-5.4831376E0,-6.580582E-2,2.496676E0,-2.4477558E0,-1.9869938E0,-5.86679E0,2.4642334E0,-1.4017868E0],"split_indices":[0,3,0,1,3,0,1,1,3,2,1,2,0,2,3,3,2,3,0,2,0,0,0,1,3,1,3,0,3,2,0,3,3,2,0,0,0,0,0,2,2,2,0,0,0,3,0,0,3,3,1,3,2,0,2,2,3,0,2,2,1,0,0,0,0,0,0,0,0,0,0,0,0,0,0,0,0,0,0,0,0,0,0,0,0,0,0,0,0,0,0,0,0,0,0,0,0,0,0,0,0,0,0,0,0,0,0,0,0],"split_type":[0,0,0,0,0,0,0,0,0,0,0,0,0,0,0,0,0,0,0,0,0,0,0,0,0,0,0,0,0,0,0,0,0,0,0,0,0,0,0,0,0,0,0,0,0,0,0,0,0,0,0,0,0,0,0,0,0,0,0,0,0,0,0,0,0,0,0,0,0,0,0,0,0,0,0,0,0,0,0,0,0,0,0,0,0,0,0,0,0,0,0,0,0,0,0,0,0,0,0,0,0,0,0,0,0,0,0,0,0],"sum_hessian":[3.202E3,1.076E3,2.126E3,8.27E2,2.49E2,6.75E2,1.451E3,8.09E2,1.8E1,2.31E2,1.8E1,6.12E2,6.3E1,1.392E3,5.9E1,7.43E2,6.6E1,1.5E1,3E0,2.16E2,1.5E1,1.7E1,1E0,1.2E1,6E2,1.3E1,5E1,2.4E1,1.368E3,1.8E1,4.1E1,9.5E1,6.48E2,7E0,5.9E1,1.3E1,2E0,2E0,1E0,1.17E2,9.9E1,1.4E1,1E0,5E0,1.2E1,1.1E1,1E0,5.14E2,8.6E1,9E0,4E0,2.9E1,2.1E1,8E0,1.6E1,7.8E1,1.29E3,5E0,1.3E1,3.8E1,3E0,5.1E1,4.4E1,1.49E2,4.99E2,3E0,4E0,4.4E1,1.5E1,1.2E1,1E0,1.07E2,1E1,3.6E1,6.3E1,5E0,9E0,3E0,9E0,3E0,8E0,3.24E2,1.9E2,3.2E1,5.4E1,2E0,7E0,2E0,2E0,7E0,2.2E1,3E0,1.8E1,1E0,7E0,1.1E1,5E0,7.7E1,1E0,1E1,1.28E3,4E0,1E0,6E0,7E0,4E0,3.4E1,1E0,2E0],"tree_param":{"num_deleted":"0","num_feature":"4","num_nodes":"109","size_leaf_vector":"1"}},{"base_weights":[7.07924E-2,5.802707E0,-2.8315785E0,5.441822E0,2.140981E1,-9.1824245E-1,-4.41073E0,7.7125974E0,2.9103777E0,4.1167477E1,1.4043714E1,-2.7795932E-1,-8.495488E0,-4.6668286E0,1.1605129E0,7.3116264E0,2.3867561E1,3.378504E0,-1.1461597E1,3.0756788E0,1.359002E1,-2.0085554E1,1.9240425E1,-4.4012156E0,5.249267E-1,5.568963E0,-1.0497746E1,-4.2788033E0,-8.880753E0,-4.5450606E0,1.3174639E1,5.8752475E0,1.1695387E1,8.928625E0,3.1643658E0,3.926172E0,-6.440948E0,-5.6769423E0,-6.915735E0,-7.944285E0,-1.0942143E0,8.685102E0,1.5091847E1,6.810648E0,-5.943499E0,8.360077E-1,-1.0239772E1,-8.284753E0,2.8420727E1,-1.17082E1,1.3772534E0,-5.5204616E0,-2.5145762E0,-7.551187E0,-1.9161026E1,-3.2769957E0,-7.3391004E0,2.0812021E1,-7.0905304E-1,2.0973957E0,-1.559742E-1,4.036749E0,-1.6769732E0,-6.56432E-1,1.7033677E0,8.586354E-1,3.1395855E0,8.842617E0,-3.1986356E0,-6.5273614E0,1.5249765E0,-2.154738E0,5.8208313E0,-2.6282225E0,4.042064E0,-1.9227756E0,3.029142E0,1.2533991E-1,7.1126413E0,1.358532E0,-7.223129E0,3.3439398E0,-4.0143104E0,1.0113622E1,1.8820044E0,-3.7895312E0,-1.2378087E0,1.4860146E0,-1.5126138E0,-5.239624E0,-1.5925945E0,-6.293641E-1,-5.3906703E0,2.4291115E0,-2.4094787E0,-1.9900532E-1,-6.3427854E0,5.999246E-1,-2.6945307E0,-6.534042E-2,7.6528544E0,1.2145333E0,-1.0265223E0],"categories":[],"categories_nodes":[],"categories_segments":[],"categories_sizes":[],"default_left":[0,0,0,0,0,0,0,0,0,0,0,0,0,0,0,0,0,0,0,0,0,0,0,0,0,0,0,0,0,0,0,0,0,0,0,0,0,0,0,0,0,0,0,0,0,0,0,0,0,0,0,0,0,0,0,0,0,0,0,0,0,0,0,0,0,0,0,0,0,0,0,0,0,0,0,0,0,0,0,0,0,0,0,0,0,0,0,0,0,0,0,0,0,0,0,0,0,0,0,0,0,0,0],"id":4,"left_children":[1,3,5,7,9,11,13,15,17,19,21,23,25,27,29,31,33,35,37,-1,-1,39,41,43,45,47,49,51,53,55,57,59,61,-1,63,65,67,69,-1,-1,-1,-1,71,73,75,77,79,81,83,85,87,89,91,93,95,97,-1,99,101,-1,-1,-1,-1,-1,-1,-1,-1,-1,-1,-1,-1,-1,-1,-1,-1,-1,-1,-1,-1,-1,-1,-1,-1,-1,-1,-1,-1,-1,-1,-1,-1,-1,-1,-1,-1,-1,-1,-1,-1,-1,-1,-1,-1],"loss_changes":[5.3302004E4,5.9495547E3,6.4225664E3,6.036301E3,2.9147402E3,4.669713E3,1.667623E3,3.4205977E3,3.4026719E3,3.0213086E2,3.7562937E3,2.9453489E3,2.1705107E3,1.7835117E3,3.6243481E3,3.350418E3,1.4922822E3,2.633521E3,9.419177E2,0E0,0E0,2.1879968E2,2.4788525E2,2.5478013E3,2.5033372E3,3.401277E3,9.6481836E2,2.224879E3,1.1264629E3,8.291238E2,1.8173533E3,2.937127E3,4.122377E3,0E0,6.623815E1,3.170711E3,4.2561025E3,2.1870078E3,0E0,0E0,0E0,0E0,1.483679E3,1.985549E3,1.020999E3,6.925145E3,4.4004346E3,8.4233984E2,2.5726978E2,3.6804102E2,1.8566885E2,1.4228145E3,2.6927595E3,6.965054E2,3.5252344E2,1.0715532E3,0E0,1.0922178E3,1.0419195E2,0E0,0E0,0E0,0E0,0E0,0E0,0E0,0E0,0E0,0E0,0E0,0E0,0E0,0E0,0E0,0E0,0E0,0E0,0E0,0E0,0E0,0E0,0E0,0E0,0E0,0E0,0E0,0E0,0E0,0E0,0E0,0E0,0E0,0E0,0E0,0E0,0E0,0E0,0E0,0E0,0E0,0E0,0E0,0E0],"parents":[2147483647,0,0,1,1,2,2,3,3,4,4,5,5,6,6,7,7,8,8,9,9,10,10,11,11,12,12,13,13,14,14,15,15,16,16,17,17,18,18,21,21,22,22,23,23,24,24,25,25,26,26,27,27,28,28,29,29,30,30,31,31,32,32,34,34,35,35,36,36,37,37,42,42,43,43,44,44,45,45,46,46,47,47,48,48,49,49,50,50,51,51,52,52,53,53,54,54,55,55,57,57,58,58],"right_children":[2,4,6,8,10,12,14,16,18,20,22,24,26,28,30,32,34,36,38,-1,-1,40,42,44,46,48,50,52,54,56,58,60,62,-1,64,66,68,70,-1,-1,-1,-1,72,74,76,78,80,82,84,86,88,90,92,94,96,98,-1,100,102,-1,-1,-1,-1,-1,-1,-1,-1,-1,-1,-1,-1,-1,-1,-1,-1,-1,-1,-1,-1,-1,-1,-1,-1,-1,-1,-1,-1,-1,-1,-1,-1,-1,-1,-1,-1,-1,-1,-1,-1,-1,-1,-1,-1],"split_conditions":[2.675E1,1.6854453E2,2.9770834E1,2.5589582E1,2.5270834E1,3.5452232E1,3.2391666E1,3.612398E1,8.385168E1,2.4787498E1,2.452838E2,6.615629E1,7.298525E1,4.9638245E1,4.6716846E1,7.756514E1,2.5410416E1,3.509954E1,2.2530937E1,3.0756788E0,1.359002E1,2.5285418E1,2.7678888E2,1.5596767E1,7.4E0,2.7889585E1,2.6128262E2,3.882162E1,3.2077084E1,1E-1,5.087604E1,7.587068E1,9.9782326E1,8.928625E0,2.5491669E1,7.815427E1,6.756317E1,1.7826363E1,-6.915735E0,-7.944285E0,-1.0942143E0,8.685102E0,2.7729347E1,2.7737501E1,3.2379993E1,4.1000004E0,2.7737501E1,3.5598152E1,2.9120832E1,2.973542E1,4.2009083E1,2.9793749E1,2E-1,2.9968752E1,1.9016765E2,2.1961552E2,-7.3391004E0,1.9833408E2,5.252053E1,2.0973957E0,-1.559742E-1,4.036749E0,-1.6769732E0,-6.56432E-1,1.7033677E0,8.586354E-1,3.1395855E0,8.842617E0,-3.1986356E0,-6.5273614E0,1.5249765E0,-2.154738E0,5.8208313E0,-2.6282225E0,4.042064E0,-1.9227756E0,3.029142E0,1.2533991E-1,7.1126413E0,1.358532E0,-7.223129E0,3.3439398E0,-4.0143104E0,1.0113622E1,1.8820044E0,-3.7895312E0,-1.2378087E0,1.4860146E0,-1.5126138E0,-5.239624E0,-1.5925945E0,-6.293641E-1,-5.3906703E0,2.4291115E0,-2.4094787E0,-1.9900532E-1,-6.3427854E0,5.999246E-1,-2.6945307E0,-6.534042E-2,7.6528544E0,1.2145333E0,-1.0265223E0],"split_indices":[0,3,0,0,0,2,0,2,3,0,3,3,3,2,2,3,0,2,2,0,0,0,3,2,1,0,3,2,0,1,2,3,3,0,0,3,3,2,0,0,0,0,2,0,2,1,0,2,0,0,2,0,1,0,3,3,0,3,2,0,0,0,0,0,0,0,0,0,0,0,0,0,0,0,0,0,0,0,0,0,0,0,0,0,0,0,0,0,0,0,0,0,0,0,0,0,0,0,0,0,0,0,0],"split_type":[0,0,0,0,0,0,0,0,0,0,0,0,0,0,0,0,0,0,0,0,0,0,0,0,0,0,0,0,0,0,0,0,0,0,0,0,0,0,0,0,0,0,0,0,0,0,0,0,0,0,0,0,0,0,0,0,0,0,0,0,0,0,0,0,0,0,0,0,0,0,0,0,0,0,0,0,0,0,0,0,0,0,0,0,0,0,0,0,0,0,0,0,0,0,0,0,0,0,0,0,0,0,0],"sum_hessian":[3.202E3,1.076E3,2.126E3,1.053E3,2.3E1,9.62E2,1.164E3,5.54E2,4.99E2,5E0,1.8E1,8.88E2,7.4E1,1.113E3,5.1E1,5.42E2,1.2E1,4.84E2,1.5E1,1E0,4E0,2E0,1.6E1,1.44E2,7.44E2,9E0,6.5E1,1.021E3,9.2E1,3.5E1,1.6E1,4.1E2,1.32E2,9E0,3E0,4.59E2,2.5E1,1.1E1,4E0,1E0,1E0,3E0,1.3E1,1.7E1,1.27E2,7.24E2,2E1,6E0,3E0,5.9E1,6E0,5.98E2,4.23E2,8.3E1,9E0,3.4E1,1E0,1E1,6E0,3.49E2,6.1E1,1.2E2,1.2E1,1E0,2E0,3.96E2,6.3E1,2E0,2.3E1,4E0,7E0,2E0,1.1E1,5E0,1.2E1,1.24E2,3E0,7.12E2,1.2E1,1E1,1E1,1E0,5E0,2E0,1E0,5.2E1,7E0,4E0,2E0,9E0,5.89E2,4.13E2,1E1,2E0,8.1E1,1E0,8E0,1.8E1,1.6E1,2E0,8E0,2E0,4E0],"tree_param":{"num_deleted":"0","num_feature":"4","num_nodes":"103","size_leaf_vector":"1"}},{"base_weights":[5.6144916E-2,3.7987838E0,-2.190962E0,1.7862936E0,5.635381E0,-9.1623425E-1,-3.229098E0,7.92764E0,7.1948963E-1,7.2330403E-1,6.8914266E0,-1.1296655E0,1.8192116E1,-6.2382054E0,-2.785159E0,1.1400102E1,-5.6309724E0,-1.1822124E1,1.3330027E0,5.861026E0,-4.7521033E0,9.851419E0,2.1717913E0,-6.164262E-1,-5.229353E0,-1.7231995E0,2.4894144E1,5.8145328E0,-7.937488E0,-2.498155E0,-9.019266E0,2.6602685E0,1.6419533E1,8.003669E0,-9.1009E0,-5.237196E0,-1.253737E1,-1.3947067E0,3.8540244E0,1.1004951E1,-2.6738143E0,-5.971435E0,1.062697E1,2.1398582E1,8.2869E0,-3.9223427E-1,7.509562E0,3.5083845E-1,-3.0002172E0,-6.1256475E0,7.4256096E0,-2.21414E0,3.0559155E1,2.4804272E1,-8.524781E0,-1.8241585E1,-6.1299067E0,1.0238925E1,-2.649043E0,-1.0759115E1,3.2130158E0,6.3351793E0,-3.684804E0,-1.5914534E0,7.500028E0,-4.3175874E0,3.5079083E0,-4.0546026E0,2.6608315E0,2.644642E0,-8.8274306E-1,1.0523556E1,9.562367E-1,1.7383888E0,6.6546702E0,-7.0604734E0,3.5505908E0,-2.8068204E0,6.5428394E-1,9.936592E0,3.4342494E0,2.3069925E0,1.0040674E1,2.6422483E-1,-3.6338043E0,3.7376428E0,-1.9846163E0,-2.8689387E-1,2.794343E0,-1.1607312E0,7.5325904E0,-1.6086534E0,-6.531693E0,-1.1022125E0,3.780084E0,1.1779807E1,4.26375E0,-9.5050627E-1,8.775896E0,-8.998032E-2,-5.5003834E0,-8.2675326E-1,-6.740771E0,3.2966368E0,-2.4024022E0,5.672349E-1,7.312644E0,-5.1757616E-1,-1.310756E0,-4.8222327E0,-1.6312999E0,2.1813927E0,-9.807141E-1],"categories":[],"categories_nodes":[],"categories_segments":[],"categories_sizes":[],"default_left":[0,0,0,0,0,0,0,0,0,0,0,0,0,0,0,0,0,0,0,0,0,0,0,0,0,0,0,0,0,0,0,0,0,0,0,0,0,0,0,0,0,0,0,0,0,0,0,0,0,0,0,0,0,0,0,0,0,0,0,0,0,0,0,0,0,0,0,0,0,0,0,0,0,0,0,0,0,0,0,0,0,0,0,0,0,0,0,0,0,0,0,0,0,0,0,0,0,0,0,0,0,0,0,0,0,0,0,0,0,0,0,0,0],"id":5,"left_children":[1,3,5,7,9,11,13,15,17,19,21,23,25,27,29,31,33,35,37,39,41,43,45,47,49,-1,51,53,55,57,59,61,63,-1,65,67,-1,69,71,73,75,77,-1,79,81,83,85,87,89,91,93,-1,95,97,99,101,103,105,107,109,111,-1,-1,-1,-1,-1,-1,-1,-1,-1,-1,-1,-1,-1,-1,-1,-1,-1,-1,-1,-1,-1,-1,-1,-1,-1,-1,-1,-1,-1,-1,-1,-1,-1,-1,-1,-1,-1,-1,-1,-1,-1,-1,-1,-1,-1,-1,-1,-1,-1,-1,-1,-1],"loss_changes":[2.6945904E4,4.4326875E3,2.646371E3,3.7614734E3,3.8696445E3,3.6910386E3,1.4560791E3,4.0661436E3,3.7937307E3,3.656767E3,6.9636484E3,1.8715481E3,1.7471968E3,2.9339756E3,1.7004814E3,2.9394111E3,2.260834E3,4.3200522E3,3.2305076E3,2.9708975E3,3.2977124E3,5.3688594E3,2.6580645E3,1.8295176E3,1.1684014E3,0E0,1.688229E3,5.112848E3,2.1977417E3,1.7990879E3,9.28427E2,7.4302266E3,8.1481367E3,0E0,2.0386577E3,2.4554084E3,0E0,3.5974202E3,4.966628E3,2.3174263E3,8.1481216E3,1.7311594E3,0E0,3.8206133E3,3.8312656E3,1.9801E3,4.4866147E3,6.628917E3,5.690108E3,9.942085E2,4.4835306E2,0E0,4.3822852E2,1.0882212E3,8.820286E2,1.1165078E3,3.5281157E3,1.2520648E3,1.4416758E3,9.590825E2,1.816069E2,0E0,0E0,0E0,0E0,0E0,0E0,0E0,0E0,0E0,0E0,0E0,0E0,0E0,0E0,0E0,0E0,0E0,0E0,0E0,0E0,0E0,0E0,0E0,0E0,0E0,0E0,0E0,0E0,0E0,0E0,0E0,0E0,0E0,0E0,0E0,0E0,0E0,0E0,0E0,0E0,0E0,0E0,0E0,0E0,0E0,0E0,0E0,0E0,0E0,0E0,0E0,0E0],"parents":[2147483647,0,0,1,1,2,2,3,3,4,4,5,5,6,6,7,7,8,8,9,9,10,10,11,11,12,12,13,13,14,14,15,15,16,16,17,17,18,18,19,19,20,20,21,21,22,22,23,23,24,24,26,26,27,27,28,28,29,29,30,30,31,31,32,32,34,34,35,35,37,37,38,38,39,39,40,40,41,41,43,43,44,44,45,45,46,46,47,47,48,48,49,49,50,50,52,52,53,53,54,54,55,55,56,56,57,57,58,58,59,59,60,60],"right_children":[2,4,6,8,10,12,14,16,18,20,22,24,26,28,30,32,34,36,38,40,42,44,46,48,50,-1,52,54,56,58,60,62,64,-1,66,68,-1,70,72,74,76,78,-1,80,82,84,86,88,90,92,94,-1,96,98,100,102,104,106,108,110,112,-1,-1,-1,-1,-1,-1,-1,-1,-1,-1,-1,-1,-1,-1,-1,-1,-1,-1,-1,-1,-1,-1,-1,-1,-1,-1,-1,-1,-1,-1,-1,-1,-1,-1,-1,-1,-1,-1,-1,-1,-1,-1,-1,-1,-1,-1,-1,-1,-1,-1,-1,-1],"split_conditions":[2.7116667E1,7.3103836E1,8.3292694E1,2.506042E1,2.4866669E1,8.235606E1,1.9833408E2,7.224903E1,2.5168747E1,2.2077717E1,2.6037504E1,3.031875E1,2.7291666E1,2.8566668E1,2E-1,2.4577087E1,1.3830749E1,2.8639803E1,2.5744402E1,2.4577087E1,8.2622475E1,7.3722664E1,2.6826641E1,2.7105392E1,3.1270834E1,-1.7231995E0,1.4417988E1,1.9296135E1,2.9656248E1,1.5596767E1,3.0681246E1,2.0532627E1,1.7447933E1,8.003669E0,2.4950003E1,2.3675303E1,-1.253737E1,2.5331247E1,2.51875E1,2.008916E1,2.4691666E1,3.1319998E1,1.062697E1,2.6554728E1,3.7E0,8.8040115E1,3.2559605E1,2.6079508E1,7.9201584E1,3.1820824E1,5.5263485E1,-2.21414E0,2.9383331E1,1.1159999E1,3.9E0,1.3830749E1,2.9891665E1,3.0535416E1,2.3137967E2,7E-1,3.8385185E1,6.3351793E0,-3.684804E0,-1.5914534E0,7.500028E0,-4.3175874E0,3.5079083E0,-4.0546026E0,2.6608315E0,2.644642E0,-8.8274306E-1,1.0523556E1,9.562367E-1,1.7383888E0,6.6546702E0,-7.0604734E0,3.5505908E0,-2.8068204E0,6.5428394E-1,9.936592E0,3.4342494E0,2.3069925E0,1.0040674E1,2.6422483E-1,-3.6338043E0,3.7376428E0,-1.9846163E0,-2.8689387E-1,2.794343E0,-1.1607312E0,7.5325904E0,-1.6086534E0,-6.531693E0,-1.1022125E0,3.780084E0,1.1779807E1,4.26375E0,-9.5050627E-1,8.775896E0,-8.998032E-2,-5.5003834E0,-8.2675326E-1,-6.740771E0,3.2966368E0,-2.4024022E0,5.672349E-1,7.312644E0,-5.1757616E-1,-1.310756E0,-4.8222327E0,-1.6312999E0,2.1813927E0,-9.807141E-1],"split_indices":[0,3,3,0,0,3,3,3,0,2,0,0,0,0,1,0,2,2,2,0,3,3,2,2,0,0,2,2,0,2,0,2,2,0,0,2,0,0,0,2,0,2,0,2,1,3,2,2,3,2,3,0,0,2,1,2,0,0,3,1,2,0,0,0,0,0,0,0,0,0,0,0,0,0,0,0,0,0,0,0,0,0,0,0,0,0,0,0,0,0,0,0,0,0,0,0,0,0,0,0,0,0,0,0,0,0,0,0,0,0,0,0,0],"split_type":[0,0,0,0,0,0,0,0,0,0,0,0,0,0,0,0,0,0,0,0,0,0,0,0,0,0,0,0,0,0,0,0,0,0,0,0,0,0,0,0,0,0,0,0,0,0,0,0,0,0,0,0,0,0,0,0,0,0,0,0,0,0,0,0,0,0,0,0,0,0,0,0,0,0,0,0,0,0,0,0,0,0,0,0,0,0,0,0,0,0,0,0,0,0,0,0,0,0,0,0,0,0,0,0,0,0,0,0,0,0,0,0,0],"sum_hessian":[3.202E3,1.201E3,2.001E3,5.74E2,6.27E2,8.99E2,1.102E3,8.4E1,4.9E2,1.28E2,4.99E2,8.9E2,9E0,1.4E2,9.62E2,6.7E1,1.7E1,2.2E1,4.68E2,6.6E1,6.2E1,3.06E2,1.93E2,7.92E2,9.8E1,2E0,7E0,1.7E1,1.23E2,9.21E2,4.1E1,2.5E1,4.2E1,1E0,1.6E1,1.9E1,3E0,2.25E2,2.43E2,4.1E1,2.5E1,6.1E1,1E0,3.5E1,2.71E2,1.31E2,6.2E1,5.64E2,2.28E2,9.2E1,6E0,1E0,6E0,7E0,1E1,1.7E1,1.06E2,1E1,9.11E2,3.6E1,5E0,1.1E1,1.4E1,1.2E1,3E1,1.3E1,3E0,1.2E1,7E0,2.9E1,1.96E2,4E0,2.39E2,2.9E1,1.2E1,1E1,1.5E1,4.3E1,1.8E1,1.5E1,2E1,2.66E2,5E0,1.19E2,1.2E1,4.6E1,1.6E1,4.93E2,7.1E1,2.22E2,6E0,8.9E1,3E0,2E0,4E0,3E0,3E0,1E0,6E0,6E0,4E0,4E0,1.3E1,1E1,9.6E1,7E0,3E0,5.94E2,3.17E2,1.7E1,1.9E1,3E0,2E0],"tree_param":{"num_deleted":"0","num_feature":"4","num_nodes":"113","size_leaf_vector":"1"}},{"base_weights":[5.940978E-2,2.7028458E0,-1.5277377E0,9.5286167E-1,3.8893533E0,-6.2411535E-1,-2.2636693E0,8.596916E0,-4.0239926E-2,-1.6427556E0,4.4818697E0,-7.869302E-1,1.3945102E1,-3.4547267E0,-1.5033325E0,1.2750123E0,1.4900065E1,9.929944E-1,-7.447576E0,6.088077E0,-1.3456436E1,-7.367397E-2,5.5193253E0,-5.041887E0,-3.7250403E-1,-4.5951996E0,1.9154577E1,5.6386137E0,-3.7299273E0,-6.6456765E-1,-3.3446705E0,2.0071573E1,-7.6957283E0,-4.6125946E0,1.8833452E1,-1.0872232E-2,1.002808E1,-1.0182858E1,7.056344E0,1.0845659E1,-5.72524E0,-1.9128853E1,1.6462452E1,-1.4097875E0,2.188729E1,9.810534E0,2.5540562E0,-5.4463625E0,3.9760804E0,-5.8913717E0,1.234815E-2,-1.7666279E0,-3.0121195E-1,-1.8820187E0,2.3683344E1,2.1090696E1,-6.6552753E0,-1.2761963E1,-3.3377216E0,-1.2420324E0,3.8478382E0,6.8669553E0,-3.578596E0,7.5608087E0,-3.1466093E0,5.3377515E-1,-8.556417E0,6.3240457E0,-1.850055E0,3.5738504E-1,-2.6684494E0,-4.9968357E0,3.837356E0,-4.477765E0,-6.717319E-1,4.815692E0,-1.0052661E0,1.8027741E0,8.998752E0,-4.9440594E0,4.4336195E0,-2.2939947E0,-8.476909E0,6.3659253E0,-3.8501132E-1,5.321788E0,-8.445553E-1,-2.1310327E0,1.0471281E1,5.3039145E-1,3.7692344E0,6.7255907E0,5.676644E-1,-1.0055096E0,-2.6058304E0,8.755065E-1,-3.039776E0,2.0219758E0,-8.1890784E-2,7.9239745E0,1.0955876E0,8.99158E0,6.656448E-1,2.6448956E0,-3.0374932E0,-5.8014874E0,-2.2250547E0,-3.44353E-1,-1.2707545E0,-2.4992858E-1,-5.291667E0,2.0684302E0,-2.9830303E0,-1.1222966E0,2.662037E0],"categories":[],"categories_nodes":[],"categories_segments":[],"categories_sizes":[],"default_left":[0,0,0,0,0,0,0,0,0,0,0,0,0,0,0,0,0,0,0,0,0,0,0,0,0,0,0,0,0,0,0,0,0,0,0,0,0,0,0,0,0,0,0,0,0,0,0,0,0,0,0,0,0,0,0,0,0,0,0,0,0,0,0,0,0,0,0,0,0,0,0,0,0,0,0,0,0,0,0,0,0,0,0,0,0,0,0,0,0,0,0,0,0,0,0,0,0,0,0,0,0,0,0,0,0,0,0,0,0,0,0,0,0,0,0],"id":6,"left_children":[1,3,5,7,9,11,13,15,17,19,21,23,25,27,29,31,33,35,37,39,41,43,45,47,49,51,53,55,57,59,61,63,65,-1,67,69,71,73,75,77,79,81,83,85,87,89,91,93,-1,95,97,-1,-1,-1,99,101,103,105,107,109,111,-1,113,-1,-1,-1,-1,-1,-1,-1,-1,-1,-1,-1,-1,-1,-1,-1,-1,-1,-1,-1,-1,-1,-1,-1,-1,-1,-1,-1,-1,-1,-1,-1,-1,-1,-1,-1,-1,-1,-1,-1,-1,-1,-1,-1,-1,-1,-1,-1,-1,-1,-1,-1,-1],"loss_changes":[1.3442389E4,2.4920898E3,1.3299253E3,3.6973203E3,2.3543145E3,2.1458506E3,9.9368896E2,2.565461E3,3.3137134E3,6.4749946E3,3.0582422E3,1.5692805E3,1.0538717E3,1.0946011E3,1.0402808E3,4.7071807E3,3.8621143E3,3.446717E3,2.1744866E3,2.478816E3,5.066856E3,3.5812798E3,6.6808E3,6.5679004E2,1.7268427E3,8.02359E0,1.0698337E3,2.609925E3,1.4345923E3,1.2164554E3,1.3768049E3,1.6756194E3,3.7998784E3,0E0,1.6465371E3,3.6738022E3,3.01484E3,1.6620625E3,8.9639685E2,2.690911E3,3.1103076E3,2.2992275E3,4.4934363E2,3.1448262E3,2.8895427E3,4.7391426E3,4.0726543E3,5.0020776E2,0E0,2.0098591E3,1.4625741E3,0E0,0E0,0E0,2.863269E2,9.391316E2,5.187195E2,4.541416E2,7.838198E2,2.7545874E3,2.2956724E3,0E0,4.5783936E2,0E0,0E0,0E0,0E0,0E0,0E0,0E0,0E0,0E0,0E0,0E0,0E0,0E0,0E0,0E0,0E0,0E0,0E0,0E0,0E0,0E0,0E0,0E0,0E0,0E0,0E0,0E0,0E0,0E0,0E0,0E0,0E0,0E0,0E0,0E0,0E0,0E0,0E0,0E0,0E0,0E0,0E0,0E0,0E0,0E0,0E0,0E0,0E0,0E0,0E0,0E0,0E0],"parents":[2147483647,0,0,1,1,2,2,3,3,4,4,5,5,6,6,7,7,8,8,9,9,10,10,11,11,12,12,13,13,14,14,15,15,16,16,17,17,18,18,19,19,20,20,21,21,22,22,23,23,24,24,25,25,26,26,27,27,28,28,29,29,30,30,31,31,32,32,34,34,35,35,36,36,37,37,38,38,39,39,40,40,41,41,42,42,43,43,44,44,45,45,46,46,47,47,49,49,50,50,54,54,55,55,56,56,57,57,58,58,59,59,60,60,62,62],"right_children":[2,4,6,8,10,12,14,16,18,20,22,24,26,28,30,32,34,36,38,40,42,44,46,48,50,52,54,56,58,60,62,64,66,-1,68,70,72,74,76,78,80,82,84,86,88,90,92,94,-1,96,98,-1,-1,-1,100,102,104,106,108,110,112,-1,114,-1,-1,-1,-1,-1,-1,-1,-1,-1,-1,-1,-1,-1,-1,-1,-1,-1,-1,-1,-1,-1,-1,-1,-1,-1,-1,-1,-1,-1,-1,-1,-1,-1,-1,-1,-1,-1,-1,-1,-1,-1,-1,-1,-1,-1,-1,-1,-1,-1,-1,-1,-1],"split_conditions":[2.7116667E1,7.231619E1,8.3292694E1,2.4910414E1,1.7313717E1,8.235606E1,3.0870832E1,2.4577087E1,7.17377E1,1.5596767E1,2.4910414E1,5.8136005E1,2.7291666E1,2.7779167E1,2.298682E2,1.7826363E1,1.2758432E1,7.136531E1,2.6889585E1,2.5916664E1,2E-1,9.007243E1,2.5589582E1,3.1597918E1,2.7291666E1,2.7258331E1,1.4417988E1,1E-1,8.8040115E1,2.2615536E2,1.4417988E1,7.12673E1,2.4468748E1,-4.6125946E0,3.340055E1,7.0807076E1,2.008916E1,3.1435646E1,7.209316E1,2.51875E1,8.186999E1,2.501667E1,2.6016668E1,1.7826363E1,1.8129137E1,2.314103E1,1.8472595E1,2.1650938E1,3.9760804E0,2.3263912E1,1.5596767E1,-1.7666279E0,-3.0121195E-1,-1.8820187E0,3.1629164E1,8.8040115E1,8.726736E1,1.859845E1,2.9168886E1,2.2533543E2,3.2149998E1,6.8669553E0,1E-1,7.5608087E0,-3.1466093E0,5.3377515E-1,-8.556417E0,6.3240457E0,-1.850055E0,3.5738504E-1,-2.6684494E0,-4.9968357E0,3.837356E0,-4.477765E0,-6.717319E-1,4.815692E0,-1.0052661E0,1.8027741E0,8.998752E0,-4.9440594E0,4.4336195E0,-2.2939947E0,-8.476909E0,6.3659253E0,-3.8501132E-1,5.321788E0,-8.445553E-1,-2.1310327E0,1.0471281E1,5.3039145E-1,3.7692344E0,6.7255907E0,5.676644E-1,-1.0055096E0,-2.6058304E0,8.755065E-1,-3.039776E0,2.0219758E0,-8.1890784E-2,7.9239745E0,1.0955876E0,8.99158E0,6.656448E-1,2.6448956E0,-3.0374932E0,-5.8014874E0,-2.2250547E0,-3.44353E-1,-1.2707545E0,-2.4992858E-1,-5.291667E0,2.0684302E0,-2.9830303E0,-1.1222966E0,2.662037E0],"split_indices":[0,3,3,0,2,3,0,0,3,2,0,3,0,0,3,2,2,3,0,0,1,3,0,0,0,0,2,1,3,3,2,3,0,0,2,3,2,2,3,0,3,0,0,2,2,2,2,2,0,2,2,0,0,0,0,3,3,2,2,3,0,0,1,0,0,0,0,0,0,0,0,0,0,0,0,0,0,0,0,0,0,0,0,0,0,0,0,0,0,0,0,0,0,0,0,0,0,0,0,0,0,0,0,0,0,0,0,0,0,0,0,0,0,0,0],"split_type":[0,0,0,0,0,0,0,0,0,0,0,0,0,0,0,0,0,0,0,0,0,0,0,0,0,0,0,0,0,0,0,0,0,0,0,0,0,0,0,0,0,0,0,0,0,0,0,0,0,0,0,0,0,0,0,0,0,0,0,0,0,0,0,0,0,0,0,0,0,0,0,0,0,0,0,0,0,0,0,0,0,0,0,0,0,0,0,0,0,0,0,0,0,0,0,0,0,0,0,0,0,0,0,0,0,0,0,0,0,0,0,0,0,0,0],"sum_hessian":[3.202E3,1.201E3,2.001E3,4.86E2,7.15E2,8.99E2,1.102E3,5.5E1,4.31E2,6.9E1,6.46E2,8.9E2,9E0,4.28E2,6.74E2,2.6E1,2.9E1,3.79E2,5.2E1,4.2E1,2.7E1,1.2E2,5.26E2,7.8E1,8.12E2,2E0,7E0,1.2E1,4.16E2,4.64E2,2.1E2,8E0,1.8E1,3E0,2.6E1,3.42E2,3.7E1,4.4E1,8E0,3E1,1.2E1,2.3E1,4E0,1.14E2,6E0,2.14E2,3.12E2,7.7E1,1E0,5.2E1,7.6E2,1E0,1E0,1E0,6E0,5E0,7E0,1.6E1,4E2,4.12E2,5.2E1,1E0,2.09E2,7E0,1E0,1.3E1,5E0,2.4E1,2E0,3.02E2,4E1,3E0,3.4E1,2.7E1,1.7E1,4E0,4E0,2.5E1,5E0,8E0,4E0,1.1E1,1.2E1,3E0,1E0,7E0,1.07E2,2E0,4E0,5.5E1,1.59E2,9E0,3.03E2,4.8E1,2.9E1,1.7E1,3.5E1,3E1,7.3E2,5E0,1E0,3E0,2E0,1E0,6E0,6E0,1E1,1.17E2,2.83E2,4.03E2,9E0,4.3E1,9E0,2.07E2,2E0],"tree_param":{"num_deleted":"0","num_feature":"4","num_nodes":"115","size_leaf_vector":"1"}},{"base_weights":[5.0372556E-2,1.7111123E0,-1.2615472E0,-2.3628716E0,2.221835E0,-1.0695844E0,-6.5067883E0,3.6428833E-1,-1.6885935E1,1.966386E1,2.0802948E0,-1.186663E0,1.5771549E1,-1.0953062E1,-4.398114E0,2.5670285E0,-6.737166E0,-2.8017801E1,-9.999302E0,1.0471827E1,1.12864E1,1.807918E0,8.708292E0,4.7630033E0,-1.3060822E0,2.3451664E1,3.29055E-1,1.0963336E1,-6.9722476E0,-4.775413E0,5.5090046E0,-2.4120588E1,1.1137639E0,-9.098418E0,-1.4303604E0,2.66137E0,-1.4099615E1,-3.365751E-1,1.2919597E1,2.4204686E0,-3.6744168E0,1.4575135E1,-4.3030176E0,3.0899694E1,-8.088292E-1,-1.2483236E1,-1.1437957E0,-9.08202E-1,2.7666857E1,-1.6173733E0,1.7819008E0,1.9913782E0,2.1680439E1,-1.065217E1,4.8869176E0,-2.2724992E-2,-3.865838E0,3.1964686E0,-8.530225E-1,-1.6371106E0,-7.676394E0,3.5445068E0,-2.9040926E0,-2.418263E0,3.748948E0,-5.451438E0,1.6591057E0,1.4367582E0,-2.6301994E0,5.556094E-1,1.7962719E0,-1.5785557E0,5.8217516E0,-3.5064378E0,5.5399528E0,5.632408E0,-2.1279535E0,1.1881642E1,-1.8943795E0,-1.6656988E0,2.627716E0,-6.3161664E0,-1.7811762E0,4.8542857E0,-3.586149E-1,1.04043045E1,4.1207943E0,-1.1197767E0,2.6878624E0,7.1008533E-1,8.198786E0,-2.8567606E-1,-5.123731E0,7.4092817E0,-1.057815E0],"categories":[],"categories_nodes":[],"categories_segments":[],"categories_sizes":[],"default_left":[0,0,0,0,0,0,0,0,0,0,0,0,0,0,0,0,0,0,0,0,0,0,0,0,0,0,0,0,0,0,0,0,0,0,0,0,0,0,0,0,0,0,0,0,0,0,0,0,0,0,0,0,0,0,0,0,0,0,0,0,0,0,0,0,0,0,0,0,0,0,0,0,0,0,0,0,0,0,0,0,0,0,0,0,0,0,0,0,0,0,0,0,0,0,0],"id":7,"left_children":[1,3,5,7,9,11,13,15,17,19,21,23,25,-1,27,29,31,33,35,37,-1,39,41,43,45,47,49,51,53,55,57,59,61,-1,-1,63,65,67,-1,69,71,73,75,77,79,81,83,-1,85,-1,-1,87,89,91,93,-1,-1,-1,-1,-1,-1,-1,-1,-1,-1,-1,-1,-1,-1,-1,-1,-1,-1,-1,-1,-1,-1,-1,-1,-1,-1,-1,-1,-1,-1,-1,-1,-1,-1,-1,-1,-1,-1,-1,-1],"loss_changes":[6.980718E3,2.9473252E3,1.795376E3,6.264012E3,3.062308E3,3.425877E3,3.825272E3,2.1134106E3,1.6363682E3,1.2566919E3,2.2372866E3,1.226157E3,1.4154846E3,0E0,2.4489844E3,2.2512402E3,4.394097E3,3.388208E2,9.2004065E2,2.8327632E3,0E0,4.0387427E3,3.8031477E3,4.9763877E3,3.0403303E3,9.7666943E2,1.9249417E2,8.222068E2,2.3213782E3,1.1425526E3,3.210861E3,1.3423291E2,2.7711067E3,0E0,0E0,6.2800574E2,1.1395867E3,3.4448724E2,0E0,2.1787988E3,4.5353584E3,3.690643E3,1.1634204E3,2.1939692E3,1.3648054E3,1.2214773E3,1.5038357E3,0E0,2.0761621E2,0E0,0E0,2.727555E2,3.717085E2,2.4773652E3,2.2537517E3,0E0,0E0,0E0,0E0,0E0,0E0,0E0,0E0,0E0,0E0,0E0,0E0,0E0,0E0,0E0,0E0,0E0,0E0,0E0,0E0,0E0,0E0,0E0,0E0,0E0,0E0,0E0,0E0,0E0,0E0,0E0,0E0,0E0,0E0,0E0,0E0,0E0,0E0,0E0,0E0],"parents":[2147483647,0,0,1,1,2,2,3,3,4,4,5,5,6,6,7,7,8,8,9,9,10,10,11,11,12,12,14,14,15,15,16,16,17,17,18,18,19,19,21,21,22,22,23,23,24,24,25,25,26,26,27,27,28,28,29,29,30,30,31,31,32,32,35,35,36,36,37,37,39,39,40,40,41,41,42,42,43,43,44,44,45,45,46,46,48,48,51,51,52,52,53,53,54,54],"right_children":[2,4,6,8,10,12,14,16,18,20,22,24,26,-1,28,30,32,34,36,38,-1,40,42,44,46,48,50,52,54,56,58,60,62,-1,-1,64,66,68,-1,70,72,74,76,78,80,82,84,-1,86,-1,-1,88,90,92,94,-1,-1,-1,-1,-1,-1,-1,-1,-1,-1,-1,-1,-1,-1,-1,-1,-1,-1,-1,-1,-1,-1,-1,-1,-1,-1,-1,-1,-1,-1,-1,-1,-1,-1,-1,-1,-1,-1,-1,-1],"split_conditions":[2.7779167E1,6.643117E1,1.5E0,6.550998E1,6.656408E1,1.0000001E0,2.786458E1,1E-1,2.5618757E1,1E-1,2.3E0,2.7889585E1,7.827061E1,-1.0953062E1,1.6363178E1,5.686865E1,3E-1,2.66327E1,2.6566668E1,2.6979166E1,1.12864E1,4E-1,7.880417E1,1.8998314E1,2.7954165E1,2.8050001E1,1.3000002E0,4.1000004E0,3.1712708E1,5.3184937E1,6.361924E1,2.4910414E1,2.5856253E1,-9.098418E0,-1.4303604E0,2.5935415E1,3.1222609E1,2.6820831E1,1.2919597E1,7.976663E1,9.437288E1,1.7566378E1,2.4E0,1E-1,2.786458E1,6.901503E1,1.1159999E1,-9.08202E-1,2.8827082E1,-1.6173733E0,1.7819008E0,1.5379206E1,2.7954165E1,7.393143E1,7.938345E1,-2.2724992E-2,-3.865838E0,3.1964686E0,-8.530225E-1,-1.6371106E0,-7.676394E0,3.5445068E0,-2.9040926E0,-2.418263E0,3.748948E0,-5.451438E0,1.6591057E0,1.4367582E0,-2.6301994E0,5.556094E-1,1.7962719E0,-1.5785557E0,5.8217516E0,-3.5064378E0,5.5399528E0,5.632408E0,-2.1279535E0,1.1881642E1,-1.8943795E0,-1.6656988E0,2.627716E0,-6.3161664E0,-1.7811762E0,4.8542857E0,-3.586149E-1,1.04043045E1,4.1207943E0,-1.1197767E0,2.6878624E0,7.1008533E-1,8.198786E0,-2.8567606E-1,-5.123731E0,7.4092817E0,-1.057815E0],"split_indices":[0,3,1,3,3,1,0,1,0,1,1,0,3,0,2,3,1,2,0,0,0,1,3,2,0,0,1,1,2,3,3,0,0,0,0,0,2,0,0,3,3,2,1,1,0,3,2,0,0,0,0,2,0,3,3,0,0,0,0,0,0,0,0,0,0,0,0,0,0,0,0,0,0,0,0,0,0,0,0,0,0,0,0,0,0,0,0,0,0,0,0,0,0,0,0],"split_type":[0,0,0,0,0,0,0,0,0,0,0,0,0,0,0,0,0,0,0,0,0,0,0,0,0,0,0,0,0,0,0,0,0,0,0,0,0,0,0,0,0,0,0,0,0,0,0,0,0,0,0,0,0,0,0,0,0,0,0,0,0,0,0,0,0,0,0,0,0,0,0,0,0,0,0,0,0,0,0,0,0,0,0,0,0,0,0,0,0,0,0,0,0,0,0],"sum_hessian":[3.202E3,1.413E3,1.789E3,1.57E2,1.256E3,1.727E3,6.2E1,1.33E2,2.4E1,9E0,1.247E3,1.716E3,1.1E1,3E0,5.9E1,1.02E2,3.1E1,8E0,1.6E1,7E0,2E0,1.199E3,4.8E1,3.3E1,1.683E3,7E0,4E0,8E0,5.1E1,2.9E1,7.3E1,9E0,2.2E1,7E0,1E0,4E0,1.2E1,6E0,1E0,1.079E3,1.2E2,3.3E1,1.5E1,5E0,2.8E1,2.3E1,1.66E3,1E0,6E0,2E0,2E0,5E0,3E0,3.9E1,1.2E1,1.9E1,1E1,4.5E1,2.8E1,1E0,8E0,1.1E1,1.1E1,2E0,2E0,1E1,2E0,4E0,2E0,9.32E2,1.47E2,1.13E2,7E0,4E0,2.9E1,1E0,1.4E1,4E0,1E0,1.9E1,9E0,9E0,1.4E1,4E0,1.656E3,3E0,3E0,3E0,2E0,1E0,2E0,1.6E1,2.3E1,3E0,9E0],"tree_param":{"num_deleted":"0","num_feature":"4","num_nodes":"95","size_leaf_vector":"1"}},{"base_weights":[4.572924E-2,1.2062193E0,-8.7101865E-1,-1.3917314E0,1.6757929E0,-7.364815E-1,-4.547356E0,-2.4819593E0,1.2459379E1,1.4411576E0,7.3911986E0,-8.2638466E-1,1.2188537E1,-8.488623E0,-2.8883634E0,4.3584174E-1,-5.838963E0,1.600747E1,-8.2515E0,2.7733736E0,6.1398286E-1,1.684969E1,1.9658589E0,-7.368671E-1,-6.620128E0,1.8118279E1,2.6324385E-1,8.838442E0,-4.8624573E0,4.8798013E0,-5.3133526E0,-7.179432E0,2.3336732E0,1.0981657E1,1.1607195E1,-3.121114E0,-5.920613E-1,1.5169909E1,1.8639818E0,-1.0964574E0,2.3664117E0,1.9419643E1,-1.6166483E0,-1.9074018E0,1.8422346E1,-6.0185704E0,-6.5404695E-1,-2.8453896E0,-1.1508827E1,-7.719715E-1,2.1441814E1,-1.2938983E0,1.4255203E0,1.6553122E0,1.7403526E1,-8.03305E0,2.7734416E0,2.3138478E0,-1.3533587E0,-4.442635E0,-1.6454895E-1,-4.261709E0,-1.3928574E0,1.925095E0,-4.4332376E0,5.945795E0,5.210704E-1,6.3039937E0,-5.4749303E0,-8.2955675E0,6.4442647E-1,-9.4310544E-2,-5.3821807E0,6.1265926E0,4.6743843E-1,6.267563E-1,6.5775485E0,3.6862543E0,-4.413746E0,1.1461625E0,-6.491191E0,1.0799774E1,1.9022542E-1,2.9113476E0,-3.0672824E0,5.359588E0,-2.2960481E-1,-3.7252762E0,-1.772887E-1,-7.019603E-1,-4.396411E0,8.063337E0,3.193616E0,-8.67827E-1,2.15029E0,6.0357285E-1,6.5590286E0,-3.0560365E0,2.3364697E0,4.105027E0,-1.0288767E0],"categories":[],"categories_nodes":[],"categories_segments":[],"categories_sizes":[],"default_left":[0,0,0,0,0,0,0,0,0,0,0,0,0,0,0,0,0,0,0,0,0,0,0,0,0,0,0,0,0,0,0,0,0,0,0,0,0,0,0,0,0,0,0,0,0,0,0,0,0,0,0,0,0,0,0,0,0,0,0,0,0,0,0,0,0,0,0,0,0,0,0,0,0,0,0,0,0,0,0,0,0,0,0,0,0,0,0,0,0,0,0,0,0,0,0,0,0,0,0,0,0],"id":8,"left_children":[1,3,5,7,9,11,13,15,17,19,21,23,25,-1,27,29,31,33,35,37,39,41,43,45,47,49,51,53,55,57,59,61,63,-1,65,-1,-1,67,69,71,73,75,77,79,81,83,85,87,89,-1,91,-1,-1,93,95,97,99,-1,-1,-1,-1,-1,-1,-1,-1,-1,-1,-1,-1,-1,-1,-1,-1,-1,-1,-1,-1,-1,-1,-1,-1,-1,-1,-1,-1,-1,-1,-1,-1,-1,-1,-1,-1,-1,-1,-1,-1,-1,-1,-1,-1],"loss_changes":[3.4086482E3,1.7273115E3,8.819923E2,3.3078123E3,1.5959089E3,2.0180083E3,2.4003364E3,1.9811489E3,1.3078306E3,1.2677732E3,2.3787053E3,8.8562976E2,8.437971E2,0E0,1.4319653E3,2.8107893E3,1.0465398E3,8.4403174E2,2.0002426E1,4.943252E3,2.1367607E3,8.381753E2,2.011087E3,7.361974E2,4.4704553E2,6.0532715E2,1.2319622E2,5.249087E2,1.2812158E3,1.684299E3,2.1636067E3,1.3776782E3,1.0730076E3,0E0,1.0193043E3,0E0,0E0,6.2420273E3,3.5142861E3,4.7500356E3,5.105274E3,6.05521E2,7.2703986E2,3.0209717E3,1.8531482E3,1.8185118E3,3.4497715E3,3.379389E2,2.8299854E2,0E0,1.2469922E2,0E0,0E0,1.711567E2,2.3059314E2,1.3401084E3,1.1297277E3,0E0,0E0,0E0,0E0,0E0,0E0,0E0,0E0,0E0,0E0,0E0,0E0,0E0,0E0,0E0,0E0,0E0,0E0,0E0,0E0,0E0,0E0,0E0,0E0,0E0,0E0,0E0,0E0,0E0,0E0,0E0,0E0,0E0,0E0,0E0,0E0,0E0,0E0,0E0,0E0,0E0,0E0,0E0,0E0],"parents":[2147483647,0,0,1,1,2,2,3,3,4,4,5,5,6,6,7,7,8,8,9,9,10,10,11,11,12,12,14,14,15,15,16,16,17,17,18,18,19,19,20,20,21,21,22,22,23,23,24,24,25,25,26,26,27,27,28,28,29,29,30,30,31,31,32,32,34,34,37,37,38,38,39,39,40,40,41,41,42,42,43,43,44,44,45,45,46,46,47,47,48,48,50,50,53,53,54,54,55,55,56,56],"right_children":[2,4,6,8,10,12,14,16,18,20,22,24,26,-1,28,30,32,34,36,38,40,42,44,46,48,50,52,54,56,58,60,62,64,-1,66,-1,-1,68,70,72,74,76,78,80,82,84,86,88,90,-1,92,-1,-1,94,96,98,100,-1,-1,-1,-1,-1,-1,-1,-1,-1,-1,-1,-1,-1,-1,-1,-1,-1,-1,-1,-1,-1,-1,-1,-1,-1,-1,-1,-1,-1,-1,-1,-1,-1,-1,-1,-1,-1,-1,-1,-1,-1,-1,-1,-1],"split_conditions":[2.7779167E1,6.7687065E1,1.5E0,3.1820824E1,2.7579165E1,1.0000001E0,2.786458E1,6.4576584E1,2.7579165E1,2.5454165E1,7.362186E1,5.3842567E1,7.827061E1,-8.488623E0,1.6363178E1,2.6566668E1,2E-1,3.2058197E1,2.7643747E1,6.997167E1,2.6459387E1,3.0222849E1,3.0000002E0,1.2758432E1,2.1006592E2,2.8050001E1,1.3000002E0,4.1000004E0,3.0302078E1,1E-1,2.6933336E1,2.5589582E1,2.6932714E1,1.0981657E1,2.6539583E1,-3.121114E0,-5.920613E-1,2.9478264E1,7.012644E1,2.6079508E1,2.6727423E1,1.835647E1,2.7737501E1,2.6459387E1,2.7691666E1,1.1159999E1,1.3493999E1,3.0393747E1,3.0824997E1,-7.719715E-1,2.8827082E1,-1.2938983E0,1.4255203E0,1.5379206E1,2.7954165E1,2.973542E1,7.938345E1,2.3138478E0,-1.3533587E0,-4.442635E0,-1.6454895E-1,-4.261709E0,-1.3928574E0,1.925095E0,-4.4332376E0,5.945795E0,5.210704E-1,6.3039937E0,-5.4749303E0,-8.2955675E0,6.4442647E-1,-9.4310544E-2,-5.3821807E0,6.1265926E0,4.6743843E-1,6.267563E-1,6.5775485E0,3.6862543E0,-4.413746E0,1.1461625E0,-6.491191E0,1.0799774E1,1.9022542E-1,2.9113476E0,-3.0672824E0,5.359588E0,-2.2960481E-1,-3.7252762E0,-1.772887E-1,-7.019603E-1,-4.396411E0,8.063337E0,3.193616E0,-8.67827E-1,2.15029E0,6.0357285E-1,6.5590286E0,-3.0560365E0,2.3364697E0,4.105027E0,-1.0288767E0],"split_indices":[0,3,1,2,0,1,0,3,0,0,3,2,3,0,2,0,1,2,0,3,2,2,1,2,3,0,1,1,2,1,0,0,2,0,0,0,0,2,3,2,2,2,0,2,0,2,2,0,0,0,0,0,0,2,0,0,3,0,0,0,0,0,0,0,0,0,0,0,0,0,0,0,0,0,0,0,0,0,0,0,0,0,0,0,0,0,0,0,0,0,0,0,0,0,0,0,0,0,0,0,0],"split_type":[0,0,0,0,0,0,0,0,0,0,0,0,0,0,0,0,0,0,0,0,0,0,0,0,0,0,0,0,0,0,0,0,0,0,0,0,0,0,0,0,0,0,0,0,0,0,0,0,0,0,0,0,0,0,0,0,0,0,0,0,0,0,0,0,0,0,0,0,0,0,0,0,0,0,0,0,0,0,0,0,0,0,0,0,0,0,0,0,0,0,0,0,0,0,0,0,0,0,0,0,0],"sum_hessian":[3.202E3,1.413E3,1.789E3,2.16E2,1.197E3,1.727E3,6.2E1,2.01E2,1.5E1,1.151E3,4.6E1,1.716E3,1.1E1,3E0,5.9E1,1.08E2,9.3E1,1.3E1,2E0,4.4E2,7.11E2,1.6E1,3E1,1.691E3,2.5E1,7E0,4E0,8E0,5.1E1,6.1E1,4.7E1,8E1,1.3E1,1E0,1.2E1,1E0,1E0,2.9E1,4.11E2,3.6E2,3.51E2,1.4E1,2E0,2.5E1,5E0,2.5E1,1.666E3,1.5E1,1E1,1E0,6E0,2E0,2E0,5E0,3E0,3.6E1,1.5E1,4.7E1,1.4E1,1.5E1,3.2E1,2E1,6E1,1.1E1,2E0,6E0,6E0,2.5E1,4E0,3E0,4.08E2,3.45E2,1.5E1,1.4E1,3.37E2,2E0,1.2E1,1E0,1E0,2E1,5E0,2E0,3E0,5E0,2E1,9E0,1.657E3,2E0,1.3E1,3E0,7E0,3E0,3E0,3E0,2E0,1E0,2E0,3.2E1,4E0,5E0,1E1],"tree_param":{"num_deleted":"0","num_feature":"4","num_nodes":"101","size_leaf_vector":"1"}},{"base_weights":[3.739569E-2,6.397853E-1,-1.0169475E0,1.288976E0,-4.943198E-1,-1.1094188E1,-9.1127694E-1,9.68781E-1,1.2477782E1,-6.867241E0,1.7874372E-1,-2.5945505E1,3.2203968E0,-3.8185284E0,-6.528482E-1,3.1433854E0,3.1674534E-1,8.684875E0,2.6950563E1,3.6291385E-1,-1.2479684E1,-1.9031259E0,1.858272E0,-3.3310442E0,-9.177195E0,3.4498277E0,-2.3910995E0,1.4897781E1,-5.4956775E0,1.9421968E0,-9.611592E-1,1.8785608E0,1.0597261E1,-1.3145809E1,5.558109E-1,1.4271799E1,-1.6041458E1,3.3239517E1,-1.6174737E0,-5.0487676E0,3.0595745E1,-1.4228646E1,4.150119E0,-1.2101381E0,-1.7162384E1,6.881588E0,5.709219E-1,-1.5788916E0,-3.573885E-1,3.654729E1,1.5900637E0,-2.7429538E0,-1.151125E1,9.018209E-1,2.0345264E1,-5.198047E0,-4.2224094E-1,4.5538843E-1,9.318577E0,1.0997852E1,2.2957458E0,-1.4952266E0,-9.521137E0,-1.2027799E-2,1.2540253E0,5.838781E0,8.6435777E-1,-5.8076234E0,8.174515E-2,2.0611017E0,1.3411957E1,6.8795E-1,-3.2095623E0,1.2405167E0,1.4057357E1,-5.950026E0,-2.6241E0,-1.9919446E-1,-4.1285768E0,-6.439223E0,1.2993844E0,-4.8313203E0,3.3057854E0,-2.9027588E0,5.134691E-1,7.70723E-1,-1.3705176E0,1.3862024E1,2.5842574E0,1.2070148E0,-1.5864797E0,-1.3536022E0,3.464581E0,-2.309625E0,-6.391286E0,-5.614312E-1,1.0531224E0,3.2662816E0,7.8521166E0,-9.8536044E-1,-3.3099136E0,9.384423E-3,-7.762676E-1],"categories":[],"categories_nodes":[],"categories_segments":[],"categories_sizes":[],"default_left":[0,0,0,0,0,0,0,0,0,0,0,0,0,0,0,0,0,0,0,0,0,0,0,0,0,0,0,0,0,0,0,0,0,0,0,0,0,0,0,0,0,0,0,0,0,0,0,0,0,0,0,0,0,0,0,0,0,0,0,0,0,0,0,0,0,0,0,0,0,0,0,0,0,0,0,0,0,0,0,0,0,0,0,0,0,0,0,0,0,0,0,0,0,0,0,0,0,0,0,0,0,0,0],"id":9,"left_children":[1,3,5,7,9,11,13,15,17,19,21,23,25,27,29,31,33,35,37,39,41,43,45,-1,-1,-1,47,49,51,53,55,57,59,61,63,65,67,69,-1,71,73,75,-1,77,79,81,83,-1,85,87,89,91,93,95,97,99,101,-1,-1,-1,-1,-1,-1,-1,-1,-1,-1,-1,-1,-1,-1,-1,-1,-1,-1,-1,-1,-1,-1,-1,-1,-1,-1,-1,-1,-1,-1,-1,-1,-1,-1,-1,-1,-1,-1,-1,-1,-1,-1,-1,-1,-1,-1],"loss_changes":[2.0349572E3,1.5018517E3,1.2304609E3,4.634542E3,3.1882375E3,2.6346401E3,8.645274E2,1.7884191E3,1.7421191E3,2.885626E3,2.3567205E3,7.3997314E1,3.5270044E2,3.032537E3,8.507528E2,2.723596E3,3.1356238E3,4.3732656E3,1.6030015E3,5.3900054E3,2.0376816E3,3.1621494E3,2.4081748E3,0E0,0E0,0E0,2.7321867E1,2.246732E3,1.4090762E3,2.1451624E3,2.1646914E3,2.5837246E3,2.942856E3,2.4213499E3,2.0648574E3,1.4220845E3,3.299829E2,1.5071035E3,0E0,1.1859807E3,1.9577725E3,9.9400586E2,0E0,1.9720269E3,1.294935E3,7.405746E3,3.4995576E3,0E0,6.1029964E1,4.1142188E2,1.2169972E2,1.5943419E3,8.4405444E2,7.878723E2,4.5772217E1,1.1584529E3,8.279237E2,0E0,0E0,0E0,0E0,0E0,0E0,0E0,0E0,0E0,0E0,0E0,0E0,0E0,0E0,0E0,0E0,0E0,0E0,0E0,0E0,0E0,0E0,0E0,0E0,0E0,0E0,0E0,0E0,0E0,0E0,0E0,0E0,0E0,0E0,0E0,0E0,0E0,0E0,0E0,0E0,0E0,0E0,0E0,0E0,0E0,0E0],"parents":[2147483647,0,0,1,1,2,2,3,3,4,4,5,5,6,6,7,7,8,8,9,9,10,10,11,11,12,12,13,13,14,14,15,15,16,16,17,17,18,18,19,19,20,20,21,21,22,22,26,26,27,27,28,28,29,29,30,30,31,31,32,32,33,33,34,34,35,35,36,36,37,37,39,39,40,40,41,41,43,43,44,44,45,45,46,46,48,48,49,49,50,50,51,51,52,52,53,53,54,54,55,55,56,56],"right_children":[2,4,6,8,10,12,14,16,18,20,22,24,26,28,30,32,34,36,38,40,42,44,46,-1,-1,-1,48,50,52,54,56,58,60,62,64,66,68,70,-1,72,74,76,-1,78,80,82,84,-1,86,88,90,92,94,96,98,100,102,-1,-1,-1,-1,-1,-1,-1,-1,-1,-1,-1,-1,-1,-1,-1,-1,-1,-1,-1,-1,-1,-1,-1,-1,-1,-1,-1,-1,-1,-1,-1,-1,-1,-1,-1,-1,-1,-1,-1,-1,-1,-1,-1,-1,-1,-1],"split_conditions":[2.9770834E1,2.7105392E1,2.9793749E1,2.6826641E1,2.7729347E1,2.5277023E1,1.9134262E1,2.5364584E1,5E-1,7.070065E1,7.29056E1,6.615629E1,2.6554728E1,2.9929167E1,2.3838959E1,2.5229166E1,2.5410416E1,1E-1,1.3000001E0,7.012644E1,2.9191666E1,2.9191666E1,7.401247E1,-3.3310442E0,-9.177195E0,3.4498277E0,2.66327E1,9.007243E1,1.8228943E1,1E-1,1.9016765E2,2.6674032E1,1.6075521E1,2E-1,2.9162498E1,2.71625E1,3E-1,2.6932714E1,-1.6174737E0,2.7497026E1,1E-1,7.3765015E1,4.150119E0,7.2776054E1,7.252645E1,2.81169E1,7.458386E1,-1.5788916E0,4.4009907E1,2.9831251E1,1.710284E1,2.658304E2,2.2477946E2,2.1868332E1,3.0216667E1,3.2379993E1,2.4192326E2,4.5538843E-1,9.318577E0,1.0997852E1,2.2957458E0,-1.4952266E0,-9.521137E0,-1.2027799E-2,1.2540253E0,5.838781E0,8.6435777E-1,-5.8076234E0,8.174515E-2,2.0611017E0,1.3411957E1,6.8795E-1,-3.2095623E0,1.2405167E0,1.4057357E1,-5.950026E0,-2.6241E0,-1.9919446E-1,-4.1285768E0,-6.439223E0,1.2993844E0,-4.8313203E0,3.3057854E0,-2.9027588E0,5.134691E-1,7.70723E-1,-1.3705176E0,1.3862024E1,2.5842574E0,1.2070148E0,-1.5864797E0,-1.3536022E0,3.464581E0,-2.309625E0,-6.391286E0,-5.614312E-1,1.0531224E0,3.2662816E0,7.8521166E0,-9.8536044E-1,-3.3099136E0,9.384423E-3,-7.762676E-1],"split_indices":[0,2,0,2,2,2,2,0,1,3,3,3,2,0,2,0,0,1,1,3,0,0,3,0,0,0,2,3,2,1,3,2,2,1,0,0,1,2,0,2,1,3,0,3,3,2,3,0,2,0,2,3,3,2,0,2,3,0,0,0,0,0,0,0,0,0,0,0,0,0,0,0,0,0,0,0,0,0,0,0,0,0,0,0,0,0,0,0,0,0,0,0,0,0,0,0,0,0,0,0,0,0,0],"split_type":[0,0,0,0,0,0,0,0,0,0,0,0,0,0,0,0,0,0,0,0,0,0,0,0,0,0,0,0,0,0,0,0,0,0,0,0,0,0,0,0,0,0,0,0,0,0,0,0,0,0,0,0,0,0,0,0,0,0,0,0,0,0,0,0,0,0,0,0,0,0,0,0,0,0,0,0,0,0,0,0,0,0,0,0,0,0,0,0,0,0,0,0,0,0,0,0,0,0,0,0,0,0,0],"sum_hessian":[3.202E3,2.038E3,1.164E3,1.296E3,7.42E2,1.1E1,1.153E3,1.261E3,3.5E1,7E1,6.72E2,5E0,6E0,9.3E1,1.06E3,2.9E2,9.71E2,2.9E1,6E0,3.1E1,3.9E1,3E2,3.72E2,2E0,3E0,2E0,4E0,7E0,8.6E1,1.12E2,9.48E2,2.49E2,4.1E1,1.6E1,9.55E2,2.4E1,5E0,5E0,1E0,2.7E1,4E0,3.7E1,2E0,2.88E2,1.2E1,7.5E1,2.97E2,1E0,3E0,2E0,5E0,6E1,2.6E1,1.07E2,5E0,1.06E2,8.42E2,2.47E2,2E0,3E0,3.8E1,1.2E1,4E0,8.21E2,1.34E2,1.6E1,8E0,4E0,1E0,2E0,3E0,1.2E1,1.5E1,2E0,2E0,1.7E1,2E1,2.77E2,1.1E1,1E1,2E0,1.1E1,6.4E1,2.9E1,2.68E2,2E0,1E0,1E0,1E0,4E0,1E0,5.4E1,6E0,2E1,6E0,5.2E1,5.5E1,3E0,2E0,8.1E1,2.5E1,6.97E2,1.45E2],"tree_param":{"num_deleted":"0","num_feature":"4","num_nodes":"103","size_leaf_vector":"1"}},{"base_weights":[3.4883298E-2,6.263592E-1,-6.788224E-1,4.2082232E-1,6.0408196E0,-5.3438754E0,-4.2085376E-1,-1.4084685E1,4.8090416E-1,1.384966E1,3.778769E0,-1.5808503E1,-5.0434834E-1,3.3979182E0,-6.9372016E-1,2.608963E0,-6.3851814E0,3.2266912E-1,4.989106E0,2.0177631E1,-1.5762146E0,-7.0823283E0,5.3843007E0,-2.354721E1,2.6123128E0,1.16260195E1,-4.338261E0,2.1188517E1,4.6447197E-1,-5.331542E-1,-5.436837E0,-2.4479485E0,3.6219819E0,5.682937E-1,-5.148842E0,3.5714714E1,1.9963297E0,8.739346E0,2.9868046E1,4.931019E0,-4.1407723E0,1.0865471E1,-4.9303627E0,1.1896254E1,2.8681624E0,-8.8691944E-1,-7.3948092E0,-2.9867141E0,5.82999E0,-4.542507E0,1.7869392E1,-1.6035004E1,4.850442E-1,2.6999135E0,5.02303E1,-7.0107347E-1,1.2719599E1,-6.966735E0,-4.1172692E-1,-7.9463696E0,-1.2789149E0,1.0783053E-1,1.3579934E0,-5.64079E0,-1.24367096E-1,3.0375779E0,1.1874229E1,1.5763358E0,-1.7599446E0,4.9146814E0,2.4669458E-1,1.2423118E1,4.9889593E0,-3.6483766E-3,1.9748399E0,4.3998337E0,4.896286E-1,-3.4951904E0,1.6612332E0,3.0698395E0,-1.0354058E0,8.101065E0,2.637668E0,-7.2215548E0,4.8298435E0,3.9777548E0,-4.2761558E-1,-2.6541567E0,5.8036766E0,4.1210117E0,1.6775858E1,1.5995812E0,-1.1663866E0,7.541052E0,8.176007E-1,-5.264248E0,-1.1446962E0,-1.5682389E-1,1.3576138E0,-2.7068906E0,9.945622E-1,-2.893338E0,1.2482636E0],"categories":[],"categories_nodes":[],"categories_segments":[],"categories_sizes":[],"default_left":[0,0,0,0,0,0,0,0,0,0,0,0,0,0,0,0,0,0,0,0,0,0,0,0,0,0,0,0,0,0,0,0,0,0,0,0,0,0,0,0,0,0,0,0,0,0,0,0,0,0,0,0,0,0,0,0,0,0,0,0,0,0,0,0,0,0,0,0,0,0,0,0,0,0,0,0,0,0,0,0,0,0,0,0,0,0,0,0,0,0,0,0,0,0,0,0,0,0,0,0,0,0,0],"id":10,"left_children":[1,3,5,7,9,11,13,15,17,19,21,23,25,27,29,31,-1,33,35,37,39,41,43,45,47,49,51,53,55,57,59,-1,-1,61,63,65,67,69,71,73,-1,75,-1,-1,77,-1,-1,-1,79,-1,81,83,85,87,89,91,93,95,97,99,101,-1,-1,-1,-1,-1,-1,-1,-1,-1,-1,-1,-1,-1,-1,-1,-1,-1,-1,-1,-1,-1,-1,-1,-1,-1,-1,-1,-1,-1,-1,-1,-1,-1,-1,-1,-1,-1,-1,-1,-1,-1,-1],"loss_changes":[1.3525388E3,1.9472085E3,1.7451425E3,1.4787664E3,1.0781609E3,3.8409595E3,1.4372112E3,8.968015E2,1.1989675E3,1.398407E3,9.274629E2,3.482792E3,2.5152957E3,4.7914336E3,9.764974E2,4.0427335E2,0E0,2.1895125E3,5.17013E3,8.4739014E2,4.6585962E2,1.3535308E3,3.7665142E3,3.129287E2,3.8156052E2,2.443143E3,2.3208733E3,6.844629E3,1.1516299E3,9.697404E2,4.2808374E2,0E0,0E0,1.2864272E3,4.517071E3,9.3885254E1,1.3885793E3,3.495843E2,7.534912E1,3.2740242E1,0E0,8.1341736E1,0E0,0E0,1.7309691E3,0E0,0E0,0E0,3.2136465E2,0E0,6.746138E2,3.4866616E3,7.510221E2,1.9010378E3,2.6995117E2,1.4434906E3,8.002019E2,6.9988367E2,6.7270935E2,3.451422E2,8.1374567E2,0E0,0E0,0E0,0E0,0E0,0E0,0E0,0E0,0E0,0E0,0E0,0E0,0E0,0E0,0E0,0E0,0E0,0E0,0E0,0E0,0E0,0E0,0E0,0E0,0E0,0E0,0E0,0E0,0E0,0E0,0E0,0E0,0E0,0E0,0E0,0E0,0E0,0E0,0E0,0E0,0E0,0E0],"parents":[2147483647,0,0,1,1,2,2,3,3,4,4,5,5,6,6,7,7,8,8,9,9,10,10,11,11,12,12,13,13,14,14,15,15,17,17,18,18,19,19,20,20,21,21,22,22,23,23,24,24,25,25,26,26,27,27,28,28,29,29,30,30,33,33,34,34,35,35,36,36,37,37,38,38,39,39,41,41,44,44,48,48,50,50,51,51,52,52,53,53,54,54,55,55,56,56,57,57,58,58,59,59,60,60],"right_children":[2,4,6,8,10,12,14,16,18,20,22,24,26,28,30,32,-1,34,36,38,40,42,44,46,48,50,52,54,56,58,60,-1,-1,62,64,66,68,70,72,74,-1,76,-1,-1,78,-1,-1,-1,80,-1,82,84,86,88,90,92,94,96,98,100,102,-1,-1,-1,-1,-1,-1,-1,-1,-1,-1,-1,-1,-1,-1,-1,-1,-1,-1,-1,-1,-1,-1,-1,-1,-1,-1,-1,-1,-1,-1,-1,-1,-1,-1,-1,-1,-1,-1,-1,-1,-1,-1],"split_conditions":[2.8870832E1,2.861875E1,2.9162498E1,2.2306282E1,2.8647919E1,1.9734436E1,1.7654688E1,2.6539583E1,4E0,1E-1,1.7193533E1,1.07085396E2,2.226477E1,2.9412504E1,4E-1,2.5610413E1,-6.3851814E0,1.3000001E0,4.4E0,2.314103E1,7.478425E1,1.3493999E1,1.9386593E1,4.8426876E1,2.8927086E1,5.3184937E1,7.2776054E1,7.224903E1,2.6959818E2,1.835647E1,3.0068748E1,-2.4479485E0,3.6219819E0,6E-1,1.5999999E0,4.2E0,7.938345E1,1.665754E1,2.4031178E1,3E-1,-4.1407723E0,2.877083E1,-4.9303627E0,1.1896254E1,6.984084E1,-8.8691944E-1,-7.3948092E0,-2.9867141E0,2.9087496E1,-4.542507E0,7.2012596E1,2.8036118E1,7.34848E1,2.9293749E1,2.9191666E1,7.17377E1,1.4417988E1,2.9522917E1,3.2597916E1,2.658304E2,6E-1,1.0783053E-1,1.3579934E0,-5.64079E0,-1.24367096E-1,3.0375779E0,1.1874229E1,1.5763358E0,-1.7599446E0,4.9146814E0,2.4669458E-1,1.2423118E1,4.9889593E0,-3.6483766E-3,1.9748399E0,4.3998337E0,4.896286E-1,-3.4951904E0,1.6612332E0,3.0698395E0,-1.0354058E0,8.101065E0,2.637668E0,-7.2215548E0,4.8298435E0,3.9777548E0,-4.2761558E-1,-2.6541567E0,5.8036766E0,4.1210117E0,1.6775858E1,1.5995812E0,-1.1663866E0,7.541052E0,8.176007E-1,-5.264248E0,-1.1446962E0,-1.5682389E-1,1.3576138E0,-2.7068906E0,9.945622E-1,-2.893338E0,1.2482636E0],"split_indices":[0,0,0,3,0,2,2,0,1,1,2,3,2,0,1,0,0,1,1,2,3,2,2,3,0,3,3,3,3,2,0,0,0,1,1,1,3,2,2,1,0,0,0,0,3,0,0,0,0,0,3,2,3,0,0,3,2,0,0,3,1,0,0,0,0,0,0,0,0,0,0,0,0,0,0,0,0,0,0,0,0,0,0,0,0,0,0,0,0,0,0,0,0,0,0,0,0,0,0,0,0,0,0],"split_type":[0,0,0,0,0,0,0,0,0,0,0,0,0,0,0,0,0,0,0,0,0,0,0,0,0,0,0,0,0,0,0,0,0,0,0,0,0,0,0,0,0,0,0,0,0,0,0,0,0,0,0,0,0,0,0,0,0,0,0,0,0,0,0,0,0,0,0,0,0,0,0,0,0,0,0,0,0,0,0,0,0,0,0,0,0,0,0,0,0,0,0,0,0,0,0,0,0,0,0,0,0,0,0],"sum_hessian":[3.202E3,1.751E3,1.451E3,1.688E3,6.3E1,7.5E1,1.376E3,6E0,1.682E3,1.3E1,5E1,2.3E1,5.2E1,9.1E1,1.285E3,2E0,4E0,1.626E3,5.6E1,9E0,4E0,6E0,4.4E1,1.6E1,7E0,1.2E1,4E1,1.2E1,7.9E1,1.244E3,4.1E1,1E0,1E0,1.557E3,6.9E1,4E0,5.2E1,5E0,4E0,3E0,1E0,2E0,4E0,2E0,4.2E1,1E0,1.5E1,1E0,6E0,2E0,1E1,1.1E1,2.9E1,8E0,4E0,7.3E1,6E0,2.2E1,1.222E3,2.5E1,1.6E1,1.48E3,7.7E1,1.7E1,5.2E1,1E0,3E0,3.7E1,1.5E1,2E0,3E0,1E0,3E0,1E0,2E0,1E0,1E0,6E0,3.6E1,4E0,2E0,4E0,6E0,9E0,2E0,3E0,2.6E1,5E0,3E0,1E0,3E0,2.5E1,4.8E1,2E0,4E0,4E0,1.8E1,1.196E3,2.6E1,2.3E1,2E0,6E0,1E1],"tree_param":{"num_deleted":"0","num_feature":"4","num_nodes":"103","size_leaf_vector":"1"}},{"base_weights":[4.253565E-2,-2.8473804E0,1.375482E-1,-1.4216424E1,-1.5942856E0,5.5039936E-1,-6.1328334E-1,-3.2742329E0,-1.8438187E1,6.538356E0,-2.6528974E0,9.9585164E-1,-8.0413085E-1,-5.9370565E0,-3.543626E-1,1.3892407E0,-2.2358537E0,-6.2762103E0,-5.3146595E-1,3.9535394E-1,1.1591632E1,5.0548553E-2,-5.704235E0,8.8384765E-1,1.4876025E1,-1.0536688E1,1.19446374E-1,-7.0156384E0,4.0976396E0,2.3388855E1,-4.902182E-1,-2.4810503E0,6.795656E0,4.566785E0,5.9704857E0,-4.929509E0,5.4810414E0,-1.3221277E1,-3.9368553E0,2.0821762E0,1.4814414E-1,-2.366668E0,2.3340874E1,-1.3676964E1,1.1107845E1,-2.4778755E0,2.0322847E0,-1.1506089E1,-9.8162615E-1,1.9752492E0,7.6298885E0,-8.123376E0,-4.3886352E-1,4.657803E-1,2.4077423E0,2.3843234E0,5.8067325E-3,2.3539064E0,-1.9342812E0,3.3282936E0,-1.1579152E0,-6.964543E-1,-4.3952956E0,1.3863083E0,-1.8029269E0,2.874585E-1,2.9482384E0,-3.0384762E0,2.2346883E-1,1.1248112E1,1.3559601E0,-4.665483E0,1.8436292E0,6.3501368E0,2.3592797E-1,-1.1914862E0,2.1807961E0,2.0867739E0,-5.245277E-1,7.376885E-1,-3.9840765E0,1.5579405E0,-2.6731958E0,2.2288575E0,-1.7520158E-1],"categories":[],"categories_nodes":[],"categories_segments":[],"categories_sizes":[],"default_left":[0,0,0,0,0,0,0,0,0,0,0,0,0,0,0,0,0,0,0,0,0,0,0,0,0,0,0,0,0,0,0,0,0,0,0,0,0,0,0,0,0,0,0,0,0,0,0,0,0,0,0,0,0,0,0,0,0,0,0,0,0,0,0,0,0,0,0,0,0,0,0,0,0,0,0,0,0,0,0,0,0,0,0,0,0],"id":11,"left_children":[1,3,5,7,9,11,13,15,17,19,21,23,25,27,29,-1,-1,-1,-1,31,33,35,37,39,41,43,45,47,-1,49,51,-1,53,-1,55,57,59,61,63,65,67,-1,69,71,73,75,77,79,81,-1,-1,-1,83,-1,-1,-1,-1,-1,-1,-1,-1,-1,-1,-1,-1,-1,-1,-1,-1,-1,-1,-1,-1,-1,-1,-1,-1,-1,-1,-1,-1,-1,-1,-1,-1],"loss_changes":[8.7986584E2,1.4304768E3,9.619007E2,4.015824E2,8.1801135E2,1.2087646E3,1.5155535E3,1.6664096E2,2.5256396E2,3.368823E2,6.8496576E2,2.329686E3,4.459688E3,1.1737473E3,3.4016226E3,0E0,0E0,0E0,0E0,3.8897293E2,3.1575317E1,1.2440063E3,4.66083E2,1.3185869E3,2.496553E3,3.074623E3,2.2606248E3,1.3163818E3,0E0,3.8648438E1,1.4163273E3,0E0,1.3338135E1,0E0,4.691385E1,5.160695E2,1.1963293E3,7.50719E1,6.1317944E2,4.944044E3,5.6984673E3,0E0,2.2278687E3,1.5076504E3,6.0630963E2,2.8389177E3,4.889242E3,7.2639233E2,1.1233906E3,0E0,0E0,0E0,1.1977615E3,0E0,0E0,0E0,0E0,0E0,0E0,0E0,0E0,0E0,0E0,0E0,0E0,0E0,0E0,0E0,0E0,0E0,0E0,0E0,0E0,0E0,0E0,0E0,0E0,0E0,0E0,0E0,0E0,0E0,0E0,0E0,0E0],"parents":[2147483647,0,0,1,1,2,2,3,3,4,4,5,5,6,6,7,7,8,8,9,9,10,10,11,11,12,12,13,13,14,14,19,19,20,20,21,21,22,22,23,23,24,24,25,25,26,26,27,27,29,29,30,30,32,32,34,34,35,35,36,36,37,37,38,38,39,39,40,40,42,42,43,43,44,44,45,45,46,46,47,47,48,48,52,52],"right_children":[2,4,6,8,10,12,14,16,18,20,22,24,26,28,30,-1,-1,-1,-1,32,34,36,38,40,42,44,46,48,-1,50,52,-1,54,-1,56,58,60,62,64,66,68,-1,70,72,74,76,78,80,82,-1,-1,-1,84,-1,-1,-1,-1,-1,-1,-1,-1,-1,-1,-1,-1,-1,-1,-1,-1,-1,-1,-1,-1,-1,-1,-1,-1,-1,-1,-1,-1,-1,-1,-1,-1],"split_conditions":[5.686865E1,2.5610413E1,9.9782326E1,1.2413477E1,2.644583E1,2.8802248E1,1.5249585E2,1E-1,1.4E0,1.5188415E1,4.8426876E1,2.8639803E1,2.9268686E1,6E-1,2.5270834E1,1.3892407E0,-2.2358537E0,-6.2762103E0,-5.3146595E-1,2.5935415E1,2.0945072E1,3.8955917E1,2.7258331E1,2.615625E1,7.3070496E1,7.9201584E1,3.1435646E1,3.0216667E1,4.0976396E0,2.4787498E1,2.5285418E1,-2.4810503E0,2.5958334E1,4.566785E0,2.6266665E1,1.1885453E1,2.9495834E1,1.5596767E1,1.6363178E1,2.5877085E1,2.63125E1,-2.366668E0,7.520317E1,2.9162498E1,1E-1,7.723752E1,3.3033802E1,2.4743746E1,1.1852698E2,1.9752492E0,7.6298885E0,-8.123376E0,2.6660418E1,4.657803E-1,2.4077423E0,2.3843234E0,5.8067325E-3,2.3539064E0,-1.9342812E0,3.3282936E0,-1.1579152E0,-6.964543E-1,-4.3952956E0,1.3863083E0,-1.8029269E0,2.874585E-1,2.9482384E0,-3.0384762E0,2.2346883E-1,1.1248112E1,1.3559601E0,-4.665483E0,1.8436292E0,6.3501368E0,2.3592797E-1,-1.1914862E0,2.1807961E0,2.0867739E0,-5.245277E-1,7.376885E-1,-3.9840765E0,1.5579405E0,-2.6731958E0,2.2288575E0,-1.7520158E-1],"split_indices":[3,0,3,2,0,2,3,1,1,2,3,2,2,1,0,0,0,0,0,0,2,3,0,0,3,3,2,0,0,0,0,0,0,0,0,2,0,2,2,0,0,0,3,0,1,3,2,0,3,0,0,0,0,0,0,0,0,0,0,0,0,0,0,0,0,0,0,0,0,0,0,0,0,0,0,0,0,0,0,0,0,0,0,0,0],"split_type":[0,0,0,0,0,0,0,0,0,0,0,0,0,0,0,0,0,0,0,0,0,0,0,0,0,0,0,0,0,0,0,0,0,0,0,0,0,0,0,0,0,0,0,0,0,0,0,0,0,0,0,0,0,0,0,0,0,0,0,0,0,0,0,0,0,0,0,0,0,0,0,0,0,0,0,0,0,0,0,0,0,0,0,0,0],"sum_hessian":[3.202E3,1.01E2,3.101E3,9E0,9.2E1,2.001E3,1.1E3,3E0,6E0,1E1,8.2E1,1.506E3,4.95E2,5E1,1.05E3,1E0,2E0,5E0,1E0,5E0,5E0,4.4E1,3.8E1,1.495E3,1.1E1,4.2E1,4.53E2,4.8E1,2E0,5E0,1.045E3,2E0,3E0,2E0,3E0,2.3E1,2.1E1,6E0,3.2E1,5.68E2,9.27E2,3E0,8E0,3.7E1,5E0,1.92E2,2.61E2,2.7E1,2.1E1,1E0,4E0,1E0,1.044E3,1E0,2E0,2E0,1E0,2E0,2.1E1,1.3E1,8E0,1E0,5E0,6E0,2.6E1,4.97E2,7.1E1,5E1,8.77E2,4E0,4E0,3.4E1,3E0,2E0,3E0,1.67E2,2.5E1,1.13E2,1.48E2,3E0,2.4E1,1.2E1,9E0,1.8E1,1.026E3],"tree_param":{"num_deleted":"0","num_feature":"4","num_nodes":"85","size_leaf_vector":"1"}},{"base_weights":[3.5088025E-2,1.2843713E-1,-2.450232E0,-4.039666E0,1.8169208E-1,-4.1219773E0,1.2381726E1,-1.431077E0,-9.789736E0,9.316719E0,6.334953E-2,-7.791047E0,-2.2552247E0,3.0618404E1,2.9007878E0,-3.8815217E0,3.3678756E0,-6.370454E0,-4.510706E0,1.2825547E1,-5.883182E0,-9.435978E0,1.4601414E-1,9.5971566E-1,-8.554055E0,-8.524181E-1,-1.1824291E1,1.1681094E0,1.1468622E1,4.064728E0,-1.23886585E-1,3.0717607E0,-8.1935835E0,7.9762278E0,-1.0043689E1,-7.9314256E0,-6.04702E-1,-3.8497605E0,1.406718E1,-2.0150873E1,2.2311935E0,-1.2626366E1,1.1267742E1,9.554767E0,1.0485117E-1,-1.109961E1,-3.1743658E0,8.245896E-1,-6.7808447E0,-7.5167274E0,-1.5329563E1,-8.8867384E-1,1.3159409E0,3.3882575E0,-2.3922653E0,-4.912581E0,-6.167496E-1,3.1236467E-1,4.395281E0,-6.879988E-1,-3.8316612E0,-2.5437467E0,-6.9675636E-1,-3.4256116E-1,7.0445254E-2,5.0696774E0,-1.6447335E-1,-7.3391457E0,-1.7287475E0,2.2431474E0,-6.783234E-1,1.1520528E0,-5.2241244E0,5.161391E0,1.0661697E0,7.202497E0,-3.3927305E0,-2.1353757E0,5.0542187E-2,-2.02994E0,-4.4452863E0,2.0488355E0,-2.1803398E0,-1.4900212E0,9.644212E-1,-3.7495334E0,3.1913302E0,-2.651651E0,-1.3592778E-1,-2.0412068E0,-6.135928E0,8.2109076E-1,-8.6838E-1],"categories":[],"categories_nodes":[],"categories_segments":[],"categories_sizes":[],"default_left":[0,0,0,0,0,0,0,0,0,0,0,0,0,0,0,0,0,0,0,0,0,0,0,0,0,0,0,0,0,0,0,0,0,0,0,0,0,0,0,0,0,0,0,0,0,0,0,0,0,0,0,0,0,0,0,0,0,0,0,0,0,0,0,0,0,0,0,0,0,0,0,0,0,0,0,0,0,0,0,0,0,0,0,0,0,0,0,0,0,0,0,0,0],"id":12,"left_children":[1,3,5,7,9,11,13,15,17,19,21,23,25,27,29,31,33,35,-1,37,39,41,43,-1,45,47,49,-1,-1,-1,51,53,55,57,59,61,63,-1,65,67,69,71,73,75,77,79,81,83,85,87,89,-1,91,-1,-1,-1,-1,-1,-1,-1,-1,-1,-1,-1,-1,-1,-1,-1,-1,-1,-1,-1,-1,-1,-1,-1,-1,-1,-1,-1,-1,-1,-1,-1,-1,-1,-1,-1,-1,-1,-1,-1,-1],"loss_changes":[7.4341833E2,6.8618396E2,2.927287E3,5.709734E2,3.2966504E3,7.0159985E2,1.9859926E3,3.4234042E2,1.1946448E2,2.1554744E3,2.3665754E3,3.2085864E2,9.429928E2,6.646848E2,2.9154742E2,5.9484534E2,6.981629E2,7.6205444E1,0E0,1.1999707E3,9.711477E2,1.8596455E3,1.1558397E3,0E0,4.166775E2,6.319384E2,2.0664429E1,0E0,0E0,0E0,3.659212E1,8.1666064E2,5.689409E2,3.5505872E2,3.4150024E1,1.8121338E0,1.6210216E0,0E0,1.2922661E3,4.519641E1,1.583042E2,1.8799988E3,1.22041534E2,4.1917544E3,1.3683087E3,2.5417212E2,5.410346E2,7.0807306E2,1.5272528E3,5.2028534E1,3.556018E1,0E0,4.382221E1,0E0,0E0,0E0,0E0,0E0,0E0,0E0,0E0,0E0,0E0,0E0,0E0,0E0,0E0,0E0,0E0,0E0,0E0,0E0,0E0,0E0,0E0,0E0,0E0,0E0,0E0,0E0,0E0,0E0,0E0,0E0,0E0,0E0,0E0,0E0,0E0,0E0,0E0,0E0,0E0],"parents":[2147483647,0,0,1,1,2,2,3,3,4,4,5,5,6,6,7,7,8,8,9,9,10,10,11,11,12,12,13,13,14,14,15,15,16,16,17,17,19,19,20,20,21,21,22,22,24,24,25,25,26,26,30,30,31,31,32,32,33,33,34,34,35,35,36,36,38,38,39,39,40,40,41,41,42,42,43,43,44,44,45,45,46,46,47,47,48,48,49,49,50,50,52,52],"right_children":[2,4,6,8,10,12,14,16,18,20,22,24,26,28,30,32,34,36,-1,38,40,42,44,-1,46,48,50,-1,-1,-1,52,54,56,58,60,62,64,-1,66,68,70,72,74,76,78,80,82,84,86,88,90,-1,92,-1,-1,-1,-1,-1,-1,-1,-1,-1,-1,-1,-1,-1,-1,-1,-1,-1,-1,-1,-1,-1,-1,-1,-1,-1,-1,-1,-1,-1,-1,-1,-1,-1,-1,-1,-1,-1,-1,-1,-1],"split_conditions":[4.9638245E1,1.2413477E1,3.2391666E1,1E-1,1.3493999E1,5.087604E1,5.034468E1,1.1852698E2,1.1885453E1,1E-1,1.4417988E1,1.9016765E2,3.1968748E1,1.9480034E2,3.246875E1,6.0447052E1,2.4944386E2,2.7822914E1,-4.510706E0,2.4297918E1,3E-1,1.07085396E2,1.4764389E1,9.5971566E-1,2.1926625E2,2.1961552E2,2.1135626E2,1.1681094E0,1.1468622E1,4.064728E0,2.0059029E2,1.1885453E1,7.7678566E1,1.6854453E2,2.8050001E1,7.340787E1,6E-1,-3.8497605E0,2.9606249E1,2.515E1,6.361924E1,2.4787498E1,2.5202082E1,7.756514E1,1.5379206E1,3.1364584E1,4.990904E1,3.0393747E1,2.5132114E2,3.2268757E1,3.2306248E1,-8.8867384E-1,5.524094E1,3.3882575E0,-2.3922653E0,-4.912581E0,-6.167496E-1,3.1236467E-1,4.395281E0,-6.879988E-1,-3.8316612E0,-2.5437467E0,-6.9675636E-1,-3.4256116E-1,7.0445254E-2,5.0696774E0,-1.6447335E-1,-7.3391457E0,-1.7287475E0,2.2431474E0,-6.783234E-1,1.1520528E0,-5.2241244E0,5.161391E0,1.0661697E0,7.202497E0,-3.3927305E0,-2.1353757E0,5.0542187E-2,-2.02994E0,-4.4452863E0,2.0488355E0,-2.1803398E0,-1.4900212E0,9.644212E-1,-3.7495334E0,3.1913302E0,-2.651651E0,-1.3592778E-1,-2.0412068E0,-6.135928E0,8.2109076E-1,-8.6838E-1],"split_indices":[2,2,0,1,2,2,2,3,2,1,2,3,0,3,0,3,3,0,0,0,1,3,2,0,3,3,3,0,0,0,3,2,3,3,0,3,1,0,0,0,3,0,0,3,2,0,2,0,3,0,0,0,2,0,0,0,0,0,0,0,0,0,0,0,0,0,0,0,0,0,0,0,0,0,0,0,0,0,0,0,0,0,0,0,0,0,0,0,0,0,0,0,0],"split_type":[0,0,0,0,0,0,0,0,0,0,0,0,0,0,0,0,0,0,0,0,0,0,0,0,0,0,0,0,0,0,0,0,0,0,0,0,0,0,0,0,0,0,0,0,0,0,0,0,0,0,0,0,0,0,0,0,0,0,0,0,0,0,0,0,0,0,0,0,0,0,0,0,0,0,0,0,0,0,0,0,0,0,0,0,0,0,0,0,0,0,0,0,0],"sum_hessian":[3.202E3,3.087E3,1.15E2,3.8E1,3.049E3,1.04E2,1.1E1,2.7E1,1.1E1,3.8E1,3.011E3,3.4E1,7E1,3E0,8E0,1.8E1,9E0,8E0,3E0,3.1E1,7E0,2.5E1,2.986E3,2E0,3.2E1,6.2E1,8E0,1E0,2E0,1E0,7E0,7E0,1.1E1,7E0,2E0,6E0,2E0,1E0,3E1,2E0,5E0,2.2E1,3E0,1.2E1,2.974E3,2.1E1,1.1E1,4.9E1,1.3E1,5E0,3E0,2E0,5E0,4E0,3E0,4E0,7E0,4E0,3E0,1E0,1E0,5E0,1E0,1E0,1E0,2.5E1,5E0,1E0,1E0,2E0,3E0,5E0,1.7E1,1E0,2E0,7E0,5E0,2.5E1,2.949E3,1.1E1,1E1,3E0,8E0,1.4E1,3.5E1,1E1,3E0,4E0,1E0,2E0,1E0,4E0,1E0],"tree_param":{"num_deleted":"0","num_feature":"4","num_nodes":"93","size_leaf_vector":"1"}},{"base_weights":[1.9295236E-2,2.4627469E0,-4.0879074E-2,8.061804E0,-3.495807E0,-8.63558E0,3.117222E-2,1.34384165E1,-5.6034923E0,-2.5789816E1,-1.5408673E0,1.9309648E0,-1.935066E1,1.480505E0,-1.1033715E-1,8.767481E0,8.964726E0,7.669127E-1,-5.560809E0,-1.0088721E1,-1.5166959E0,1.4314403E1,-3.970101E0,-9.125864E0,1.819438E1,-8.419833E0,-4.504953E0,5.363207E-1,1.911193E1,-1.0381461E0,2.0425637E-1,1.2169618E1,-6.5945616E0,-3.1016293E0,4.7572875E0,2.973423E0,8.951749E0,-6.554162E0,8.319858E0,-1.4222211E1,4.746737E0,-2.6428277E0,2.5357027E1,3.6690347E0,-4.779005E0,-3.6853868E-1,1.2176016E1,2.4589712E1,-7.2994995E-1,-2.703165E-1,-7.5969253E0,4.767941E0,-1.320945E-1,-3.285179E0,4.1888456E0,2.3011094E-1,-2.5880163E0,1.4984139E0,-3.733995E0,-6.538867E0,5.5486135E0,-4.080122E-1,-3.0120356E0,3.834379E0,-2.0980752E0,5.9261173E-1,-5.9851904E0,8.480747E0,2.0562768E0,-3.3880193E0,4.1558993E-1,1.0749447E1,3.504722E-1,2.2644913E0,8.261397E0,-7.7020264E-1,7.1733403E-1,-2.2761112E-1,1.3705412E0,-7.457455E0,-1.3676741E0,2.9824195E0,1.3207202E-1,-3.2337403E0,4.800405E-3],"categories":[],"categories_nodes":[],"categories_segments":[],"categories_sizes":[],"default_left":[0,0,0,0,0,0,0,0,0,0,0,0,0,0,0,0,0,0,0,0,0,0,0,0,0,0,0,0,0,0,0,0,0,0,0,0,0,0,0,0,0,0,0,0,0,0,0,0,0,0,0,0,0,0,0,0,0,0,0,0,0,0,0,0,0,0,0,0,0,0,0,0,0,0,0,0,0,0,0,0,0,0,0,0,0],"id":13,"left_children":[1,3,5,7,9,11,13,15,17,19,21,23,25,27,29,31,-1,33,-1,-1,-1,35,37,39,41,-1,43,45,47,49,51,53,55,57,-1,59,-1,61,63,65,-1,-1,67,-1,-1,69,71,73,75,77,79,81,83,-1,-1,-1,-1,-1,-1,-1,-1,-1,-1,-1,-1,-1,-1,-1,-1,-1,-1,-1,-1,-1,-1,-1,-1,-1,-1,-1,-1,-1,-1,-1,-1],"loss_changes":[4.7104736E2,2.5970784E3,1.9366931E3,3.0142222E3,1.6164323E3,2.9811216E3,6.363654E2,1.9654639E3,1.00284155E3,3.1760425E2,1.4434114E3,2.6835447E3,1.5555942E3,4.584409E3,8.2536444E2,1.3345836E3,0E0,5.745959E2,0E0,0E0,0E0,7.9160547E2,1.0707858E3,1.3693381E3,1.3838931E3,0E0,1.3420212E3,2.774479E3,1.539602E3,3.6037402E3,3.2425486E3,9.820847E2,8.141667E1,6.674513E2,0E0,1.9410228E3,0E0,4.7521997E2,4.9930362E2,7.8170276E2,0E0,0E0,7.564819E1,0E0,0E0,4.7099517E3,4.9056284E3,3.4480566E2,2.9077274E1,1.5206415E3,3.8196665E3,3.2420535E3,3.10328E3,0E0,0E0,0E0,0E0,0E0,0E0,0E0,0E0,0E0,0E0,0E0,0E0,0E0,0E0,0E0,0E0,0E0,0E0,0E0,0E0,0E0,0E0,0E0,0E0,0E0,0E0,0E0,0E0,0E0,0E0,0E0,0E0],"parents":[2147483647,0,0,1,1,2,2,3,3,4,4,5,5,6,6,7,7,8,8,9,9,10,10,11,11,12,12,13,13,14,14,15,15,17,17,21,21,22,22,23,23,24,24,26,26,27,27,28,28,29,29,30,30,31,31,32,32,33,33,35,35,37,37,38,38,39,39,42,42,45,45,46,46,47,47,48,48,49,49,50,50,51,51,52,52],"right_children":[2,4,6,8,10,12,14,16,18,20,22,24,26,28,30,32,-1,34,-1,-1,-1,36,38,40,42,-1,44,46,48,50,52,54,56,58,-1,60,-1,62,64,66,-1,-1,68,-1,-1,70,72,74,76,78,80,82,84,-1,-1,-1,-1,-1,-1,-1,-1,-1,-1,-1,-1,-1,-1,-1,-1,-1,-1,-1,-1,-1,-1,-1,-1,-1,-1,-1,-1,-1,-1,-1,-1],"split_conditions":[2.4468748E1,2.0945072E1,2.4577087E1,8.005578E1,2.12522E1,2.3576563E1,2.5252085E1,2.008916E1,1.9296135E1,2.4297918E1,2.2077717E1,2.4512499E1,7.652852E1,2.5229166E1,7.136531E1,1.9586119E1,8.964726E0,1.8472595E1,-5.560809E0,-1.0088721E1,-1.5166959E0,2.4297918E1,3.1222609E1,2E-1,1.6075521E1,-8.419833E0,7.688388E1,9.007243E1,2E-1,7.0807076E1,7.2354576E1,5.5263485E1,2.3854164E1,1.7193533E1,4.7572875E0,7.165844E1,8.951749E0,2.6079508E1,3.3231335E1,6.9267265E1,4.746737E0,-2.6428277E0,2.0674158E1,3.6690347E0,-4.779005E0,1.7447933E1,9.9782326E1,7.0194016E1,3E-1,5E-1,2.5695833E1,2.5959969E1,7.26376E1,-3.285179E0,4.1888456E0,2.3011094E-1,-2.5880163E0,1.4984139E0,-3.733995E0,-6.538867E0,5.5486135E0,-4.080122E-1,-3.0120356E0,3.834379E0,-2.0980752E0,5.9261173E-1,-5.9851904E0,8.480747E0,2.0562768E0,-3.3880193E0,4.1558993E-1,1.0749447E1,3.504722E-1,2.2644913E0,8.261397E0,-7.7020264E-1,7.1733403E-1,-2.2761112E-1,1.3705412E0,-7.457455E0,-1.3676741E0,2.9824195E0,1.3207202E-1,-3.2337403E0,4.800405E-3],"split_indices":[0,2,0,3,2,2,0,2,2,0,2,0,3,0,3,2,0,2,0,0,0,0,2,1,2,0,3,3,1,3,3,3,0,2,0,3,0,2,2,3,0,0,2,0,0,2,3,3,1,1,0,2,3,0,0,0,0,0,0,0,0,0,0,0,0,0,0,0,0,0,0,0,0,0,0,0,0,0,0,0,0,0,0,0,0],"split_type":[0,0,0,0,0,0,0,0,0,0,0,0,0,0,0,0,0,0,0,0,0,0,0,0,0,0,0,0,0,0,0,0,0,0,0,0,0,0,0,0,0,0,0,0,0,0,0,0,0,0,0,0,0,0,0,0,0,0,0,0,0,0,0,0,0,0,0,0,0,0,0,0,0,0,0,0,0,0,0,0,0,0,0,0,0],"sum_hessian":[3.202E3,7.6E1,3.126E3,3.9E1,3.7E1,2.5E1,3.101E3,2.8E1,1.1E1,2E0,3.5E1,1.3E1,1.2E1,2.75E2,2.826E3,2.3E1,5E0,8E0,3E0,1E0,1E0,4E0,3.1E1,8E0,5E0,7E0,5E0,2.62E2,1.3E1,7.15E2,2.111E3,1.9E1,4E0,7E0,1E0,3E0,1E0,2.6E1,5E0,7E0,1E0,1E0,4E0,2E0,3E0,2.44E2,1.8E1,1E1,3E0,6.41E2,7.4E1,1.44E2,1.967E3,1E0,1.8E1,1E0,3E0,4E0,3E0,1E0,2E0,1.1E1,1.5E1,4E0,1E0,2E0,5E0,3E0,1E0,3.3E1,2.11E2,5E0,1.3E1,2E0,8E0,2E0,1E0,5.83E2,5.8E1,1E1,6.4E1,6.5E1,7.9E1,2.6E1,1.941E3],"tree_param":{"num_deleted":"0","num_feature":"4","num_nodes":"85","size_leaf_vector":"1"}},{"base_weights":[1.5900651E-2,5.023053E-2,-4.0241704E0,1.8350264E-1,-9.551775E-1,-6.7077413E0,-1.4301307E0,-5.4427534E-1,5.190715E-1,2.2537909E0,-2.6079571E0,-9.150546E0,-9.6914446E-1,4.8622003E0,-4.1602693E0,-8.369123E-2,-7.1180677E0,5.331068E0,2.8514528E-1,1.4710555E1,-2.0970197E0,-1.0817713E1,-1.2402713E0,-8.187031E-1,-3.178624E0,-6.8346673E-1,6.629817E-1,3.2589087E-1,2.333333E0,-6.773187E0,3.2986984E-1,-2.6335516E0,1.0408717E0,-3.3978803E0,-1.35108795E1,3.7898043E-1,1.4140131E1,-1.3457252E1,3.830948E-1,2.2484568E1,5.045381E0,-3.6185973E0,1.7548326E1,9.620935E0,-1.376531E1,-6.713924E0,2.0614767E0,9.577366E-1,-6.5939486E-1,1.5129605E-1,-4.645157E-3,-1.0625254E0,-8.844947E0,2.5708456E0,-1.1617216E0,2.3128198E-1,-1.9879792E0,6.4956512E0,1.466688E-1,-2.3036754E0,8.905434E-1,-6.5361295E0,-1.6464375E0,-4.4030876E0,7.19536E-1,9.82121E0,8.519396E-1,-6.020534E0,4.580864E0,5.1158106E-1,-6.0719814E-2,6.86482E-3,1.0114052E1,-3.51843E0,2.945504E0,8.512461E-1,-2.0848336E0,1.14561405E1,2.3232012E0,5.8712006E-2,4.7517557E0,-5.26487E0,-2.0756465E-1,-3.0838592E0,2.8267019E0,3.4477837E0,2.020564E-1,6.093178E-2,-5.390682E-1,-3.148382E0,-3.369467E-1],"categories":[],"categories_nodes":[],"categories_segments":[],"categories_sizes":[],"default_left":[0,0,0,0,0,0,0,0,0,0,0,0,0,0,0,0,0,0,0,0,0,0,0,0,0,0,0,0,0,0,0,0,0,0,0,0,0,0,0,0,0,0,0,0,0,0,0,0,0,0,0,0,0,0,0,0,0,0,0,0,0,0,0,0,0,0,0,0,0,0,0,0,0,0,0,0,0,0,0,0,0,0,0,0,0,0,0,0,0,0,0],"id":14,"left_children":[1,3,5,7,9,11,13,15,17,19,21,23,25,27,29,31,33,35,37,39,41,43,45,-1,-1,-1,47,49,-1,51,53,55,57,59,61,63,65,67,69,71,73,75,77,79,81,83,85,-1,-1,-1,-1,87,89,-1,-1,-1,-1,-1,-1,-1,-1,-1,-1,-1,-1,-1,-1,-1,-1,-1,-1,-1,-1,-1,-1,-1,-1,-1,-1,-1,-1,-1,-1,-1,-1,-1,-1,-1,-1,-1,-1],"loss_changes":[4.4444266E2,4.2587057E2,1.7836188E2,6.855628E2,1.9788608E3,1.7336938E2,2.7791208E2,2.682021E3,2.1608574E3,6.9138696E3,2.7487617E3,5.4589294E1,1.2193321E1,6.3595062E1,1.312903E2,2.379881E3,1.3334744E3,3.8771104E3,2.4724846E3,2.366084E3,2.9032327E3,2.2410068E3,3.8452363E3,0E0,0E0,0E0,2.8727163E1,1.9054255E-1,0E0,7.341983E1,2.0631015E2,3.4580576E3,6.54253E3,1.05847E3,1.2747893E3,1.7986953E3,6.631991E3,2.775376E3,1.4100283E3,4.539204E3,1.3960984E3,1.933596E3,1.1207256E3,2.8994232E2,1.5215264E3,4.699703E3,1.7332285E3,0E0,0E0,0E0,0E0,3.1532803E0,5.190454E1,0E0,0E0,0E0,0E0,0E0,0E0,0E0,0E0,0E0,0E0,0E0,0E0,0E0,0E0,0E0,0E0,0E0,0E0,0E0,0E0,0E0,0E0,0E0,0E0,0E0,0E0,0E0,0E0,0E0,0E0,0E0,0E0,0E0,0E0,0E0,0E0,0E0,0E0],"parents":[2147483647,0,0,1,1,2,2,3,3,4,4,5,5,6,6,7,7,8,8,9,9,10,10,11,11,12,12,13,13,14,14,15,15,16,16,17,17,18,18,19,19,20,20,21,21,22,22,26,26,27,27,29,29,30,30,31,31,32,32,33,33,34,34,35,35,36,36,37,37,38,38,39,39,40,40,41,41,42,42,43,43,44,44,45,45,46,46,51,51,52,52],"right_children":[2,4,6,8,10,12,14,16,18,20,22,24,26,28,30,32,34,36,38,40,42,44,46,-1,-1,-1,48,50,-1,52,54,56,58,60,62,64,66,68,70,72,74,76,78,80,82,84,86,-1,-1,-1,-1,88,90,-1,-1,-1,-1,-1,-1,-1,-1,-1,-1,-1,-1,-1,-1,-1,-1,-1,-1,-1,-1,-1,-1,-1,-1,-1,-1,-1,-1,-1,-1,-1,-1,-1,-1,-1,-1,-1,-1],"split_conditions":[5.3842567E1,3E-1,5.524094E1,2.3263912E1,2.4472057E1,3.2177082E1,3.0824997E1,2.2828087E1,2.3838959E1,2.6187498E1,2.549908E1,2.0583965E2,3.2597916E1,2.9495834E1,3.170208E1,2.5877085E1,7.401247E1,7.587068E1,2.3933908E1,7.520317E1,2.3838959E1,2.5270834E1,2.6331251E1,-8.187031E-1,-3.178624E0,-6.8346673E-1,2.0762401E2,2.7981247E1,2.333333E0,2.0364755E2,3.172708E1,2.506042E1,2.5958334E1,2.314103E1,2.9293749E1,2.334455E1,2.615625E1,7.815427E1,2.7020836E1,6.822229E1,7.723752E1,7.106887E1,4E-1,2.4863468E1,4.7999997E0,2.1E0,2.6368616E1,9.577366E-1,-6.5939486E-1,1.5129605E-1,-4.645157E-3,3.1564583E1,2.1177025E2,2.5708456E0,-1.1617216E0,2.3128198E-1,-1.9879792E0,6.4956512E0,1.466688E-1,-2.3036754E0,8.905434E-1,-6.5361295E0,-1.6464375E0,-4.4030876E0,7.19536E-1,9.82121E0,8.519396E-1,-6.020534E0,4.580864E0,5.1158106E-1,-6.0719814E-2,6.86482E-3,1.0114052E1,-3.51843E0,2.945504E0,8.512461E-1,-2.0848336E0,1.14561405E1,2.3232012E0,5.8712006E-2,4.7517557E0,-5.26487E0,-2.0756465E-1,-3.0838592E0,2.8267019E0,3.4477837E0,2.020564E-1,6.093178E-2,-5.390682E-1,-3.148382E0,-3.369467E-1],"split_indices":[2,1,2,2,2,0,0,2,2,0,2,3,0,0,0,0,3,3,2,3,2,0,0,0,0,0,3,0,0,3,0,0,0,2,0,2,0,3,0,3,3,3,1,2,1,1,2,0,0,0,0,0,3,0,0,0,0,0,0,0,0,0,0,0,0,0,0,0,0,0,0,0,0,0,0,0,0,0,0,0,0,0,0,0,0,0,0,0,0,0,0],"split_type":[0,0,0,0,0,0,0,0,0,0,0,0,0,0,0,0,0,0,0,0,0,0,0,0,0,0,0,0,0,0,0,0,0,0,0,0,0,0,0,0,0,0,0,0,0,0,0,0,0,0,0,0,0,0,0,0,0,0,0,0,0,0,0,0,0,0,0,0,0,0,0,0,0,0,0,0,0,0,0,0,0,0,0,0,0,0,0,0,0,0,0],"sum_hessian":[3.202E3,3.176E3,2.6E1,2.805E3,3.71E2,1.2E1,1.4E1,8.85E2,1.92E3,1.26E2,2.45E2,8E0,4E0,4E0,1E1,8.28E2,5.7E1,8.8E1,1.832E3,3.2E1,9.4E1,3.4E1,2.11E2,2E0,6E0,2E0,2E0,2E0,2E0,6E0,4E0,2.53E2,5.75E2,3.7E1,2E1,5.7E1,3.1E1,1.2E1,1.82E3,1.7E1,1.5E1,8.8E1,6E0,4E0,3E1,7.9E1,1.32E2,1E0,1E0,1E0,1E0,2E0,4E0,1E0,3E0,1.37E2,1.16E2,1.4E1,5.61E2,2.2E1,1.5E1,9E0,1.1E1,6E0,5.1E1,1.1E1,2E1,1E1,2E0,5.58E2,1.262E3,6E0,1.1E1,3E0,1.2E1,3E1,5.8E1,1E0,5E0,2E0,2E0,2.3E1,7E0,6.5E1,1.4E1,1.6E1,1.16E2,1E0,1E0,3E0,1E0],"tree_param":{"num_deleted":"0","num_feature":"4","num_nodes":"91","size_leaf_vector":"1"}},{"base_weights":[1.7892081E-2,-1.792111E0,7.740286E-2,-6.4504826E-1,-5.1202545E0,2.4487312E0,8.164284E-3,1.2949668E0,-3.2709765E0,-8.191192E0,6.123638E-1,1.639291E1,-1.8683186E-1,-2.5762599E0,1.09686054E-1,-6.153417E-1,8.47332E0,-5.4977765E0,3.278021E0,-9.270231E0,-6.559372E-2,3.4565425E0,-3.555223E0,-2.272522E0,1.88193E1,-2.0580025E0,6.3182206E0,-1.577423E1,-2.6052776E-1,2.235425E1,9.586055E-3,2.0565426E0,-6.939424E0,-1.1810384E0,-1.185478E1,-2.3366654E0,8.237103E0,-9.913567E0,-3.9530754E-2,-2.733902E-1,2.4387303E-1,-1.9516722E0,-2.217012E0,-1.8591031E0,2.1420408E1,-4.4749117E-1,-8.3285475E0,-7.585928E-1,4.960898E0,-1.8869534E1,4.960363E0,2.3080444E1,-1.7635956E0,1.0169413E1,3.9816105E1,4.0917635E-2,-4.4885416E0,-3.8629845E-1,5.911181E0,-1.9407054E-2,-3.8468437E0,-2.2492824E0,1.8218197E0,-5.3811345E0,-2.005686E0,3.604321E-1,-1.5287648E0,1.0902287E0,3.0283232E0,-2.154803E0,-5.259782E0,-1.6934006E-1,-1.0839372E0,8.919462E0,3.3709571E0,2.4218173E0,-8.7062806E-1,-3.5983913E0,-2.3912798E-1,3.500593E0,-1.4450151E0,-1.9713976E0,-8.6427145E0,2.1453645E0,8.679886E-2,8.717263E-1,7.9602695E0,-6.1458983E0,-3.3809474E-1,-1.9633485E-2,9.198283E0,1.4085569E1,1.6909401E0,-1.03309965E-2,1.6124936E0,-4.5694566E0,1.1828216E0],"categories":[],"categories_nodes":[],"categories_segments":[],"categories_sizes":[],"default_left":[0,0,0,0,0,0,0,0,0,0,0,0,0,0,0,0,0,0,0,0,0,0,0,0,0,0,0,0,0,0,0,0,0,0,0,0,0,0,0,0,0,0,0,0,0,0,0,0,0,0,0,0,0,0,0,0,0,0,0,0,0,0,0,0,0,0,0,0,0,0,0,0,0,0,0,0,0,0,0,0,0,0,0,0,0,0,0,0,0,0,0,0,0,0,0,0,0],"id":15,"left_children":[1,3,5,7,9,11,13,15,17,19,21,23,25,27,29,31,-1,33,35,37,39,-1,41,-1,43,45,47,49,51,53,55,57,59,61,63,65,67,69,-1,-1,-1,71,-1,-1,73,75,77,79,-1,81,83,85,87,89,91,93,95,-1,-1,-1,-1,-1,-1,-1,-1,-1,-1,-1,-1,-1,-1,-1,-1,-1,-1,-1,-1,-1,-1,-1,-1,-1,-1,-1,-1,-1,-1,-1,-1,-1,-1,-1,-1,-1,-1,-1,-1],"loss_changes":[3.451489E2,3.860913E2,5.0928937E2,3.965E2,4.6273322E2,3.23713E3,7.913442E2,2.334058E3,4.99271E2,1.4844531E2,4.956231E2,9.567368E2,9.259076E2,3.480068E3,6.461614E3,7.4085156E2,0E0,6.72037E2,2.6984055E2,8.6880005E1,2.969676E0,0E0,3.4771652E1,0E0,9.786548E2,5.9210126E2,1.2418418E3,1.1846572E3,3.478845E3,2.361102E3,4.0748132E2,1.8548829E3,5.2497784E2,7.7863403E2,1.9448486E2,5.4934402E1,6.0619507E0,1.6536365E2,0E0,0E0,0E0,1.4093931E1,0E0,0E0,6.815962E2,1.0272874E3,3.2177094E2,6.109484E2,0E0,1.6442598E3,2.8631561E1,3.4097266E2,1.0853918E3,1.8895576E3,9.548501E2,1.1541674E3,1.8715953E3,0E0,0E0,0E0,0E0,0E0,0E0,0E0,0E0,0E0,0E0,0E0,0E0,0E0,0E0,0E0,0E0,0E0,0E0,0E0,0E0,0E0,0E0,0E0,0E0,0E0,0E0,0E0,0E0,0E0,0E0,0E0,0E0,0E0,0E0,0E0,0E0,0E0,0E0,0E0,0E0],"parents":[2147483647,0,0,1,1,2,2,3,3,4,4,5,5,6,6,7,7,8,8,9,9,10,10,11,11,12,12,13,13,14,14,15,15,17,17,18,18,19,19,20,20,22,22,24,24,25,25,26,26,27,27,28,28,29,29,30,30,31,31,32,32,33,33,34,34,35,35,36,36,37,37,41,41,44,44,45,45,46,46,47,47,49,49,50,50,51,51,52,52,53,53,54,54,55,55,56,56],"right_children":[2,4,6,8,10,12,14,16,18,20,22,24,26,28,30,32,-1,34,36,38,40,-1,42,-1,44,46,48,50,52,54,56,58,60,62,64,66,68,70,-1,-1,-1,72,-1,-1,74,76,78,80,-1,82,84,86,88,90,92,94,96,-1,-1,-1,-1,-1,-1,-1,-1,-1,-1,-1,-1,-1,-1,-1,-1,-1,-1,-1,-1,-1,-1,-1,-1,-1,-1,-1,-1,-1,-1,-1,-1,-1,-1,-1,-1,-1,-1,-1,-1],"split_conditions":[5.686865E1,5.3184937E1,6.302213E1,2.103152E1,2.000512E1,2.5308334E1,6.643117E1,2.000512E1,3.0158333E1,1E-1,2.0945072E1,2.4297918E1,2.9087496E1,2.5454165E1,6.656408E1,3.0068748E1,8.47332E0,2.79125E1,3.8955917E1,3.1233332E1,2.7954165E1,3.4565425E0,2.9770834E1,-2.272522E0,1.2413477E1,1E-1,2.2180206E1,2.66327E1,2.5610413E1,2.6979166E1,1.2000001E1,2.9224997E1,1.6075521E1,2.6820831E1,2.2007162E1,2.2530937E1,3.0770838E1,3.0535416E1,-3.9530754E-2,-2.733902E-1,2.4387303E-1,2.4472057E1,-2.217012E0,-1.8591031E0,2.4787498E1,2.6539583E1,6E-1,1.3493999E1,4.960898E0,1.859845E1,2.5229166E1,1.2758432E1,2.5618757E1,1E-1,1E-1,4.1E0,2.2199999E1,-3.8629845E-1,5.911181E0,-1.9407054E-2,-3.8468437E0,-2.2492824E0,1.8218197E0,-5.3811345E0,-2.005686E0,3.604321E-1,-1.5287648E0,1.0902287E0,3.0283232E0,-2.154803E0,-5.259782E0,-1.6934006E-1,-1.0839372E0,8.919462E0,3.3709571E0,2.4218173E0,-8.7062806E-1,-3.5983913E0,-2.3912798E-1,3.500593E0,-1.4450151E0,-1.9713976E0,-8.6427145E0,2.1453645E0,8.679886E-2,8.717263E-1,7.9602695E0,-6.1458983E0,-3.3809474E-1,-1.9633485E-2,9.198283E0,1.4085569E1,1.6909401E0,-1.03309965E-2,1.6124936E0,-4.5694566E0,1.1828216E0],"split_indices":[3,3,3,2,2,0,3,2,0,1,2,0,0,0,3,0,0,0,3,0,0,0,0,0,2,1,2,2,0,0,1,0,2,0,2,2,0,0,0,0,0,2,0,0,0,0,1,2,0,2,0,2,0,1,1,1,1,0,0,0,0,0,0,0,0,0,0,0,0,0,0,0,0,0,0,0,0,0,0,0,0,0,0,0,0,0,0,0,0,0,0,0,0,0,0,0,0],"split_type":[0,0,0,0,0,0,0,0,0,0,0,0,0,0,0,0,0,0,0,0,0,0,0,0,0,0,0,0,0,0,0,0,0,0,0,0,0,0,0,0,0,0,0,0,0,0,0,0,0,0,0,0,0,0,0,0,0,0,0,0,0,0,0,0,0,0,0,0,0,0,0,0,0,0,0,0,0,0,0,0,0,0,0,0,0,0,0,0,0,0,0,0,0,0,0,0,0],"sum_hessian":[3.202E3,1.01E2,3.101E3,7.6E1,2.5E1,8.7E1,3.014E3,4.4E1,3.2E1,1.6E1,9E0,1.3E1,7.4E1,1.13E2,2.901E3,4.2E1,2E0,2.4E1,8E0,1.4E1,2E0,2E0,7E0,1E0,1.2E1,5.8E1,1.6E1,1.6E1,9.7E1,1.2E1,2.889E3,3E1,1.2E1,1.5E1,9E0,4E0,4E0,1.3E1,1E0,1E0,1E0,6E0,1E0,1E0,1.1E1,4.7E1,1.1E1,1E1,6E0,1.4E1,2E0,5E0,9.2E1,8E0,4E0,2.87E3,1.9E1,2.6E1,4E0,6E0,6E0,8E0,7E0,3E0,6E0,2E0,2E0,2E0,2E0,1.1E1,2E0,4E0,2E0,5E0,6E0,1E1,3.7E1,7E0,4E0,2E0,8E0,7E0,7E0,1E0,1E0,1E0,4E0,2E0,9E1,6E0,2E0,3E0,1E0,2.831E3,3.9E1,8E0,1.1E1],"tree_param":{"num_deleted":"0","num_feature":"4","num_nodes":"97","size_leaf_vector":"1"}},{"base_weights":[2.120197E-2,9.137428E-2,-1.3317478E0,-4.4816835E-3,2.9153357E0,-1.0287156E1,1.16067745E-1,9.564466E-2,-4.445401E0,-4.805895E-1,6.459678E0,-1.718783E1,-2.875637E-1,5.394959E0,-2.5246396E0,2.2586644E-1,-1.32004E0,1.1181532E1,-7.8357306E0,6.6294055E0,-4.775114E0,1.1706722E1,-5.1199937E-1,-9.979252E0,-8.017712E0,-6.059428E0,4.570251E0,1.0084672E1,-1.2059014E0,-9.669365E0,3.157252E0,1.1685862E-1,2.4007697E0,-7.649989E-1,-1.2956815E1,4.5336857E0,8.884152E0,-2.523926E1,-5.1344714E0,2.0749916E1,-4.5134277E0,-9.323151E0,5.168518E0,1.3930763E0,1.6518814E1,-1.0891855E1,7.5118895E0,-3.111185E-1,-3.2902176E0,-3.0487807E0,-2.4929848E0,1.8027407E0,1.1283213E0,5.085716E0,2.67334E1,4.1851335E0,-1.8216032E1,-1.7410034E1,1.1887156E0,6.199311E0,-5.5425725E0,-5.4917294E-1,7.789452E-2,-1.9292401E0,1.395142E0,1.9668949E0,-4.5634487E-1,-8.251628E0,-2.00029E0,3.2629998E0,-4.167647E0,-9.898625E-1,-8.503787E0,6.799704E-2,-3.1515133E0,1.1812211E0,7.4973016E0,-3.3484542E0,5.7454004E0,-8.25447E-1,-4.5353646E0,-1.5173699E0,3.5204227E0,4.192268E0,-4.1948757E0,8.033365E0,1.9869957E0,-2.2904053E0,-6.0309596E0,3.9384286E0,-3.685096E-1,1.3839646E-1,-1.7033856E0,-4.7115615E-1,9.7890073E-1,9.775173E0,6.6739905E-1,1.2108719E0,9.139675E0,-4.943539E-1,3.5760257E0,-2.8743747E-1,-8.82058E0,-6.583013E0,3.2227554E0,3.3525572E0,-2.375395E0,3.252807E0,-5.8588237E-1,7.233838E0,-2.9035754E0],"categories":[],"categories_nodes":[],"categories_segments":[],"categories_sizes":[],"default_left":[0,0,0,0,0,0,0,0,0,0,0,0,0,0,0,0,0,0,0,0,0,0,0,0,0,0,0,0,0,0,0,0,0,0,0,0,0,0,0,0,0,0,0,0,0,0,0,0,0,0,0,0,0,0,0,0,0,0,0,0,0,0,0,0,0,0,0,0,0,0,0,0,0,0,0,0,0,0,0,0,0,0,0,0,0,0,0,0,0,0,0,0,0,0,0,0,0,0,0,0,0,0,0,0,0,0,0,0,0,0,0],"id":16,"left_children":[1,3,5,7,9,11,13,15,17,19,21,23,25,27,29,31,33,35,37,39,41,43,45,47,-1,49,51,53,55,57,59,61,63,65,67,69,-1,71,73,75,77,79,81,83,85,87,89,-1,-1,-1,91,-1,93,95,97,99,101,103,105,107,109,-1,-1,-1,-1,-1,-1,-1,-1,-1,-1,-1,-1,-1,-1,-1,-1,-1,-1,-1,-1,-1,-1,-1,-1,-1,-1,-1,-1,-1,-1,-1,-1,-1,-1,-1,-1,-1,-1,-1,-1,-1,-1,-1,-1,-1,-1,-1,-1,-1,-1],"loss_changes":[3.0421326E2,8.2454565E2,2.049787E3,1.3108177E3,1.2067366E3,1.5131438E3,1.9234015E3,5.317878E2,3.5313447E3,1.6194268E3,1.7984481E3,6.2710596E2,3.080796E2,1.4361438E3,3.7653193E3,6.258517E2,1.559598E3,1.3361619E3,2.4090273E3,3.240503E3,1.5405791E3,1.3666338E3,1.9141282E3,6.815143E1,0E0,4.7833466E1,2.293499E1,2.1111501E3,1.9102806E3,3.4666968E3,1.4105598E3,7.001089E2,2.5333262E3,1.299865E3,8.2309143E2,1.3198478E3,0E0,3.835918E2,1.3844128E3,5.4333057E2,2.1016624E3,8.342665E2,7.979916E2,2.129877E3,1.7514941E3,1.465476E2,6.5425793E2,0E0,0E0,0E0,4.025683E1,0E0,2.2408112E1,1.6583347E3,3.8529346E2,7.415276E2,9.3705493E2,3.2987305E3,1.7254736E3,1.4974808E3,1.9505469E3,0E0,0E0,0E0,0E0,0E0,0E0,0E0,0E0,0E0,0E0,0E0,0E0,0E0,0E0,0E0,0E0,0E0,0E0,0E0,0E0,0E0,0E0,0E0,0E0,0E0,0E0,0E0,0E0,0E0,0E0,0E0,0E0,0E0,0E0,0E0,0E0,0E0,0E0,0E0,0E0,0E0,0E0,0E0,0E0,0E0,0E0,0E0,0E0,0E0,0E0],"parents":[2147483647,0,0,1,1,2,2,3,3,4,4,5,5,6,6,7,7,8,8,9,9,10,10,11,11,12,12,13,13,14,14,15,15,16,16,17,17,18,18,19,19,20,20,21,21,22,22,23,23,25,25,26,26,27,27,28,28,29,29,30,30,31,31,32,32,33,33,34,34,35,35,37,37,38,38,39,39,40,40,41,41,42,42,43,43,44,44,45,45,46,46,50,50,52,52,53,53,54,54,55,55,56,56,57,57,58,58,59,59,60,60],"right_children":[2,4,6,8,10,12,14,16,18,20,22,24,26,28,30,32,34,36,38,40,42,44,46,48,-1,50,52,54,56,58,60,62,64,66,68,70,-1,72,74,76,78,80,82,84,86,88,90,-1,-1,-1,92,-1,94,96,98,100,102,104,106,108,110,-1,-1,-1,-1,-1,-1,-1,-1,-1,-1,-1,-1,-1,-1,-1,-1,-1,-1,-1,-1,-1,-1,-1,-1,-1,-1,-1,-1,-1,-1,-1,-1,-1,-1,-1,-1,-1,-1,-1,-1,-1,-1,-1,-1,-1,-1,-1,-1,-1,-1],"split_conditions":[1.3000001E0,6E-1,1.6E0,4E-1,7.445894E1,2.777838E1,7.319489E1,2.40127E2,6.7687065E1,2.6229166E1,7.880417E1,2.5744402E1,2.6660418E1,4.7999997E0,7.850101E1,2E-1,2E-1,6.711698E1,2.5410416E1,2.8512817E1,2.8241076E1,2.6612497E1,2.1926625E2,1.665754E1,-8.017712E0,2.988217E1,2.9E1,7.2354576E1,7.12673E1,3.9E0,1.02E1,2.4866669E1,7.032701E1,2.9087496E1,2.606875E1,6.674291E1,8.884152E0,2.2392462E1,2.7038372E1,1.4417988E1,2.6037504E1,2.2346113E1,2.6979166E1,2.2751316E1,2.8081253E1,1.1000001E0,3.5598152E1,-3.111185E-1,-3.2902176E0,-3.0487807E0,2.6016668E1,1.8027407E0,2.9191666E1,1.8000001E0,2.4866669E1,1.1799999E1,2.646875E1,3.0302078E1,9.200001E0,1.3451855E2,7.880417E1,-5.4917294E-1,7.789452E-2,-1.9292401E0,1.395142E0,1.9668949E0,-4.5634487E-1,-8.251628E0,-2.00029E0,3.2629998E0,-4.167647E0,-9.898625E-1,-8.503787E0,6.799704E-2,-3.1515133E0,1.1812211E0,7.4973016E0,-3.3484542E0,5.7454004E0,-8.25447E-1,-4.5353646E0,-1.5173699E0,3.5204227E0,4.192268E0,-4.1948757E0,8.033365E0,1.9869957E0,-2.2904053E0,-6.0309596E0,3.9384286E0,-3.685096E-1,1.3839646E-1,-1.7033856E0,-4.7115615E-1,9.7890073E-1,9.775173E0,6.6739905E-1,1.2108719E0,9.139675E0,-4.943539E-1,3.5760257E0,-2.8743747E-1,-8.82058E0,-6.583013E0,3.2227554E0,3.3525572E0,-2.375395E0,3.252807E0,-5.8588237E-1,7.233838E0,-2.9035754E0],"split_indices":[1,1,1,1,3,2,3,3,3,0,3,2,0,1,3,1,1,3,0,2,2,0,3,2,0,2,0,3,3,1,1,0,3,0,0,3,0,2,2,2,0,2,0,2,0,1,2,0,0,0,0,0,0,1,0,1,0,2,1,3,3,0,0,0,0,0,0,0,0,0,0,0,0,0,0,0,0,0,0,0,0,0,0,0,0,0,0,0,0,0,0,0,0,0,0,0,0,0,0,0,0,0,0,0,0,0,0,0,0,0,0],"split_type":[0,0,0,0,0,0,0,0,0,0,0,0,0,0,0,0,0,0,0,0,0,0,0,0,0,0,0,0,0,0,0,0,0,0,0,0,0,0,0,0,0,0,0,0,0,0,0,0,0,0,0,0,0,0,0,0,0,0,0,0,0,0,0,0,0,0,0,0,0,0,0,0,0,0,0,0,0,0,0,0,0,0,0,0,0,0,0,0,0,0,0,0,0,0,0,0,0,0,0,0,0,0,0,0,0,0,0,0,0,0,0],"sum_hessian":[3.202E3,3.045E3,1.57E2,2.946E3,9.9E1,2.1E1,1.36E2,2.882E3,6.4E1,5.1E1,4.8E1,1.2E1,9E0,4.5E1,9.1E1,2.64E3,2.42E2,1.1E1,5.3E1,1.9E1,3.2E1,2.7E1,2.1E1,8E0,4E0,4E0,5E0,2.6E1,1.9E1,4E1,5.1E1,2.515E3,1.25E2,2.32E2,1E1,9E0,2E0,6E0,4.7E1,8E0,1.1E1,2.2E1,1E1,9E0,1.8E1,9E0,1.2E1,1E0,7E0,1E0,3E0,3E0,2E0,2.1E1,5E0,1.5E1,4E0,2.3E1,1.7E1,3.8E1,1.3E1,1.71E2,2.344E3,2.5E1,1E2,2.1E1,2.11E2,2E0,8E0,7E0,2E0,1E0,5E0,2.4E1,2.3E1,2E0,6E0,9E0,2E0,1.1E1,1.1E1,4E0,6E0,5E0,4E0,8E0,1E1,8E0,1E0,7E0,5E0,2E0,1E0,1E0,1E0,1E0,2E1,1E0,4E0,9E0,6E0,2E0,2E0,2E1,3E0,8E0,9E0,2.4E1,1.4E1,1E0,1.2E1],"tree_param":{"num_deleted":"0","num_feature":"4","num_nodes":"111","size_leaf_vector":"1"}},{"base_weights":[1.6119579E-2,2.1257317E0,-3.5833173E-2,9.115518E0,-3.2118982E-1,-5.5390253E0,1.0304425E-2,4.676965E0,2.149578E1,1.0102701E1,-1.280417E0,1.6450989E0,-1.4057594E1,-6.9163847E-1,1.7960893E-1,-5.355961E0,1.3075459E1,-4.0345117E-1,2.7542145E1,-3.5775483E0,8.628899E0,-6.235899E0,7.854327E-1,-4.6485753E0,7.221457E0,-1.927383E1,-2.9000993E0,-1.1058019E1,-4.444843E-1,9.55377E0,9.252849E-2,6.8633614E0,-1.4060226E1,2.4107433E1,-6.7413673E0,9.37748E0,2.4590676E0,1.113784E1,-9.513422E0,9.446617E0,-2.9545548E0,-3.9245136E0,1.5743509E1,-1.3634219E1,-8.812666E0,9.816037E0,-4.394861E0,8.9841385E0,-1.7340801E1,1.4106807E1,-7.452978E-1,-3.5834763E0,1.9934998E1,1.7183477E0,-1.6947353E-1,-2.421499E0,4.3596773E0,-4.905989E0,-7.331921E-1,8.399266E0,6.9852567E-1,-2.6835542E0,-1.9489288E-2,6.303273E0,-1.291245E0,-5.129013E0,1.034124E0,-5.813112E-1,4.037008E0,-1.8519285E0,3.7019965E-1,5.2061005E0,-3.4952652E0,5.774762E0,-7.9360086E-1,-4.546425E0,-6.76656E-1,7.7400404E-1,3.643213E0,-1.4978623E0,4.5922303E0,2.6839921E0,-6.2592626E0,6.189556E0,-8.650306E0,-8.1964576E-1,1.3935705E-2,4.694424E-1,-2.4403546E0,1.0405865E1,1.9139131E0,-1.4630628E0,8.3353704E-1,-5.067638E-1,2.717243E-2],"categories":[],"categories_nodes":[],"categories_segments":[],"categories_sizes":[],"default_left":[0,0,0,0,0,0,0,0,0,0,0,0,0,0,0,0,0,0,0,0,0,0,0,0,0,0,0,0,0,0,0,0,0,0,0,0,0,0,0,0,0,0,0,0,0,0,0,0,0,0,0,0,0,0,0,0,0,0,0,0,0,0,0,0,0,0,0,0,0,0,0,0,0,0,0,0,0,0,0,0,0,0,0,0,0,0,0,0,0,0,0,0,0,0,0],"id":17,"left_children":[1,3,5,7,9,11,13,15,17,19,21,23,25,27,29,31,33,-1,35,-1,-1,37,39,-1,41,43,45,47,49,51,53,55,57,59,61,-1,-1,63,65,67,69,71,73,75,-1,77,-1,79,81,83,85,87,89,91,93,-1,-1,-1,-1,-1,-1,-1,-1,-1,-1,-1,-1,-1,-1,-1,-1,-1,-1,-1,-1,-1,-1,-1,-1,-1,-1,-1,-1,-1,-1,-1,-1,-1,-1,-1,-1,-1,-1,-1,-1],"loss_changes":[3.5112543E2,1.3198939E3,7.94015E2,9.98474E2,5.928706E2,1.614286E3,3.6877243E2,1.4182151E3,7.275532E2,2.3982354E3,5.5771106E2,1.5456094E3,6.425056E2,1.5400275E3,2.0398811E3,9.4738226E2,2.1300854E3,0E0,3.1336426E1,0E0,0E0,1.01704425E3,1.2912266E3,0E0,1.2016243E3,5.524536E1,8.9083765E2,1.9186794E3,2.5930762E3,3.2081936E3,1.0558397E3,5.7544006E2,9.321741E1,4.4314795E2,5.8273056E1,0E0,0E0,5.478136E2,1.4348986E3,5.738987E2,3.8508633E2,1.1886042E3,5.0218054E2,8.692981E1,0E0,1.9204712E1,0E0,4.2995126E2,1.2055E3,3.9572222E3,9.109474E2,2.7045938E2,2.3781523E3,2.4186797E3,8.439169E2,0E0,0E0,0E0,0E0,0E0,0E0,0E0,0E0,0E0,0E0,0E0,0E0,0E0,0E0,0E0,0E0,0E0,0E0,0E0,0E0,0E0,0E0,0E0,0E0,0E0,0E0,0E0,0E0,0E0,0E0,0E0,0E0,0E0,0E0,0E0,0E0,0E0,0E0,0E0,0E0],"parents":[2147483647,0,0,1,1,2,2,3,3,4,4,5,5,6,6,7,7,8,8,9,9,10,10,11,11,12,12,13,13,14,14,15,15,16,16,18,18,21,21,22,22,24,24,25,25,26,26,27,27,28,28,29,29,30,30,31,31,32,32,33,33,34,34,37,37,38,