{"learner":{"attributes":{"scikit_learn":"{\"_estimator_type\": \"regressor\"}"},"feature_names":["pm25_lagging","temperature_2m_mean","precipitation_sum","wind_speed_10m_max","wind_direction_10m_dominant"],"feature_types":["float","float","float","float","float"],"gradient_booster":{"model":{"gbtree_model_param":{"num_parallel_tree":"1","num_trees":"100"},"iteration_indptr":[0,1,2,3,4,5,6,7,8,9,10,11,12,13,14,15,16,17,18,19,20,21,22,23,24,25,26,27,28,29,30,31,32,33,34,35,36,37,38,39,40,41,42,43,44,45,46,47,48,49,50,51,52,53,54,55,56,57,58,59,60,61,62,63,64,65,66,67,68,69,70,71,72,73,74,75,76,77,78,79,80,81,82,83,84,85,86,87,88,89,90,91,92,93,94,95,96,97,98,99,100],"tree_info":[0,0,0,0,0,0,0,0,0,0,0,0,0,0,0,0,0,0,0,0,0,0,0,0,0,0,0,0,0,0,0,0,0,0,0,0,0,0,0,0,0,0,0,0,0,0,0,0,0,0,0,0,0,0,0,0,0,0,0,0,0,0,0,0,0,0,0,0,0,0,0,0,0,0,0,0,0,0,0,0,0,0,0,0,0,0,0,0,0,0,0,0,0,0,0,0,0,0,0,0],"trees":[{"base_weights":[4.3647984E-7,-3.1088119E0,8.545444E0,-5.134244E0,-5.949662E-1,5.4759374E0,1.6867043E1,-6.4472938E0,-4.1910357E0,-1.6253107E0,8.5525566E-1,3.8470373E0,8.077053E0,1.8810917E1,8.236505E0,-2.1370902E0,-1.7258972E0,-4.687259E0,-3.445225E0,-2.1811552E0,-8.728458E-1,3.6582288E-1,1.4216483E0,4.3975096E0,1.6453086E0,9.45488E0,3.8580472E0,1.6643793E1,7.1079E0,-2.6180634E-1,9.099426E0,-4.5554197E-1,-1.4129022E0,-3.4835076E0,-1.1770322E0,-1.487132E0,-2.2695832E0,4.889497E-1,-9.6748435E-1,1.0228355E0,-3.575695E-1,1.8415936E0,1.3085686E0,4.947491E0,2.5989852E0,2.3814375E0,-1.5048709E0,1.051685E1,6.442999E0,5.344627E0,2.4068615E0,1.6909832E1,-5.740643E-2,-6.559065E-1,5.380936E-1,1.0108085E1,4.051832E0,-8.793056E-1,-1.1029766E0,-4.465419E-1,-3.6406517E-2,-6.1906386E-2,-4.614885E-1,-7.23136E-1,-5.3454775E-1,-2.2839458E-1,-4.3337366E-1,1.9120337E-1,8.046247E-1,7.842775E-2,-2.0745699E-1,-3.5165036E-1,4.2875034E-1,1.1444721E0,1.9205166E0,9.931811E-1,-2.771254E-1,-7.9554194E-1,8.416142E-1,-4.9655393E-1,-6.790638E-2,2.8241613E0,3.8648233E0,2.3357563E0,5.6330323E-1,2.2275388E0,6.610175E-1,9.23497E-2,9.087112E-1,5.142867E0,3.3409354E-1,1.7290176E0,3.6415684E0,1.4123904E0,2.140935E-1],"categories":[],"categories_nodes":[],"categories_segments":[],"categories_sizes":[],"default_left":[0,0,0,0,0,0,0,0,0,0,0,0,0,0,0,0,0,0,0,0,0,0,0,0,0,0,0,0,0,0,0,0,0,0,0,0,0,0,0,0,0,0,0,0,0,0,0,0,0,0,0,0,0,0,0,0,0,0,0,0,0,0,0,0,0,0,0,0,0,0,0,0,0,0,0,0,0,0,0,0,0,0,0,0,0,0,0,0,0,0,0,0,0,0,0],"id":0,"left_children":[1,3,5,7,9,11,13,15,17,19,21,23,25,27,29,-1,-1,31,33,35,37,39,41,43,45,47,49,51,-1,53,55,-1,-1,57,59,61,63,-1,65,67,69,-1,71,73,75,77,79,81,83,85,87,89,-1,-1,-1,91,93,-1,-1,-1,-1,-1,-1,-1,-1,-1,-1,-1,-1,-1,-1,-1,-1,-1,-1,-1,-1,-1,-1,-1,-1,-1,-1,-1,-1,-1,-1,-1,-1,-1,-1,-1,-1,-1,-1],"loss_changes":[4.083222E4,5.735203E3,1.0380348E4,7.45791E2,7.5448096E2,1.244251E3,1.690502E3,8.063965E1,1.1930371E2,1.2148096E2,5.769426E1,2.1940698E2,6.320244E2,5.472832E2,1.6371655E2,0E0,0E0,8.261719E0,8.924683E0,6.996582E0,3.1656769E1,5.4547417E1,4.370659E1,1.3452588E2,9.4022354E1,2.0731299E2,5.1855316E1,2.9435742E2,0E0,1.5788996E1,6.086975E1,0E0,0E0,4.9051514E0,1.1344895E0,1.1241875E0,5.8741455E0,0E0,1.0998764E1,3.6668056E1,1.1550152E1,0E0,3.039598E1,1.6169336E2,9.58114E1,7.572122E1,1.1627197E0,4.051416E1,1.3864478E2,7.51344E1,2.1268974E1,2.1651953E2,0E0,0E0,0E0,7.1189575E1,7.5917053E0,0E0,0E0,0E0,0E0,0E0,0E0,0E0,0E0,0E0,0E0,0E0,0E0,0E0,0E0,0E0,0E0,0E0,0E0,0E0,0E0,0E0,0E0,0E0,0E0,0E0,0E0,0E0,0E0,0E0,0E0,0E0,0E0,0E0,0E0,0E0,0E0,0E0,0E0],"parents":[2147483647,0,0,1,1,2,2,3,3,4,4,5,5,6,6,7,7,8,8,9,9,10,10,11,11,12,12,13,13,14,14,17,17,18,18,19,19,20,20,21,21,22,22,23,23,24,24,25,25,26,26,27,27,29,29,30,30,33,33,34,34,35,35,36,36,38,38,39,39,40,40,42,42,43,43,44,44,45,45,46,46,47,47,48,48,49,49,50,50,51,51,55,55,56,56],"right_children":[2,4,6,8,10,12,14,16,18,20,22,24,26,28,30,-1,-1,32,34,36,38,40,42,44,46,48,50,52,-1,54,56,-1,-1,58,60,62,64,-1,66,68,70,-1,72,74,76,78,80,82,84,86,88,90,-1,-1,-1,92,94,-1,-1,-1,-1,-1,-1,-1,-1,-1,-1,-1,-1,-1,-1,-1,-1,-1,-1,-1,-1,-1,-1,-1,-1,-1,-1,-1,-1,-1,-1,-1,-1,-1,-1,-1,-1,-1,-1],"split_conditions":[1.288E1,7.94E0,2.154E1,5.4333334E0,1.0296667E1,1.694E1,2.420314E1,4.2200003E0,6.6E0,9.073333E0,1.161E1,2.7834309E1,2.5430734E2,3.1646667E1,1E-1,-2.1370902E0,-1.7258972E0,-5.789167E0,2.3052498E1,1.1966953E1,9.346143E0,2.3379361E2,-1.3829166E0,2.6601038E2,2.6601038E2,2.7553526E1,2.780602E2,1.6835835E1,7.1079E0,2.2143333E1,2.4802177E2,-4.5554197E-1,-1.4129022E0,1.5137133E1,1.5725037E1,-5.789167E0,8.796666E0,4.889497E-1,2.242427E1,2.8E0,1.8668005E1,1.8415936E0,4.4518574E1,1.4783333E1,2.0858265E1,8.368185E1,1.6663334E1,2.2910985E2,2.0143333E1,1.983E1,2.8461282E2,2.857058E2,-5.740643E-2,-6.559065E-1,5.380936E-1,2.6785547E1,3.1353085E1,-8.793056E-1,-1.1029766E0,-4.465419E-1,-3.6406517E-2,-6.1906386E-2,-4.614885E-1,-7.23136E-1,-5.3454775E-1,-2.2839458E-1,-4.3337366E-1,1.9120337E-1,8.046247E-1,7.842775E-2,-2.0745699E-1,-3.5165036E-1,4.2875034E-1,1.1444721E0,1.9205166E0,9.931811E-1,-2.771254E-1,-7.9554194E-1,8.416142E-1,-4.9655393E-1,-6.790638E-2,2.8241613E0,3.8648233E0,2.3357563E0,5.6330323E-1,2.2275388E0,6.610175E-1,9.23497E-2,9.087112E-1,5.142867E0,3.3409354E-1,1.7290176E0,3.6415684E0,1.4123904E0,2.140935E-1],"split_indices":[0,0,0,0,0,0,3,0,0,0,0,3,4,0,2,0,0,1,1,3,3,4,1,4,4,3,4,1,0,0,4,0,0,3,3,1,0,0,3,2,3,0,4,0,3,4,0,4,0,0,4,4,0,0,0,3,3,0,0,0,0,0,0,0,0,0,0,0,0,0,0,0,0,0,0,0,0,0,0,0,0,0,0,0,0,0,0,0,0,0,0,0,0,0,0],"split_type":[0,0,0,0,0,0,0,0,0,0,0,0,0,0,0,0,0,0,0,0,0,0,0,0,0,0,0,0,0,0,0,0,0,0,0,0,0,0,0,0,0,0,0,0,0,0,0,0,0,0,0,0,0,0,0,0,0,0,0,0,0,0,0,0,0,0,0,0,0,0,0,0,0,0,0,0,0,0,0,0,0,0,0,0,0,0,0,0,0,0,0,0,0,0,0],"sum_hessian":[1.535E3,1.126E3,4.09E2,6.23E2,5.03E2,3E2,1.09E2,2.58E2,3.65E2,2.94E2,2.09E2,1.86E2,1.14E2,8.8E1,2.1E1,1.26E2,1.32E2,2.16E2,1.49E2,1.68E2,1.26E2,1.13E2,9.6E1,1.48E2,3.8E1,8.5E1,2.9E1,6.4E1,2.4E1,2E0,1.9E1,2E0,2.14E2,1.46E2,3E0,2.1E1,1.47E2,4E0,1.22E2,5.9E1,5.4E1,1E0,9.5E1,1.12E2,3.6E1,3.1E1,7E0,6.1E1,2.4E1,1.3E1,1.6E1,6.3E1,1E0,1E0,1E0,1.5E1,4E0,4.2E1,1.04E2,2E0,1E0,1E0,2E1,1.11E2,3.6E1,8.7E1,3.5E1,4.9E1,1E1,1.9E1,3.5E1,4E0,9.1E1,6.5E1,4.7E1,3E1,6E0,2E0,2.9E1,6E0,1E0,4.5E1,1.6E1,1.8E1,6E0,7E0,6E0,4E0,1.2E1,6.2E1,1E0,6E0,9E0,3E0,1E0],"tree_param":{"num_deleted":"0","num_feature":"5","num_nodes":"95","size_leaf_vector":"1"}},{"base_weights":[1.8738542E-2,-2.0958085E0,6.3239846E0,-3.5612772E0,-2.469327E-1,4.4741344E0,1.3343734E1,-4.3646445E0,-2.734154E0,-1.0411688E0,8.389312E-1,2.8755805E0,6.385512E0,1.5008334E1,9.309245E0,-4.8464413E0,-3.7287424E0,-3.0423741E0,-2.1609428E0,-1.3624663E0,-3.712785E-1,1.1426201E0,1.1443534E-2,3.2537425E0,9.3777406E-1,6.9218955E0,1.489946E0,1.5292291E1,-4.8795465E-2,-4.3733656E-1,9.798238E0,-1.5833479E0,-1.3405561E0,-1.1225016E0,-2.8197122E-1,-3.6443365E-1,-3.054396E0,-1.9994714E0,-2.689877E0,-1.1233929E0,-1.6698896E0,-7.325294E-1,3.1964314E-1,8.473263E-1,2.7560382E0,6.4104563E-1,-5.779082E-1,1.1686703E0,3.5688875E0,7.627944E-2,2.8437312E0,8.582682E0,4.855424E0,-9.338837E-2,1.9661974E0,1.8493185E1,1.3026285E1,1.0358602E1,6.7080975E-1,-9.1828066E-1,-2.6001063E-1,-6.6600245E-1,-4.4816974E-1,-8.5483295E-1,-1.8693061E-1,-4.2297807E-1,-2.511714E-1,-1.793604E-2,-5.0650376E-1,8.2941584E-2,-2.8414837E-1,2.496814E-1,-2.0685934E-1,1.7734559E-1,6.0225034E-1,1.0769143E0,1.9199185E-1,4.4806164E-2,5.7392025E-1,-5.398608E-1,-2.242608E-2,-4.4164905E-1,5.762667E-1,1.3697032E0,7.170789E-1,3.5440707E-1,-2.5529253E-1,1.8101354E0,3.2109547E-1,2.9474442E0,2.0634775E0,1.021076E-1,1.5824856E0,1.0454589E0,2.3137702E-1,2.6773546E0,6.3263326E0,3.0167096E0,4.425432E0,3.193938E0,6.0385823E-1],"categories":[],"categories_nodes":[],"categories_segments":[],"categories_sizes":[],"default_left":[0,0,0,0,0,0,0,0,0,0,0,0,0,0,0,0,0,0,0,0,0,0,0,0,0,0,0,0,0,0,0,0,0,0,0,0,0,0,0,0,0,0,0,0,0,0,0,0,0,0,0,0,0,0,0,0,0,0,0,0,0,0,0,0,0,0,0,0,0,0,0,0,0,0,0,0,0,0,0,0,0,0,0,0,0,0,0,0,0,0,0,0,0,0,0,0,0,0,0,0,0],"id":1,"left_children":[1,3,5,7,9,11,13,15,17,19,21,23,25,27,29,31,33,35,37,39,41,43,45,47,49,51,53,55,-1,-1,57,-1,-1,-1,-1,-1,59,61,63,65,67,69,71,73,75,77,79,81,83,85,87,89,91,-1,93,95,97,99,-1,-1,-1,-1,-1,-1,-1,-1,-1,-1,-1,-1,-1,-1,-1,-1,-1,-1,-1,-1,-1,-1,-1,-1,-1,-1,-1,-1,-1,-1,-1,-1,-1,-1,-1,-1,-1,-1,-1,-1,-1,-1,-1],"loss_changes":[2.0492342E4,3.1177197E3,4.9526953E3,4.1466553E2,4.4071396E2,9.196577E2,3.9754883E2,8.1194336E1,4.9784912E1,6.298822E1,5.426747E1,1.20792725E2,3.546875E2,2.3942188E2,1.5117383E2,5.9243164E0,1.6757812E0,7.935791E-1,4.4435425E0,1.2749878E1,2.4444965E1,7.294104E1,2.2262835E1,8.8480225E1,4.740027E1,3.8732373E2,1.3479717E1,1.5077734E2,0E0,0E0,8.277759E1,0E0,0E0,0E0,0E0,0E0,2.512207E-1,6.941284E0,6.139374E0,8.248764E0,2.4249573E0,1.4121948E1,1.8163134E1,3.8936203E1,4.004138E1,1.7852112E1,1.8920177E1,4.255755E1,1.3241748E2,2.2523752E1,4.445746E1,7.638672E1,1.0806787E2,0E0,1.9088863E1,3.083374E2,3.1029297E1,3.3825195E1,0E0,0E0,0E0,0E0,0E0,0E0,0E0,0E0,0E0,0E0,0E0,0E0,0E0,0E0,0E0,0E0,0E0,0E0,0E0,0E0,0E0,0E0,0E0,0E0,0E0,0E0,0E0,0E0,0E0,0E0,0E0,0E0,0E0,0E0,0E0,0E0,0E0,0E0,0E0,0E0,0E0,0E0,0E0],"parents":[2147483647,0,0,1,1,2,2,3,3,4,4,5,5,6,6,7,7,8,8,9,9,10,10,11,11,12,12,13,13,14,14,15,15,16,16,17,17,18,18,19,19,20,20,21,21,22,22,23,23,24,24,25,25,26,26,27,27,30,30,36,36,37,37,38,38,39,39,40,40,41,41,42,42,43,43,44,44,45,45,46,46,47,47,48,48,49,49,50,50,51,51,52,52,54,54,55,55,56,56,57,57],"right_children":[2,4,6,8,10,12,14,16,18,20,22,24,26,28,30,32,34,36,38,40,42,44,46,48,50,52,54,56,-1,-1,58,-1,-1,-1,-1,-1,60,62,64,66,68,70,72,74,76,78,80,82,84,86,88,90,92,-1,94,96,98,100,-1,-1,-1,-1,-1,-1,-1,-1,-1,-1,-1,-1,-1,-1,-1,-1,-1,-1,-1,-1,-1,-1,-1,-1,-1,-1,-1,-1,-1,-1,-1,-1,-1,-1,-1,-1,-1,-1,-1,-1,-1,-1,-1],"split_conditions":[1.334E1,8.026667E0,2.4266666E1,5.7766666E0,1.0476666E1,1.7153334E1,1.993048E1,4.846667E0,7.14E0,9.503333E0,2.3210928E1,2.901743E1,2.780602E2,1.6835835E1,2.026899E1,3.7466667E0,2.2112917E1,-5.789167E0,2.8272635E2,1.9829433E1,1.2000002E0,1.2773334E1,8.235832E0,1.3711133E2,8.510833E0,2.2180206E1,2.8461282E2,1.3363844E2,-4.8795465E-2,-4.3733656E-1,2.5476797E2,-1.5833479E0,-1.3405561E0,-1.1225016E0,-2.8197122E-1,-3.6443365E-1,3.4354904E2,2.2294234E2,5.3E0,8.72E0,-7.766667E-1,1.1384199E1,2.4802177E2,2E0,2.4290204E2,6.40875E0,3E-1,5.712499E-1,2.3909569E2,1.4293334E1,9.419166E0,5.242083E0,1.7812216E2,-9.338837E-2,2.939844E2,1.0574528E2,1.9694466E2,3.1353085E1,6.7080975E-1,-9.1828066E-1,-2.6001063E-1,-6.6600245E-1,-4.4816974E-1,-8.5483295E-1,-1.8693061E-1,-4.2297807E-1,-2.511714E-1,-1.793604E-2,-5.0650376E-1,8.2941584E-2,-2.8414837E-1,2.496814E-1,-2.0685934E-1,1.7734559E-1,6.0225034E-1,1.0769143E0,1.9199185E-1,4.4806164E-2,5.7392025E-1,-5.398608E-1,-2.242608E-2,-4.4164905E-1,5.762667E-1,1.3697032E0,7.170789E-1,3.5440707E-1,-2.5529253E-1,1.8101354E0,3.2109547E-1,2.9474442E0,2.0634775E0,1.021076E-1,1.5824856E0,1.0454589E0,2.3137702E-1,2.6773546E0,6.3263326E0,3.0167096E0,4.425432E0,3.193938E0,6.0385823E-1],"split_indices":[0,0,0,0,0,0,3,0,0,0,3,3,4,1,3,0,1,1,4,3,2,0,1,4,1,3,4,4,0,0,4,0,0,0,0,0,4,4,2,0,1,3,4,2,4,1,2,1,4,0,1,1,4,0,4,4,4,3,0,0,0,0,0,0,0,0,0,0,0,0,0,0,0,0,0,0,0,0,0,0,0,0,0,0,0,0,0,0,0,0,0,0,0,0,0,0,0,0,0,0,0],"split_type":[0,0,0,0,0,0,0,0,0,0,0,0,0,0,0,0,0,0,0,0,0,0,0,0,0,0,0,0,0,0,0,0,0,0,0,0,0,0,0,0,0,0,0,0,0,0,0,0,0,0,0,0,0,0,0,0,0,0,0,0,0,0,0,0,0,0,0,0,0,0,0,0,0,0,0,0,0,0,0,0,0,0,0,0,0,0,0,0,0,0,0,0,0,0,0,0,0,0,0,0,0],"sum_hessian":[1.535E3,1.15E3,3.85E2,6.41E2,5.09E2,3.06E2,7.9E1,3.23E2,3.18E2,2.94E2,2.15E2,1.68E2,1.38E2,5.4E1,2.5E1,1.8E2,1.43E2,2.04E2,1.14E2,1.98E2,9.6E1,1.57E2,5.8E1,1.4E2,2.8E1,1.24E2,1.4E1,5.3E1,1E0,1E0,2.4E1,7.8E1,1.02E2,1.42E2,1E0,2E0,2.02E2,9.1E1,2.3E1,1.14E2,8.4E1,6.3E1,3.3E1,1.34E2,2.3E1,2.8E1,3E1,1.9E1,1.21E2,2E1,8E0,6.7E1,5.7E1,3E0,1.1E1,1.9E1,3.4E1,2.2E1,2E0,2.01E2,1E0,6.1E1,3E1,2.1E1,2E0,5.5E1,5.9E1,1E0,8.3E1,1.1E1,5.2E1,2.2E1,1.1E1,1.11E2,2.3E1,1.6E1,7E0,2.1E1,7E0,8E0,2.2E1,4E0,1.5E1,6.4E1,5.7E1,9E0,1.1E1,2E0,6E0,3.6E1,3.1E1,5E0,5.2E1,4E0,7E0,5E0,1.4E1,1.5E1,1.9E1,2.1E1,1E0],"tree_param":{"num_deleted":"0","num_feature":"5","num_nodes":"101","size_leaf_vector":"1"}},{"base_weights":[2.9705472E-2,-1.0807896E0,6.1514187E0,-2.2221994E0,7.285873E-1,4.6028266E0,1.0423228E1,-2.965855E0,-1.5252683E0,9.701279E-2,1.7987056E0,5.15796E0,1.9608879E0,9.088136E0,1.4351538E1,-3.441647E0,-2.5855846E0,-1.9460466E0,-1.1596706E0,-3.0591577E-1,6.114928E-1,2.556671E0,7.9696125E-1,6.820157E0,4.084862E0,1.2108557E0,6.908399E0,9.657434E0,4.9633007E0,4.6134048E0,5.461786E0,-1.1837819E0,-9.726698E-1,-7.84651E-1,-1.6002022E0,-6.6975695E-1,-1.9838194E0,-9.377364E-1,-1.3732322E0,-9.438097E-2,-8.8126326E-1,5.524264E-1,9.37415E-1,2.7948215E0,-1.2107193E0,1.2106838E0,-1.1317117E0,3.12735E0,8.254966E0,7.1997757E0,3.5600038E0,1.4999232E0,-4.7665328E-1,-3.3250667E-2,2.785527E0,1.0460652E1,6.777667E0,-7.864396E-1,6.421334E0,-3.5509816E-1,2.8129017E0,-5.3213596E-1,-3.172903E-2,-3.0609888E-1,4.1334916E-2,-6.1558366E-1,-4.0622276E-1,-3.0737627E-1,-1.2673017E-1,-4.649801E-1,-3.1254807E-1,-5.7444684E-2,4.3038738E-1,-5.429161E-1,-1.7679247E-1,-7.6301694E-2,2.073965E-1,7.429583E-1,1.6235441E0,-7.3630804E-1,3.7967646E-1,-7.8046787E-1,4.4687954E-1,-2.572608E-2,-4.9383464E-1,1.1660846E0,-9.39246E-2,3.7436438E-1,2.6412683E0,2.8757305E0,9.648468E-1,-6.542238E-1,1.1445919E0,-9.4418265E-2,5.2850443E-1,-1.942649E-2,-1.6903174E-1,6.01157E-1,3.2027254E0,2.3034363E0,-4.690982E-1,5.1327956E-1,2.0763738E0],"categories":[],"categories_nodes":[],"categories_segments":[],"categories_sizes":[],"default_left":[0,0,0,0,0,0,0,0,0,0,0,0,0,0,0,0,0,0,0,0,0,0,0,0,0,0,0,0,0,0,0,0,0,0,0,0,0,0,0,0,0,0,0,0,0,0,0,0,0,0,0,0,0,0,0,0,0,0,0,0,0,0,0,0,0,0,0,0,0,0,0,0,0,0,0,0,0,0,0,0,0,0,0,0,0,0,0,0,0,0,0,0,0,0,0,0,0,0,0,0,0,0,0],"id":2,"left_children":[1,3,5,7,9,11,13,15,17,19,21,23,25,27,29,31,33,35,37,39,41,43,45,47,49,51,53,55,57,-1,59,-1,-1,-1,61,63,65,67,69,71,73,75,-1,77,79,81,83,85,87,89,91,93,95,-1,-1,97,99,-1,101,-1,-1,-1,-1,-1,-1,-1,-1,-1,-1,-1,-1,-1,-1,-1,-1,-1,-1,-1,-1,-1,-1,-1,-1,-1,-1,-1,-1,-1,-1,-1,-1,-1,-1,-1,-1,-1,-1,-1,-1,-1,-1,-1,-1],"loss_changes":[1.0448579E4,2.6884976E3,1.5132324E3,4.090608E2,3.4045868E2,2.465459E2,1.9474023E2,6.0759277E1,6.1431213E1,6.610805E1,1.3994922E2,2.2899316E2,1.1038029E2,6.713208E1,4.3760254E1,4.101074E0,2.241455E0,7.8792725E0,9.329132E0,2.1702204E1,1.9056416E1,9.848755E1,6.680086E1,2.6559985E2,1.2150891E2,1.4861263E1,6.775929E1,2.6250488E1,1.0530403E2,0E0,8.914027E1,0E0,0E0,0E0,2.1470985E0,2.1222942E0,5.158325E0,4.6244507E0,4.9439087E0,1.987254E1,1.1944771E1,1.5639549E1,0E0,6.989484E1,2.4663666E1,7.6179016E1,7.92951E0,4.564383E1,1.3911304E2,8.322925E1,1.2410474E2,1.2429447E1,1.4224923E-1,0E0,0E0,3.499756E1,1.02137695E2,0E0,4.6417236E0,0E0,0E0,0E0,0E0,0E0,0E0,0E0,0E0,0E0,0E0,0E0,0E0,0E0,0E0,0E0,0E0,0E0,0E0,0E0,0E0,0E0,0E0,0E0,0E0,0E0,0E0,0E0,0E0,0E0,0E0,0E0,0E0,0E0,0E0,0E0,0E0,0E0,0E0,0E0,0E0,0E0,0E0,0E0,0E0],"parents":[2147483647,0,0,1,1,2,2,3,3,4,4,5,5,6,6,7,7,8,8,9,9,10,10,11,11,12,12,13,13,14,14,15,15,16,16,17,17,18,18,19,19,20,20,21,21,22,22,23,23,24,24,25,25,26,26,27,27,28,28,30,30,34,34,35,35,36,36,37,37,38,38,39,39,40,40,41,41,43,43,44,44,45,45,46,46,47,47,48,48,49,49,50,50,51,51,52,52,55,55,56,56,58,58],"right_children":[2,4,6,8,10,12,14,16,18,20,22,24,26,28,30,32,34,36,38,40,42,44,46,48,50,52,54,56,58,-1,60,-1,-1,-1,62,64,66,68,70,72,74,76,-1,78,80,82,84,86,88,90,92,94,96,-1,-1,98,100,-1,102,-1,-1,-1,-1,-1,-1,-1,-1,-1,-1,-1,-1,-1,-1,-1,-1,-1,-1,-1,-1,-1,-1,-1,-1,-1,-1,-1,-1,-1,-1,-1,-1,-1,-1,-1,-1,-1,-1,-1,-1,-1,-1,-1,-1],"split_conditions":[1.6663334E1,9.14E0,2.5653334E1,6.0933332E0,1.2773334E1,2.6344547E2,3.3806667E1,4.7566667E0,7.5866666E0,1.103E1,2.0858265E1,5.242083E0,1.5506668E1,3.7000003E0,5.90875E0,3.3533335E0,2.0144167E1,-2.2225E0,1.9134262E1,2.245315E1,1.38E1,1.6333334E1,2.6695053E2,1.14979065E2,1.6135872E1,3.1035257E1,1.8013334E1,7.4254165E0,7.920661E1,4.6134048E0,3.7316666E1,-1.1837819E0,-9.726698E-1,-7.84651E-1,3.5000002E0,7.741556E1,1.9815E1,1.8E0,8.59E0,8.900001E0,2.2212697E2,4.13375E0,9.37415E-1,1.9803272E1,3E-1,8.368185E1,1.31866665E1,2.0767975E1,1.721E1,1.0965E1,1.6700275E1,1.694E1,1.681E1,-3.3250667E-2,2.785527E0,1.0495713E1,3.238E1,-7.864396E-1,2.6383333E1,-3.5509816E-1,2.8129017E0,-5.3213596E-1,-3.172903E-2,-3.0609888E-1,4.1334916E-2,-6.1558366E-1,-4.0622276E-1,-3.0737627E-1,-1.2673017E-1,-4.649801E-1,-3.1254807E-1,-5.7444684E-2,4.3038738E-1,-5.429161E-1,-1.7679247E-1,-7.6301694E-2,2.073965E-1,7.429583E-1,1.6235441E0,-7.3630804E-1,3.7967646E-1,-7.8046787E-1,4.4687954E-1,-2.572608E-2,-4.9383464E-1,1.1660846E0,-9.39246E-2,3.7436438E-1,2.6412683E0,2.8757305E0,9.648468E-1,-6.542238E-1,1.1445919E0,-9.4418265E-2,5.2850443E-1,-1.942649E-2,-1.6903174E-1,6.01157E-1,3.2027254E0,2.3034363E0,-4.690982E-1,5.1327956E-1,2.0763738E0],"split_indices":[0,0,0,0,0,4,0,0,0,0,3,1,1,2,1,0,1,1,3,3,2,0,4,4,3,3,0,1,4,0,0,0,0,0,2,4,1,2,0,2,4,1,0,3,2,4,0,3,0,1,3,0,0,0,0,3,0,0,0,0,0,0,0,0,0,0,0,0,0,0,0,0,0,0,0,0,0,0,0,0,0,0,0,0,0,0,0,0,0,0,0,0,0,0,0,0,0,0,0,0,0,0,0],"split_type":[0,0,0,0,0,0,0,0,0,0,0,0,0,0,0,0,0,0,0,0,0,0,0,0,0,0,0,0,0,0,0,0,0,0,0,0,0,0,0,0,0,0,0,0,0,0,0,0,0,0,0,0,0,0,0,0,0,0,0,0,0,0,0,0,0,0,0,0,0,0,0,0,0,0,0,0,0,0,0,0,0,0,0,0,0,0,0,0,0,0,0,0,0,0,0,0,0,0,0,0,0,0,0],"sum_hessian":[1.535E3,1.3E3,2.35E2,7.97E2,5.03E2,1.74E2,6.1E1,3.84E2,4.13E2,3.17E2,1.86E2,1.43E2,3.1E1,4.8E1,1.3E1,1.67E2,2.17E2,1.9E2,2.23E2,1.78E2,1.39E2,1.05E2,8.1E1,5.4E1,8.9E1,2.8E1,3E0,4.1E1,7E0,1.1E1,2E0,4.2E1,1.25E2,2.09E2,8E0,6E0,1.84E2,1.12E2,1.11E2,1.31E2,4.7E1,1.37E2,2E0,9.9E1,6E0,6.7E1,1.4E1,1.6E1,3.8E1,1.1E1,7.8E1,2.4E1,4E0,1E0,2E0,3E1,1.1E1,1E0,6E0,1E0,1E0,7E0,1E0,4E0,2E0,1.64E2,2E1,9.5E1,1.7E1,7E1,4.1E1,1.24E2,7E0,1E1,3.7E1,2E1,1.17E2,9E1,9E0,4E0,2E0,4E0,6.3E1,5E0,9E0,1.3E1,3E0,3E0,3.5E1,6E0,5E0,3E0,7.5E1,3E0,2.1E1,1E0,3E0,1E0,2.9E1,1E1,1E0,1E0,5E0],"tree_param":{"num_deleted":"0","num_feature":"5","num_nodes":"103","size_leaf_vector":"1"}},{"base_weights":[3.4989446E-2,-7.597232E-1,4.415863E0,-1.5126032E0,6.107938E-1,3.057168E0,7.0271034E0,-2.035619E0,-9.695104E-1,2.3283605E-1,1.3876946E0,3.4861145E0,1.1250914E0,8.535022E0,5.0439816E0,-2.4072793E0,-1.7550275E0,-1.2196709E0,-6.7673755E-1,-9.044338E-2,5.781237E-1,-1.6585615E0,1.525185E0,4.1733828E0,2.212878E0,3.899825E0,5.48216E-1,8.762379E0,-1.862031E-1,7.8895664E0,3.1738915E0,-8.7227106E-1,-6.8658847E-1,-1.4447232E0,-1.8447255E0,-1.0997173E0,-1.5638992E0,-1.3858563E0,-6.048067E-1,2.2297525E-1,-4.4803518E-1,4.8037657E-1,2.520296E0,-4.1782713E-1,-7.453966E-1,1.732624E0,-7.1439844E-1,2.759476E0,5.588998E0,-1.6455473E0,2.7113938E0,4.9218864E0,-2.8263045E-2,8.468992E-1,-2.2968364E-1,9.138044E0,2.815128E0,8.579614E0,-1.6215736E-1,-9.1409254E-1,4.2977867E0,-2.832258E-1,-4.5107666E-1,-5.897593E-1,-5.072928E-1,-3.62724E-1,-2.4523184E-1,-5.391035E-1,-3.082899E-1,-7.6814994E-2,-5.5058146E-1,1.4735685E-1,-1.9185686E-1,-4.0962547E-2,2.63049E-1,3.1281382E-1,-1.5707476E-1,4.921433E-1,1.0016992E-1,1.3058037E0,1.735182E-2,-4.29961E-1,1.19509794E-1,7.510769E-1,3.6203247E-1,-5.595941E-1,1.3129235E-3,3.818164E-2,9.307409E-1,6.0000706E-1,1.7477823E0,-6.117242E-1,4.8317958E-2,1.8475349E-1,1.030533E0,6.9567984E-1,1.9096122E0,3.2258493E-1,-2.1887265E-1,3.1826422E-1,-3.6485952E-1,1.849168E0,2.9408019E0,-6.684736E-1,1.5717003E0,9.0339917E-1,2.7954817E0,3.3674842E-1,-4.6377268E-1,1.7596865E-1,1.5745028E0],"categories":[],"categories_nodes":[],"categories_segments":[],"categories_sizes":[],"default_left":[0,0,0,0,0,0,0,0,0,0,0,0,0,0,0,0,0,0,0,0,0,0,0,0,0,0,0,0,0,0,0,0,0,0,0,0,0,0,0,0,0,0,0,0,0,0,0,0,0,0,0,0,0,0,0,0,0,0,0,0,0,0,0,0,0,0,0,0,0,0,0,0,0,0,0,0,0,0,0,0,0,0,0,0,0,0,0,0,0,0,0,0,0,0,0,0,0,0,0,0,0,0,0,0,0,0,0,0,0,0,0],"id":3,"left_children":[1,3,5,7,9,11,13,15,17,19,21,23,25,27,29,31,33,35,37,39,41,43,45,47,49,51,53,55,-1,57,59,-1,-1,61,63,65,67,69,71,73,75,77,79,81,-1,83,85,87,89,91,93,95,-1,97,99,101,103,105,-1,107,109,-1,-1,-1,-1,-1,-1,-1,-1,-1,-1,-1,-1,-1,-1,-1,-1,-1,-1,-1,-1,-1,-1,-1,-1,-1,-1,-1,-1,-1,-1,-1,-1,-1,-1,-1,-1,-1,-1,-1,-1,-1,-1,-1,-1,-1,-1,-1,-1,-1,-1],"loss_changes":[5.350993E3,1.3433408E3,8.158169E2,2.36625E2,1.3533656E2,1.2619275E2,1.9618018E2,4.030481E1,2.9496033E1,3.4879097E1,6.577307E1,1.0277185E2,4.588232E1,9.703003E1,1.7185492E2,4.0898438E0,4.209778E0,7.4468384E0,9.006279E0,1.82562E1,2.7455414E1,6.136587E0,6.860144E1,1.4870422E2,9.4865585E1,2.0874443E1,6.2355037E0,7.034448E1,0E0,8.607782E1,1.14195786E2,0E0,0E0,3.4870148E-1,1.772461E-1,4.1979065E0,5.0289154E0,8.161861E0,7.048744E0,2.0570982E1,9.105223E0,2.4091805E1,3.1333382E1,3.885911E0,0E0,5.08985E1,1.0762398E1,3.8426758E1,2.2363281E1,4.5941734E0,6.1580963E1,2.6844788E-1,0E0,7.625285E0,1.1475528E1,1.8645752E1,6.0571762E1,2.5409302E1,0E0,9.4557705E0,6.3948273E1,0E0,0E0,0E0,0E0,0E0,0E0,0E0,0E0,0E0,0E0,0E0,0E0,0E0,0E0,0E0,0E0,0E0,0E0,0E0,0E0,0E0,0E0,0E0,0E0,0E0,0E0,0E0,0E0,0E0,0E0,0E0,0E0,0E0,0E0,0E0,0E0,0E0,0E0,0E0,0E0,0E0,0E0,0E0,0E0,0E0,0E0,0E0,0E0,0E0,0E0],"parents":[2147483647,0,0,1,1,2,2,3,3,4,4,5,5,6,6,7,7,8,8,9,9,10,10,11,11,12,12,13,13,14,14,15,15,16,16,17,17,18,18,19,19,20,20,21,21,22,22,23,23,24,24,25,25,26,26,27,27,29,29,30,30,33,33,34,34,35,35,36,36,37,37,38,38,39,39,40,40,41,41,42,42,43,43,45,45,46,46,47,47,48,48,49,49,50,50,51,51,53,53,54,54,55,55,56,56,57,57,59,59,60,60],"right_children":[2,4,6,8,10,12,14,16,18,20,22,24,26,28,30,32,34,36,38,40,42,44,46,48,50,52,54,56,-1,58,60,-1,-1,62,64,66,68,70,72,74,76,78,80,82,-1,84,86,88,90,92,94,96,-1,98,100,102,104,106,-1,108,110,-1,-1,-1,-1,-1,-1,-1,-1,-1,-1,-1,-1,-1,-1,-1,-1,-1,-1,-1,-1,-1,-1,-1,-1,-1,-1,-1,-1,-1,-1,-1,-1,-1,-1,-1,-1,-1,-1,-1,-1,-1,-1,-1,-1,-1,-1,-1,-1,-1,-1],"split_conditions":[1.6663334E1,9.503333E0,2.4266666E1,6.31E0,1.334E1,2.6344547E2,1.8359999E1,4.846667E0,8.09E0,1.133E1,6.3174183E1,2.475638E1,1.2783802E1,1.6835835E1,4E-1,3.1566668E0,1.5629971E1,2.4569836E1,5.676259E1,2.3909569E2,7.9999995E0,1.224E1,1.6333334E1,1.9363333E1,3E-1,1.7677502E1,2.0143333E1,3.7000003E0,-1.862031E-1,7.296249E0,2.026899E1,-8.7227106E-1,-6.8658847E-1,7.4506645E1,5.73E0,1.6000001E0,7.633333E0,1.3779114E1,6.919776E1,1.9431232E2,-1.762083E0,3.3191664E0,2.1594427E2,1.4293334E1,-7.453966E-1,6.59E0,3E-1,8.483334E-1,1.1212135E1,2.2143333E1,2.2138376E2,1.1433751E1,-2.8263045E-2,1.17420845E1,1.8359999E1,2.6383333E1,7.920661E1,1.909358E1,-1.6215736E-1,1.4941019E2,1.7E0,-2.832258E-1,-4.5107666E-1,-5.897593E-1,-5.072928E-1,-3.62724E-1,-2.4523184E-1,-5.391035E-1,-3.082899E-1,-7.6814994E-2,-5.5058146E-1,1.4735685E-1,-1.9185686E-1,-4.0962547E-2,2.63049E-1,3.1281382E-1,-1.5707476E-1,4.921433E-1,1.0016992E-1,1.3058037E0,1.735182E-2,-4.29961E-1,1.19509794E-1,7.510769E-1,3.6203247E-1,-5.595941E-1,1.3129235E-3,3.818164E-2,9.307409E-1,6.0000706E-1,1.7477823E0,-6.117242E-1,4.8317958E-2,1.8475349E-1,1.030533E0,6.9567984E-1,1.9096122E0,3.2258493E-1,-2.1887265E-1,3.1826422E-1,-3.6485952E-1,1.849168E0,2.9408019E0,-6.684736E-1,1.5717003E0,9.0339917E-1,2.7954817E0,3.3674842E-1,-4.6377268E-1,1.7596865E-1,1.5745028E0],"split_indices":[0,0,0,0,0,4,3,0,0,0,4,3,3,1,2,0,3,3,4,4,2,3,0,0,2,1,0,2,0,1,3,0,0,4,0,2,0,3,4,4,1,1,4,0,0,1,2,1,3,0,4,1,0,1,3,0,4,3,0,4,2,0,0,0,0,0,0,0,0,0,0,0,0,0,0,0,0,0,0,0,0,0,0,0,0,0,0,0,0,0,0,0,0,0,0,0,0,0,0,0,0,0,0,0,0,0,0,0,0,0,0],"split_type":[0,0,0,0,0,0,0,0,0,0,0,0,0,0,0,0,0,0,0,0,0,0,0,0,0,0,0,0,0,0,0,0,0,0,0,0,0,0,0,0,0,0,0,0,0,0,0,0,0,0,0,0,0,0,0,0,0,0,0,0,0,0,0,0,0,0,0,0,0,0,0,0,0,0,0,0,0,0,0,0,0,0,0,0,0,0,0,0,0,0,0,0,0,0,0,0,0,0,0,0,0,0,0,0,0,0,0,0,0,0,0],"sum_hessian":[1.535E3,1.3E3,2.35E2,8.39E2,4.61E2,1.56E2,7.9E1,4.26E2,4.13E2,3.11E2,1.5E2,1.27E2,2.9E1,4.3E1,3.6E1,1.8E2,2.46E2,2.21E2,1.92E2,1.61E2,1.5E2,6E0,1.44E2,8.1E1,4.6E1,4E0,2.5E1,4.2E1,1E0,1.3E1,2.3E1,3E1,1.5E2,5.9E1,1.87E2,1.67E2,5.4E1,1.6E1,1.76E2,8.6E1,7.5E1,1.44E2,6E0,3E0,3E0,1.32E2,1.2E1,4.2E1,3.9E1,5E0,4.1E1,3E0,1E0,1.8E1,7E0,3.9E1,3E0,1.2E1,1E0,5E0,1.8E1,8E0,5.1E1,9.8E1,8.9E1,1.18E2,4.9E1,3.6E1,1.8E1,5E0,1.1E1,5E0,1.71E2,5.6E1,3E1,3E0,7.2E1,1.5E1,1.29E2,3E0,3E0,1E0,2E0,5.2E1,8E1,4E0,8E0,5E0,3.7E1,3E0,3.6E1,4E0,1E0,1.1E1,3E1,2E0,1E0,1.6E1,2E0,3E0,4E0,9E0,3E1,1E0,2E0,2E0,1E1,1E0,4E0,4E0,1.4E1],"tree_param":{"num_deleted":"0","num_feature":"5","num_nodes":"111","size_leaf_vector":"1"}},{"base_weights":[3.3310726E-2,-6.348664E-1,2.699403E0,-1.160948E0,1.555463E-1,1.8124504E0,4.9679036E0,-1.520117E0,-8.667178E-1,-1.8192032E-1,5.439115E-1,2.4774747E0,5.444245E-1,4.3001823E0,8.094742E0,-1.8909724E0,-1.3863405E0,-1.0502095E0,-6.5686846E-1,-5.3952705E-2,-4.919981E-1,1.0766457E0,1.7830426E-1,2.2448478E0,6.2096844E0,-1.2432663E0,8.8829654E-1,5.5634E0,3.5263526E0,2.830429E0,3.7957497E0,-1.9099728E0,-2.2049141E-1,-1.4891568E0,-1.2425072E0,-4.706758E-1,-1.1037145E0,-3.6518502E-1,-7.6468307E-1,9.932121E-2,-4.079563E-1,-5.9102684E-1,1.0522211E0,9.2746407E-1,1.2492213E0,1.3269206E0,1.5454801E-2,2.5131247E0,-3.2999006E-1,7.2285235E-1,2.1224477E0,-9.606027E-1,-3.3544272E-1,2.7966166E0,1.691525E-1,4.566091E0,8.838878E0,4.95825E0,1.8878616E0,5.1317997E0,-2.3226757E-1,-3.826229E-1,-5.909743E-1,-4.5771745E-1,-3.1610316E-1,-2.526726E-1,-3.906941E-1,-2.6704538E-1,1.1344428E-2,5.5140067E-2,-3.3336636E-1,-6.5342605E-2,-3.2335976E-1,-2.3300146E-1,1.35256E-1,-5.2864198E-2,1.8041363E-1,1.5043932E-1,-1.6359136E-1,-2.0344241E-1,1.4843264E-1,-6.3171834E-1,7.1044207E-1,1.3111618E-1,4.9528173E-1,-3.1445605E-1,6.4150584E-1,-4.471644E-2,4.5665148E-1,6.182491E-1,1.2067662E0,-8.383762E-1,1.7886789E-1,6.559492E-1,-2.5758073E-1,2.6399907E-1,1.3846377E0,-1.6418917E-1,5.0431085E-1,1.4481844E0,-1.3783379E-1,6.809581E-1,2.9741004E0,2.0661318E0,1.0328475E0,-1.7331706E-1,8.811259E-1,2.6677096E-1,1.8748726E0],"categories":[],"categories_nodes":[],"categories_segments":[],"categories_sizes":[],"default_left":[0,0,0,0,0,0,0,0,0,0,0,0,0,0,0,0,0,0,0,0,0,0,0,0,0,0,0,0,0,0,0,0,0,0,0,0,0,0,0,0,0,0,0,0,0,0,0,0,0,0,0,0,0,0,0,0,0,0,0,0,0,0,0,0,0,0,0,0,0,0,0,0,0,0,0,0,0,0,0,0,0,0,0,0,0,0,0,0,0,0,0,0,0,0,0,0,0,0,0,0,0,0,0,0,0,0,0,0,0],"id":4,"left_children":[1,3,5,7,9,11,13,15,17,19,21,23,25,27,29,31,33,35,37,39,41,43,45,47,49,51,53,55,57,-1,59,61,-1,63,65,67,69,71,73,75,77,79,81,83,-1,85,87,89,91,-1,-1,-1,93,95,97,99,101,103,105,107,-1,-1,-1,-1,-1,-1,-1,-1,-1,-1,-1,-1,-1,-1,-1,-1,-1,-1,-1,-1,-1,-1,-1,-1,-1,-1,-1,-1,-1,-1,-1,-1,-1,-1,-1,-1,-1,-1,-1,-1,-1,-1,-1,-1,-1,-1,-1,-1,-1],"loss_changes":[2.737978E3,5.1122525E2,6.10708E2,7.667316E1,6.458061E1,1.8669995E2,1.4474683E2,1.3799927E1,1.5020416E1,1.0448954E1,4.4410698E1,1.12819275E2,4.9053875E1,5.1740112E1,4.483838E1,4.631958E-1,1.8024597E0,6.178192E0,5.790169E0,1.0241308E1,1.2396893E1,3.8972588E1,2.5605553E1,9.684625E1,9.254669E0,2.2042414E1,9.010251E1,4.4574036E1,1.032547E2,0E0,3.450174E1,6.446228E-1,0E0,6.058655E-1,1.5124207E0,4.299647E0,2.108261E0,5.436974E0,2.3902893E0,1.8366129E1,7.3931646E0,7.240534E0,2.5764683E1,3.1210403E1,0E0,3.5004448E1,3.0219078E1,7.773126E1,3.3624706E1,0E0,0E0,0E0,1.5071105E1,5.8686935E1,5.399627E1,3.1095459E1,1.279892E1,4.9364807E1,6.3783684E1,1.3411583E1,0E0,0E0,0E0,0E0,0E0,0E0,0E0,0E0,0E0,0E0,0E0,0E0,0E0,0E0,0E0,0E0,0E0,0E0,0E0,0E0,0E0,0E0,0E0,0E0,0E0,0E0,0E0,0E0,0E0,0E0,0E0,0E0,0E0,0E0,0E0,0E0,0E0,0E0,0E0,0E0,0E0,0E0,0E0,0E0,0E0,0E0,0E0,0E0,0E0],"parents":[2147483647,0,0,1,1,2,2,3,3,4,4,5,5,6,6,7,7,8,8,9,9,10,10,11,11,12,12,13,13,14,14,15,15,16,16,17,17,18,18,19,19,20,20,21,21,22,22,23,23,24,24,25,25,26,26,27,27,28,28,30,30,31,31,33,33,34,34,35,35,36,36,37,37,38,38,39,39,40,40,41,41,42,42,43,43,45,45,46,46,47,47,48,48,52,52,53,53,54,54,55,55,56,56,57,57,58,58,59,59],"right_children":[2,4,6,8,10,12,14,16,18,20,22,24,26,28,30,32,34,36,38,40,42,44,46,48,50,52,54,56,58,-1,60,62,-1,64,66,68,70,72,74,76,78,80,82,84,-1,86,88,90,92,-1,-1,-1,94,96,98,100,102,104,106,108,-1,-1,-1,-1,-1,-1,-1,-1,-1,-1,-1,-1,-1,-1,-1,-1,-1,-1,-1,-1,-1,-1,-1,-1,-1,-1,-1,-1,-1,-1,-1,-1,-1,-1,-1,-1,-1,-1,-1,-1,-1,-1,-1,-1,-1,-1,-1,-1,-1],"split_conditions":[1.4783333E1,8.72E0,2.366E1,5.7966666E0,1.133E1,2.484407E2,3.3806667E1,3.84E0,7.3133335E0,2.245315E1,1.7294992E1,1.1999999E1,2.325417E0,1E-1,1.4497916E2,2.2779587E1,5.18E0,1.1212135E1,1.5072783E1,2.7074292E2,1.1103333E1,1.454E1,3.2587497E0,3.1035257E1,5.4837494E0,1.4471821E1,4.78375E0,8.235832E0,5.0004168E0,2.830429E0,1.8359999E1,1.2313893E1,-2.2049141E-1,1.8942085E1,1.3493999E1,1.0041354E1,-3.9808333E0,8.423333E0,3.7137627E1,1.9543016E2,9.346143E0,1.03E1,-4.3433332E0,2.2427072E2,1.2492213E0,9.2103355E1,7.9999995E0,2.2910985E2,1.6000001E0,7.2285235E-1,2.1224477E0,-9.606027E-1,1.4917212E1,3.9816668E0,2.2E0,2.6344547E2,1.2313893E1,1.4081477E1,2.5113333E1,1.8066665E0,-2.3226757E-1,-3.826229E-1,-5.909743E-1,-4.5771745E-1,-3.1610316E-1,-2.526726E-1,-3.906941E-1,-2.6704538E-1,1.1344428E-2,5.5140067E-2,-3.3336636E-1,-6.5342605E-2,-3.2335976E-1,-2.3300146E-1,1.35256E-1,-5.2864198E-2,1.8041363E-1,1.5043932E-1,-1.6359136E-1,-2.0344241E-1,1.4843264E-1,-6.3171834E-1,7.1044207E-1,1.3111618E-1,4.9528173E-1,-3.1445605E-1,6.4150584E-1,-4.471644E-2,4.5665148E-1,6.182491E-1,1.2067662E0,-8.383762E-1,1.7886789E-1,6.559492E-1,-2.5758073E-1,2.6399907E-1,1.3846377E0,-1.6418917E-1,5.0431085E-1,1.4481844E0,-1.3783379E-1,6.809581E-1,2.9741004E0,2.0661318E0,1.0328475E0,-1.7331706E-1,8.811259E-1,2.6677096E-1,1.8748726E0],"split_indices":[0,0,0,0,0,4,0,0,0,3,3,2,1,2,4,1,0,3,3,4,0,0,1,3,1,3,1,1,1,0,3,3,0,1,3,3,1,0,3,4,3,2,1,4,0,4,2,4,2,0,0,0,3,1,2,4,3,3,0,1,0,0,0,0,0,0,0,0,0,0,0,0,0,0,0,0,0,0,0,0,0,0,0,0,0,0,0,0,0,0,0,0,0,0,0,0,0,0,0,0,0,0,0,0,0,0,0,0,0],"split_type":[0,0,0,0,0,0,0,0,0,0,0,0,0,0,0,0,0,0,0,0,0,0,0,0,0,0,0,0,0,0,0,0,0,0,0,0,0,0,0,0,0,0,0,0,0,0,0,0,0,0,0,0,0,0,0,0,0,0,0,0,0,0,0,0,0,0,0,0,0,0,0,0,0,0,0,0,0,0,0,0,0,0,0,0,0,0,0,0,0,0,0,0,0,0,0,0,0,0,0,0,0,0,0,0,0,0,0,0,0],"sum_hessian":[1.535E3,1.228E3,3.07E2,7.37E2,4.91E2,2.22E2,8.5E1,3.3E2,4.07E2,2.63E2,2.28E2,1.45E2,7.7E1,7.2E1,1.3E1,8.4E1,2.46E2,2.15E2,1.92E2,1.87E2,7.6E1,9.2E1,1.36E2,1.38E2,7E0,1.2E1,6.5E1,2.5E1,4.7E1,9E0,4E0,8.2E1,2E0,1.38E2,1.08E2,1.9E1,1.96E2,5.3E1,1.39E2,1.31E2,5.6E1,7.2E1,4E0,8.9E1,3E0,1.6E1,1.2E2,1.25E2,1.3E1,2E0,5E0,3E0,9E0,1.7E1,4.8E1,2.1E1,4E0,2.4E1,2.3E1,3E0,1E0,9E0,7.3E1,1.25E2,1.3E1,1.6E1,9.2E1,1E1,9E0,1E0,1.95E2,4.5E1,8E0,1.38E2,1E0,8.5E1,4.6E1,7E0,4.9E1,6.7E1,5E0,1E0,3E0,5.4E1,3.5E1,4E0,1.2E1,1.09E2,1.1E1,9.8E1,2.7E1,3E0,1E1,1E0,8E0,9E0,8E0,3.3E1,1.5E1,2E1,1E0,1E0,3E0,9E0,1.5E1,7E0,1.6E1,1E0,2E0],"tree_param":{"num_deleted":"0","num_feature":"5","num_nodes":"109","size_leaf_vector":"1"}},{"base_weights":[3.50821E-2,-3.7956315E-1,2.3207533E0,-7.558604E-1,3.054352E-1,1.3799615E0,3.3858423E0,-1.0293626E0,-5.0248766E-1,2.540902E-1,2.387481E0,3.454224E0,1.0498496E0,4.5933714E0,2.182467E0,-1.2847471E0,-9.254206E-1,-6.2926644E-1,-3.4706363E-1,3.999701E-1,-1.6221371E-1,8.8760865E-1,1.8273814E0,5.524637E-1,4.6172523E0,1.4387907E0,-4.825093E-2,1.2687879E0,5.1439776E0,2.9127707E0,4.3832108E-1,-1.575768E0,-1.189633E0,-8.1735563E-1,-1.0012199E0,-5.39061E-1,-8.282424E-1,-8.7373954E-1,-2.8985974E-1,8.414594E-1,1.9476214E-1,2.2845674E0,-2.4590859E-1,1.7123308E0,-3.9978382E-1,-7.744763E-1,6.412688E-1,1.8797402E0,7.6338106E-1,-5.26635E-1,1.7507106E0,3.978521E-1,-9.8024213E-1,-1.6477005E0,3.9315186E0,6.0145984E0,3.455534E0,4.568899E0,1.6183145E0,-3.5008886E-1,1.3491201E0,-1.295393E-1,-4.8163256E-1,-3.6094624E-1,-1.18940406E-1,-2.758871E-1,-1.5843177E-1,-3.6335456E-1,-2.753915E-1,-1.9064522E-1,-6.746556E-2,-1.681765E-1,-3.1416237E-1,-4.158311E-2,-3.8730422E-1,-1.170085E-2,-1.377178E-1,3.1049395E-2,5.296903E-1,1.22149125E-1,-1.2832308E-1,1.8605557E-1,1.0916572E0,-3.606034E-2,-3.9446428E-1,1.6488849E-1,6.2024593E-1,-4.5598942E-1,-5.797577E-3,-5.696095E-1,8.076499E-1,7.015384E-1,2.1188556E-1,-6.963966E-2,3.790871E-1,-1.61819E-2,-5.68727E-1,-5.442055E-1,-1.4736444E-1,-1.322751E-1,1.5404571E0,7.1654804E-2,1.9300756E0,-5.7945732E-2,1.4621198E0,1.4779164E0,3.775471E-1,-4.59334E-2,1.2340865E0,-9.251458E-1,7.821506E-2],"categories":[],"categories_nodes":[],"categories_segments":[],"categories_sizes":[],"default_left":[0,0,0,0,0,0,0,0,0,0,0,0,0,0,0,0,0,0,0,0,0,0,0,0,0,0,0,0,0,0,0,0,0,0,0,0,0,0,0,0,0,0,0,0,0,0,0,0,0,0,0,0,0,0,0,0,0,0,0,0,0,0,0,0,0,0,0,0,0,0,0,0,0,0,0,0,0,0,0,0,0,0,0,0,0,0,0,0,0,0,0,0,0,0,0,0,0,0,0,0,0,0,0,0,0,0,0,0,0,0,0],"id":5,"left_children":[1,3,5,7,9,11,13,15,17,19,21,23,25,27,29,31,33,35,37,39,41,43,-1,45,47,49,51,53,55,57,59,61,63,65,67,69,71,73,75,77,79,81,83,85,-1,87,-1,-1,-1,89,91,93,95,97,99,101,103,105,107,109,-1,-1,-1,-1,-1,-1,-1,-1,-1,-1,-1,-1,-1,-1,-1,-1,-1,-1,-1,-1,-1,-1,-1,-1,-1,-1,-1,-1,-1,-1,-1,-1,-1,-1,-1,-1,-1,-1,-1,-1,-1,-1,-1,-1,-1,-1,-1,-1,-1,-1,-1],"loss_changes":[1.4566138E3,3.355805E2,2.3180615E2,5.7693146E1,4.8782383E1,8.333542E1,1.4981726E2,9.508728E0,8.412155E0,2.7515009E1,5.5700676E1,5.4821213E1,4.747711E1,9.232239E1,7.132739E1,1.2809448E0,1.5571136E0,3.8612137E0,5.7421913E0,3.0186157E1,2.472619E1,1.8761467E1,0E0,1.4275476E1,2.5058395E1,5.119255E1,1.2862915E1,7.637038E1,4.683606E1,7.8357544E1,5.9173576E1,1.5542221E-1,4.8819733E-1,3.2119598E0,1.7896881E0,4.9464455E0,3.6912575E0,5.649313E0,7.6646166E0,7.2109856E1,3.0585037E1,6.7594566E0,1.5295395E1,1.7542305E0,0E0,2.222452E0,0E0,0E0,0E0,5.8108406E1,4.193254E1,1.1747198E1,8.378176E0,7.064819E-2,2.8571632E1,6.864221E1,9.408348E1,1.3918549E1,1.06715866E2,2.7520454E1,0E0,0E0,0E0,0E0,0E0,0E0,0E0,0E0,0E0,0E0,0E0,0E0,0E0,0E0,0E0,0E0,0E0,0E0,0E0,0E0,0E0,0E0,0E0,0E0,0E0,0E0,0E0,0E0,0E0,0E0,0E0,0E0,0E0,0E0,0E0,0E0,0E0,0E0,0E0,0E0,0E0,0E0,0E0,0E0,0E0,0E0,0E0,0E0,0E0,0E0,0E0],"parents":[2147483647,0,0,1,1,2,2,3,3,4,4,5,5,6,6,7,7,8,8,9,9,10,10,11,11,12,12,13,13,14,14,15,15,16,16,17,17,18,18,19,19,20,20,21,21,23,23,24,24,25,25,26,26,27,27,28,28,29,29,30,30,31,31,32,32,33,33,34,34,35,35,36,36,37,37,38,38,39,39,40,40,41,41,42,42,43,43,45,45,49,49,50,50,51,51,52,52,53,53,54,54,55,55,56,56,57,57,58,58,59,59],"right_children":[2,4,6,8,10,12,14,16,18,20,22,24,26,28,30,32,34,36,38,40,42,44,-1,46,48,50,52,54,56,58,60,62,64,66,68,70,72,74,76,78,80,82,84,86,-1,88,-1,-1,-1,90,92,94,96,98,100,102,104,106,108,110,-1,-1,-1,-1,-1,-1,-1,-1,-1,-1,-1,-1,-1,-1,-1,-1,-1,-1,-1,-1,-1,-1,-1,-1,-1,-1,-1,-1,-1,-1,-1,-1,-1,-1,-1,-1,-1,-1,-1,-1,-1,-1,-1,-1,-1,-1,-1,-1,-1,-1,-1],"split_conditions":[1.6663334E1,9.503333E0,2.154E1,6.1766667E0,1.4200001E1,1.3281023E1,1.8359999E1,4.0833335E0,8.026667E0,2.677735E2,1.4446667E1,9.83268E0,2.5430734E2,1.1966953E1,7.296249E0,3.0800002E0,1.8486622E1,2.3000591E1,5.676259E1,7.296249E0,-1.762083E0,1.3953334E1,1.8273814E0,1.8013334E1,1.1384199E1,1.14979065E2,2.0143333E1,5.0004168E0,5.4837494E0,4E-1,1.3550416E1,9.957108E0,2.4698336E1,7.0000005E-1,5.5795827E0,2.1999998E0,1.8000001E0,1.4021525E1,1.0581666E1,4.585833E0,2.3313995E1,1E1,1.5806666E1,9.76E0,-3.9978382E-1,8.891344E0,6.412688E-1,1.8797402E0,7.6338106E-1,2.3999999E0,2.7553526E1,1.8323334E1,1E-1,4.3420835E0,2.48E1,7.920661E1,7.3775E0,2.2545315E1,3.7E0,1.7812216E2,1.3491201E0,-1.295393E-1,-4.8163256E-1,-3.6094624E-1,-1.18940406E-1,-2.758871E-1,-1.5843177E-1,-3.6335456E-1,-2.753915E-1,-1.9064522E-1,-6.746556E-2,-1.681765E-1,-3.1416237E-1,-4.158311E-2,-3.8730422E-1,-1.170085E-2,-1.377178E-1,3.1049395E-2,5.296903E-1,1.22149125E-1,-1.2832308E-1,1.8605557E-1,1.0916572E0,-3.606034E-2,-3.9446428E-1,1.6488849E-1,6.2024593E-1,-4.5598942E-1,-5.797577E-3,-5.696095E-1,8.076499E-1,7.015384E-1,2.1188556E-1,-6.963966E-2,3.790871E-1,-1.61819E-2,-5.68727E-1,-5.442055E-1,-1.4736444E-1,-1.322751E-1,1.5404571E0,7.1654804E-2,1.9300756E0,-5.7945732E-2,1.4621198E0,1.4779164E0,3.775471E-1,-4.59334E-2,1.2340865E0,-9.251458E-1,7.821506E-2],"split_indices":[0,0,0,0,2,3,3,0,0,4,0,3,4,3,1,0,3,3,4,1,1,0,0,0,3,4,0,1,1,2,1,3,1,2,1,2,2,3,1,1,3,0,0,0,0,3,0,0,0,2,3,0,2,1,0,4,1,3,2,4,0,0,0,0,0,0,0,0,0,0,0,0,0,0,0,0,0,0,0,0,0,0,0,0,0,0,0,0,0,0,0,0,0,0,0,0,0,0,0,0,0,0,0,0,0,0,0,0,0,0,0],"split_type":[0,0,0,0,0,0,0,0,0,0,0,0,0,0,0,0,0,0,0,0,0,0,0,0,0,0,0,0,0,0,0,0,0,0,0,0,0,0,0,0,0,0,0,0,0,0,0,0,0,0,0,0,0,0,0,0,0,0,0,0,0,0,0,0,0,0,0,0,0,0,0,0,0,0,0,0,0,0,0,0,0,0,0,0,0,0,0,0,0,0,0,0,0,0,0,0,0,0,0,0,0,0,0,0,0,0,0,0,0,0,0],"sum_hessian":[1.535E3,1.3E3,2.35E2,8.39E2,4.61E2,1.26E2,1.09E2,4.02E2,4.37E2,4.51E2,1E1,1.6E1,1.1E2,5.3E1,5.6E1,1.13E2,2.89E2,2.39E2,1.98E2,3.34E2,1.17E2,8E0,2E0,5E0,1.1E1,8.1E1,2.9E1,8E0,4.5E1,3.9E1,1.7E1,2.4E1,8.9E1,1.24E2,1.65E2,1.67E2,7.2E1,1.8E1,1.8E2,1.05E2,2.29E2,3E0,1.14E2,6E0,2E0,3E0,2E0,5E0,6E0,1.1E1,7E1,2E1,9E0,4E0,4E0,2.8E1,1.7E1,1.6E1,2.3E1,1.5E1,2E0,1E0,2.3E1,8.7E1,2E0,9E1,3.4E1,4.3E1,1.22E2,1.27E2,4E1,3.4E1,3.8E1,7E0,1.1E1,7.3E1,1.07E2,5.9E1,4.6E1,1.71E2,5.8E1,2E0,1E0,1.03E2,1.1E1,2E0,4E0,1E0,2E0,8E0,3E0,4.4E1,2.6E1,1.2E1,8E0,5E0,4E0,3E0,1E0,1E0,3E0,2E0,2.6E1,5E0,1.2E1,1.4E1,2E0,1.4E1,9E0,2E0,1.3E1],"tree_param":{"num_deleted":"0","num_feature":"5","num_nodes":"111","size_leaf_vector":"1"}},{"base_weights":[3.2043453E-2,-2.576461E-1,1.7299469E0,-5.0081325E-1,3.1913355E-1,1.1558216E0,2.6377778E0,-6.9194454E-1,-2.757538E-1,2.7535304E-1,2.1419144E0,1.8378322E0,7.2705853E-1,3.7050033E0,1.7952756E0,-8.429351E-1,-5.737223E-1,6.6961056E-1,-2.977631E-1,5.927344E-1,3.8950693E-2,6.654539E-1,1.4619051E0,5.467157E-1,3.498127E0,1.2923596E0,-5.102673E-1,4.023866E0,6.8419695E-2,-3.7316626E-1,2.2803767E0,-3.382454E-1,-8.017088E-1,-3.074563E-1,-6.162868E-1,1.0962316E0,-2.0737474E-1,-5.340456E-1,-2.4606931E-1,-1.1080201E0,6.993241E-1,4.3642637E-1,-3.277569E-1,1.5712894E0,-1.06609E0,-5.0253093E-1,1.4403619E0,-1.3444766E-1,4.2699556E0,8.9326996E-1,3.4546154E0,-1.5838569E0,8.5032505E-1,2.328409E0,4.842824E0,-5.856936E-1,4.178303E-1,-1.4881827E0,1.4492973E0,3.3267977E0,1.0152946E0,-2.1798766E-1,-2.769782E-1,-5.7292175E-2,-2.8653243E-1,-1.6837102E-1,-2.4847062E-1,5.0954964E-2,3.6129227E-1,-1.2251071E-1,-2.7942303E-1,1.6086052E-1,-8.4264435E-2,-3.6746633E-1,-8.431578E-3,1.01623796E-1,3.775752E-1,-5.3085193E-2,3.914256E-1,-4.2905822E-2,-3.0667824E-1,1.2246237E-1,5.280024E-1,-3.8172156E-1,-9.801894E-2,-8.295998E-1,8.808415E-2,5.968047E-1,-8.2523115E-2,-2.3216295E-1,1.6493912E-1,1.7449275E0,7.849455E-1,4.272119E-1,-1.1698923E-1,-3.092105E-1,1.2432352E0,1.6261692E-1,-7.0129985E-1,-2.4093248E-2,8.893001E-1,-4.0063095E-1,9.347898E-1,3.0485162E-1,1.5524043E0,-7.7011997E-1,4.5758212E-1,1.3103613E0,2.8768086E-1,9.9683344E-1,-1.4483845E-1],"categories":[],"categories_nodes":[],"categories_segments":[],"categories_sizes":[],"default_left":[0,0,0,0,0,0,0,0,0,0,0,0,0,0,0,0,0,0,0,0,0,0,0,0,0,0,0,0,0,0,0,0,0,0,0,0,0,0,0,0,0,0,0,0,0,0,0,0,0,0,0,0,0,0,0,0,0,0,0,0,0,0,0,0,0,0,0,0,0,0,0,0,0,0,0,0,0,0,0,0,0,0,0,0,0,0,0,0,0,0,0,0,0,0,0,0,0,0,0,0,0,0,0,0,0,0,0,0,0,0,0],"id":6,"left_children":[1,3,5,7,9,11,13,15,17,19,21,23,25,27,29,31,33,35,37,39,41,43,-1,45,47,49,51,53,55,57,59,-1,61,63,65,67,-1,69,71,73,75,77,79,81,83,85,87,89,91,93,95,97,99,101,103,-1,-1,105,-1,107,109,-1,-1,-1,-1,-1,-1,-1,-1,-1,-1,-1,-1,-1,-1,-1,-1,-1,-1,-1,-1,-1,-1,-1,-1,-1,-1,-1,-1,-1,-1,-1,-1,-1,-1,-1,-1,-1,-1,-1,-1,-1,-1,-1,-1,-1,-1,-1,-1,-1,-1],"loss_changes":[7.5595026E2,1.8431314E2,1.13701904E2,3.955591E1,3.0533115E1,3.9310303E1,7.06745E1,8.423752E0,9.063095E0,2.8638256E1,3.304851E1,1.1170012E2,6.1512604E1,4.2628845E1,5.344664E1,1.6416931E0,3.017891E0,6.5634823E0,4.9619675E0,3.032397E1,3.220966E1,1.2654593E1,0E0,2.9791138E1,6.505975E1,4.869014E1,4.224689E1,3.5933167E1,1.3423723E1,6.52166E1,5.0898453E1,0E0,1.0905533E0,2.9106412E0,2.3704376E0,5.96405E-1,0E0,3.3151588E0,9.518593E0,1.2276468E0,3.0628815E1,5.6687637E1,1.4608399E1,3.7902546E-1,4.1891336E-2,2.7834705E1,1.6557037E1,2.613104E0,3.3365204E1,3.597261E1,3.2105072E1,2.6907677E1,2.5813908E1,4.1672516E1,2.2679443E1,0E0,0E0,3.3176E1,0E0,5.0044067E1,7.074055E1,0E0,0E0,0E0,0E0,0E0,0E0,0E0,0E0,0E0,0E0,0E0,0E0,0E0,0E0,0E0,0E0,0E0,0E0,0E0,0E0,0E0,0E0,0E0,0E0,0E0,0E0,0E0,0E0,0E0,0E0,0E0,0E0,0E0,0E0,0E0,0E0,0E0,0E0,0E0,0E0,0E0,0E0,0E0,0E0,0E0,0E0,0E0,0E0,0E0,0E0],"parents":[2147483647,0,0,1,1,2,2,3,3,4,4,5,5,6,6,7,7,8,8,9,9,10,10,11,11,12,12,13,13,14,14,15,15,16,16,17,17,18,18,19,19,20,20,21,21,23,23,24,24,25,25,26,26,27,27,28,28,29,29,30,30,32,32,33,33,34,34,35,35,37,37,38,38,39,39,40,40,41,41,42,42,43,43,44,44,45,45,46,46,47,47,48,48,49,49,50,50,51,51,52,52,53,53,54,54,57,57,59,59,60,60],"right_children":[2,4,6,8,10,12,14,16,18,20,22,24,26,28,30,32,34,36,38,40,42,44,-1,46,48,50,52,54,56,58,60,-1,62,64,66,68,-1,70,72,74,76,78,80,82,84,86,88,90,92,94,96,98,100,102,104,-1,-1,106,-1,108,110,-1,-1,-1,-1,-1,-1,-1,-1,-1,-1,-1,-1,-1,-1,-1,-1,-1,-1,-1,-1,-1,-1,-1,-1,-1,-1,-1,-1,-1,-1,-1,-1,-1,-1,-1,-1,-1,-1,-1,-1,-1,-1,-1,-1,-1,-1,-1,-1,-1,-1],"split_conditions":[1.694E1,1.035E1,2.366E1,6.793333E0,1.38E1,1.8359999E1,1.5626622E2,5.1433334E0,9.346143E0,1.7698677E1,1.4446667E1,2E-1,2.0143333E1,2.4482647E1,1.9694466E2,3.0800002E0,1.3324863E1,1.0000001E0,9.550031E1,4.4518574E1,2.3909569E2,1.3953334E1,1.4619051E0,1.8726665E1,1.0108334E0,1.9546667E1,2.2143333E1,1.3324863E1,2.5113333E1,3.7316666E1,5E-1,-3.382454E-1,2.619233E2,3.2012393E2,5.9E0,7.996667E0,-2.0737474E-1,9.2E0,1.0741664E2,1.6166666E1,1.3416667E1,2.0656491E2,1.5056666E1,5.3233333E0,7.212916E0,1.0649764E2,4.5191665E0,6E-1,1.6135872E1,1.8973333E1,6E-1,2.0135442E2,3.0396025E1,1.0574528E2,4.233335E-1,-5.856936E-1,4.178303E-1,3.7E0,1.4492973E0,2.0523157E1,2.2377074E2,-2.1798766E-1,-2.769782E-1,-5.7292175E-2,-2.8653243E-1,-1.6837102E-1,-2.4847062E-1,5.0954964E-2,3.6129227E-1,-1.2251071E-1,-2.7942303E-1,1.6086052E-1,-8.4264435E-2,-3.6746633E-1,-8.431578E-3,1.01623796E-1,3.775752E-1,-5.3085193E-2,3.914256E-1,-4.2905822E-2,-3.0667824E-1,1.2246237E-1,5.280024E-1,-3.8172156E-1,-9.801894E-2,-8.295998E-1,8.808415E-2,5.968047E-1,-8.2523115E-2,-2.3216295E-1,1.6493912E-1,1.7449275E0,7.849455E-1,4.272119E-1,-1.1698923E-1,-3.092105E-1,1.2432352E0,1.6261692E-1,-7.0129985E-1,-2.4093248E-2,8.893001E-1,-4.0063095E-1,9.347898E-1,3.0485162E-1,1.5524043E0,-7.7011997E-1,4.5758212E-1,1.3103613E0,2.8768086E-1,9.9683344E-1,-1.4483845E-1],"split_indices":[0,0,0,0,2,3,4,0,3,3,0,2,0,3,4,0,3,2,4,4,4,0,0,0,1,0,0,3,0,0,2,0,4,4,2,0,0,0,4,0,0,4,0,1,1,4,1,2,3,0,2,4,3,4,1,0,0,2,0,3,4,0,0,0,0,0,0,0,0,0,0,0,0,0,0,0,0,0,0,0,0,0,0,0,0,0,0,0,0,0,0,0,0,0,0,0,0,0,0,0,0,0,0,0,0,0,0,0,0,0,0],"split_type":[0,0,0,0,0,0,0,0,0,0,0,0,0,0,0,0,0,0,0,0,0,0,0,0,0,0,0,0,0,0,0,0,0,0,0,0,0,0,0,0,0,0,0,0,0,0,0,0,0,0,0,0,0,0,0,0,0,0,0,0,0,0,0,0,0,0,0,0,0,0,0,0,0,0,0,0,0,0,0,0,0,0,0,0,0,0,0,0,0,0,0,0,0,0,0,0,0,0,0,0,0,0,0,0,0,0,0,0,0,0,0],"sum_hessian":[1.535E3,1.312E3,2.23E2,9.23E2,3.89E2,1.38E2,8.5E1,4.98E2,4.25E2,3.81E2,8E0,5.2E1,8.6E1,3.6E1,4.9E1,2.16E2,2.82E2,9E0,4.16E2,1.62E2,2.19E2,6E0,2E0,3E1,2.2E1,5.9E1,2.7E1,3.3E1,3E0,9E0,4E1,2.4E1,1.92E2,4E1,2.42E2,7E0,2E0,7.3E1,3.43E2,9E0,1.53E2,1.05E2,1.14E2,4E0,2E0,1.4E1,1.6E1,4E0,1.8E1,5.1E1,8E0,1.5E1,1.2E1,1.2E1,2.1E1,1E0,2E0,8E0,1E0,2.1E1,1.9E1,1.23E2,6.9E1,3.5E1,5E0,1.95E2,4.7E1,1E0,6E0,5.7E1,1.6E1,1.4E1,3.29E2,8E0,1E0,9.4E1,5.9E1,6.2E1,4.3E1,9.1E1,2.3E1,1E0,3E0,1E0,1E0,3E0,1.1E1,1.2E1,4E0,2E0,2E0,8E0,1E1,3.6E1,1.5E1,1E0,7E0,4E0,1.1E1,9E0,3E0,2E0,1E1,2E0,1.9E1,6E0,2E0,1.4E1,7E0,7E0,1.2E1],"tree_param":{"num_deleted":"0","num_feature":"5","num_nodes":"111","size_leaf_vector":"1"}},{"base_weights":[2.8697988E-2,-2.2669291E-1,1.0476809E0,-4.0717646E-1,7.382234E-2,9.22844E-1,3.6033385E0,-5.6861854E-1,-3.1596917E-1,-1.4951972E0,9.4260626E-2,8.2383025E-1,2.7161777E0,4.121712E0,9.8619275E-2,-4.977895E-1,-6.9832665E-1,-2.1437685E-1,-3.9772478E-1,2.1145654E-1,-9.817009E-1,2.4724972E0,5.17714E-2,9.50248E-1,-5.694865E-1,3.2447307E0,4.5147443E-1,5.353549E0,1.3264306E0,-4.650245E-1,-7.3993486E-1,-7.373054E-1,-5.258631E-1,-4.07427E-1,-1.3532285E-1,-3.7675175E-1,-1.0427406E0,-1.4756356E-1,1.8295833E-1,3.2593815E0,-4.5535386E-1,1.0330138E-3,6.5335417E-1,1.0864946E0,-1.6309543E-1,7.478909E-1,-8.1102675E-1,7.659817E-2,3.4932833E0,2.1971704E-1,-5.8690883E-2,4.6997568E-1,1.7012239E0,-7.501946E-2,1.7830706E0,-2.696655E-1,-1.3281555E-1,-2.690102E-1,-6.740941E-2,-2.2753741E-1,-1.2704161E-1,-9.467629E-2,-2.1768223E-1,-2.8797073E-2,-1.775668E-1,-6.59713E-2,9.174055E-2,-1.2254123E-1,2.4358846E-2,-2.8977396E-2,-4.0260756E-1,9.010945E-2,1.3148745E0,4.5249224E-2,-5.7717845E-2,4.168423E-1,-1.6502228E-1,3.4410632E-1,-1.0793742E-1,-2.4750474E-1,2.1451157E-1,-3.052931E-1,2.716902E-1,1.3394984E0,5.8180743E-1,1.5795651E-1,6.079239E-1],"categories":[],"categories_nodes":[],"categories_segments":[],"categories_sizes":[],"default_left":[0,0,0,0,0,0,0,0,0,0,0,0,0,0,0,0,0,0,0,0,0,0,0,0,0,0,0,0,0,0,0,0,0,0,0,0,0,0,0,0,0,0,0,0,0,0,0,0,0,0,0,0,0,0,0,0,0,0,0,0,0,0,0,0,0,0,0,0,0,0,0,0,0,0,0,0,0,0,0,0,0,0,0,0,0,0,0],"id":7,"left_children":[1,3,5,7,9,11,13,15,17,19,21,23,25,27,-1,29,31,33,35,37,-1,39,41,43,45,47,49,51,53,55,57,59,61,63,65,67,69,-1,-1,71,-1,73,75,77,79,-1,81,-1,83,-1,-1,-1,-1,-1,85,-1,-1,-1,-1,-1,-1,-1,-1,-1,-1,-1,-1,-1,-1,-1,-1,-1,-1,-1,-1,-1,-1,-1,-1,-1,-1,-1,-1,-1,-1,-1,-1],"loss_changes":[3.9996454E2,6.6688644E1,9.493912E1,1.1128899E1,1.4956384E1,5.0143906E1,2.2409653E1,2.1880188E0,4.0094643E0,1.888972E1,4.605159E1,5.0036453E1,1.6490318E1,3.4218857E1,0E0,1.099884E0,2.509079E-1,3.3328943E0,3.2867432E0,1.420825E0,0E0,3.0066746E1,1.3734824E1,3.9313004E1,1.977482E1,8.024345E0,8.704162E-1,7.260132E-1,4.0453377E0,1.179512E0,1.4139433E0,1.7669296E-1,6.5303516E-1,3.6198788E0,5.999692E0,3.8824654E0,2.1357136E0,0E0,0E0,2.1955414E1,0E0,1.2082516E1,3.1769695E1,2.05466E1,1.7446304E1,0E0,9.079507E0,0E0,7.950424E0,0E0,0E0,0E0,0E0,0E0,1.5613651E-1,0E0,0E0,0E0,0E0,0E0,0E0,0E0,0E0,0E0,0E0,0E0,0E0,0E0,0E0,0E0,0E0,0E0,0E0,0E0,0E0,0E0,0E0,0E0,0E0,0E0,0E0,0E0,0E0,0E0,0E0,0E0,0E0],"parents":[2147483647,0,0,1,1,2,2,3,3,4,4,5,5,6,6,7,7,8,8,9,9,10,10,11,11,12,12,13,13,15,15,16,16,17,17,18,18,19,19,21,21,22,22,23,23,24,24,25,25,26,26,27,27,28,28,29,29,30,30,31,31,32,32,33,33,34,34,35,35,36,36,39,39,41,41,42,42,43,43,44,44,46,46,48,48,54,54],"right_children":[2,4,6,8,10,12,14,16,18,20,22,24,26,28,-1,30,32,34,36,38,-1,40,42,44,46,48,50,52,54,56,58,60,62,64,66,68,70,-1,-1,72,-1,74,76,78,80,-1,82,-1,84,-1,-1,-1,-1,-1,86,-1,-1,-1,-1,-1,-1,-1,-1,-1,-1,-1,-1,-1,-1,-1,-1,-1,-1,-1,-1,-1,-1,-1,-1,-1,-1,-1,-1,-1,-1,-1,-1],"split_conditions":[1.4783333E1,8.923333E0,3.3806667E1,5.516667E0,-4.3433332E0,1.1999999E1,1.7148486E2,2.619233E2,1.8359999E1,1.079E1,-1.3829166E0,3.1353085E1,2.4879736E2,1.8359999E1,9.8619275E-2,6.6E0,2.7117346E1,6.4466667E0,3.1050552E2,9.036667E0,-9.817009E-1,1.9829433E1,8.200001E0,2.857058E2,1.933676E2,1.3281023E1,5.7483335E0,1.0495713E1,3.7316666E1,2.7833333E0,1.1235832E1,1.8765E1,3.1470673E1,5.956667E0,2.1999998E0,2.9249893E2,6.6566668E0,-1.4756356E-1,1.8295833E-1,1.1103333E1,-4.5535386E-1,1.2646249E1,2.7117346E1,7.6999993E0,1.694E1,7.478909E-1,1.5150418E1,7.659817E-2,2.8038431E1,2.1971704E-1,-5.8690883E-2,4.6997568E-1,1.7012239E0,-7.501946E-2,1.3670834E0,-2.696655E-1,-1.3281555E-1,-2.690102E-1,-6.740941E-2,-2.2753741E-1,-1.2704161E-1,-9.467629E-2,-2.1768223E-1,-2.8797073E-2,-1.775668E-1,-6.59713E-2,9.174055E-2,-1.2254123E-1,2.4358846E-2,-2.8977396E-2,-4.0260756E-1,9.010945E-2,1.3148745E0,4.5249224E-2,-5.7717845E-2,4.168423E-1,-1.6502228E-1,3.4410632E-1,-1.0793742E-1,-2.4750474E-1,2.1451157E-1,-3.052931E-1,2.716902E-1,1.3394984E0,5.8180743E-1,1.5795651E-1,6.079239E-1],"split_indices":[0,0,0,0,1,2,4,4,3,0,1,3,4,3,0,2,3,0,4,0,0,3,2,4,4,3,1,3,0,0,1,1,3,0,2,4,0,0,0,0,0,1,3,2,0,0,1,0,3,0,0,0,0,0,1,0,0,0,0,0,0,0,0,0,0,0,0,0,0,0,0,0,0,0,0,0,0,0,0,0,0,0,0,0,0,0,0],"split_type":[0,0,0,0,0,0,0,0,0,0,0,0,0,0,0,0,0,0,0,0,0,0,0,0,0,0,0,0,0,0,0,0,0,0,0,0,0,0,0,0,0,0,0,0,0,0,0,0,0,0,0,0,0,0,0,0,0,0,0,0,0,0,0,0,0,0,0,0,0,0,0,0,0,0,0,0,0,0,0,0,0,0,0,0,0,0,0],"sum_hessian":[1.535E3,1.228E3,3.07E2,7.67E2,4.61E2,2.94E2,1.3E1,2.75E2,4.92E2,5E0,4.56E2,2.8E2,1.4E1,1.1E1,2E0,1.81E2,9.4E1,2.21E2,2.71E2,3E0,2E0,7E0,4.49E2,2.57E2,2.3E1,1.1E1,3E0,7E0,4E0,1.62E2,1.9E1,7.4E1,2E1,6.3E1,1.58E2,2.64E2,7E0,1E0,2E0,6E0,1E0,4.15E2,3.4E1,2.29E2,2.8E1,1E0,2.2E1,1E0,1E1,2E0,1E0,1E0,6E0,1E0,3E0,6E0,1.56E2,1.4E1,5E0,6.8E1,6E0,1.1E1,9E0,2.4E1,3.9E1,1.33E2,2.5E1,2.47E2,1.7E1,2E0,5E0,2E0,4E0,2.34E2,1.81E2,2.1E1,1.3E1,2.2E2,9E0,1.6E1,1.2E1,2E1,2E0,5E0,5E0,1E0,2E0],"tree_param":{"num_deleted":"0","num_feature":"5","num_nodes":"87","size_leaf_vector":"1"}},{"base_weights":[2.2799317E-2,-8.129023E-2,1.3729174E0,-2.3735537E-1,2.8475776E-1,1.6709441E0,3.0282952E-2,-3.3589557E-1,-1.0410485E-1,1.9820009E-1,1.2193648E0,2.636934E0,1.2588413E0,4.076099E-1,-1.1274385E0,-4.7615844E-1,-3.005582E-1,2.0768002E-1,-1.4046572E-1,2.3628306E-1,-1.9301175E0,1.8949226E0,1.4725558E-1,1.5675745E0,3.952645E0,1.8020831E0,-2.5973946E-1,-8.9911145E-1,2.1046152E0,-2.1650189E-1,-5.291013E-1,-2.8857237E-1,-7.259802E-1,2.584019E-2,1.6572306E0,-9.665226E-1,-1.041685E-1,8.885946E-1,1.497617E-1,-8.434161E-1,-3.0459976E-1,2.080303E0,-2.9971004E-1,9.722202E-1,-6.96116E-1,8.4711003E-1,1.8561814E0,5.0638375E0,-6.9848156E-1,2.3080983E0,9.0826535E-1,-9.406924E-1,9.447141E-1,-1.4905689E0,6.564455E-1,-2.4742603E-1,3.3218734E0,-2.7866283E-1,-2.7788078E-2,-9.2978865E-2,-1.7003791E-1,-7.250191E-2,-1.2801498E-1,-2.131116E-2,-3.1337166E-1,6.316879E-2,-1.4912708E-1,2.7405468E-1,6.948136E-1,-1.06516294E-1,-5.105923E-1,3.5830233E-1,-3.7603352E-2,-4.25375E-1,3.8393983E-1,-3.4725416E-1,6.272672E-2,6.813284E-1,-2.6032907E-1,-1.4584251E-1,3.7500194E-1,1.3704781E-1,-5.8897936E-1,-4.0660888E-2,8.51853E-1,-1.6341478E-1,1.749899E0,-4.3941453E-1,1.2509781E-1,2.1701187E-1,8.554445E-1,1.4505097E-1,9.0374875E-1,-5.347086E-1,-1.386287E-1,4.5560923E-1,-9.804879E-2,-8.2279027E-1,-2.2230934E-1,-6.2579155E-2,3.0429766E-1,3.266802E-2,-1.2074909E-1,1.147951E0,1.1980877E-1],"categories":[],"categories_nodes":[],"categories_segments":[],"categories_sizes":[],"default_left":[0,0,0,0,0,0,0,0,0,0,0,0,0,0,0,0,0,0,0,0,0,0,0,0,0,0,0,0,0,0,0,0,0,0,0,0,0,0,0,0,0,0,0,0,0,0,0,0,0,0,0,0,0,0,0,0,0,0,0,0,0,0,0,0,0,0,0,0,0,0,0,0,0,0,0,0,0,0,0,0,0,0,0,0,0,0,0,0,0,0,0,0,0,0,0,0,0,0,0,0,0,0,0,0,0],"id":8,"left_children":[1,3,5,7,9,11,13,15,17,19,21,23,25,27,-1,29,31,33,35,37,39,41,43,45,47,49,51,53,55,57,59,61,63,65,67,69,71,73,75,-1,-1,77,-1,79,81,83,-1,85,87,89,91,93,95,97,99,101,103,-1,-1,-1,-1,-1,-1,-1,-1,-1,-1,-1,-1,-1,-1,-1,-1,-1,-1,-1,-1,-1,-1,-1,-1,-1,-1,-1,-1,-1,-1,-1,-1,-1,-1,-1,-1,-1,-1,-1,-1,-1,-1,-1,-1,-1,-1,-1,-1],"loss_changes":[2.1597057E2,8.158829E1,4.3964905E1,1.3108692E1,3.4301514E1,3.250836E1,3.1550713E1,2.7068863E0,4.869972E0,3.2228687E1,2.5794746E1,3.0385086E1,5.409025E1,4.6242542E1,0E0,1.4526043E0,2.1462593E0,1.1818548E1,1.1383025E1,2.165233E1,2.7887115E0,1.388092E1,1.1113053E1,4.8011944E1,6.038826E1,1.9613327E1,1.5651858E1,1.2019026E1,2.658929E1,1.767113E0,6.008644E-1,2.8188438E0,2.4297104E0,4.0651445E0,3.341074E-1,6.59099E0,1.0268688E1,4.2418964E1,2.6766586E1,0E0,0E0,1.3782562E1,0E0,3.8485837E0,1.2584459E1,2.9752224E1,0E0,4.200215E1,3.1749167E0,2.3770706E1,1.5525597E1,4.0102224E0,5.6052666E0,6.4138527E0,1.4499115E0,2.6484838E-1,7.320549E0,0E0,0E0,0E0,0E0,0E0,0E0,0E0,0E0,0E0,0E0,0E0,0E0,0E0,0E0,0E0,0E0,0E0,0E0,0E0,0E0,0E0,0E0,0E0,0E0,0E0,0E0,0E0,0E0,0E0,0E0,0E0,0E0,0E0,0E0,0E0,0E0,0E0,0E0,0E0,0E0,0E0,0E0,0E0,0E0,0E0,0E0,0E0,0E0],"parents":[2147483647,0,0,1,1,2,2,3,3,4,4,5,5,6,6,7,7,8,8,9,9,10,10,11,11,12,12,13,13,15,15,16,16,17,17,18,18,19,19,20,20,21,21,22,22,23,23,24,24,25,25,26,26,27,27,28,28,29,29,30,30,31,31,32,32,33,33,34,34,35,35,36,36,37,37,38,38,41,41,43,43,44,44,45,45,47,47,48,48,49,49,50,50,51,51,52,52,53,53,54,54,55,55,56,56],"right_children":[2,4,6,8,10,12,14,16,18,20,22,24,26,28,-1,30,32,34,36,38,40,42,44,46,48,50,52,54,56,58,60,62,64,66,68,70,72,74,76,-1,-1,78,-1,80,82,84,-1,86,88,90,92,94,96,98,100,102,104,-1,-1,-1,-1,-1,-1,-1,-1,-1,-1,-1,-1,-1,-1,-1,-1,-1,-1,-1,-1,-1,-1,-1,-1,-1,-1,-1,-1,-1,-1,-1,-1,-1,-1,-1,-1,-1,-1,-1,-1,-1,-1,-1,-1,-1,-1,-1,-1],"split_conditions":[2.154E1,1.133E1,8.304584E0,7.5866666E0,8.200001E0,2.48E1,3.238E1,4.0833335E0,1.1384199E1,7.6999993E0,2.44715E2,1.3000001E0,1.993048E1,2.48E1,-1.1274385E0,5.7483335E0,7.51E0,1.1212135E1,1.2233334E0,1.1720751E1,2.0239465E2,4.3801807E1,2.7553526E1,8.235832E0,2.362398E2,1.7148486E2,2.8093332E1,2.9495842E1,9.812916E0,4.4518574E1,1.4003029E1,2.4863466E1,1E-1,1E1,1.035E1,9.036667E0,1.7441665E0,8.483334E-1,6.6047035E1,-8.434161E-1,-3.0459976E-1,1.8065E1,-2.9971004E-1,1.484318E1,5.9795823E0,2.4879736E2,1.8561814E0,1.5542662E1,2.2903334E1,1.6379169E0,1.909358E1,2.5113333E1,1.9124928E2,2.2493334E1,2.2493334E1,2.8093332E1,3.7E0,-2.7866283E-1,-2.7788078E-2,-9.2978865E-2,-1.7003791E-1,-7.250191E-2,-1.2801498E-1,-2.131116E-2,-3.1337166E-1,6.316879E-2,-1.4912708E-1,2.7405468E-1,6.948136E-1,-1.06516294E-1,-5.105923E-1,3.5830233E-1,-3.7603352E-2,-4.25375E-1,3.8393983E-1,-3.4725416E-1,6.272672E-2,6.813284E-1,-2.6032907E-1,-1.4584251E-1,3.7500194E-1,1.3704781E-1,-5.8897936E-1,-4.0660888E-2,8.51853E-1,-1.6341478E-1,1.749899E0,-4.3941453E-1,1.2509781E-1,2.1701187E-1,8.554445E-1,1.4505097E-1,9.0374875E-1,-5.347086E-1,-1.386287E-1,4.5560923E-1,-9.804879E-2,-8.2279027E-1,-2.2230934E-1,-6.2579155E-2,3.0429766E-1,3.266802E-2,-1.2074909E-1,1.147951E0,1.1980877E-1],"split_indices":[0,0,1,0,2,0,0,0,3,2,4,2,3,0,0,1,0,3,1,3,4,3,3,1,4,4,0,3,1,4,3,3,2,0,0,0,1,1,4,0,0,1,0,3,1,4,0,3,0,1,3,0,4,0,0,0,2,0,0,0,0,0,0,0,0,0,0,0,0,0,0,0,0,0,0,0,0,0,0,0,0,0,0,0,0,0,0,0,0,0,0,0,0,0,0,0,0,0,0,0,0,0,0,0,0],"split_type":[0,0,0,0,0,0,0,0,0,0,0,0,0,0,0,0,0,0,0,0,0,0,0,0,0,0,0,0,0,0,0,0,0,0,0,0,0,0,0,0,0,0,0,0,0,0,0,0,0,0,0,0,0,0,0,0,0,0,0,0,0,0,0,0,0,0,0,0,0,0,0,0,0,0,0,0,0,0,0,0,0,0,0,0,0,0,0,0,0,0,0,0,0,0,0,0,0,0,0,0,0,0,0,0,0],"sum_hessian":[1.535E3,1.426E3,1.09E2,1E3,4.26E2,8.9E1,2E1,5.74E2,4.26E2,3.91E2,3.5E1,2.5E1,6.4E1,1.9E1,1E0,1.13E2,4.61E2,4.4E1,3.82E2,3.85E2,6E0,2.1E1,1.4E1,1.5E1,1E1,4.7E1,1.7E1,1.1E1,8E0,2E1,9.3E1,4.5E2,1.1E1,4E1,4E0,1.5E1,3.67E2,4.4E1,3.41E2,2E0,4E0,2E1,1E0,7E0,7E0,1.4E1,1E0,8E0,2E0,2.9E1,1.8E1,1.1E1,6E0,8E0,3E0,3E0,5E0,2E0,1.8E1,1.5E1,7.8E1,3.38E2,1.12E2,4E0,7E0,3E1,1E1,3E0,1E0,9E0,6E0,5E0,3.62E2,6E0,3.8E1,1.4E1,3.27E2,1.9E1,1E0,1E0,6E0,4E0,3E0,1E1,4E0,1E0,7E0,1E0,1E0,8E0,2.1E1,1.6E1,2E0,3E0,8E0,4E0,2E0,2E0,6E0,1E0,2E0,1E0,2E0,4E0,1E0],"tree_param":{"num_deleted":"0","num_feature":"5","num_nodes":"105","size_leaf_vector":"1"}},{"base_weights":[1.7847728E-2,-7.520927E-2,8.299221E-1,-1.8408182E-1,1.4556584E-1,1.8344795E0,5.29158E-1,-2.8896004E-1,-1.3014233E-1,1.8088633E-1,-2.1458323E0,1.0130357E0,3.8689294E0,3.9963934E-1,2.6183758E0,-2.6532158E-1,-4.954352E-1,-1.1540477E-1,-5.840355E-1,6.56639E-2,5.4075044E-1,-2.7510557E0,2.228262E-1,-8.6377364E-1,1.273479E0,1.1522541E0,5.488004E0,4.8512772E-1,-9.031887E-1,3.2681973E0,-1.9208308E-1,-3.1386283E-1,-1.7193316E-1,-6.39928E-1,-1.7454578E-1,-1.3413027E-1,2.2900118E-1,4.1911602E-2,-1.2841892E0,1.4159381E-1,-9.0279126E-1,1.8042645E0,2.7099746E-1,-2.2134648E-1,-9.018415E-1,8.489479E-1,2.8867202E0,4.5783237E-2,1.3640122E0,3.4485054E-1,1.8377413E0,7.9043025E-1,-1.7984596E-1,3.44463E-1,1.2123417E0,-8.6351246E-2,-1.8335523E-1,-1.6927244E-2,-7.899435E-2,-2.848426E-1,-1.4515568E-1,8.4431365E-2,-9.2143916E-2,-2.6485533E-2,-8.595103E-2,-6.47395E-2,4.0207997E-1,-3.087474E-1,1.7166224E-1,-2.2861052E-1,-6.2234575E-1,7.2188233E-3,3.273687E-1,-9.525838E-2,-9.5410174E-1,2.2431467E-1,9.490666E-1,-2.6199082E-1,1.4711809E-1,5.360314E-1,-2.4440765E-2,1.8532754E-1,1.2580326E0,5.065271E-1,5.8616642E-2,6.864288E-2,6.992032E-1,-3.7173593E-1,3.8636878E-1],"categories":[],"categories_nodes":[],"categories_segments":[],"categories_sizes":[],"default_left":[0,0,0,0,0,0,0,0,0,0,0,0,0,0,0,0,0,0,0,0,0,0,0,0,0,0,0,0,0,0,0,0,0,0,0,0,0,0,0,0,0,0,0,0,0,0,0,0,0,0,0,0,0,0,0,0,0,0,0,0,0,0,0,0,0,0,0,0,0,0,0,0,0,0,0,0,0,0,0,0,0,0,0,0,0,0,0,0,0],"id":9,"left_children":[1,3,5,7,9,11,13,15,17,19,21,23,25,27,29,31,33,35,37,39,41,43,-1,-1,45,47,49,51,-1,53,-1,55,57,59,61,63,65,67,69,71,73,75,77,-1,-1,79,81,-1,83,-1,-1,85,87,-1,-1,-1,-1,-1,-1,-1,-1,-1,-1,-1,-1,-1,-1,-1,-1,-1,-1,-1,-1,-1,-1,-1,-1,-1,-1,-1,-1,-1,-1,-1,-1,-1,-1,-1,-1],"loss_changes":[1.1613671E2,3.317292E1,4.6766563E1,5.1895313E0,3.729374E1,5.624334E1,3.2236492E1,1.3962288E0,4.0264387E0,1.8623482E1,1.428104E1,3.1037058E1,3.7661407E1,3.5570526E1,1.6915352E1,1.2289276E0,1.3256564E0,3.861524E0,8.380747E0,2.5276705E1,3.6662247E1,8.632469E-1,0E0,0E0,1.5355972E1,8.5025024E-1,9.560974E0,2.3489243E1,0E0,5.1916733E0,0E0,1.2555885E0,1.030124E0,5.551634E-1,7.515433E-1,3.914569E0,1.5612226E1,6.8367133E0,2.1330786E0,3.5466244E1,3.2314285E1,2.4921547E1,2.3274273E1,0E0,0E0,1.9342041E1,1.2233974E1,0E0,1.1865616E0,0E0,0E0,6.780446E1,5.912125E1,0E0,0E0,0E0,0E0,0E0,0E0,0E0,0E0,0E0,0E0,0E0,0E0,0E0,0E0,0E0,0E0,0E0,0E0,0E0,0E0,0E0,0E0,0E0,0E0,0E0,0E0,0E0,0E0,0E0,0E0,0E0,0E0,0E0,0E0,0E0,0E0],"parents":[2147483647,0,0,1,1,2,2,3,3,4,4,5,5,6,6,7,7,8,8,9,9,10,10,11,11,12,12,13,13,14,14,15,15,16,16,17,17,18,18,19,19,20,20,21,21,24,24,25,25,26,26,27,27,29,29,31,31,32,32,33,33,34,34,35,35,36,36,37,37,38,38,39,39,40,40,41,41,42,42,45,45,46,46,48,48,51,51,52,52],"right_children":[2,4,6,8,10,12,14,16,18,20,22,24,26,28,30,32,34,36,38,40,42,44,-1,-1,46,48,50,52,-1,54,-1,56,58,60,62,64,66,68,70,72,74,76,78,-1,-1,80,82,-1,84,-1,-1,86,88,-1,-1,-1,-1,-1,-1,-1,-1,-1,-1,-1,-1,-1,-1,-1,-1,-1,-1,-1,-1,-1,-1,-1,-1,-1,-1,-1,-1,-1,-1,-1,-1,-1,-1,-1,-1],"split_conditions":[1.9103333E1,1.035E1,2.5837502E0,5.73E0,1.8973333E1,1.8754168E0,3.3806667E1,6.6E0,1.019E1,2.7E0,1.0373333E1,7.920661E1,1E-1,3.238E1,1.8359999E1,8.000001E-1,1.0219167E1,9.873333E0,4E-1,2.9827904E1,1.7148486E2,1.6916662E-1,2.228262E-1,-8.6377364E-1,1.8000001E0,6.6047035E1,1.9363333E1,2.420314E1,-9.031887E-1,1.3281023E1,-1.9208308E-1,6E-1,2.1924562E1,7.3999996E0,1.5281989E1,2.4569836E1,3.1999998E0,8.225377E1,2.644279E2,1.7153334E1,1.681E1,1.3711133E2,4.44E0,-2.2134648E-1,-9.018415E-1,1.2233334E0,1.9546667E1,4.5783237E-2,2.3837502E0,3.4485054E-1,1.8377413E0,7.879585E0,3.0154163E1,3.44463E-1,1.2123417E0,-8.6351246E-2,-1.8335523E-1,-1.6927244E-2,-7.899435E-2,-2.848426E-1,-1.4515568E-1,8.4431365E-2,-9.2143916E-2,-2.6485533E-2,-8.595103E-2,-6.47395E-2,4.0207997E-1,-3.087474E-1,1.7166224E-1,-2.2861052E-1,-6.2234575E-1,7.2188233E-3,3.273687E-1,-9.525838E-2,-9.5410174E-1,2.2431467E-1,9.490666E-1,-2.6199082E-1,1.4711809E-1,5.360314E-1,-2.4440765E-2,1.8532754E-1,1.2580326E0,5.065271E-1,5.8616642E-2,6.864288E-2,6.992032E-1,-3.7173593E-1,3.8636878E-1],"split_indices":[0,0,1,0,0,1,0,2,0,2,1,4,2,0,3,2,1,0,2,3,4,1,0,0,2,4,0,3,0,3,0,2,3,2,3,3,2,4,4,0,0,4,1,0,0,1,0,0,1,0,0,1,3,0,0,0,0,0,0,0,0,0,0,0,0,0,0,0,0,0,0,0,0,0,0,0,0,0,0,0,0,0,0,0,0,0,0,0,0],"split_type":[0,0,0,0,0,0,0,0,0,0,0,0,0,0,0,0,0,0,0,0,0,0,0,0,0,0,0,0,0,0,0,0,0,0,0,0,0,0,0,0,0,0,0,0,0,0,0,0,0,0,0,0,0,0,0,0,0,0,0,0,0,0,0,0,0,0,0,0,0,0,0,0,0,0,0,0,0,0,0,0,0,0,0,0,0,0,0,0,0],"sum_hessian":[1.535E3,1.378E3,1.57E2,9.23E2,4.55E2,3.5E1,1.22E2,3.12E2,6.11E2,4.49E2,6E0,2.6E1,9E0,1.16E2,6E0,2.82E2,3E1,5.93E2,1.8E1,3.41E2,1.08E2,5E0,1E0,1E0,2.5E1,4E0,5E0,1.14E2,2E0,5E0,1E0,1.84E2,9.8E1,2E1,1E1,5.63E2,3E1,1E1,8E0,3.17E2,2.4E1,1.8E1,9E1,1E0,4E0,2.1E1,4E0,1E0,3E0,1E0,4E0,7.8E1,3.6E1,2E0,3E0,1.71E2,1.3E1,4.4E1,5.4E1,5E0,1.5E1,2E0,8E0,4.34E2,1.29E2,2.2E1,8E0,3E0,7E0,6E0,2E0,2.83E2,3.4E1,2E1,4E0,1.1E1,7E0,1.4E1,7.6E1,1E1,1.1E1,2E0,2E0,2E0,1E0,5.8E1,2E1,2.1E1,1.5E1],"tree_param":{"num_deleted":"0","num_feature":"5","num_nodes":"89","size_leaf_vector":"1"}},{"base_weights":[1.4450232E-2,-4.429197E-2,7.763654E-1,-1.0895989E-1,1.862161E-1,9.996455E-1,-2.7837723E-1,-9.769942E-2,-1.0559858E0,4.092442E-1,-6.2011108E-2,1.782712E0,6.760186E-1,-1.9194927E0,2.5186995E-1,-1.1088674E-1,1.0165362E0,-7.561817E-1,-3.6453933E-1,-5.028993E-1,5.993385E-1,-4.129693E-1,3.1905484E-1,1.4612541E0,1.4728736E0,9.7707875E-2,1.4104941E0,-1.111476E-1,-6.64236E-1,-7.4589616E-1,1.3428731E0,-1.7690496E-1,-4.466543E-2,1.3074441E0,-3.711538E-1,1.7488353E-1,-9.389389E-1,-1.3213463E0,4.6839014E-1,7.0228064E-1,-1.1483887E0,2.731489E-2,-1.0141845E0,2.3742208E0,6.1202783E-2,5.188703E-1,2.6134818E0,1.3173202E0,-4.4796085E-1,1.0702583E0,8.488724E-1,-5.2565855E-1,4.928573E-2,-1.3737679E-1,2.2584984E0,-3.7452653E-2,-7.087955E-2,2.260248E-1,-1.874485E-2,-6.716023E-2,4.9082795E-1,-1.2846823E-1,1.14345364E-1,-3.2767683E-1,-4.885054E-2,7.858206E-1,-5.276069E-1,7.240074E-1,-1.706531E-2,2.7785137E-1,4.8336894E-3,-9.44411E-1,-1.2390159E-1,-1.1575781E-1,3.31747E-1,-5.4097563E-1,-4.963771E-2,-3.648421E-1,9.182592E-1,5.362718E-1,-7.445114E-2,3.8230535E-1,-3.740885E-1,1.461821E0,3.4715077E-1,4.7578458E-2,8.7234503E-1,2.0997158E-1,-3.1823328E-1,4.01539E-1,-6.404877E-4,2.2487842E-1,-7.22085E-2,1.1159306E-1,-1.2934609E-1,8.249959E-1,4.3882087E-2],"categories":[],"categories_nodes":[],"categories_segments":[],"categories_sizes":[],"default_left":[0,0,0,0,0,0,0,0,0,0,0,0,0,0,0,0,0,0,0,0,0,0,0,0,0,0,0,0,0,0,0,0,0,0,0,0,0,0,0,0,0,0,0,0,0,0,0,0,0,0,0,0,0,0,0,0,0,0,0,0,0,0,0,0,0,0,0,0,0,0,0,0,0,0,0,0,0,0,0,0,0,0,0,0,0,0,0,0,0,0,0,0,0,0,0,0,0],"id":10,"left_children":[1,3,5,7,9,11,13,15,17,19,21,23,25,27,29,31,33,-1,35,37,39,41,43,45,-1,47,49,-1,-1,51,53,55,57,59,-1,61,63,65,67,69,71,73,75,77,79,81,83,85,87,89,-1,-1,91,93,95,-1,-1,-1,-1,-1,-1,-1,-1,-1,-1,-1,-1,-1,-1,-1,-1,-1,-1,-1,-1,-1,-1,-1,-1,-1,-1,-1,-1,-1,-1,-1,-1,-1,-1,-1,-1,-1,-1,-1,-1,-1,-1],"loss_changes":[6.878049E1,2.1291834E1,2.6183617E1,1.178714E1,1.7353575E1,2.1856194E1,1.7887398E1,1.631996E1,1.224632E1,2.8911295E1,2.0058752E1,1.89599E1,2.7896017E1,1.4615765E0,1.8418701E1,4.7617474E0,1.014065E1,0E0,3.2626476E0,2.3672426E1,2.5454823E1,2.0674732E1,3.8009567E1,2.5789963E1,0E0,2.587927E1,1.0973461E1,0E0,0E0,7.2880735E0,1.1153098E1,1.6578922E0,7.8110533E0,6.4054394E0,0E0,9.096332E-1,4.1709232E-1,3.2182076E1,1.444027E1,1.9956543E1,1.0463906E1,2.0924839E1,2.1801796E1,2.3444813E1,3.515964E1,2.159985E1,3.0553413E1,2.1654217E1,1.9735092E1,7.19339E0,0E0,0E0,1.3988802E0,7.5892437E-1,4.788414E0,0E0,0E0,0E0,0E0,0E0,0E0,0E0,0E0,0E0,0E0,0E0,0E0,0E0,0E0,0E0,0E0,0E0,0E0,0E0,0E0,0E0,0E0,0E0,0E0,0E0,0E0,0E0,0E0,0E0,0E0,0E0,0E0,0E0,0E0,0E0,0E0,0E0,0E0,0E0,0E0,0E0,0E0],"parents":[2147483647,0,0,1,1,2,2,3,3,4,4,5,5,6,6,7,7,8,8,9,9,10,10,11,11,12,12,13,13,14,14,15,15,16,16,18,18,19,19,20,20,21,21,22,22,23,23,25,25,26,26,29,29,30,30,31,31,32,32,33,33,35,35,36,36,37,37,38,38,39,39,40,40,41,41,42,42,43,43,44,44,45,45,46,46,47,47,48,48,49,49,52,52,53,53,54,54],"right_children":[2,4,6,8,10,12,14,16,18,20,22,24,26,28,30,32,34,-1,36,38,40,42,44,46,-1,48,50,-1,-1,52,54,56,58,60,-1,62,64,66,68,70,72,74,76,78,80,82,84,86,88,90,-1,-1,92,94,96,-1,-1,-1,-1,-1,-1,-1,-1,-1,-1,-1,-1,-1,-1,-1,-1,-1,-1,-1,-1,-1,-1,-1,-1,-1,-1,-1,-1,-1,-1,-1,-1,-1,-1,-1,-1,-1,-1,-1,-1,-1,-1],"split_conditions":[2.154E1,1.2773334E1,8.364999E0,1.264E1,7.556666E0,2.48E1,9.004583E0,1.2463333E1,5.7983336E0,1.0524999E0,1.5376667E1,8.235832E0,3.0473333E1,2.2493334E1,2.48E1,7.3133335E0,1.7000002E0,-7.561817E-1,1E-1,2E-1,2.0763334E1,1.41866665E1,1.5806666E1,1.3000001E0,1.4728736E0,1.4081477E1,1.9E0,-1.111476E-1,-6.64236E-1,1.7812216E2,1.004E1,1.1350417E1,9.178235E0,4.665E0,-3.711538E-1,8.1525E0,1.4000002E0,1.2833334E1,-1.3829166E0,2.6601038E2,2.463379E2,1.3846666E1,1.4433751E1,7.625416E0,1.2783802E1,4E-1,3.0545835E0,1.3217443E1,1E-1,5E-1,8.488724E-1,-5.2565855E-1,9.698335E0,2.5653334E1,2.3999999E0,-3.7452653E-2,-7.087955E-2,2.260248E-1,-1.874485E-2,-6.716023E-2,4.9082795E-1,-1.2846823E-1,1.14345364E-1,-3.2767683E-1,-4.885054E-2,7.858206E-1,-5.276069E-1,7.240074E-1,-1.706531E-2,2.7785137E-1,4.8336894E-3,-9.44411E-1,-1.2390159E-1,-1.1575781E-1,3.31747E-1,-5.4097563E-1,-4.963771E-2,-3.648421E-1,9.182592E-1,5.362718E-1,-7.445114E-2,3.8230535E-1,-3.740885E-1,1.461821E0,3.4715077E-1,4.7578458E-2,8.7234503E-1,2.0997158E-1,-3.1823328E-1,4.01539E-1,-6.404877E-4,2.2487842E-1,-7.22085E-2,1.1159306E-1,-1.2934609E-1,8.249959E-1,4.3882087E-2],"split_indices":[0,0,1,0,1,0,1,0,1,1,0,1,0,0,0,0,2,0,2,2,0,0,0,2,0,3,2,0,0,4,1,1,3,1,0,1,2,0,1,4,4,0,1,1,3,2,1,3,2,2,0,0,1,0,2,0,0,0,0,0,0,0,0,0,0,0,0,0,0,0,0,0,0,0,0,0,0,0,0,0,0,0,0,0,0,0,0,0,0,0,0,0,0,0,0,0,0],"split_type":[0,0,0,0,0,0,0,0,0,0,0,0,0,0,0,0,0,0,0,0,0,0,0,0,0,0,0,0,0,0,0,0,0,0,0,0,0,0,0,0,0,0,0,0,0,0,0,0,0,0,0,0,0,0,0,0,0,0,0,0,0,0,0,0,0,0,0,0,0,0,0,0,0,0,0,0,0,0,0,0,0,0,0,0,0,0,0,0,0,0,0,0,0,0,0,0,0],"sum_hessian":[1.535E3,1.426E3,1.09E2,1.114E3,3.12E2,9E1,1.9E1,1.102E3,1.2E1,1.64E2,1.48E2,2.5E1,6.5E1,4E0,1.5E1,1.09E3,1.2E1,3E0,9E0,2.8E1,1.36E2,7.7E1,7.1E1,2.4E1,1E0,3.7E1,2.8E1,1E0,3E0,8E0,7E0,5.45E2,5.45E2,1.1E1,1E0,5E0,4E0,1.5E1,1.3E1,1.29E2,7E0,4.5E1,3.2E1,7E0,6.4E1,1.4E1,1E1,1.1E1,2.6E1,2.4E1,4E0,3E0,5E0,3E0,4E0,2.92E2,2.53E2,1.1E1,5.34E2,2E0,9E0,1E0,4E0,3E0,1E0,1E0,1.4E1,2E0,1.1E1,9.7E1,3.2E1,1E0,6E0,3.3E1,1.2E1,1.6E1,1.6E1,1E0,6E0,9E0,5.5E1,1E1,4E0,3E0,7E0,7E0,4E0,9E0,1.7E1,1.9E1,5E0,1E0,4E0,1E0,2E0,3E0,1E0],"tree_param":{"num_deleted":"0","num_feature":"5","num_nodes":"97","size_leaf_vector":"1"}},{"base_weights":[1.3291536E-2,-3.018649E-2,6.061224E-1,-7.7164784E-2,1.3462792E-1,-5.7082355E-1,7.0907485E-1,-6.825243E-2,-8.274079E-1,-1.2903413E0,1.6616689E-1,-7.363979E-1,1.4271772E0,1.3451817E0,4.3144915E-1,-7.753018E-2,7.156152E-1,-5.860408E-1,-2.9424256E-1,-1.8951241E0,3.5075343E-1,9.0355986E-1,6.973255E-2,-9.664064E-2,1.9450393E0,-1.7002805E-1,1.667935E0,1.2665588E0,-1.3639553E-2,-7.3895946E-2,-2.5563222E-1,9.505169E-1,-3.154807E-1,-5.343559E-1,1.3324213E-1,-7.656954E-1,2.0862666E-1,1.1268375E0,-5.784318E-1,2.2032876E-1,-3.314539E-1,6.718409E-1,1.5926228E-1,-7.014843E-1,4.496006E-1,2.6802954E-1,2.0222244E0,1.5208424E0,-3.850701E-1,-8.987763E-1,1.9000779E-1,-4.5650925E-2,-1.1871878E-2,-5.3728104E-2,3.583045E-1,8.714318E-2,-2.0810579E-1,4.4946915E-1,-8.0240645E-2,-2.4568875E-1,9.981257E-2,-2.613113E-1,1.5748271E-1,3.983947E-1,-7.547602E-1,9.626307E-1,3.6832803E-1,8.43929E-1,2.4492034E-1,3.1401254E-2,-2.7814394E-1,7.2051835E-1,8.251143E-3],"categories":[],"categories_nodes":[],"categories_segments":[],"categories_sizes":[],"default_left":[0,0,0,0,0,0,0,0,0,0,0,0,0,0,0,0,0,0,0,0,0,0,0,0,0,0,0,0,0,0,0,0,0,0,0,0,0,0,0,0,0,0,0,0,0,0,0,0,0,0,0,0,0,0,0,0,0,0,0,0,0,0,0,0,0,0,0,0,0,0,0,0,0],"id":11,"left_children":[1,3,5,7,9,11,13,15,17,19,21,-1,23,25,27,29,31,-1,33,35,-1,37,39,-1,41,43,45,47,49,51,-1,53,-1,55,-1,-1,-1,57,-1,59,61,-1,-1,-1,-1,63,65,67,69,-1,71,-1,-1,-1,-1,-1,-1,-1,-1,-1,-1,-1,-1,-1,-1,-1,-1,-1,-1,-1,-1,-1,-1],"loss_changes":[3.960887E1,1.1097936E1,1.3127556E1,7.398899E0,1.4505982E1,3.7378387E1,1.654979E1,8.077082E0,7.2301054E0,1.2628065E1,2.2123318E1,0E0,5.1560793E0,1.44657135E1,2.5664429E1,3.0081944E0,6.396157E0,0E0,2.010285E0,1.1989883E1,0E0,2.493357E1,1.6808582E1,0E0,4.76614E-1,2.5213245E1,1.1361305E1,1.0665203E1,2.8506598E1,2.9143052E0,0E0,3.5191145E0,0E0,1.2528658E0,0E0,0E0,0E0,1.8007145E1,0E0,2.3865128E1,3.557665E1,0E0,0E0,0E0,0E0,2.1045822E1,1.3971077E1,1.6820045E1,1.158953E0,0E0,1.5748128E1,0E0,0E0,0E0,0E0,0E0,0E0,0E0,0E0,0E0,0E0,0E0,0E0,0E0,0E0,0E0,0E0,0E0,0E0,0E0,0E0,0E0,0E0],"parents":[2147483647,0,0,1,1,2,2,3,3,4,4,5,5,6,6,7,7,8,8,9,9,10,10,12,12,13,13,14,14,15,15,16,16,18,18,19,19,21,21,22,22,24,24,25,25,26,26,27,27,28,28,29,29,31,31,33,33,37,37,39,39,40,40,45,45,46,46,47,47,48,48,50,50],"right_children":[2,4,6,8,10,12,14,16,18,20,22,-1,24,26,28,30,32,-1,34,36,-1,38,40,-1,42,44,46,48,50,52,-1,54,-1,56,-1,-1,-1,58,-1,60,62,-1,-1,-1,-1,64,66,68,70,-1,72,-1,-1,-1,-1,-1,-1,-1,-1,-1,-1,-1,-1,-1,-1,-1,-1,-1,-1,-1,-1,-1,-1],"split_conditions":[2.2143333E1,1.2773334E1,1.1966953E1,1.264E1,9.178235E0,5.0004168E0,1.3363844E2,1.2463333E1,5.7983336E0,2.7180496E2,1.2783802E1,-7.363979E-1,2.48E1,7.920661E1,1E-1,4.1705654E1,1.7000002E0,-5.860408E-1,2.903148E2,1.7153334E1,3.5075343E-1,3.123369E2,1.0965E1,-9.664064E-2,2.7006666E1,2.7191668E0,1.3324863E1,2.2545315E1,2E-1,5.7966666E0,-2.5563222E-1,4.665E0,-3.154807E-1,8.845978E1,1.3324213E-1,-7.656954E-1,2.0862666E-1,1.7677502E1,-5.784318E-1,1.14979065E2,1.9E0,6.718409E-1,1.5926228E-1,-7.014843E-1,4.496006E-1,1.3281023E1,1.51884165E1,2.48E1,5.43375E0,-8.987763E-1,4E-1,-4.5650925E-2,-1.1871878E-2,-5.3728104E-2,3.583045E-1,8.714318E-2,-2.0810579E-1,4.4946915E-1,-8.0240645E-2,-2.4568875E-1,9.981257E-2,-2.613113E-1,1.5748271E-1,3.983947E-1,-7.547602E-1,9.626307E-1,3.6832803E-1,8.43929E-1,2.4492034E-1,3.1401254E-2,-2.7814394E-1,7.2051835E-1,8.251143E-3],"split_indices":[0,0,3,0,3,1,4,0,1,4,3,0,0,4,2,3,2,0,4,0,0,4,1,0,0,1,3,3,2,0,0,1,0,4,0,0,0,1,0,4,2,0,0,0,0,3,3,0,1,0,2,0,0,0,0,0,0,0,0,0,0,0,0,0,0,0,0,0,0,0,0,0,0],"split_type":[0,0,0,0,0,0,0,0,0,0,0,0,0,0,0,0,0,0,0,0,0,0,0,0,0,0,0,0,0,0,0,0,0,0,0,0,0,0,0,0,0,0,0,0,0,0,0,0,0,0,0,0,0,0,0,0,0,0,0,0,0,0,0,0,0,0,0,0,0,0,0,0,0],"sum_hessian":[1.535E3,1.431E3,1.04E2,1.114E3,3.17E2,8E0,9.6E1,1.102E3,1.2E1,6E0,3.11E2,4E0,4E0,2.8E1,6.8E1,1.09E3,1.2E1,3E0,9E0,5E0,1E0,3.5E1,2.76E2,1E0,3E0,5E0,2.3E1,2.3E1,4.5E1,1.086E3,4E0,1.1E1,1E0,7E0,2E0,4E0,1E0,3.3E1,2E0,2.01E2,7.5E1,2E0,1E0,2E0,3E0,5E0,1.8E1,2E1,3E0,2E0,4.3E1,3.3E2,7.56E2,2E0,9E0,1E0,6E0,2.6E1,7E0,1.9E1,1.82E2,4.6E1,2.9E1,4E0,1E0,6E0,1.2E1,6E0,1.4E1,2E0,1E0,2E0,4.1E1],"tree_param":{"num_deleted":"0","num_feature":"5","num_nodes":"73","size_leaf_vector":"1"}},{"base_weights":[9.193372E-3,-2.3038156E-2,4.2724064E-1,-1.7020632E-2,-1.2413049E0,5.606935E-1,-2.0133193E-1,-8.027045E-2,5.728041E-2,-2.4658443E-2,-4.2623726E-1,4.588143E-1,1.9275131E0,-1.323917E0,1.6205916E-1,-7.256757E-2,-5.2204794E-1,2.4837928E-2,4.7574317E-1,3.6206657E-1,1.9537144E0,7.723597E-1,-1.9613744E-1,-2.0227261E-1,-5.8839256E-1,-4.534473E-1,5.091014E-1,-8.274274E-2,3.264771E-1,-8.3684635E-1,1.4899883E-1,-4.0793774E-1,5.4405317E-2,9.779212E-1,-1.3936466E-1,-7.5944763E-1,4.605999E-1,1.1253531E0,5.6655455E-1,1.0941789E0,-6.647909E-2,-2.313042E-2,-1.9825374E-1,1.3070406E-1,-1.2034984E-1,-2.950452E-1,-1.22303516E-1,-5.9122376E-2,1.336218E-1,-6.668921E-2,-5.930151E-1,3.746842E-2,-3.9545324E-2,5.777596E-1,7.952687E-2,2.7865022E-1,-2.0993392E-1,-4.62051E-1,2.3847161E-1,7.1472055E-1,1.129394E-1,-1.1228028E-1,3.0147535E-1,4.1034412E-1,-8.214455E-2,5.7141352E-2,-7.762304E-2],"categories":[],"categories_nodes":[],"categories_segments":[],"categories_sizes":[],"default_left":[0,0,0,0,0,0,0,0,0,0,0,0,0,0,0,0,0,0,0,0,0,0,0,0,0,0,0,0,0,0,0,0,0,0,0,0,0,0,0,0,0,0,0,0,0,0,0,0,0,0,0,0,0,0,0,0,0,0,0,0,0,0,0,0,0,0,0],"id":12,"left_children":[1,3,5,7,9,11,13,15,17,-1,-1,19,21,23,25,27,29,31,33,35,37,-1,-1,-1,-1,-1,39,41,43,45,47,49,51,53,55,57,59,-1,61,63,65,-1,-1,-1,-1,-1,-1,-1,-1,-1,-1,-1,-1,-1,-1,-1,-1,-1,-1,-1,-1,-1,-1,-1,-1,-1,-1],"loss_changes":[2.0706371E1,1.0440141E1,9.340216E0,6.6826262E0,1.3395252E0,1.1787426E1,8.373301E0,2.5755887E0,8.866868E0,0E0,0E0,1.1730652E1,1.1704126E1,7.4809074E-1,1.0062183E1,3.0966387E0,2.8708675E0,7.8021903E0,1.4654289E1,9.411336E0,1.0341591E1,0E0,0E0,0E0,0E0,0E0,4.787368E0,2.3558712E0,1.6845372E0,1.654439E-1,6.006713E-1,1.0918503E1,7.4987116E0,1.705831E1,1.38199415E1,9.718914E0,1.1391642E1,0E0,2.0257952E0,2.9948444E0,4.4450226E-1,0E0,0E0,0E0,0E0,0E0,0E0,0E0,0E0,0E0,0E0,0E0,0E0,0E0,0E0,0E0,0E0,0E0,0E0,0E0,0E0,0E0,0E0,0E0,0E0,0E0,0E0],"parents":[2147483647,0,0,1,1,2,2,3,3,4,4,5,5,6,6,7,7,8,8,11,11,12,12,13,13,14,14,15,15,16,16,17,17,18,18,19,19,20,20,26,26,27,27,28,28,29,29,30,30,31,31,32,32,33,33,34,34,35,35,36,36,38,38,39,39,40,40],"right_children":[2,4,6,8,10,12,14,16,18,-1,-1,20,22,24,26,28,30,32,34,36,38,-1,-1,-1,-1,-1,40,42,44,46,48,50,52,54,56,58,60,-1,62,64,66,-1,-1,-1,-1,-1,-1,-1,-1,-1,-1,-1,-1,-1,-1,-1,-1,-1,-1,-1,-1,-1,-1,-1,-1,-1,-1],"split_conditions":[2.154E1,4.3801807E1,8.364999E0,8.923333E0,6E-1,6.3E0,9.004583E0,8.826667E0,8.900001E0,-2.4658443E-2,-4.2623726E-1,8.235832E0,3.0589407E1,2.4266666E1,2.2493334E1,8.72E0,1.6042086E1,6.6047035E1,2.7117346E1,1.0574528E2,2.48E1,7.723597E-1,-1.9613744E-1,-2.0227261E-1,-5.8839256E-1,-4.534473E-1,2.3999999E0,8.673333E0,6.7000003E0,1.16525E1,1E-1,1.8323334E1,2.677735E2,1.2854583E1,2.3010498E2,3.0545835E0,1.0741664E2,1.1253531E0,1.2313893E1,1.6835835E1,1.0162917E1,-2.313042E-2,-1.9825374E-1,1.3070406E-1,-1.2034984E-1,-2.950452E-1,-1.22303516E-1,-5.9122376E-2,1.336218E-1,-6.668921E-2,-5.930151E-1,3.746842E-2,-3.9545324E-2,5.777596E-1,7.952687E-2,2.7865022E-1,-2.0993392E-1,-4.62051E-1,2.3847161E-1,7.1472055E-1,1.129394E-1,-1.1228028E-1,3.0147535E-1,4.1034412E-1,-8.214455E-2,5.7141352E-2,-7.762304E-2],"split_indices":[0,3,1,0,2,2,1,0,2,0,0,1,3,0,0,0,1,4,3,4,0,0,0,0,0,0,2,0,2,1,2,0,4,1,4,1,4,0,3,1,1,0,0,0,0,0,0,0,0,0,0,0,0,0,0,0,0,0,0,0,0,0,0,0,0,0,0],"split_type":[0,0,0,0,0,0,0,0,0,0,0,0,0,0,0,0,0,0,0,0,0,0,0,0,0,0,0,0,0,0,0,0,0,0,0,0,0,0,0,0,0,0,0,0,0,0,0,0,0,0,0,0,0,0,0,0,0,0,0,0,0,0,0,0,0,0,0],"sum_hessian":[1.535E3,1.426E3,1.09E2,1.42E3,6E0,9E1,1.9E1,7.67E2,6.53E2,1E0,5E0,8.5E1,5E0,4E0,1.5E1,7.55E2,1.2E1,6.07E2,4.6E1,8.1E1,4E0,4E0,1E0,3E0,1E0,2E0,1.3E1,7.37E2,1.8E1,8E0,4E0,3.8E1,5.69E2,2.5E1,2.1E1,6E0,7.5E1,1E0,3E0,6E0,7E0,7.31E2,6E0,1.6E1,2E0,5E0,3E0,2E0,2E0,3.5E1,3E0,4.13E2,1.56E2,1E1,1.5E1,7E0,1.4E1,4E0,2E0,2E0,7.3E1,1E0,2E0,5E0,1E0,3E0,4E0],"tree_param":{"num_deleted":"0","num_feature":"5","num_nodes":"67","size_leaf_vector":"1"}},{"base_weights":[6.8377536E-3,6.280758E-4,1.1928077E0,-4.0410284E-2,1.2017299E-1,-2.529564E-2,1.6325697E0,-5.1755838E-2,2.4997306E-1,1.06223926E-1,5.6665325E-1,1.5712701E-1,6.168111E-1,-2.9639723E-3,-1.2350837E-1,4.7233686E-1,-2.4437602E-1,-1.2840347E0,1.31356E-1,-7.179862E-2,1.4088845E-1,-9.3465626E-2,-7.9059786E-1,2.5436193E-1,4.5340177E-1,1.22172214E-1,-9.285973E-1,-5.800505E-1,2.2642167E-1,1.6272694E-1,-8.520892E-1,1.3670575E-2,-5.7292026E-2,4.879726E-2,-4.2897293E-1,-3.7733424E-2,7.193145E-2,4.5355033E-2,-4.467821E-1,2.4955474E-1,5.9396543E-2,8.6773016E-2,1.32747E-2,-8.791867E-2,-3.7638E-1,1.7171259E-1,-6.982284E-2,9.654967E-2,-1.0996708E-2,-3.6160022E-1,1.8282701E-1],"categories":[],"categories_nodes":[],"categories_segments":[],"categories_sizes":[],"default_left":[0,0,0,0,0,0,0,0,0,0,0,0,0,0,0,0,0,0,0,0,0,0,0,0,0,0,0,0,0,0,0,0,0,0,0,0,0,0,0,0,0,0,0,0,0,0,0,0,0,0,0],"id":13,"left_children":[1,3,5,7,9,-1,11,13,15,17,-1,-1,-1,19,21,23,25,27,29,31,33,35,37,39,-1,41,43,-1,45,47,49,-1,-1,-1,-1,-1,-1,-1,-1,-1,-1,-1,-1,-1,-1,-1,-1,-1,-1,-1,-1],"loss_changes":[1.1311109E1,7.506019E0,4.6307096E0,3.765442E0,9.445842E0,0E0,1.7404127E0,3.8401647E0,4.8422174E0,1.3760361E1,0E0,0E0,0E0,6.4860444E0,8.824398E0,6.409867E0,3.62465E0,7.3047276E0,1.195482E1,6.205037E0,7.481889E0,4.6172023E0,1.272715E1,6.8173206E-1,0E0,1.1738852E-1,6.6825485E-1,0E0,6.0976505E-1,1.1812686E1,6.929819E0,0E0,0E0,0E0,0E0,0E0,0E0,0E0,0E0,0E0,0E0,0E0,0E0,0E0,0E0,0E0,0E0,0E0,0E0,0E0,0E0],"parents":[2147483647,0,0,1,1,2,2,3,3,4,4,6,6,7,7,8,8,9,9,13,13,14,14,15,15,16,16,17,17,18,18,19,19,20,20,21,21,22,22,23,23,25,25,26,26,28,28,29,29,30,30],"right_children":[2,4,6,8,10,-1,12,14,16,18,-1,-1,-1,20,22,24,26,28,30,32,34,36,38,40,-1,42,44,-1,46,48,50,-1,-1,-1,-1,-1,-1,-1,-1,-1,-1,-1,-1,-1,-1,-1,-1,-1,-1,-1,-1],"split_conditions":[3.7316666E1,1.3116667E1,1.6379169E0,2.2417084E1,3.473332E2,-2.529564E-2,1.3281023E1,1.30754175E1,1.7698677E1,9.178235E0,5.6665325E-1,1.5712701E-1,6.168111E-1,8.675416E0,1.2266666E1,1.1236667E1,9.963333E0,1.7153334E1,3.165911E2,2.026899E1,1.288E1,1.1103333E1,1E-1,9.346143E0,4.5340177E-1,2.2779587E1,1.9862083E1,-5.800505E-1,1.9546667E1,1.5E0,7.1999993E0,1.3670575E-2,-5.7292026E-2,4.879726E-2,-4.2897293E-1,-3.7733424E-2,7.193145E-2,4.5355033E-2,-4.467821E-1,2.4955474E-1,5.9396543E-2,8.6773016E-2,1.32747E-2,-8.791867E-2,-3.7638E-1,1.7171259E-1,-6.982284E-2,9.654967E-2,-1.0996708E-2,-3.6160022E-1,1.8282701E-1],"split_indices":[0,0,1,1,4,0,3,1,3,3,0,0,0,1,0,0,0,0,4,3,0,0,2,3,0,1,3,0,0,2,2,0,0,0,0,0,0,0,0,0,0,0,0,0,0,0,0,0,0,0,0],"split_type":[0,0,0,0,0,0,0,0,0,0,0,0,0,0,0,0,0,0,0,0,0,0,0,0,0,0,0,0,0,0,0,0,0,0,0,0,0,0,0,0,0,0,0,0,0,0,0,0,0,0,0],"sum_hessian":[1.535E3,1.528E3,7E0,1.138E3,3.9E2,2E0,5E0,1.096E3,4.2E1,3.88E2,2E0,2E0,3E0,6.53E2,4.43E2,2.9E1,1.3E1,6E0,3.82E2,4.42E2,2.11E2,4.25E2,1.8E1,2.5E1,4E0,9E0,4E0,4E0,2E0,3.71E2,1.1E1,2.23E2,2.19E2,2.09E2,2E0,3.88E2,3.7E1,8E0,1E1,1E0,2.4E1,2E0,7E0,2E0,2E0,1E0,1E0,2.06E2,1.65E2,9E0,2E0],"tree_param":{"num_deleted":"0","num_feature":"5","num_nodes":"51","size_leaf_vector":"1"}},{"base_weights":[5.014783E-3,-1.3571734E-2,2.4608701E-1,-9.175539E-3,-9.0406054E-1,7.172678E-1,9.9065974E-2,1.5773201E-1,-2.653302E-2,-1.2365914E-2,-1.0409974E0,1.403844E-1,1.7913382E0,2.0663973E-2,1.3493652E0,6.763996E-2,1.7825965E0,-2.0447458E-1,2.372313E-3,-4.5285144E-1,-3.6655727E-1,4.8119017E-1,-1.1727333E0,3.0710845E0,1.5332413E-1,-3.646518E-1,4.0547574E-1,1.2570153E-1,5.4898113E-1,8.322315E-3,1.0917989E0,7.792812E-1,1.56582E-1,-1.0343922E-1,-9.64531E-1,8.9765984E-1,-1.23873465E-2,-2.0678452E-1,3.0013563E-3,-4.8000214E-1,1.1753186E0,-4.5201492E-1,-2.5617601E-2,1.0562193E0,1.9087487E-1,2.013836E-1,-1.24721535E-1,-2.1023324E0,-1.19974636E-1,1.1847564E0,-8.967682E-2,-9.798034E-2,4.7386467E-2,-2.5352728E-2,8.0651385E-1,-5.8010507E-2,3.065402E-1,-4.0684614E-1,7.2165444E-2,2.2925236E-3,5.360487E-1,2.375976E-2,-1.5959172E-2,2.7170393E-1,-7.8884137E-1,4.9414083E-1,5.212884E-2,-1.8957396E-1,-6.9358766E-1,1.6320094E-1,-2.332914E-1,7.107047E-1,7.1189806E-2,-2.3971692E-1,1.4514159E-1],"categories":[],"categories_nodes":[],"categories_segments":[],"categories_sizes":[],"default_left":[0,0,0,0,0,0,0,0,0,0,0,0,0,0,0,0,0,0,0,0,0,0,0,0,0,0,0,0,0,0,0,0,0,0,0,0,0,0,0,0,0,0,0,0,0,0,0,0,0,0,0,0,0,0,0,0,0,0,0,0,0,0,0,0,0,0,0,0,0,0,0,0,0,0,0],"id":14,"left_children":[1,3,5,7,9,11,13,15,17,-1,19,21,23,25,27,29,31,33,35,37,-1,39,41,43,45,47,49,-1,-1,51,53,-1,-1,55,57,59,61,-1,-1,63,65,-1,-1,-1,-1,-1,-1,67,69,71,73,-1,-1,-1,-1,-1,-1,-1,-1,-1,-1,-1,-1,-1,-1,-1,-1,-1,-1,-1,-1,-1,-1,-1,-1],"loss_changes":[6.885684E0,5.5780716E0,7.5490274E0,4.1209574E0,7.84173E-1,1.5858471E1,8.304324E0,1.9495333E1,6.6252623E0,0E0,8.4913254E-2,8.619633E0,1.8395313E1,1.2158055E1,1.468771E0,7.767003E0,5.836319E0,1.3722895E1,1.46656E1,3.3519536E-1,0E0,1.0572019E1,1.3239532E0,3.2340126E0,1.7528187E0,1.7179771E1,1.59266205E1,0E0,0E0,6.1656737E0,1.3373685E1,0E0,0E0,1.6388279E1,1.0236916E1,1.4231122E1,4.0857124E0,0E0,0E0,2.323082E1,3.966752E0,0E0,0E0,0E0,0E0,0E0,0E0,8.0236435E-2,1.6579967E1,1.739039E1,1.0963817E1,0E0,0E0,0E0,0E0,0E0,0E0,0E0,0E0,0E0,0E0,0E0,0E0,0E0,0E0,0E0,0E0,0E0,0E0,0E0,0E0,0E0,0E0,0E0,0E0],"parents":[2147483647,0,0,1,1,2,2,3,3,4,4,5,5,6,6,7,7,8,8,10,10,11,11,12,12,13,13,14,14,15,15,16,16,17,17,18,18,19,19,21,21,22,22,23,23,24,24,25,25,26,26,29,29,30,30,33,33,34,34,35,35,36,36,39,39,40,40,47,47,48,48,49,49,50,50],"right_children":[2,4,6,8,10,12,14,16,18,-1,20,22,24,26,28,30,32,34,36,38,-1,40,42,44,46,48,50,-1,-1,52,54,-1,-1,56,58,60,62,-1,-1,64,66,-1,-1,-1,-1,-1,-1,68,70,72,74,-1,-1,-1,-1,-1,-1,-1,-1,-1,-1,-1,-1,-1,-1,-1,-1,-1,-1,-1,-1,-1,-1,-1,-1],"split_conditions":[2.154E1,4.3801807E1,2.54625E0,1.1384199E1,6E-1,1.6379169E0,3.7316666E1,1.1298495E1,1.4471821E1,-1.2365914E-2,1.0296667E1,1.5400001E0,3.3806667E1,2.0896114E2,1.3281023E1,1.7153334E1,7.015001E0,1.5923333E1,1.4689588E1,9.286667E0,-3.6655727E-1,1.2108143E2,3.238E1,1.7000002E0,1.1801559E2,3.0941665E0,2.376126E2,1.2570153E-1,5.4898113E-1,1.3162836E2,1E-1,7.792812E-1,1.56582E-1,1.3416667E1,2E0,2.0486307E2,6.59E0,-2.0678452E-1,3.0013563E-3,3.4E-1,1.9829433E1,-4.5201492E-1,-2.5617601E-2,1.0562193E0,1.9087487E-1,2.013836E-1,-1.24721535E-1,2.7191668E0,1.5626622E2,2.48E1,2.4879736E2,-9.798034E-2,4.7386467E-2,-2.5352728E-2,8.0651385E-1,-5.8010507E-2,3.065402E-1,-4.0684614E-1,7.2165444E-2,2.2925236E-3,5.360487E-1,2.375976E-2,-1.5959172E-2,2.7170393E-1,-7.8884137E-1,4.9414083E-1,5.212884E-2,-1.8957396E-1,-6.9358766E-1,1.6320094E-1,-2.332914E-1,7.107047E-1,7.1189806E-2,-2.3971692E-1,1.4514159E-1],"split_indices":[0,3,1,3,2,1,0,3,3,0,0,1,0,4,3,0,1,0,3,0,0,4,0,2,4,1,4,0,0,4,2,0,0,0,2,4,1,0,0,1,3,0,0,0,0,0,0,1,4,0,4,0,0,0,0,0,0,0,0,0,0,0,0,0,0,0,0,0,0,0,0,0,0,0,0],"split_type":[0,0,0,0,0,0,0,0,0,0,0,0,0,0,0,0,0,0,0,0,0,0,0,0,0,0,0,0,0,0,0,0,0,0,0,0,0,0,0,0,0,0,0,0,0,0,0,0,0,0,0,0,0,0,0,0,0,0,0,0,0,0,0,0,0,0,0,0,0,0,0,0,0,0,0],"sum_hessian":[1.535E3,1.426E3,1.09E2,1.42E3,6E0,2.5E1,8.4E1,1.33E2,1.287E3,1E0,5E0,1.7E1,8E0,8E1,4E0,1.27E2,6E0,1.79E2,1.108E3,2E0,3E0,1.4E1,3E0,4E0,4E0,4E1,4E1,2E0,2E0,1.21E2,6E0,3E0,3E0,1.59E2,2E1,1.7E1,1.091E3,1E0,1E0,6E0,8E0,2E0,1E0,3E0,1E0,2E0,2E0,4E0,3.6E1,1.5E1,2.5E1,3.7E1,8.4E1,4E0,2E0,1.48E2,1.1E1,1.5E1,5E0,9E0,8E0,3.36E2,7.55E2,4E0,2E0,5E0,3E0,1E0,3E0,1.8E1,1.8E1,6E0,9E0,1.1E1,1.4E1],"tree_param":{"num_deleted":"0","num_feature":"5","num_nodes":"75","size_leaf_vector":"1"}},{"base_weights":[5.3512165E-3,1.5489601E-3,7.3138857E-1,4.9753557E-3,-6.5051645E-1,1.9050828E-1,1.2246418E0,-2.2986345E-2,8.086901E-2,-2.6160147E-2,-2.4712652E-1,-2.2887422E-2,1.18141554E-1,7.600766E-2,4.3918496E-1,-1.6356502E-2,-5.827149E-1,4.3883055E-2,4.8859948E-1,-2.0628827E-2,6.542936E-1,-1.5114872E0,-1.5293446E-1,6.834477E-2,-1.7897375E0,1.0099788E0,-1.6107589E-1,-1.5603817E-2,1.55901825E-2,2.4042321E-2,3.1946182E-1,-1.0630546E-1,-5.337246E-1,-9.7955175E-2,1.08279325E-1,3.8357522E-2,-9.044887E-2,-7.153894E-1,-1.7947942E-1,3.8182878E-1,-8.809526E-2,1.7425539E-1,-1.9929521E-1],"categories":[],"categories_nodes":[],"categories_segments":[],"categories_sizes":[],"default_left":[0,0,0,0,0,0,0,0,0,0,0,0,0,0,0,0,0,0,0,0,0,0,0,0,0,0,0,0,0,0,0,0,0,0,0,0,0,0,0,0,0,0,0],"id":15,"left_children":[1,3,5,7,9,11,13,15,17,-1,-1,-1,-1,-1,-1,19,21,23,25,27,29,31,33,35,37,39,41,-1,-1,-1,-1,-1,-1,-1,-1,-1,-1,-1,-1,-1,-1,-1,-1],"loss_changes":[4.239118E0,3.4193804E0,1.9010234E0,3.231719E0,7.088728E-1,3.012417E-1,5.5883837E-1,4.120714E0,6.161482E0,0E0,0E0,0E0,0E0,0E0,0E0,3.1681201E0,4.958028E0,1.7032091E1,1.1679411E1,2.4974945E0,1.5648055E0,6.081543E-1,1.0098323E0,8.248494E0,2.1173573E0,6.8826275E0,6.3597655E0,0E0,0E0,0E0,0E0,0E0,0E0,0E0,0E0,0E0,0E0,0E0,0E0,0E0,0E0,0E0,0E0],"parents":[2147483647,0,0,1,1,2,2,3,3,4,4,5,5,6,6,7,7,8,8,15,15,16,16,17,17,18,18,19,19,20,20,21,21,22,22,23,23,24,24,25,25,26,26],"right_children":[2,4,6,8,10,12,14,16,18,-1,-1,-1,-1,-1,-1,20,22,24,26,28,30,32,34,36,38,40,42,-1,-1,-1,-1,-1,-1,-1,-1,-1,-1,-1,-1,-1,-1,-1,-1],"split_conditions":[3.7316666E1,4.3801807E1,3.0545835E0,1.2773334E1,6.9999995E0,1.6379169E0,1.0495713E1,1.264E1,8.200001E0,-2.6160147E-2,-2.4712652E-1,-2.2887422E-2,1.18141554E-1,7.600766E-2,4.3918496E-1,2.5185837E1,5.7983336E0,7.6999993E0,2.8038431E1,2.1E0,7.903333E0,-1.1620833E0,2.903148E2,1.4610833E1,1.8463333E1,1.6900002E1,2.3010498E2,-1.5603817E-2,1.55901825E-2,2.4042321E-2,3.1946182E-1,-1.0630546E-1,-5.337246E-1,-9.7955175E-2,1.08279325E-1,3.8357522E-2,-9.044887E-2,-7.153894E-1,-1.7947942E-1,3.8182878E-1,-8.809526E-2,1.7425539E-1,-1.9929521E-1],"split_indices":[0,3,1,0,2,1,3,0,2,0,0,0,0,0,0,1,1,2,3,2,0,1,4,1,0,2,4,0,0,0,0,0,0,0,0,0,0,0,0,0,0,0,0],"split_type":[0,0,0,0,0,0,0,0,0,0,0,0,0,0,0,0,0,0,0,0,0,0,0,0,0,0,0,0,0,0,0,0,0,0,0,0,0,0,0,0,0,0,0],"sum_hessian":[1.535E3,1.528E3,7E0,1.521E3,7E0,4E0,3E0,1.112E3,4.09E2,2E0,5E0,2E0,2E0,1E0,2E0,1.1E3,1.2E1,3.76E2,3.3E1,1.094E3,6E0,3E0,9E0,3.72E2,4E0,1.8E1,1.5E1,7.64E2,3.3E2,3E0,3E0,1E0,2E0,7E0,2E0,3.21E2,5.1E1,2E0,2E0,1.5E1,3E0,6E0,9E0],"tree_param":{"num_deleted":"0","num_feature":"5","num_nodes":"43","size_leaf_vector":"1"}},{"base_weights":[3.3376433E-3,-1.6058418E-1,1.5109339E-2,-2.2314623E-1,1.443613E0,5.074734E-2,-5.8326516E-2,-7.0763044E-2,-9.1340506E-1,8.015743E-2,5.2400696E-1,2.9469395E-2,5.996089E-1,-1.3612233E0,-3.8502317E-2,-1.510435E-1,8.2243097E-1,-2.8100872E-1,-1.6687744E0,2.946529E-1,5.8906386E-3,-2.4572867E-3,2.4060805E0,-3.045751E-1,-6.2326974E-1,-4.701258E-2,3.846226E-1,-5.4370385E-2,-1.1100074E0,-2.3745286E-1,5.030121E-1,7.7566626E-3,-1.3413769E-1,-6.3485634E-1,-6.923139E-1,-2.8476384E-1,6.016449E-1,-5.004163E-1,2.0471042E-2,1.4180738E-1,-9.0349716E-1,3.262208E0,1.5611072E-1,4.664612E-3,-1.2493978E-1,-3.361278E-1,-1.1811672E-2,2.536309E-2,-1.611514E-1,-4.1935825E-1,-7.807484E-2,-7.3546413E-3,-1.3143976E-1,-1.0707704E-1,5.644727E-2,-3.1962192E-1,-6.38443E-2,-2.8589368E-3,-1.420175E-1,4.529617E-2,3.3723396E-1,-2.3819755E-1,1.5379265E-1,1.138989E-1,2.756773E-4,8.456093E-2,-1.991963E-1,4.469848E-3,-3.6437878E-1,1.1116582E0,1.5684186E-1,-7.073036E-2,-7.8806496E-1,-1.2575199E-2,1.1187929E-1],"categories":[],"categories_nodes":[],"categories_segments":[],"categories_sizes":[],"default_left":[0,0,0,0,0,0,0,0,0,0,0,0,0,0,0,0,0,0,0,0,0,0,0,0,0,0,0,0,0,0,0,0,0,0,0,0,0,0,0,0,0,0,0,0,0,0,0,0,0,0,0,0,0,0,0,0,0,0,0,0,0,0,0,0,0,0,0,0,0,0,0,0,0,0,0],"id":16,"left_children":[1,3,5,7,9,11,13,15,17,-1,-1,19,21,23,25,27,29,31,33,35,37,39,41,43,-1,45,-1,47,49,51,-1,53,-1,-1,55,57,59,61,63,65,67,69,-1,-1,-1,71,73,-1,-1,-1,-1,-1,-1,-1,-1,-1,-1,-1,-1,-1,-1,-1,-1,-1,-1,-1,-1,-1,-1,-1,-1,-1,-1,-1,-1],"loss_changes":[2.96635E0,1.0659409E1,3.7558916E0,1.0453749E1,9.5948315E-1,1.1263899E1,1.20613365E1,6.0758224E0,8.129531E0,0E0,0E0,5.8195252E0,3.9160065E1,4.665677E0,5.2636805E0,7.078012E0,6.7361727E0,5.311252E-1,2.0299854E0,1.3689924E1,6.3293724E0,3.767793E0,1.2832134E1,1.4975116E-1,0E0,4.687681E0,0E0,4.807229E0,1.3484468E0,1.6018778E-1,0E0,3.9610097E-1,0E0,0E0,4.8885667E-1,1.3972421E0,1.1602989E1,7.5448527E0,5.849779E0,3.0086975E0,1.1609447E0,5.349304E0,0E0,0E0,0E0,1.0875671E1,4.7877994E0,0E0,0E0,0E0,0E0,0E0,0E0,0E0,0E0,0E0,0E0,0E0,0E0,0E0,0E0,0E0,0E0,0E0,0E0,0E0,0E0,0E0,0E0,0E0,0E0,0E0,0E0,0E0,0E0],"parents":[2147483647,0,0,1,1,2,2,3,3,4,4,5,5,6,6,7,7,8,8,11,11,12,12,13,13,14,14,15,15,16,16,17,17,18,18,19,19,20,20,21,21,22,22,23,23,25,25,27,27,28,28,29,29,31,31,34,34,35,35,36,36,37,37,38,38,39,39,40,40,41,41,45,45,46,46],"right_children":[2,4,6,8,10,12,14,16,18,-1,-1,20,22,24,26,28,30,32,34,36,38,40,42,44,-1,46,-1,48,50,52,-1,54,-1,-1,56,58,60,62,64,66,68,70,-1,-1,-1,72,74,-1,-1,-1,-1,-1,-1,-1,-1,-1,-1,-1,-1,-1,-1,-1,-1,-1,-1,-1,-1,-1,-1,-1,-1,-1,-1,-1,-1],"split_conditions":[6.879166E-1,3.3855215E2,2.5518536E2,3.4E-1,4.6E0,2.515465E2,2.5604578E2,1.6916662E-1,8.796666E0,8.015743E-2,5.2400696E-1,2.54625E0,1.5056666E1,1.079E1,2.8093332E1,1.0833327E-2,8.59E0,1.2979984E1,5.712499E-1,8.526667E0,3.0545835E0,3.432105E1,2.7288855E1,4.3420835E0,-6.2326974E-1,3.8170826E0,3.846226E-1,9.000001E-1,1.9103333E1,7.543333E0,5.030121E-1,4.653333E0,-1.3413769E-1,-6.3485634E-1,1.2693333E1,8.845978E1,1.8754168E0,2.3507753E1,4.054583E0,1.6985834E1,4.846667E0,7.556666E0,1.5611072E-1,4.664612E-3,-1.2493978E-1,3.6795828E0,3.339473E1,2.536309E-2,-1.611514E-1,-4.1935825E-1,-7.807484E-2,-7.3546413E-3,-1.3143976E-1,-1.0707704E-1,5.644727E-2,-3.1962192E-1,-6.38443E-2,-2.8589368E-3,-1.420175E-1,4.529617E-2,3.3723396E-1,-2.3819755E-1,1.5379265E-1,1.138989E-1,2.756773E-4,8.456093E-2,-1.991963E-1,4.469848E-3,-3.6437878E-1,1.1116582E0,1.5684186E-1,-7.073036E-2,-7.8806496E-1,-1.2575199E-2,1.1187929E-1],"split_indices":[1,4,4,1,0,4,4,1,0,0,0,1,0,0,0,1,0,3,1,0,1,3,3,1,0,1,0,2,0,0,0,0,0,0,0,4,1,3,1,1,0,1,0,0,0,1,3,0,0,0,0,0,0,0,0,0,0,0,0,0,0,0,0,0,0,0,0,0,0,0,0,0,0,0,0],"split_type":[0,0,0,0,0,0,0,0,0,0,0,0,0,0,0,0,0,0,0,0,0,0,0,0,0,0,0,0,0,0,0,0,0,0,0,0,0,0,0,0,0,0,0,0,0,0,0,0,0,0,0,0,0,0,0,0,0,0,0,0,0,0,0,0,0,0,0,0,0,0,0,0,0,0,0],"sum_hessian":[1.535E3,1.02E2,1.433E3,9.9E1,3E0,9.65E2,4.68E2,8.2E1,1.7E1,1E0,2E0,9.3E2,3.5E1,6E0,4.62E2,7.6E1,6E0,1E1,7E0,7.5E1,8.55E2,2.7E1,8E0,3E0,3E0,4.6E2,2E0,7E1,6E0,3E0,3E0,4E0,6E0,4E0,3E0,2.6E1,4.9E1,2.3E1,8.32E2,2.4E1,3E0,5E0,3E0,1E0,2E0,4.9E1,4.11E2,5.5E1,1.5E1,4E0,2E0,2E0,1E0,1E0,3E0,1E0,2E0,1.1E1,1.5E1,2.7E1,2.2E1,1.8E1,5E0,4.2E1,7.9E2,2.1E1,3E0,1E0,2E0,4E0,1E0,4.8E1,1E0,3.82E2,2.9E1],"tree_param":{"num_deleted":"0","num_feature":"5","num_nodes":"75","size_leaf_vector":"1"}},{"base_weights":[1.8357332E-3,-5.556161E-3,2.526144E-1,-5.689162E-2,3.6418274E-2,1.3599533E-1,1.1350443E0,2.6866473E-2,-2.0204534E-1,2.158121E-1,-2.4313975E-2,2.0184469E-1,-3.648195E-1,-1.802187E-2,4.3465257E-1,-4.212903E-2,2.4430989E-1,2.8839272E-1,-3.132797E-1,1.0541082E-1,9.217699E-1,1.0903152E-2,-4.7063988E-1,1.4457573E-1,2.5226414E-1,-1.0561587E-1,3.0102804E-1,3.737112E-2,9.624721E-1,4.6786267E-1,-7.783489E-1,-6.5595764E-1,4.640824E-2,2.5746617E-1,-1.0052376E0,2.0863886E0,4.5464348E-2,-1.6778246E-2,1.9610788E0,-6.870506E-1,6.1614096E-1,1.3462682E-1,8.302392E-2,-2.5217572E-2,-3.174276E-1,-1.0420885E-2,1.8756433E-1,5.9738442E-2,-3.030283E-1,5.575397E-1,-5.5178054E-2,1.8506342E-1,-6.1592534E-2,6.476784E-3,-3.3079264E-1,-7.978708E-2,-3.5186058E-1,3.9794457E-1,-2.4210729E-2,3.671039E-2,6.815107E-1,-3.95327E-1,9.626347E-2,7.5298905E-2,8.0108935E-1,7.546737E-2,-2.0616876E-1,3.25894E-2,-3.994265E-2,1.690969E-1,1.2306693E0,5.065127E-3,-4.175621E-1,4.4293845E-1,2.4987174E-2,7.633629E-3,1.4391361E-1],"categories":[],"categories_nodes":[],"categories_segments":[],"categories_sizes":[],"default_left":[0,0,0,0,0,0,0,0,0,0,0,0,0,0,0,0,0,0,0,0,0,0,0,0,0,0,0,0,0,0,0,0,0,0,0,0,0,0,0,0,0,0,0,0,0,0,0,0,0,0,0,0,0,0,0,0,0,0,0,0,0,0,0,0,0,0,0,0,0,0,0,0,0,0,0,0,0],"id":17,"left_children":[1,3,5,7,9,11,13,15,17,19,21,23,-1,-1,-1,25,27,29,31,33,35,37,39,41,-1,43,45,47,49,51,53,55,57,59,61,63,65,67,69,71,73,-1,75,-1,-1,-1,-1,-1,-1,-1,-1,-1,-1,-1,-1,-1,-1,-1,-1,-1,-1,-1,-1,-1,-1,-1,-1,-1,-1,-1,-1,-1,-1,-1,-1,-1,-1],"loss_changes":[2.848732E0,3.2191536E0,4.3735986E0,8.175468E0,8.96093E0,3.8067489E0,1.9621601E0,6.41641E0,1.3510524E1,1.6114075E1,9.671896E0,1.3057085E0,0E0,0E0,0E0,7.1122303E0,1.5271438E1,9.170773E0,2.4805122E1,3.0826101E1,2.8480875E1,3.085753E1,1.1006915E1,6.554879E-1,0E0,5.557584E0,5.573078E0,1.3925363E1,2.3966644E1,4.139163E0,1.839706E0,2.045242E1,1.621544E1,4.3261166E1,9.54044E0,1.2190197E1,2.7399359E0,8.244998E0,2.16245E1,1.8877169E1,3.5444012E0,0E0,7.1869594E-1,0E0,0E0,0E0,0E0,0E0,0E0,0E0,0E0,0E0,0E0,0E0,0E0,0E0,0E0,0E0,0E0,0E0,0E0,0E0,0E0,0E0,0E0,0E0,0E0,0E0,0E0,0E0,0E0,0E0,0E0,0E0,0E0,0E0,0E0],"parents":[2147483647,0,0,1,1,2,2,3,3,4,4,5,5,6,6,7,7,8,8,9,9,10,10,11,11,15,15,16,16,17,17,18,18,19,19,20,20,21,21,22,22,23,23,25,25,26,26,27,27,28,28,29,29,30,30,31,31,32,32,33,33,34,34,35,35,36,36,37,37,38,38,39,39,40,40,42,42],"right_children":[2,4,6,8,10,12,14,16,18,20,22,24,-1,-1,-1,26,28,30,32,34,36,38,40,42,-1,44,46,48,50,52,54,56,58,60,62,64,66,68,70,72,74,-1,76,-1,-1,-1,-1,-1,-1,-1,-1,-1,-1,-1,-1,-1,-1,-1,-1,-1,-1,-1,-1,-1,-1,-1,-1,-1,-1,-1,-1,-1,-1,-1,-1,-1,-1],"split_conditions":[2.2417084E1,2.1781735E2,1.2463333E1,1.6637656E2,2.4185532E2,1.1906667E1,1E-1,1.301172E2,1.3779114E1,1.9546667E1,1.8973333E1,1.1236667E1,-3.648195E-1,-1.802187E-2,4.3465257E-1,1.8308748E1,1.6093332E1,2.0144167E1,1.7E0,1.6093332E1,2.48E1,1.8323334E1,3.0154163E1,1.3493999E1,2.5226414E-1,1.7812918E1,8.368185E1,4.6E0,2.6383333E1,1.5923333E1,9.246667E0,1.161E1,2.5837502E0,1.4783333E1,2.362398E2,2.2252988E2,2.3999999E0,6E-1,2.314103E1,5E-1,2.0143333E1,1.3462682E-1,3.5000002E0,-2.5217572E-2,-3.174276E-1,-1.0420885E-2,1.8756433E-1,5.9738442E-2,-3.030283E-1,5.575397E-1,-5.5178054E-2,1.8506342E-1,-6.1592534E-2,6.476784E-3,-3.3079264E-1,-7.978708E-2,-3.5186058E-1,3.9794457E-1,-2.4210729E-2,3.671039E-2,6.815107E-1,-3.95327E-1,9.626347E-2,7.5298905E-2,8.0108935E-1,7.546737E-2,-2.0616876E-1,3.25894E-2,-3.994265E-2,1.690969E-1,1.2306693E0,5.065127E-3,-4.175621E-1,4.4293845E-1,2.4987174E-2,7.633629E-3,1.4391361E-1],"split_indices":[1,4,0,4,4,0,2,4,3,0,0,0,0,0,0,1,0,1,2,0,0,0,3,3,0,1,4,2,0,0,0,0,1,0,4,4,2,2,3,2,0,0,2,0,0,0,0,0,0,0,0,0,0,0,0,0,0,0,0,0,0,0,0,0,0,0,0,0,0,0,0,0,0,0,0,0,0],"split_type":[0,0,0,0,0,0,0,0,0,0,0,0,0,0,0,0,0,0,0,0,0,0,0,0,0,0,0,0,0,0,0,0,0,0,0,0,0,0,0,0,0,0,0,0,0,0,0,0,0,0,0,0,0,0,0,0,0,0,0,0,0,0,0,0,0,0,0,0,0,0,0,0,0,0,0,0,0],"sum_hessian":[1.535E3,1.492E3,4.3E1,6.71E2,8.21E2,3.9E1,4E0,4.26E2,2.45E2,2.07E2,6.14E2,3.8E1,1E0,1E0,3E0,3.24E2,1.02E2,4.5E1,2E2,1.8E2,2.7E1,5.7E2,4.4E1,3.6E1,2E0,2.74E2,5E1,8E1,2.2E1,3.9E1,6E0,1.02E2,9.8E1,1.59E2,2.1E1,1.1E1,1.6E1,5.63E2,7E0,3.7E1,7E0,5E0,3.1E1,2.69E2,5E0,2.5E1,2.5E1,7E1,1E1,1.2E1,1E1,3.2E1,7E0,2E0,4E0,5.9E1,4.3E1,8E0,9E1,1.5E2,9E0,1.7E1,4E0,3E0,8E0,1.3E1,3E0,2.71E2,2.92E2,5E0,2E0,1.9E1,1.8E1,2E0,5E0,2.8E1,3E0],"tree_param":{"num_deleted":"0","num_feature":"5","num_nodes":"77","size_leaf_vector":"1"}},{"base_weights":[3.2627867E-3,6.370511E-3,-5.9110886E-1,3.2781172E-3,5.939021E-1,-3.2981683E-2,-7.331757E-1,-4.6766415E-2,3.5985533E-2,1.47686E-2,9.384285E-1,-3.1650424E-1,-3.085029E-1,1.1873637E-2,-2.3166557E-1,2.7063096E-1,5.4605305E-3,-1.9329071E-2,3.785477E-2,1.1297837E-1,3.562359E-1,3.407221E-2,-4.8705325E-1,-2.1715187E-2,1.1633153E0,1.1621191E-2,-6.0747004E-1,1.2287248E-1,1.3182207E0,-2.3621398E-1,3.915926E-2,-1.8138114E-1,-3.7792828E-2,1.5887784E-2,-1.21198945E-1,6.904248E-1,4.9297646E-2,-1.514374E-1,1.8558353E-2,-5.876906E-1,-1.2301772E-1,8.598948E-3,2.1229924E-1,1.7949936E-1,1.4935344E0,1.1799094E-1,-1.3538912E-1,2.2303944E-3,7.7194504E-2],"categories":[],"categories_nodes":[],"categories_segments":[],"categories_sizes":[],"default_left":[0,0,0,0,0,0,0,0,0,0,0,0,0,0,0,0,0,0,0,0,0,0,0,0,0,0,0,0,0,0,0,0,0,0,0,0,0,0,0,0,0,0,0,0,0,0,0,0,0],"id":18,"left_children":[1,3,5,7,9,-1,11,13,15,17,19,-1,21,23,25,27,29,-1,-1,-1,-1,-1,31,33,35,37,39,41,43,45,47,-1,-1,-1,-1,-1,-1,-1,-1,-1,-1,-1,-1,-1,-1,-1,-1,-1,-1],"loss_changes":[2.8409774E0,2.7760613E0,4.6626186E-1,2.4929338E0,1.582355E0,0E0,4.9458098E-1,6.5299325E0,6.595233E0,4.3425396E-2,2.5236368E-1,0E0,3.567645E-1,1.7738676E1,1.3264157E1,1.6245796E1,6.6548557E0,0E0,0E0,0E0,0E0,0E0,5.116886E-2,1.2753202E1,1.440218E1,2.3402925E0,1.4404345E1,5.1584425E0,3.1275713E1,1.3717342E1,4.9603777E0,0E0,0E0,0E0,0E0,0E0,0E0,0E0,0E0,0E0,0E0,0E0,0E0,0E0,0E0,0E0,0E0,0E0,0E0],"parents":[2147483647,0,0,1,1,2,2,3,3,4,4,6,6,7,7,8,8,9,9,10,10,12,12,13,13,14,14,15,15,16,16,22,22,23,23,24,24,25,25,26,26,27,27,28,28,29,29,30,30],"right_children":[2,4,6,8,10,-1,12,14,16,18,20,-1,22,24,26,28,30,-1,-1,-1,-1,-1,32,34,36,38,40,42,44,46,48,-1,-1,-1,-1,-1,-1,-1,-1,-1,-1,-1,-1,-1,-1,-1,-1,-1,-1],"split_conditions":[4.3801807E1,3.7316666E1,6.9999995E0,2E-1,2.3837502E0,-3.2981683E-2,5.7004166E0,2.0082708E1,4E-1,1.6379169E0,1.3281023E1,-3.1650424E-1,1.0296667E1,1.967195E1,1E1,1.7153334E1,7E-1,-1.9329071E-2,3.785477E-2,1.1297837E-1,3.562359E-1,3.407221E-2,1.4446667E1,1.5923333E1,1.004E1,2.046941E1,2.065848E1,3.0164066E2,2.4863466E1,1.658346E1,1.7587915E1,-1.8138114E-1,-3.7792828E-2,1.5887784E-2,-1.21198945E-1,6.904248E-1,4.9297646E-2,-1.514374E-1,1.8558353E-2,-5.876906E-1,-1.2301772E-1,8.598948E-3,2.1229924E-1,1.7949936E-1,1.4935344E0,1.1799094E-1,-1.3538912E-1,2.2303944E-3,7.7194504E-2],"split_indices":[3,0,2,2,1,0,1,3,2,1,3,0,0,3,0,0,2,0,0,0,0,0,0,0,1,3,3,4,3,3,1,0,0,0,0,0,0,0,0,0,0,0,0,0,0,0,0,0,0],"split_type":[0,0,0,0,0,0,0,0,0,0,0,0,0,0,0,0,0,0,0,0,0,0,0,0,0,0,0,0,0,0,0,0,0,0,0,0,0,0,0,0,0,0,0,0,0,0,0,0,0],"sum_hessian":[1.535E3,1.528E3,7E0,1.521E3,7E0,2E0,5E0,6.01E2,9.2E2,3E0,4E0,2E0,3E0,4.57E2,1.44E2,1.05E2,8.15E2,2E0,1E0,2E0,2E0,1E0,2E0,4.45E2,1.2E1,8.8E1,5.6E1,9.3E1,1.2E1,9.9E1,7.16E2,1E0,1E0,3.73E2,7.2E1,5E0,7E0,7E0,8.1E1,6E0,5E1,8.1E1,1.2E1,1.1E1,1E0,2.5E1,7.4E1,6.26E2,9E1],"tree_param":{"num_deleted":"0","num_feature":"5","num_nodes":"49","size_leaf_vector":"1"}},{"base_weights":[3.3906647E-3,-1.413331E-1,1.3783383E-2,-1.9042246E-1,1.1212339E0,3.98065E-2,-6.785043E-2,-7.64639E-2,-7.05319E-1,6.0862258E-2,4.0791878E-1,-1.5515735E-2,1.06358975E-1,-1.1728562E-1,1.4049493E-1,-1.826541E-1,3.4654832E-1,-2.5992614E-1,-1.2295693E0,6.0070496E-2,-1.662304E-1,4.462336E-1,3.1592473E-2,-7.212946E-2,-8.142913E-1,5.898016E-1,8.304772E-2,-5.9995886E-2,-1.6916168E0,5.4365563E-1,3.0317688E-2,-3.4791887E-1,-1.8959165E-2,-4.1063842E-1,-3.8248733E-2,3.945237E-2,1.2031585E0,8.607514E-1,-2.137519E-1,9.782953E-2,1.1281673E0,-9.6041316E-1,5.394538E-2,-4.45903E-2,-5.626822E-1,-4.5330843E-1,-1.2652228E0,6.0937303E-1,-5.754854E-2,-3.3385914E-2,3.008728E-1,-5.997825E-1,-6.914764E-2,-1.1360281E-1,3.7491584E-1,5.591083E-3,-1.2088393E-1,6.1355997E-2,-4.8487667E-2,-1.780737E-2,4.7043204E-2,7.8801024E-1,3.252042E-2,6.8013325E-2,3.9679244E-1,-1.4592195E-1,-3.8586115E-3,7.8464255E-2,-4.2576712E-1,-1.0656241E-1,4.7852194E-1,-4.112523E-2,-4.7749788E-1,4.3082806E-1,1.1943713E-2,-1.7094363E-2,3.008545E-1,4.6713125E-2,-2.9372713E-1,-9.293866E-3,-2.4002577E-1,-4.4074515E-1,-6.2484746E-3,2.6645705E-1,-2.1270591E-1,1.485964E-2,-1.17251314E-1],"categories":[],"categories_nodes":[],"categories_segments":[],"categories_sizes":[],"default_left":[0,0,0,0,0,0,0,0,0,0,0,0,0,0,0,0,0,0,0,0,0,0,0,0,0,0,0,0,0,0,0,0,0,0,0,0,0,0,0,0,0,0,0,0,0,0,0,0,0,0,0,0,0,0,0,0,0,0,0,0,0,0,0,0,0,0,0,0,0,0,0,0,0,0,0,0,0,0,0,0,0,0,0,0,0,0,0],"id":19,"left_children":[1,3,5,7,9,11,13,15,17,-1,-1,19,21,23,25,27,29,31,33,35,37,39,41,43,45,-1,47,49,51,-1,53,55,57,-1,-1,59,61,63,65,67,69,71,73,75,77,79,81,83,85,-1,-1,-1,-1,-1,-1,-1,-1,-1,-1,-1,-1,-1,-1,-1,-1,-1,-1,-1,-1,-1,-1,-1,-1,-1,-1,-1,-1,-1,-1,-1,-1,-1,-1,-1,-1,-1,-1],"loss_changes":[2.312205E0,6.5973034E0,3.0490417E0,5.813755E0,6.0024405E-1,4.0074825E0,3.5904367E0,3.7916381E0,3.8833551E0,0E0,0E0,6.7881975E0,1.2539053E1,8.785487E0,6.8630495E0,1.2299316E1,7.824206E0,2.2664052E-1,1.0529785E0,9.309159E0,9.895924E0,2.1035007E1,9.05454E0,3.5549035E0,2.1936998E0,0E0,4.919027E0,3.5461767E0,1.7868176E0,0E0,7.9541535E0,1.6887498E-1,1.605875E-1,0E0,0E0,4.5434246E0,1.0624291E1,2.335854E0,1.045549E1,1.5273328E1,2.1344479E1,4.45932E0,7.7173214E0,3.3277783E0,4.3404784E0,1.5862093E0,1.7457666E0,5.776009E0,1.9108669E0,0E0,0E0,0E0,0E0,0E0,0E0,0E0,0E0,0E0,0E0,0E0,0E0,0E0,0E0,0E0,0E0,0E0,0E0,0E0,0E0,0E0,0E0,0E0,0E0,0E0,0E0,0E0,0E0,0E0,0E0,0E0,0E0,0E0,0E0,0E0,0E0,0E0,0E0],"parents":[2147483647,0,0,1,1,2,2,3,3,4,4,5,5,6,6,7,7,8,8,11,11,12,12,13,13,14,14,15,15,16,16,17,17,18,18,19,19,20,20,21,21,22,22,23,23,24,24,26,26,27,27,28,28,30,30,31,31,32,32,35,35,36,36,37,37,38,38,39,39,40,40,41,41,42,42,43,43,44,44,45,45,46,46,47,47,48,48],"right_children":[2,4,6,8,10,12,14,16,18,-1,-1,20,22,24,26,28,30,32,34,36,38,40,42,44,46,-1,48,50,52,-1,54,56,58,-1,-1,60,62,64,66,68,70,72,74,76,78,80,82,84,86,-1,-1,-1,-1,-1,-1,-1,-1,-1,-1,-1,-1,-1,-1,-1,-1,-1,-1,-1,-1,-1,-1,-1,-1,-1,-1,-1,-1,-1,-1,-1,-1,-1,-1,-1,-1,-1,-1],"split_conditions":[6.879166E-1,3.3855215E2,2.7074292E2,3.4E-1,4.6E0,2.0987589E2,2.1999998E0,1.4446667E1,8.796666E0,6.0862258E-2,4.0791878E-1,1.625474E2,1.7294992E1,1.7000002E0,1.0233123E1,1.299E1,1.4783333E1,2.1E0,4.2E0,1.6113362E2,9.693296E0,1.3416667E1,1.7654688E1,1.9585833E1,7.7933335E0,5.898016E-1,2.8E0,1.2693333E1,1.4293334E1,5.4365563E-1,1.6916662E-1,3.1097267E1,4.9366665E0,-4.1063842E-1,-3.8248733E-2,1.7294992E1,5.367083E0,9.246667E0,7E-1,1.2463333E1,2.3041931E2,8.673333E0,2.1090662E2,2.8093332E1,8.133333E0,1.0965E1,1.6256668E1,1.161E1,1.4937919E1,-3.3385914E-2,3.008728E-1,-5.997825E-1,-6.914764E-2,-1.1360281E-1,3.7491584E-1,5.591083E-3,-1.2088393E-1,6.1355997E-2,-4.8487667E-2,-1.780737E-2,4.7043204E-2,7.8801024E-1,3.252042E-2,6.8013325E-2,3.9679244E-1,-1.4592195E-1,-3.8586115E-3,7.8464255E-2,-4.2576712E-1,-1.0656241E-1,4.7852194E-1,-4.112523E-2,-4.7749788E-1,4.3082806E-1,1.1943713E-2,-1.7094363E-2,3.008545E-1,4.6713125E-2,-2.9372713E-1,-9.293866E-3,-2.4002577E-1,-4.4074515E-1,-6.2484746E-3,2.6645705E-1,-2.1270591E-1,1.485964E-2,-1.17251314E-1],"split_indices":[1,4,4,1,0,4,2,0,0,0,0,4,3,2,3,0,0,2,2,4,3,0,3,1,0,0,2,0,0,0,1,4,0,0,0,3,1,0,2,0,4,0,4,0,0,1,1,0,1,0,0,0,0,0,0,0,0,0,0,0,0,0,0,0,0,0,0,0,0,0,0,0,0,0,0,0,0,0,0,0,0,0,0,0,0,0,0],"split_type":[0,0,0,0,0,0,0,0,0,0,0,0,0,0,0,0,0,0,0,0,0,0,0,0,0,0,0,0,0,0,0,0,0,0,0,0,0,0,0,0,0,0,0,0,0,0,0,0,0,0,0,0,0,0,0,0,0,0,0,0,0,0,0,0,0,0,0,0,0,0,0,0,0,0,0,0,0,0,0,0,0,0,0,0,0,0,0],"sum_hessian":[1.535E3,1.02E2,1.433E3,9.9E1,3E0,1.087E3,3.46E2,8.2E1,1.7E1,1E0,2E0,5.94E2,4.93E2,2.8E2,6.6E1,6.6E1,1.6E1,1E1,7E0,3.96E2,1.98E2,8.8E1,4.05E2,2.64E2,1.6E1,1E0,6.5E1,6.2E1,4E0,2E0,1.4E1,7E0,3E0,6E0,1E0,3.9E2,6E0,8E0,1.9E2,5.9E1,2.9E1,8E0,3.97E2,2.51E2,1.3E1,1E1,6E0,1.3E1,5.2E1,6E1,2E0,3E0,1E0,1.1E1,3E0,1E0,6E0,1E0,2E0,2.12E2,1.78E2,2E0,4E0,4E0,4E0,8E1,1.1E2,5.4E1,5E0,7E0,2.2E1,4E0,4E0,3E0,3.94E2,2.49E2,2E0,5E0,8E0,5E0,5E0,5E0,1E0,1.1E1,2E0,4E1,1.2E1],"tree_param":{"num_deleted":"0","num_feature":"5","num_nodes":"87","size_leaf_vector":"1"}},{"base_weights":[3.2303322E-3,-3.8115773E-4,3.958781E-1,2.2313918E-3,-5.665035E-1,7.895012E-1,1.9731522E-3,4.813631E-3,-4.854452E-1,-5.392861E-1,2.8546715E-1,2.9949933E-1,1.1498881E-1,-2.1777289E-1,2.3102933E-1,-8.192999E-2,1.9828394E-2,-1.343993E-1,-6.691929E-1,1.0111179E0,-3.925704E-1,-2.8926086E-2,-1.3797799E-1,-3.189177E-1,-6.694056E-2,-5.856778E-2,3.6656387E-2,-2.395765E-1,2.7169848E-2,-3.0152667E-1,-3.3069804E-2,3.785E-1,3.8920786E-2,-2.340746E-2,2.5120355E-2,-1.07222416E-1,-2.144413E-2,-1.365991E-2,-7.753786E-2,-7.930053E-3,-3.2079497E-1,5.126509E-2,1.9842174E-3,-8.706372E-2,-2.0745708E-2],"categories":[],"categories_nodes":[],"categories_segments":[],"categories_sizes":[],"default_left":[0,0,0,0,0,0,0,0,0,0,0,0,0,0,0,0,0,0,0,0,0,0,0,0,0,0,0,0,0,0,0,0,0,0,0,0,0,0,0,0,0,0,0,0,0],"id":20,"left_children":[1,3,5,7,9,11,13,15,17,-1,19,-1,-1,21,-1,23,25,27,29,31,-1,33,-1,35,37,39,41,43,-1,-1,-1,-1,-1,-1,-1,-1,-1,-1,-1,-1,-1,-1,-1,-1,-1],"loss_changes":[2.1782658E0,2.2538157E0,2.1691432E0,1.9126912E0,7.8552876E0,2.1113825E-1,1.5180452E0,1.9683012E0,4.2609215E-1,0E0,7.106681E0,0E0,0E0,3.0680585E-1,0E0,7.708168E-1,1.7013412E0,1.1634249E-1,8.2796836E-1,7.196326E-1,0E0,3.4190863E-2,0E0,9.826374E-2,8.5332054E-1,7.3770995E0,4.277351E0,5.819857E-3,0E0,0E0,0E0,0E0,0E0,0E0,0E0,0E0,0E0,0E0,0E0,0E0,0E0,0E0,0E0,0E0,0E0],"parents":[2147483647,0,0,1,1,2,2,3,3,4,4,5,5,6,6,7,7,8,8,10,10,13,13,15,15,16,16,17,17,18,18,19,19,21,21,23,23,24,24,25,25,26,26,27,27],"right_children":[2,