{"learner":{"attributes":{"scikit_learn":"{\"_estimator_type\": \"regressor\"}"},"feature_names":["temperature_2m_mean","precipitation_sum","wind_speed_10m_max","wind_direction_10m_dominant"],"feature_types":["float","float","float","float"],"gradient_booster":{"model":{"gbtree_model_param":{"num_parallel_tree":"1","num_trees":"100"},"iteration_indptr":[0,1,2,3,4,5,6,7,8,9,10,11,12,13,14,15,16,17,18,19,20,21,22,23,24,25,26,27,28,29,30,31,32,33,34,35,36,37,38,39,40,41,42,43,44,45,46,47,48,49,50,51,52,53,54,55,56,57,58,59,60,61,62,63,64,65,66,67,68,69,70,71,72,73,74,75,76,77,78,79,80,81,82,83,84,85,86,87,88,89,90,91,92,93,94,95,96,97,98,99,100],"tree_info":[0,0,0,0,0,0,0,0,0,0,0,0,0,0,0,0,0,0,0,0,0,0,0,0,0,0,0,0,0,0,0,0,0,0,0,0,0,0,0,0,0,0,0,0,0,0,0,0,0,0,0,0,0,0,0,0,0,0,0,0,0,0,0,0,0,0,0,0,0,0,0,0,0,0,0,0,0,0,0,0,0,0,0,0,0,0,0,0,0,0,0,0,0,0,0,0,0,0,0,0],"trees":[{"base_weights":[-1.5092552E-7,1.0823573E0,-2.5055678E0,-1.7330261E0,2.4680848E0,-1.788698E0,-3.4302154E0,-2.3895197E0,3.46673E-2,4.8664427E0,9.2258394E-1,2.6883473E0,-1.8681043E0,-1.2121037E0,-3.7638052E0,-5.946487E-1,-2.815319E0,1.0854727E0,-2.593922E0,5.921069E0,-5.097118E-1,-1.398243E0,1.2777364E0,-9.3146914E-1,2.0321696E0,-1.1942531E0,-2.2619503E0,-1.7505937E0,8.3455926E-1,-3.7980082E0,-2.9444075E-1,-1.1029353E0,6.041864E0,-3.0489225E0,-1.1133211E-1,2.585913E0,-1.6695936E0,-3.2231405E0,1.0433471E0,-6.8998253E-1,6.6420865E0,-1.5644268E0,1.8179798E0,-1.7800086E0,2.0882368E0,2.211411E0,3.2922035E-1,-7.2333056E-1,3.0416945E-1,-1.3109578E0,1.2633473E0,-2.8356009E0,-1.5306141E0,4.3555918E-1,-2.1870813E0,-3.2453597E0,-1.223524E0,-9.5285606E-1,-4.2192206E-2,2.996694E-1,2.4191694E0,-7.4694043E-1,-1.0907928E0,-3.3885607E-1,1.1995592E0,5.922113E-1,2.5975595E0,-5.623741E-2,-9.398951E-1,-4.2505097E-1,-1.130114E0,6.755593E-1,-3.873306E-1,8.516695E-1,-3.1312442E-1,2.235709E0,2.999144E-1,-5.8025867E-1,5.745593E-1,1.6691695E0,2.914899E-1,-7.907586E-1,-1.8157373E-1,7.0975417E-1,1.4666942E-1,-3.3235657E-1,9.581549E-1,-9.90554E-2,7.459291E-1,-8.544928E-2,-5.136487E-1,3.5592557E-3,7.526695E-1,-8.9063674E-1,3.385592E-1,-1.599947E-1,-6.6567117E-1,-1.9145352E-1,-9.344193E-1,-1.0318465E0,-3.7455097E-1],"categories":[],"categories_nodes":[],"categories_segments":[],"categories_sizes":[],"default_left":[0,0,0,0,0,0,0,0,0,0,0,0,0,0,0,0,0,0,0,0,0,0,0,0,0,0,0,0,0,0,0,0,0,0,0,0,0,0,0,0,0,0,0,0,0,0,0,0,0,0,0,0,0,0,0,0,0,0,0,0,0,0,0,0,0,0,0,0,0,0,0,0,0,0,0,0,0,0,0,0,0,0,0,0,0,0,0,0,0,0,0,0,0,0,0,0,0,0,0,0,0],"id":0,"left_children":[1,3,5,7,9,11,13,15,17,19,21,23,25,27,29,31,33,35,37,39,41,43,45,47,-1,49,51,53,-1,55,-1,57,59,61,63,65,67,69,71,73,75,77,79,81,83,85,87,-1,-1,89,91,93,95,-1,97,99,-1,-1,-1,-1,-1,-1,-1,-1,-1,-1,-1,-1,-1,-1,-1,-1,-1,-1,-1,-1,-1,-1,-1,-1,-1,-1,-1,-1,-1,-1,-1,-1,-1,-1,-1,-1,-1,-1,-1,-1,-1,-1,-1,-1,-1],"loss_changes":[3.2543037E3,3.2736123E3,2.3381665E2,3.2153546E2,2.078655E3,7.825635E1,1.1160852E2,1.5270544E2,2.1273792E2,1.2503818E3,2.845035E2,6.5465454E1,5.1173523E1,5.218557E1,9.214722E0,1.4159378E2,1.0262134E2,2.316771E2,5.371289E1,8.816533E2,9.3680984E1,6.49439E1,2.631823E2,1.1079899E1,0E0,2.3740837E1,4.8940247E1,3.1132019E1,0E0,7.529297E0,0E0,7.5366295E1,2.2536133E1,4.018213E1,6.3101E1,1.1667244E2,4.2791542E1,1.3329437E1,1.4192271E1,2.6682625E1,7.5148145E2,3.715742E1,3.263809E1,4.0632507E1,1.0633049E0,4.9268475E2,2.1276978E2,0E0,0E0,2.9977142E1,6.205378E0,4.0308655E1,3.8629578E1,0E0,2.3875336E1,1.5088135E1,0E0,0E0,0E0,0E0,0E0,0E0,0E0,0E0,0E0,0E0,0E0,0E0,0E0,0E0,0E0,0E0,0E0,0E0,0E0,0E0,0E0,0E0,0E0,0E0,0E0,0E0,0E0,0E0,0E0,0E0,0E0,0E0,0E0,0E0,0E0,0E0,0E0,0E0,0E0,0E0,0E0,0E0,0E0,0E0,0E0],"parents":[2147483647,0,0,1,1,2,2,3,3,4,4,5,5,6,6,7,7,8,8,9,9,10,10,11,11,12,12,13,13,14,14,15,15,16,16,17,17,18,18,19,19,20,20,21,21,22,22,23,23,25,25,26,26,27,27,29,29,31,31,32,32,33,33,34,34,35,35,36,36,37,37,38,38,39,39,40,40,41,41,42,42,43,43,44,44,45,45,46,46,49,49,50,50,51,51,52,52,54,54,55,55],"right_children":[2,4,6,8,10,12,14,16,18,20,22,24,26,28,30,32,34,36,38,40,42,44,46,48,-1,50,52,54,-1,56,-1,58,60,62,64,66,68,70,72,74,76,78,80,82,84,86,88,-1,-1,90,92,94,96,-1,98,100,-1,-1,-1,-1,-1,-1,-1,-1,-1,-1,-1,-1,-1,-1,-1,-1,-1,-1,-1,-1,-1,-1,-1,-1,-1,-1,-1,-1,-1,-1,-1,-1,-1,-1,-1,-1,-1,-1,-1,-1,-1,-1,-1,-1,-1],"split_conditions":[2.4317216E2,1.0709823E2,2.7738937E2,7.620057E1,7.15725E0,-3.2760837E0,1.2620554E1,1.2849528E1,2.0883102E1,2.847643E1,1.3994032E2,-5.7156663E0,4E-1,2.1473915E1,1.8411417E1,1.257426E1,1.5365584E1,9.467493E1,1.5007251E1,-7.4275E-1,1.0500001E1,2.4826952E1,2.0165952E2,-6.34275E0,2.0321696E0,2.7670264E2,2.7534704E1,-3.849E0,8.3455926E-1,2.9478174E2,-2.9444075E-1,1.8954338E1,1.7280835E0,1.8532133E1,4.6627697E1,2.0326454E1,7.2093334E0,2.2691425E1,1.5305165E1,-6.9010835E0,2.2566469E2,3.8052868E1,1.1099999E1,2.5999997E0,1.4896832E1,1E-1,1.6340584E1,-7.2333056E-1,3.0416945E-1,2.5185376E2,5.728083E0,1.7051E1,8.950999E0,4.3555918E-1,1.1019764E1,3.1569351E1,-1.223524E0,-9.5285606E-1,-4.2192206E-2,2.996694E-1,2.4191694E0,-7.4694043E-1,-1.0907928E0,-3.3885607E-1,1.1995592E0,5.922113E-1,2.5975595E0,-5.623741E-2,-9.398951E-1,-4.2505097E-1,-1.130114E0,6.755593E-1,-3.873306E-1,8.516695E-1,-3.1312442E-1,2.235709E0,2.999144E-1,-5.8025867E-1,5.745593E-1,1.6691695E0,2.914899E-1,-7.907586E-1,-1.8157373E-1,7.0975417E-1,1.4666942E-1,-3.3235657E-1,9.581549E-1,-9.90554E-2,7.459291E-1,-8.544928E-2,-5.136487E-1,3.5592557E-3,7.526695E-1,-8.9063674E-1,3.385592E-1,-1.599947E-1,-6.6567117E-1,-1.9145352E-1,-9.344193E-1,-1.0318465E0,-3.7455097E-1],"split_indices":[3,3,3,3,0,0,2,2,2,2,3,0,1,0,0,2,0,3,0,0,1,2,3,0,0,3,2,0,0,3,0,3,0,2,3,2,0,2,0,0,3,2,1,1,0,1,0,0,0,3,0,0,0,0,2,2,0,0,0,0,0,0,0,0,0,0,0,0,0,0,0,0,0,0,0,0,0,0,0,0,0,0,0,0,0,0,0,0,0,0,0,0,0,0,0,0,0,0,0,0,0],"split_type":[0,0,0,0,0,0,0,0,0,0,0,0,0,0,0,0,0,0,0,0,0,0,0,0,0,0,0,0,0,0,0,0,0,0,0,0,0,0,0,0,0,0,0,0,0,0,0,0,0,0,0,0,0,0,0,0,0,0,0,0,0,0,0,0,0,0,0,0,0,0,0,0,0,0,0,0,0,0,0,0,0,0,0,0,0,0,0,0,0,0,0,0,0,0,0,0,0,0,0,0,0],"sum_hessian":[1.198E3,8.37E2,3.61E2,2.76E2,5.61E2,2.05E2,1.56E2,2.01E2,7.5E1,2.19E2,3.42E2,3E0,2.02E2,2.1E1,1.35E2,3.9E1,1.62E2,5.4E1,2.1E1,1.83E2,3.6E1,4.5E1,2.97E2,2E0,1E0,7.6E1,1.26E2,1.9E1,2E0,1.33E2,2E0,3.7E1,2E0,1.49E2,1.3E1,3.5E1,1.9E1,1.8E1,3E0,1.8E1,1.65E2,2.5E1,1.1E1,4.1E1,4E0,1.49E2,1.48E2,1E0,1E0,7.3E1,3E0,6.9E1,5.7E1,2E0,1.7E1,4.9E1,8.4E1,1.1E1,2.6E1,1E0,1E0,7.9E1,7E1,1.1E1,2E0,3.3E1,2E0,1E1,9E0,5E0,1.3E1,2E0,1E0,1E0,1.7E1,1.44E2,2.1E1,2.3E1,2E0,1E0,1E1,2.3E1,1.8E1,3E0,1E0,3.4E1,1.15E2,1.14E2,3.4E1,2.1E1,5.2E1,2E0,1E0,6.7E1,2E0,2.4E1,3.3E1,7E0,1E1,4.4E1,5E0],"tree_param":{"num_deleted":"0","num_feature":"4","num_nodes":"101","size_leaf_vector":"1"}},{"base_weights":[4.563404E-3,7.670288E-1,-1.7604934E0,-1.5531292E0,1.5954882E0,-1.1926992E0,-2.3604066E0,-2.6440996E-1,-1.8629637E0,2.9194305E0,4.536173E-1,2.2850952E0,-1.2614478E0,-7.019192E-1,-2.6321416E0,-6.438284E-1,5.1355844E0,-2.0298085E0,-2.6713073E-1,4.015423E0,4.0781805E-1,2.7553293E-1,3.964693E0,-7.917488E-1,1.7273442E0,-1.3635329E0,3.2390648E-1,-1.0385989E0,6.676474E-1,-2.8606644E0,-2.0704713E0,4.4014916E-1,-1.9791775E0,2.5471902E-1,2.0562942E0,-2.3461764E0,-1.0141413E0,-1.0883653E0,2.8792815E0,2.2612169E0,5.8739853E0,1.9902227E0,-6.2536675E-1,-1.0292176E0,6.0191923E-1,1.460976E1,1.4004148E0,-6.14831E-1,2.58544E-1,-9.828409E-1,-1.9868034E0,-9.560116E-2,1.6142964E0,-1.3450453E0,8.298948E-1,-3.0335946E0,-2.0782151E0,-2.1347964E0,-1.24631844E-1,-1.6852845E-1,6.517255E-1,-7.797037E-1,-6.0910095E-2,-3.8549876E-1,-8.2247275E-1,1.5666047E0,-4.9827337E-1,-4.582097E-1,2.8532526E-2,1.4130474E0,-3.9200214E-1,8.0346364E-1,-7.3139334E-1,2.1681793E0,3.793705E-1,2.4918818E-1,2.634501E0,-3.789704E-1,6.9227266E-1,1.3129405E0,-4.3876138E-1,1.338177E0,1.2290451E-1,-1.8905376E-1,6.763446E0,1.8235008E0,-1.2838735E-1,1.7297202E-1,-3.7632206E-1,-6.294053E-1,3.0328894E-1,-4.2071107E-1,1.2191622E-1,8.597168E-1,-1.3328333E-1,-6.9825506E-1,-2.3906668E-1,7.107364E-1,-5.681677E-1,-2.2630195E-1,-9.156574E-1,-1.6078724E-1,-7.869194E-1,-1.659037E-1,-6.5865207E-1],"categories":[],"categories_nodes":[],"categories_segments":[],"categories_sizes":[],"default_left":[0,0,0,0,0,0,0,0,0,0,0,0,0,0,0,0,0,0,0,0,0,0,0,0,0,0,0,0,0,0,0,0,0,0,0,0,0,0,0,0,0,0,0,0,0,0,0,0,0,0,0,0,0,0,0,0,0,0,0,0,0,0,0,0,0,0,0,0,0,0,0,0,0,0,0,0,0,0,0,0,0,0,0,0,0,0,0,0,0,0,0,0,0,0,0,0,0,0,0,0,0,0,0,0,0],"id":1,"left_children":[1,3,5,7,9,11,13,15,17,19,21,23,25,27,29,31,33,35,37,39,41,43,45,47,-1,49,51,53,-1,55,57,59,61,-1,-1,63,65,67,69,71,73,75,77,79,81,83,85,-1,-1,87,89,91,93,95,97,99,101,103,-1,-1,-1,-1,-1,-1,-1,-1,-1,-1,-1,-1,-1,-1,-1,-1,-1,-1,-1,-1,-1,-1,-1,-1,-1,-1,-1,-1,-1,-1,-1,-1,-1,-1,-1,-1,-1,-1,-1,-1,-1,-1,-1,-1,-1,-1,-1],"loss_changes":[1.6149581E3,1.6132454E3,1.204917E2,8.775037E1,9.329501E2,4.783206E1,7.701959E1,9.345616E1,4.68515E1,7.856372E2,2.0712173E2,4.7298794E1,3.0382233E1,2.793698E1,1.33302E1,6.166564E1,1.6282356E1,4.935388E1,4.964468E1,6.355176E2,1.4511726E2,1.3604068E2,4.1629086E2,8.005225E0,0E0,3.9332977E1,6.65027E0,1.4858484E1,0E0,7.7677E0,4.1167603E0,4.287427E1,2.0389717E1,0E0,0E0,4.7667114E1,1.7000763E2,7.938444E0,3.6810513E1,2.1032172E2,5.896919E2,2.683423E2,1.0393981E2,1.563139E2,1.8732683E2,3.769967E2,1.2234303E2,0E0,0E0,4.7306473E1,2.3791656E1,7.1297364E0,9.0016365E0,9.454739E0,2.125696E1,1.2156372E0,1.7080704E1,3.107254E0,0E0,0E0,0E0,0E0,0E0,0E0,0E0,0E0,0E0,0E0,0E0,0E0,0E0,0E0,0E0,0E0,0E0,0E0,0E0,0E0,0E0,0E0,0E0,0E0,0E0,0E0,0E0,0E0,0E0,0E0,0E0,0E0,0E0,0E0,0E0,0E0,0E0,0E0,0E0,0E0,0E0,0E0,0E0,0E0,0E0,0E0,0E0],"parents":[2147483647,0,0,1,1,2,2,3,3,4,4,5,5,6,6,7,7,8,8,9,9,10,10,11,11,12,12,13,13,14,14,15,15,16,16,17,17,18,18,19,19,20,20,21,21,22,22,23,23,25,25,26,26,27,27,29,29,30,30,31,31,32,32,35,35,36,36,37,37,38,38,39,39,40,40,41,41,42,42,43,43,44,44,45,45,46,46,49,49,50,50,51,51,52,52,53,53,54,54,55,55,56,56,57,57],"right_children":[2,4,6,8,10,12,14,16,18,20,22,24,26,28,30,32,34,36,38,40,42,44,46,48,-1,50,52,54,-1,56,58,60,62,-1,-1,64,66,68,70,72,74,76,78,80,82,84,86,-1,-1,88,90,92,94,96,98,100,102,104,-1,-1,-1,-1,-1,-1,-1,-1,-1,-1,-1,-1,-1,-1,-1,-1,-1,-1,-1,-1,-1,-1,-1,-1,-1,-1,-1,-1,-1,-1,-1,-1,-1,-1,-1,-1,-1,-1,-1,-1,-1,-1,-1,-1,-1,-1,-1],"split_conditions":[2.4317216E2,8.2399796E1,2.7433362E2,1.2849528E1,8.569751E0,-3.2760837E0,1.2620554E1,1.257426E1,1.4965584E1,4.7E0,1.3800002E1,-5.7156663E0,1.7378084E1,2.1473915E1,1.1517666E1,8.093333E-1,1.7280835E0,9.000001E-1,2.196E1,1.5825063E2,2.2691425E1,1.4719174E2,1.1517666E1,-6.34275E0,1.7273442E0,1.3673916E1,2.705046E2,1.2313894E1,6.676474E-1,2.9655787E1,1.9805166E1,-1.3323332E0,4E-1,2.5471902E-1,2.0562942E0,-2.2698333E0,1.8954338E1,8.000001E-1,1.6830168E1,2.3993399E1,2.2681827E2,2.1829777E1,5.990583E0,8.655267E1,1.5447661E2,1.0040584E1,1.5799999E1,-6.14831E-1,2.58544E-1,2.4715714E2,2.734246E2,1.7726002E1,1.7611418E1,1.9843332E0,1.2475961E1,-8.053166E0,1E-1,1.3397612E1,-1.24631844E-1,-1.6852845E-1,6.517255E-1,-7.797037E-1,-6.0910095E-2,-3.8549876E-1,-8.2247275E-1,1.5666047E0,-4.9827337E-1,-4.582097E-1,2.8532526E-2,1.4130474E0,-3.9200214E-1,8.0346364E-1,-7.3139334E-1,2.1681793E0,3.793705E-1,2.4918818E-1,2.634501E0,-3.789704E-1,6.9227266E-1,1.3129405E0,-4.3876138E-1,1.338177E0,1.2290451E-1,-1.8905376E-1,6.763446E0,1.8235008E0,-1.2838735E-1,1.7297202E-1,-3.7632206E-1,-6.294053E-1,3.0328894E-1,-4.2071107E-1,1.2191622E-1,8.597168E-1,-1.3328333E-1,-6.9825506E-1,-2.3906668E-1,7.107364E-1,-5.681677E-1,-2.2630195E-1,-9.156574E-1,-1.6078724E-1,-7.869194E-1,-1.659037E-1,-6.5865207E-1],"split_indices":[3,3,3,2,0,0,2,2,0,1,1,0,0,0,0,0,0,1,2,3,2,3,0,0,0,0,3,2,0,2,0,0,1,0,0,0,3,1,0,2,3,2,0,3,3,0,1,0,0,3,3,0,0,0,2,0,1,2,0,0,0,0,0,0,0,0,0,0,0,0,0,0,0,0,0,0,0,0,0,0,0,0,0,0,0,0,0,0,0,0,0,0,0,0,0,0,0,0,0,0,0,0,0,0,0],"split_type":[0,0,0,0,0,0,0,0,0,0,0,0,0,0,0,0,0,0,0,0,0,0,0,0,0,0,0,0,0,0,0,0,0,0,0,0,0,0,0,0,0,0,0,0,0,0,0,0,0,0,0,0,0,0,0,0,0,0,0,0,0,0,0,0,0,0,0,0,0,0,0,0,0,0,0,0,0,0,0,0,0,0,0,0,0,0,0,0,0,0,0,0,0,0,0,0,0,0,0,0,0,0,0,0,0],"sum_hessian":[1.198E3,8.37E2,3.61E2,2.2E2,6.17E2,1.87E2,1.74E2,4.3E1,1.77E2,2.85E2,3.32E2,3E0,1.84E2,2.5E1,1.49E2,4.1E1,2E0,1.6E2,1.7E1,1.98E2,8.7E1,3.17E2,1.5E1,2E0,1E0,1.73E2,1.1E1,2.3E1,2E0,1.03E2,4.6E1,2.3E1,1.8E1,1E0,1E0,1.21E2,3.9E1,1.4E1,3E0,1.03E2,9.5E1,3.4E1,5.3E1,6.3E1,2.54E2,2E0,1.3E1,1E0,1E0,1.09E2,6.4E1,9E0,2E0,2E1,3E0,8.2E1,2.1E1,4.4E1,2E0,1.5E1,8E0,1.3E1,5E0,3.4E1,8.7E1,3E0,3.6E1,1E1,4E0,2E0,1E0,9.5E1,8E0,7.3E1,2.2E1,3E1,4E0,4.4E1,9E0,4E0,5.9E1,1.1E1,2.43E2,1E0,1E0,3E0,1E1,1.6E1,9.3E1,6.2E1,2E0,2E0,7E0,1E0,1E0,6E0,1.4E1,2E0,1E0,1E0,8.1E1,6E0,1.5E1,2E0,4.2E1],"tree_param":{"num_deleted":"0","num_feature":"4","num_nodes":"105","size_leaf_vector":"1"}},{"base_weights":[1.7314505E-2,5.7230246E-1,-1.2180278E0,-8.852037E-1,1.3026592E0,-5.1491135E-1,-1.4853367E0,4.6559247E-1,-1.1354166E0,2.7188163E0,4.711443E-1,3.7511218E0,-6.3533473E-1,-5.2919555E-1,-1.6355437E0,-1.4803389E0,1.5231549E0,-1.5007119E0,-6.2212807E-1,2.2409396E0,9.044216E0,3.3975938E-1,3.3739974E0,2.197624E-1,1.4682424E0,-8.1235185E-2,-1.0064306E0,-7.069614E-1,5.3411794E-1,-6.49938E-1,-1.3830911E0,6.423445E-1,-1.8294611E0,3.664433E0,-2.0389052E-1,-1.6813117E0,3.373725E-1,2.4112554E-1,-1.9563932E0,4.620546E0,1.0053858E0,9.705769E0,6.660505E-2,1.0172441E0,-2.150512E-1,1.2569393E1,2.7698934E-2,-6.6736627E-1,2.685256E-1,-1.1860603E0,-8.2108065E-2,3.471992E-1,-8.506648E-1,-1.5328958E0,-3.1853154E-1,-7.672248E-2,3.657775E-1,-6.3607746E-1,2.9263473E-1,-5.8875205E-3,2.3897316E0,-2.958522E-1,1.8468968E0,-3.2359293E-1,-6.743181E-1,-3.0118605E-1,1.0819033E0,-3.1398203E-2,2.0883636E0,-3.643886E-1,-6.510871E-1,1.0914801E-1,2.5472915E0,5.5387324E-1,-1.7036174E-1,1.1240212E0,3.3356416E0,1.22472465E-1,1.4957398E0,-7.616114E-1,-7.399897E-3,5.257234E0,-3.442142E-1,1.4022044E0,-2.4588116E-1,8.743947E-1,-1.685834E-1,-2.2503136E-1,-5.319406E-1,6.7989314E-1,-2.5673735E-1,-5.146418E-1,-9.029263E-2,-5.019234E-1,-1.6562986E-1,4.3203068E-1,-3.3539754E-1],"categories":[],"categories_nodes":[],"categories_segments":[],"categories_sizes":[],"default_left":[0,0,0,0,0,0,0,0,0,0,0,0,0,0,0,0,0,0,0,0,0,0,0,0,0,0,0,0,0,0,0,0,0,0,0,0,0,0,0,0,0,0,0,0,0,0,0,0,0,0,0,0,0,0,0,0,0,0,0,0,0,0,0,0,0,0,0,0,0,0,0,0,0,0,0,0,0,0,0,0,0,0,0,0,0,0,0,0,0,0,0,0,0,0,0,0,0],"id":2,"left_children":[1,3,5,7,9,11,13,15,17,19,21,23,25,27,29,31,33,35,37,39,41,43,45,-1,-1,47,49,51,-1,-1,53,55,57,59,61,63,65,67,69,71,73,75,-1,77,79,81,83,-1,85,87,89,-1,91,93,95,-1,-1,-1,-1,-1,-1,-1,-1,-1,-1,-1,-1,-1,-1,-1,-1,-1,-1,-1,-1,-1,-1,-1,-1,-1,-1,-1,-1,-1,-1,-1,-1,-1,-1,-1,-1,-1,-1,-1,-1,-1,-1],"loss_changes":[8.227316E2,8.825586E2,6.915234E1,9.4150925E1,6.487298E2,5.5811165E1,3.7768066E1,9.280431E1,4.2941833E1,5.963755E2,1.3195912E2,6.765728E0,2.0891895E1,1.6860174E1,2.8098816E1,1.303236E1,1.079916E2,4.57135E1,1.1450084E2,5.5691986E2,7.955408E1,1.2613713E2,4.6120996E2,0E0,0E0,3.2082603E1,1.00308E1,1.0629082E1,0E0,0E0,2.5027893E1,1.86617E0,1.3487434E1,2.0615927E2,9.0654526E1,3.9904205E1,6.0622433E1,1.4247507E2,3.5516815E0,1.067806E3,1.6905511E2,6.780505E1,0E0,3.6291052E2,8.177925E1,2.9195776E2,5.1072876E1,0E0,8.294636E1,1.1722839E1,2.1925737E1,0E0,1.5646454E1,1.8324951E1,3.1135138E1,0E0,0E0,0E0,0E0,0E0,0E0,0E0,0E0,0E0,0E0,0E0,0E0,0E0,0E0,0E0,0E0,0E0,0E0,0E0,0E0,0E0,0E0,0E0,0E0,0E0,0E0,0E0,0E0,0E0,0E0,0E0,0E0,0E0,0E0,0E0,0E0,0E0,0E0,0E0,0E0,0E0,0E0],"parents":[2147483647,0,0,1,1,2,2,3,3,4,4,5,5,6,6,7,7,8,8,9,9,10,10,11,11,12,12,13,13,14,14,15,15,16,16,17,17,18,18,19,19,20,20,21,21,22,22,25,25,26,26,27,27,30,30,31,31,32,32,33,33,34,34,35,35,36,36,37,37,38,38,39,39,40,40,41,41,43,43,44,44,45,45,46,46,48,48,49,49,50,50,52,52,53,53,54,54],"right_children":[2,4,6,8,10,12,14,16,18,20,22,24,26,28,30,32,34,36,38,40,42,44,46,-1,-1,48,50,52,-1,-1,54,56,58,60,62,64,66,68,70,72,74,76,-1,78,80,82,84,-1,86,88,90,-1,92,94,96,-1,-1,-1,-1,-1,-1,-1,-1,-1,-1,-1,-1,-1,-1,-1,-1,-1,-1,-1,-1,-1,-1,-1,-1,-1,-1,-1,-1,-1,-1,-1,-1,-1,-1,-1,-1,-1,-1,-1,-1,-1,-1],"split_conditions":[2.4128471E2,1.0709823E2,2.5789026E2,1.1726277E1,6.553084E0,-3.2760837E0,1.3138765E1,9.726664E0,3E-1,6.0926666E0,1.4700001E1,-5.7156663E0,9E-1,2.1473915E1,4.7947493E0,-5.7156663E0,3.0099997E-1,1.4767665E1,2.0929596E1,1.7313717E1,1.2200001E1,1.5E0,1.8057508E1,2.197624E-1,1.4682424E0,3.2280834E0,7.299999E0,-3.849E0,5.3411794E-1,-6.49938E-1,3.22034E1,-6.34275E0,1.5230166E1,-1.6010833E0,2.0642668E1,1.675064E1,2.196E1,2.0774214E1,2.2691425E1,2.3905835E0,2.6064596E1,4E-1,6.660505E-2,9.000001E-1,1.9000001E0,1.7099998E1,1.5825063E2,-6.6736627E-1,7.0468345E0,2.8E0,7.3259997E0,3.471992E-1,5.067666E0,1.7111418E1,6.365582E0,-7.672248E-2,3.657775E-1,-6.3607746E-1,2.9263473E-1,-5.8875205E-3,2.3897316E0,-2.958522E-1,1.8468968E0,-3.2359293E-1,-6.743181E-1,-3.0118605E-1,1.0819033E0,-3.1398203E-2,2.0883636E0,-3.643886E-1,-6.510871E-1,1.0914801E-1,2.5472915E0,5.5387324E-1,-1.7036174E-1,1.1240212E0,3.3356416E0,1.22472465E-1,1.4957398E0,-7.616114E-1,-7.399897E-3,5.257234E0,-3.442142E-1,1.4022044E0,-2.4588116E-1,8.743947E-1,-1.685834E-1,-2.2503136E-1,-5.319406E-1,6.7989314E-1,-2.5673735E-1,-5.146418E-1,-9.029263E-2,-5.019234E-1,-1.6562986E-1,4.3203068E-1,-3.3539754E-1],"split_indices":[3,3,3,2,0,0,2,2,1,0,1,0,1,0,0,0,0,0,2,2,1,1,2,0,0,0,1,0,0,0,2,0,0,0,0,2,2,2,2,0,2,1,0,1,1,1,3,0,0,1,0,0,0,0,0,0,0,0,0,0,0,0,0,0,0,0,0,0,0,0,0,0,0,0,0,0,0,0,0,0,0,0,0,0,0,0,0,0,0,0,0,0,0,0,0,0,0],"split_type":[0,0,0,0,0,0,0,0,0,0,0,0,0,0,0,0,0,0,0,0,0,0,0,0,0,0,0,0,0,0,0,0,0,0,0,0,0,0,0,0,0,0,0,0,0,0,0,0,0,0,0,0,0,0,0,0,0,0,0,0,0,0,0,0,0,0,0,0,0,0,0,0,0,0,0,0,0,0,0,0,0,0,0,0,0,0,0,0,0,0,0,0,0,0,0,0,0],"sum_hessian":[1.198E3,8.27E2,3.71E2,2.76E2,5.51E2,1.03E2,2.68E2,4.3E1,2.33E2,2.03E2,3.48E2,2E0,1.01E2,3.7E1,2.31E2,1.5E1,2.8E1,1.35E2,9.8E1,1.9E2,1.3E1,3.34E2,1.4E1,1E0,1E0,4.1E1,6E1,3.5E1,2E0,7.2E1,1.59E2,2E0,1.3E1,1.2E1,1.6E1,1.23E2,1.2E1,6E1,3.8E1,6.4E1,1.26E2,1.2E1,1E0,1.5E2,1.84E2,3E0,1.1E1,5E0,3.6E1,5E1,1E1,2E0,3.3E1,1.39E2,2E1,1E0,1E0,1.2E1,1E0,7E0,5E0,1.5E1,1E0,6.1E1,6.2E1,9E0,3E0,5.8E1,2E0,1E1,2.8E1,3.1E1,3.3E1,8.2E1,4.4E1,3E0,9E0,1.31E2,1.9E1,1.3E1,1.71E2,2E0,1E0,1E0,1E1,8E0,2.8E1,3E1,2E1,2E0,8E0,1.2E1,2.1E1,1.21E2,1.8E1,6E0,1.4E1],"tree_param":{"num_deleted":"0","num_feature":"4","num_nodes":"97","size_leaf_vector":"1"}},{"base_weights":[2.8498597E-2,4.1616413E-1,-8.689937E-1,-6.0265774E-1,9.1758317E-1,-5.6384027E-1,-1.2638512E0,6.144447E-1,-7.7548045E-1,1.882341E0,3.4973186E-1,-1.5287721E-1,-8.182749E-1,-1.3077263E0,4.2729437E-1,-1.0396365E0,1.9069873E0,-1.8853234E0,-6.3381577E-1,1.5300889E0,6.654256E0,-1.1753532E0,4.0952715E-1,-4.5414603E-1,5.690061E-1,-1.1221019E0,-4.37479E-1,3.841704E-2,-1.3716547E0,-5.7531834E-1,-6.8662834E-1,2.5691843E0,-8.1055695E-1,-6.376479E-1,-2.1399019E0,3.630296E0,-7.3093665E-1,4.984013E0,9.928412E-1,7.137089E0,5.6614283E-2,-1.2760462E0,5.5393E-1,1.6828139E0,-6.0402924E-1,3.8518562E0,9.54808E-2,-1.212924E0,6.796927E-1,1.5580695E0,-6.141505E-1,-1.2616469E0,7.8772175E-1,5.3628856E-1,-1.4148281E0,-5.109554E-1,3.4559473E-2,2.2998296E-1,2.1307669E0,-2.7411461E-3,-3.7893388E-1,-6.757699E-1,3.39072E-2,-6.028538E-1,3.9284296E0,-5.289763E-1,-1.6562068E-1,3.5205233E-1,4.547751E0,-1.8775996E0,3.8889086E-1,1.3155439E0,2.8850493E0,-7.847824E-1,1.4136392E-1,3.6458227E-1,2.0713978E-2,-1.588784E-1,1.248006E0,2.99183E-2,-2.790217E-1,1.4545356E-1,1.5878818E0,-2.0898452E-1,3.951063E-1,-1.4526598E-1,-3.9968154E-1,3.5582043E-2,3.5444257E-1,6.2718326E-1,-8.581435E-2,1.514557E-1,-2.293631E-1,-4.4090942E-1,-3.3208683E-2,-9.486591E-2,2.7775937E-1,-3.386877E-1,-4.9997595E-1],"categories":[],"categories_nodes":[],"categories_segments":[],"categories_sizes":[],"default_left":[0,0,0,0,0,0,0,0,0,0,0,0,0,0,0,0,0,0,0,0,0,0,0,0,0,0,0,0,0,0,0,0,0,0,0,0,0,0,0,0,0,0,0,0,0,0,0,0,0,0,0,0,0,0,0,0,0,0,0,0,0,0,0,0,0,0,0,0,0,0,0,0,0,0,0,0,0,0,0,0,0,0,0,0,0,0,0,0,0,0,0,0,0,0,0,0,0,0,0],"id":3,"left_children":[1,3,5,7,9,11,13,15,17,19,21,23,25,27,-1,29,31,33,35,37,39,-1,41,43,45,47,49,51,53,55,-1,57,-1,59,61,63,65,67,69,71,-1,73,75,77,79,81,83,85,87,89,91,93,-1,95,97,-1,-1,-1,-1,-1,-1,-1,-1,-1,-1,-1,-1,-1,-1,-1,-1,-1,-1,-1,-1,-1,-1,-1,-1,-1,-1,-1,-1,-1,-1,-1,-1,-1,-1,-1,-1,-1,-1,-1,-1,-1,-1,-1,-1],"loss_changes":[4.175259E2,4.2865088E2,4.2905518E1,5.8741478E1,3.072272E2,2.1414932E1,2.0379776E1,7.681153E1,3.7010864E1,3.394491E2,9.21937E1,1.7656887E1,1.4202507E1,1.339151E1,0E0,7.9630947E0,6.7980804E1,7.211548E0,9.252063E1,3.5689612E2,4.235797E1,0E0,8.614079E1,1.927325E1,3.6940525E1,1.2279404E1,2.1405174E1,3.0222227E1,1.2949829E1,1.0320737E1,0E0,1.4164641E2,0E0,2.3471277E0,5.8387375E0,2.9320306E2,3.835665E1,9.9029517E2,3.8220728E2,4.6542236E1,0E0,6.6784706E1,1.0381472E2,2.4125492E1,1.2483326E1,1.199017E1,2.2204145E1,5.181816E0,9.860412E-1,5.508357E0,9.473661E0,1.2740507E0,0E0,1.6212437E0,8.554138E0,0E0,0E0,0E0,0E0,0E0,0E0,0E0,0E0,0E0,0E0,0E0,0E0,0E0,0E0,0E0,0E0,0E0,0E0,0E0,0E0,0E0,0E0,0E0,0E0,0E0,0E0,0E0,0E0,0E0,0E0,0E0,0E0,0E0,0E0,0E0,0E0,0E0,0E0,0E0,0E0,0E0,0E0,0E0,0E0],"parents":[2147483647,0,0,1,1,2,2,3,3,4,4,5,5,6,6,7,7,8,8,9,9,10,10,11,11,12,12,13,13,15,15,16,16,17,17,18,18,19,19,20,20,22,22,23,23,24,24,25,25,26,26,27,27,28,28,29,29,31,31,33,33,34,34,35,35,36,36,37,37,38,38,39,39,41,41,42,42,43,43,44,44,45,45,46,46,47,47,48,48,49,49,50,50,51,51,53,53,54,54],"right_children":[2,4,6,8,10,12,14,16,18,20,22,24,26,28,-1,30,32,34,36,38,40,-1,42,44,46,48,50,52,54,56,-1,58,-1,60,62,64,66,68,70,72,-1,74,76,78,80,82,84,86,88,90,92,94,-1,96,98,-1,-1,-1,-1,-1,-1,-1,-1,-1,-1,-1,-1,-1,-1,-1,-1,-1,-1,-1,-1,-1,-1,-1,-1,-1,-1,-1,-1,-1,-1,-1,-1,-1,-1,-1,-1,-1,-1,-1,-1,-1,-1,-1,-1],"split_conditions":[2.4317216E2,1.0709823E2,2.7738937E2,1.1019764E1,6.553084E0,4E-1,2.1473915E1,9.726664E0,1.6260376E1,6.0926666E0,6.838501E0,2.065848E1,2.7534704E1,1.1019764E1,4.2729437E-1,9.531505E0,8.847575E1,-3.515667E0,1.8954338E1,1.31041975E1,1.2200001E1,-1.1753532E0,1.2816881E2,-3.2760837E0,2.1175837E1,1.6934332E1,2.81169E1,3.3521655E2,-3.849E0,8.707238E0,-6.8662834E-1,8.01248E1,-8.1055695E-1,1E-1,2.0736418E1,2.3000002E0,3.454151E1,2.038689E2,1.3570615E1,2.1566975E1,5.6614283E-2,1.1000001E0,1.5E0,-5.7156663E0,1.3004922E1,5.1426663E0,2.690731E2,2.4667729E2,1.8346832E1,1.2511416E1,9E-1,1.0787993E1,7.8772175E-1,-8.053166E0,3.0364713E2,-5.109554E-1,3.4559473E-2,2.2998296E-1,2.1307669E0,-2.7411461E-3,-3.7893388E-1,-6.757699E-1,3.39072E-2,-6.028538E-1,3.9284296E0,-5.289763E-1,-1.6562068E-1,3.5205233E-1,4.547751E0,-1.8775996E0,3.8889086E-1,1.3155439E0,2.8850493E0,-7.847824E-1,1.4136392E-1,3.6458227E-1,2.0713978E-2,-1.588784E-1,1.248006E0,2.99183E-2,-2.790217E-1,1.4545356E-1,1.5878818E0,-2.0898452E-1,3.951063E-1,-1.4526598E-1,-3.9968154E-1,3.5582043E-2,3.5444257E-1,6.2718326E-1,-8.581435E-2,1.514557E-1,-2.293631E-1,-4.4090942E-1,-3.3208683E-2,-9.486591E-2,2.7775937E-1,-3.386877E-1,-4.9997595E-1],"split_indices":[3,3,3,2,0,1,0,2,3,0,0,2,2,2,0,2,3,0,3,2,1,0,3,0,2,0,2,3,0,2,0,3,0,1,0,1,3,3,2,2,0,1,1,0,2,0,3,3,0,0,1,2,0,0,3,0,0,0,0,0,0,0,0,0,0,0,0,0,0,0,0,0,0,0,0,0,0,0,0,0,0,0,0,0,0,0,0,0,0,0,0,0,0,0,0,0,0,0,0],"split_type":[0,0,0,0,0,0,0,0,0,0,0,0,0,0,0,0,0,0,0,0,0,0,0,0,0,0,0,0,0,0,0,0,0,0,0,0,0,0,0,0,0,0,0,0,0,0,0,0,0,0,0,0,0,0,0,0,0,0,0,0,0,0,0,0,0,0,0,0,0,0,0,0,0,0,0,0,0,0,0,0,0,0,0,0,0,0,0,0,0,0,0,0,0,0,0,0,0,0,0],"sum_hessian":[1.198E3,8.37E2,3.61E2,2.76E2,5.61E2,2.05E2,1.56E2,3.4E1,2.42E2,2.07E2,3.54E2,7.9E1,1.26E2,1.54E2,2E0,1.5E1,1.9E1,2.6E1,2.16E2,1.94E2,1.3E1,4E0,3.5E2,5.6E1,2.3E1,6.9E1,5.7E1,7E0,1.47E2,1.2E1,3E0,1.7E1,2E0,5E0,2.1E1,4E0,2.12E2,2.5E1,1.69E2,1.2E1,1E0,2.7E1,3.23E2,3E0,5.3E1,2E0,2.1E1,6.6E1,3E0,4E0,5.3E1,5E0,2E0,3E0,1.44E2,4E0,8E0,1.3E1,4E0,3E0,2E0,2E1,1E0,3E0,1E0,3E1,1.82E2,1.9E1,6E0,6E0,1.63E2,7E0,5E0,1.5E1,1.2E1,1.36E2,1.87E2,2E0,1E0,1.7E1,3.6E1,1E0,1E0,1.3E1,8E0,1E1,5.6E1,2E0,1E0,3E0,1E0,6E0,4.7E1,4E0,1E0,1E0,2E0,7E1,7.4E1],"tree_param":{"num_deleted":"0","num_feature":"4","num_nodes":"99","size_leaf_vector":"1"}},{"base_weights":[2.9442428E-2,3.1064412E-1,-5.965373E-1,-2.3826005E-1,8.418609E-1,-3.5676667E-1,-8.7628657E-1,-8.318795E-1,2.9325297E-1,2.1195703E0,3.7188348E-1,1.3630763E0,-3.983952E-1,-2.8941172E-1,-1.0251925E0,-6.7272097E-1,-3.6772087E0,8.2032436E-1,-7.7228314E-1,1.056595E0,6.017412E0,3.9158561E0,1.2618923E-1,-4.0128392E-1,2.372652E0,-1.0288829E0,-2.5670224E-1,-4.0697578E-1,3.4183544E-1,-1.0500896E0,-1.6286986E-1,-1.2066745E-1,-1.1775131E0,-9.118145E-1,-1.2763742E0,-2.8086525E-1,1.6938676E0,-1.1064091E0,3.737954E-1,-9.4114864E-1,2.9043424E0,1.1773675E-1,7.97743E0,-1.2070957E0,7.431749E0,-2.3768046E0,3.3042592E-1,1.0608051E0,2.418574E-1,-2.371657E0,-8.3494407E-1,8.970675E-1,-5.026476E-1,-2.1334493E-1,-1.1233597E0,-1.1163043E0,-7.05611E-1,-4.6965984E-1,1.5964352E-1,-1.2679006E-1,2.6029713E0,-8.598208E-1,-2.843529E-1,-3.6005482E-1,-5.026174E-2,-2.011573E-1,1.74872E0,9.1592795E-1,8.7998495E-2,2.2598977E-1,-4.4356534E-1,6.34099E-1,2.7064324E-4,-5.432481E-1,5.497521E-1,3.2398112E0,5.756319E-1,1.9581845E0,-6.115203E-1,5.362282E0,1.441933E0,9.406131E-1,-8.68714E-1,4.447969E0,5.643065E-1,-9.956084E-1,1.4084193E0,5.438327E-1,-6.308374E-2,-8.0512804E-1,-2.1530221E-1,-4.6755046E-2,-3.646729E-1,-5.0181836E-1,4.1254318E-1,-1.8032505E-1,1.1731617E-1,-1.9501033E-1,1.9130988E-1,-4.5921123E-1,-1.3055263E-1,-2.0702699E-1,-3.5155523E-1,-9.589233E-2,-3.6420143E-1,-6.092227E-2,-1.904125E-1],"categories":[],"categories_nodes":[],"categories_segments":[],"categories_sizes":[],"default_left":[0,0,0,0,0,0,0,0,0,0,0,0,0,0,0,0,0,0,0,0,0,0,0,0,0,0,0,0,0,0,0,0,0,0,0,0,0,0,0,0,0,0,0,0,0,0,0,0,0,0,0,0,0,0,0,0,0,0,0,0,0,0,0,0,0,0,0,0,0,0,0,0,0,0,0,0,0,0,0,0,0,0,0,0,0,0,0,0,0,0,0,0,0,0,0,0,0,0,0,0,0,0,0,0,0,0,0],"id":4,"left_children":[1,3,5,7,9,11,13,15,17,19,21,23,25,27,29,31,33,35,37,39,41,43,45,-1,47,49,51,53,-1,55,57,59,61,63,-1,65,67,69,71,73,75,77,79,81,83,85,87,-1,-1,89,91,93,95,97,99,101,103,105,-1,-1,-1,-1,-1,-1,-1,-1,-1,-1,-1,-1,-1,-1,-1,-1,-1,-1,-1,-1,-1,-1,-1,-1,-1,-1,-1,-1,-1,-1,-1,-1,-1,-1,-1,-1,-1,-1,-1,-1,-1,-1,-1,-1,-1,-1,-1,-1,-1],"loss_changes":[2.1124115E2,2.416347E2,2.4639511E1,1.2897467E2,2.5201996E2,1.5005138E1,1.4646835E1,8.492793E1,1.21942055E2,4.6183597E2,2.685626E2,1.6806438E1,1.7424341E1,6.511114E0,2.7488098E0,5.1133614E1,1.2087219E1,1.3995657E2,2.7984856E1,3.349527E2,2.7658398E2,3.692058E2,1.4903429E2,0E0,4.438757E0,7.3947716E0,4.670449E1,4.476613E0,0E0,2.2231903E0,1.316045E0,2.4009259E2,3.451326E1,4.427986E-1,0E0,1.5865991E2,1.5329996E2,3.9870026E1,1.1027438E1,1.0945462E2,3.4499E2,1.10044235E2,4.789779E2,7.507413E1,4.6466998E2,1.6211378E2,2.1598845E2,0E0,0E0,1.3878822E-1,8.340559E0,3.792843E1,1.2111309E1,1.0820509E1,1.2961702E0,1.7718353E0,4.3213453E0,4.7105372E-2,0E0,0E0,0E0,0E0,0E0,0E0,0E0,0E0,0E0,0E0,0E0,0E0,0E0,0E0,0E0,0E0,0E0,0E0,0E0,0E0,0E0,0E0,0E0,0E0,0E0,0E0,0E0,0E0,0E0,0E0,0E0,0E0,0E0,0E0,0E0,0E0,0E0,0E0,0E0,0E0,0E0,0E0,0E0,0E0,0E0,0E0,0E0,0E0,0E0],"parents":[2147483647,0,0,1,1,2,2,3,3,4,4,5,5,6,6,7,7,8,8,9,9,10,10,11,11,12,12,13,13,14,14,15,15,16,16,17,17,18,18,19,19,20,20,21,21,22,22,24,24,25,25,26,26,27,27,29,29,30,30,31,31,32,32,33,33,35,35,36,36,37,37,38,38,39,39,40,40,41,41,42,42,43,43,44,44,45,45,46,46,49,49,50,50,51,51,52,52,53,53,54,54,55,55,56,56,57,57],"right_children":[2,4,6,8,10,12,14,16,18,20,22,24,26,28,30,32,34,36,38,40,42,44,46,-1,48,50,52,54,-1,56,58,60,62,64,-1,66,68,70,72,74,76,78,80,82,84,86,88,-1,-1,90,92,94,96,98,100,102,104,106,-1,-1,-1,-1,-1,-1,-1,-1,-1,-1,-1,-1,-1,-1,-1,-1,-1,-1,-1,-1,-1,-1,-1,-1,-1,-1,-1,-1,-1,-1,-1,-1,-1,-1,-1,-1,-1,-1,-1,-1,-1,-1,-1,-1,-1,-1,-1,-1,-1],"split_conditions":[2.4128471E2,1.5282335E2,2.7500568E2,1E-1,1.8208069E2,-2.8365E0,1.3570615E1,1.4191388E2,3.6999998E0,1.7508281E2,1.2313894E1,-6.34275E0,4.4385E0,2.1473915E1,1.86E1,3.9009998E0,1.1928989E1,7.620057E1,1.4540585E1,1.8057508E1,1.5226764E1,2.0647006E2,1.3570615E1,-4.0128392E-1,1.3905509E1,2.4317216E2,7.3885016E0,1.5230166E1,3.4183544E-1,2.9655787E1,1.5059334E1,3.2280834E0,4.4385E0,8.21975E0,-1.2763742E0,3.4999998E0,4.915583E0,-1.0525002E-1,1.4896832E1,1.7611418E1,1.8709612E1,5.728083E0,1.7106628E1,1.8477286E2,4.50725E0,5E0,7E-1,1.0608051E0,2.418574E-1,3.3926666E0,1E-1,2.0188908E1,1.7155167E1,1.1548916E1,1.7726002E1,1.5111424E1,6E-1,1.3673916E1,1.5964352E-1,-1.2679006E-1,2.6029713E0,-8.598208E-1,-2.843529E-1,-3.6005482E-1,-5.026174E-2,-2.011573E-1,1.74872E0,9.1592795E-1,8.7998495E-2,2.2598977E-1,-4.4356534E-1,6.34099E-1,2.7064324E-4,-5.432481E-1,5.497521E-1,3.2398112E0,5.756319E-1,1.9581845E0,-6.115203E-1,5.362282E0,1.441933E0,9.406131E-1,-8.68714E-1,4.447969E0,5.643065E-1,-9.956084E-1,1.4084193E0,5.438327E-1,-6.308374E-2,-8.0512804E-1,-2.1530221E-1,-4.6755046E-2,-3.646729E-1,-5.0181836E-1,4.1254318E-1,-1.8032505E-1,1.1731617E-1,-1.9501033E-1,1.9130988E-1,-4.5921123E-1,-1.3055263E-1,-2.0702699E-1,-3.5155523E-1,-9.589233E-2,-3.6420143E-1,-6.092227E-2,-1.904125E-1],"split_indices":[3,3,3,1,3,0,2,3,1,3,2,0,0,0,1,0,2,3,0,2,2,3,2,0,2,3,0,0,0,2,0,0,0,0,0,1,0,0,0,0,2,0,2,3,0,1,1,0,0,0,1,2,0,0,0,2,1,0,0,0,0,0,0,0,0,0,0,0,0,0,0,0,0,0,0,0,0,0,0,0,0,0,0,0,0,0,0,0,0,0,0,0,0,0,0,0,0,0,0,0,0,0,0,0,0,0,0],"split_type":[0,0,0,0,0,0,0,0,0,0,0,0,0,0,0,0,0,0,0,0,0,0,0,0,0,0,0,0,0,0,0,0,0,0,0,0,0,0,0,0,0,0,0,0,0,0,0,0,0,0,0,0,0,0,0,0,0,0,0,0,0,0,0,0,0,0,0,0,0,0,0,0,0,0,0,0,0,0,0,0,0,0,0,0,0,0,0,0,0,0,0,0,0,0,0,0,0,0,0,0,0,0,0,0,0,0,0],"sum_hessian":[1.198E3,8.27E2,3.71E2,4.07E2,4.2E2,2.01E2,1.7E2,1.92E2,2.15E2,1.12E2,3.08E2,4E0,1.97E2,3.5E1,1.35E2,1.83E2,9E0,1.44E2,7.1E1,8.9E1,2.3E1,1.9E1,2.89E2,1E0,3E0,3.5E1,1.62E2,3.3E1,2E0,1.31E2,4E0,8.8E1,9.5E1,2E0,7E0,6.4E1,8E1,5.5E1,1.6E1,4.3E1,4.6E1,6E0,1.7E1,8E0,1.1E1,2.1E1,2.68E2,1E0,2E0,3E0,3.2E1,2.8E1,1.34E2,2.7E1,6E0,1.08E2,2.3E1,3E0,1E0,8.6E1,2E0,1E1,8.5E1,1E0,1E0,6.1E1,3E0,4E1,4E1,9E0,4.6E1,2E0,1.4E1,3.3E1,1E1,4E0,4.2E1,1E0,5E0,3E0,1.4E1,2E0,6E0,4E0,7E0,1.9E1,2E0,7.1E1,1.97E2,2E0,1E0,1.2E1,2E1,4E0,2.4E1,1.21E2,1.3E1,1.8E1,9E0,3E0,3E0,1.4E1,9.4E1,1.4E1,9E0,2E0,1E0],"tree_param":{"num_deleted":"0","num_feature":"4","num_nodes":"107","size_leaf_vector":"1"}},{"base_weights":[3.6055375E-2,2.7412692E-1,-4.094183E-1,-5.109659E-1,6.8446904E-1,1.6276757E0,-5.376364E-1,1.100836E-1,-1.0671868E0,1.6316985E0,2.399388E-1,4.5683103E0,-2.1700908E-1,-1.7152494E0,-4.323437E-1,-1.7121585E-1,8.873171E0,-1.3162984E0,9.7683537E-1,2.0565372E0,-3.0670404E0,-7.399948E-1,5.134477E-1,6.86741E-1,-4.3497646E-1,-2.3459518E0,1.408786E0,-5.232649E-1,2.5644812E-1,-5.590454E-1,1.7760849E0,1.720595E0,4.5496345E0,-1.8100075E0,-2.3656683E-1,3.3186843E0,-4.3301302E-1,3.012837E-1,3.7847311E0,-3.1886584E-1,-1.2187083E0,1.9931962E-1,-2.3015952E0,1.0811368E0,-5.9115726E-1,-6.690272E-1,7.8550875E-1,-2.646178E0,-1.3021421E0,-1.55366E-1,9.07418E-1,-1.2765113E0,-4.5533356E-1,1.452615E0,-8.533856E-2,-3.1241255E-2,-4.6452478E-1,2.539222E0,5.7358142E-2,6.8809664E-1,8.617115E-2,-2.7297935E-1,-9.5589155E-1,-2.7192974E-1,5.79198E-1,-3.3982402E-1,1.4044889E0,-2.7101148E-2,1.092406E0,2.607609E0,7.306578E-1,-1.3876234E-1,2.3282666E0,-7.8715056E-1,1.0081674E0,2.5791657E-1,1.2438617E0,-2.97187E-1,5.286794E-1,-2.8735602E-1,9.937698E-2,6.3054746E-1,-4.7451591E-1,-8.9178914E-1,-1.7916366E-1,8.9595896E-1,-7.0243704E-1,-1.5251812E-1,1.3555756E-1,-6.01025E-1,-2.0909461E-1,-5.0866483E-3,-1.7807727E-1,6.630078E-2,-1.3550434E-1],"categories":[],"categories_nodes":[],"categories_segments":[],"categories_sizes":[],"default_left":[0,0,0,0,0,0,0,0,0,0,0,0,0,0,0,0,0,0,0,0,0,0,0,0,0,0,0,0,0,0,0,0,0,0,0,0,0,0,0,0,0,0,0,0,0,0,0,0,0,0,0,0,0,0,0,0,0,0,0,0,0,0,0,0,0,0,0,0,0,0,0,0,0,0,0,0,0,0,0,0,0,0,0,0,0,0,0,0,0,0,0,0,0,0,0],"id":5,"left_children":[1,3,5,7,9,11,13,15,17,19,21,-1,23,25,27,29,31,33,35,37,39,41,43,-1,45,47,49,51,53,55,57,59,-1,61,63,-1,65,67,69,-1,-1,71,73,75,77,79,81,83,85,87,-1,89,91,-1,93,-1,-1,-1,-1,-1,-1,-1,-1,-1,-1,-1,-1,-1,-1,-1,-1,-1,-1,-1,-1,-1,-1,-1,-1,-1,-1,-1,-1,-1,-1,-1,-1,-1,-1,-1,-1,-1,-1,-1,-1],"loss_changes":[1.272717E2,2.5227621E2,1.100535E2,9.3041016E1,2.1603954E2,6.3049854E2,4.8112083E1,3.1704584E2,7.359073E1,3.336853E2,9.445517E1,0E0,1.3559655E1,6.6355705E1,2.286734E1,9.53955E1,1.5393036E2,6.727211E1,2.3229329E2,4.5690582E2,2.360904E1,1.1340497E2,1.73084E2,0E0,6.809948E0,5.0155334E0,1.56354E1,1.5844017E1,6.7807014E1,4.7096355E1,2.2097612E2,1.8053789E0,0E0,1.0487393E2,6.127179E1,0E0,5.8986423E1,9.974006E1,4.8202283E2,0E0,0E0,2.4882031E2,6.1730087E1,1.1995006E2,9.0116264E1,5.806549E0,1.578858E1,1.1602509E1,4.2651062E1,1.0871903E0,0E0,9.556488E0,1.7930191E1,0E0,4.7010803E0,0E0,0E0,0E0,0E0,0E0,0E0,0E0,0E0,0E0,0E0,0E0,0E0,0E0,0E0,0E0,0E0,0E0,0E0,0E0,0E0,0E0,0E0,0E0,0E0,0E0,0E0,0E0,0E0,0E0,0E0,0E0,0E0,0E0,0E0,0E0,0E0,0E0,0E0,0E0,0E0],"parents":[2147483647,0,0,1,1,2,2,3,3,4,4,5,5,6,6,7,7,8,8,9,9,10,10,12,12,13,13,14,14,15,15,16,16,17,17,18,18,19,19,20,20,21,21,22,22,24,24,25,25,26,26,27,27,28,28,29,29,30,30,31,31,33,33,34,34,36,36,37,37,38,38,41,41,42,42,43,43,44,44,45,45,46,46,47,47,48,48,49,49,51,51,52,52,54,54],"right_children":[2,4,6,8,10,12,14,16,18,20,22,-1,24,26,28,30,32,34,36,38,40,42,44,-1,46,48,50,52,54,56,58,60,-1,62,64,-1,66,68,70,-1,-1,72,74,76,78,80,82,84,86,88,-1,90,92,-1,94,-1,-1,-1,-1,-1,-1,-1,-1,-1,-1,-1,-1,-1,-1,-1,-1,-1,-1,-1,-1,-1,-1,-1,-1,-1,-1,-1,-1,-1,-1,-1,-1,-1,-1,-1,-1,-1,-1,-1,-1],"split_conditions":[2.3284767E2,1E-1,1.1901798E1,5.0114164E0,1.5E0,2.3828384E2,2.3771188E2,2.1720807E2,2.0188908E1,2.6554728E1,3.161417E0,4.5683103E0,2.4317216E2,2.8856194E1,1.6219751E1,3.2280834E0,3.6447499E0,1.5365584E1,2.0532627E1,1.3185591E2,8.1316574E1,2.2505037E1,1.4103084E1,6.86741E-1,3.3521655E2,1.5161418E1,8.599999E0,2.4440167E2,2.4128471E2,9.1738045E1,3.9009998E0,2.5780833E0,4.5496345E0,1.4110896E2,2.1049133E2,3.3186843E0,1.5365584E1,1.1000001E0,4.7051663E0,-3.1886584E-1,-1.2187083E0,2.1626984E1,2.2900003E1,1.2701E1,1.9134333E1,1.1631956E1,2.0000002E0,2.3576563E1,1.5230166E1,5.5301666E0,9.07418E-1,2.3277834E1,2.5714746E2,1.452615E0,2.723597E2,-3.1241255E-2,-4.6452478E-1,2.539222E0,5.7358142E-2,6.8809664E-1,8.617115E-2,-2.7297935E-1,-9.5589155E-1,-2.7192974E-1,5.79198E-1,-3.3982402E-1,1.4044889E0,-2.7101148E-2,1.092406E0,2.607609E0,7.306578E-1,-1.3876234E-1,2.3282666E0,-7.8715056E-1,1.0081674E0,2.5791657E-1,1.2438617E0,-2.97187E-1,5.286794E-1,-2.8735602E-1,9.937698E-2,6.3054746E-1,-4.7451591E-1,-8.9178914E-1,-1.7916366E-1,8.9595896E-1,-7.0243704E-1,-1.5251812E-1,1.3555756E-1,-6.01025E-1,-2.0909461E-1,-5.0866483E-3,-1.7807727E-1,6.630078E-2,-1.3550434E-1],"split_indices":[3,1,2,0,1,3,3,3,2,2,0,0,3,2,0,0,0,0,2,3,3,2,0,0,3,0,1,3,3,3,0,0,0,3,3,0,0,1,0,0,0,2,1,0,0,2,1,2,0,0,0,2,3,0,3,0,0,0,0,0,0,0,0,0,0,0,0,0,0,0,0,0,0,0,0,0,0,0,0,0,0,0,0,0,0,0,0,0,0,0,0,0,0,0,0],"split_type":[0,0,0,0,0,0,0,0,0,0,0,0,0,0,0,0,0,0,0,0,0,0,0,0,0,0,0,0,0,0,0,0,0,0,0,0,0,0,0,0,0,0,0,0,0,0,0,0,0,0,0,0,0,0,0,0,0,0,0,0,0,0,0,0,0,0,0,0,0,0,0,0,0,0,0,0,0,0,0,0,0,0,0,0,0,0,0,0,0,0,0,0,0,0,0],"sum_hessian":[1.198E3,7.81E2,4.17E2,2.68E2,5.13E2,2.4E1,3.93E2,1.27E2,1.41E2,1.63E2,3.5E2,2E0,2.2E1,3.1E1,3.62E2,1.24E2,3E0,1.26E2,1.5E1,1.5E2,1.3E1,7.6E1,2.74E2,1E0,2.1E1,2.6E1,5E0,3.2E2,4.2E1,1.04E2,2E1,2E0,1E0,8.6E1,4E1,1E0,1.4E1,7.5E1,7.5E1,5E0,8E0,4.8E1,2.8E1,1.81E2,9.3E1,1.8E1,3E0,1.9E1,7E0,3E0,2E0,2.5E1,2.95E2,2E0,4E1,7.2E1,3.2E1,3E0,1.7E1,1E0,1E0,5.3E1,3.3E1,3.1E1,9E0,1.3E1,1E0,6.8E1,7E0,1.5E1,6E1,4.5E1,3E0,2.7E1,1E0,1.7E2,1.1E1,8E1,1.3E1,1.4E1,4E0,2E0,1E0,1.6E1,3E0,1E0,6E0,2E0,1E0,1E1,1.5E1,7.1E1,2.24E2,2.2E1,1.8E1],"tree_param":{"num_deleted":"0","num_feature":"4","num_nodes":"95","size_leaf_vector":"1"}},{"base_weights":[4.4857204E-2,2.588523E-1,-2.4773344E-1,-1.002447E-1,9.82166E-1,-2.658762E0,-1.7387308E-1,2.5864616E-2,-2.4133265E0,2.699198E0,4.140454E-1,-3.16275E0,-4.8210722E-1,4.9486895E0,-2.364991E-1,-4.248862E-2,4.988556E0,-5.7522445E0,-9.807846E-1,2.0618873E0,8.914851E0,1.063305E0,-1.0100492E0,-3.4787796E0,-3.165204E-1,2.2029813E-1,-3.883985E-1,8.997634E0,-6.298399E-1,1.0763781E0,-3.097136E-1,-3.0859908E-1,4.00747E-1,2.4736595E0,-1.0169305E0,-1.919699E0,-2.8076014E-1,1.0033231E0,-1.7304596E0,3.4264324E0,-1.9840901E0,4.0741663E0,1.277532E0,3.715501E0,2.53361E-1,-2.2100005E0,3.1619668E-1,-1.1526741E0,-4.049823E-1,1.88972E-2,8.0236964E-2,2.9375553E-1,3.4032166E0,6.9432836E0,-3.059357E-1,-4.072991E-1,4.215989E-1,-1.0204592E-1,1.2411127E0,7.676925E-1,-1.7500098E-3,-7.518769E-3,-4.5009995E-1,-6.947446E-1,1.0574813E0,3.8262978E-1,2.338735E0,-6.671337E-1,1.6977954E-1,8.569423E-1,-2.8205287E-1,1.2290032E-1,2.636182E0,2.9019327E-3,3.400897E0,-7.746753E-1,5.6307596E-1,8.2858574E-1,-3.180369E-1,3.0328512E0,-8.582395E-1,-1.4346382E-1,1.766592E-1,-8.394321E-2,-2.3953205E-1,4.4953814E-1,-1.7583737E-2],"categories":[],"categories_nodes":[],"categories_segments":[],"categories_sizes":[],"default_left":[0,0,0,0,0,0,0,0,0,0,0,0,0,0,0,0,0,0,0,0,0,0,0,0,0,0,0,0,0,0,0,0,0,0,0,0,0,0,0,0,0,0,0,0,0,0,0,0,0,0,0,0,0,0,0,0,0,0,0,0,0,0,0,0,0,0,0,0,0,0,0,0,0,0,0,0,0,0,0,0,0,0,0,0,0,0,0],"id":6,"left_children":[1,3,5,7,9,11,13,15,17,19,21,23,25,27,29,31,33,35,37,39,41,43,45,47,-1,49,-1,51,-1,53,55,57,59,-1,61,-1,-1,-1,63,65,67,-1,69,71,73,75,77,-1,-1,-1,-1,-1,-1,79,81,83,85,-1,-1,-1,-1,-1,-1,-1,-1,-1,-1,-1,-1,-1,-1,-1,-1,-1,-1,-1,-1,-1,-1,-1,-1,-1,-1,-1,-1,-1,-1],"loss_changes":[7.513707E1,1.8009811E2,8.9824E1,1.3541174E2,2.232431E2,1.4930336E1,1.593276E2,1.4980623E2,1.0915367E2,2.0741281E2,1.6195563E2,4.3227386E0,2.568182E0,1.9011575E2,4.724073E1,5.1549713E1,1.25743454E2,1.5816376E1,6.415219E1,2.9940698E2,1.6081763E2,2.568343E2,8.822746E1,2.5508118E0,0E0,5.407825E-3,0E0,6.4150696E1,0E0,2.1298174E2,3.3213947E1,3.9703033E1,1.439238E2,0E0,1.4008124E0,0E0,0E0,0E0,5.7383526E1,3.6599594E2,9.815472E0,0E0,1.3190489E1,4.6586032E2,2.5106319E2,4.896605E1,9.381383E1,0E0,0E0,0E0,0E0,0E0,0E0,1.8413063E2,3.672977E0,2.017176E1,2.852949E1,0E0,0E0,0E0,0E0,0E0,0E0,0E0,0E0,0E0,0E0,0E0,0E0,0E0,0E0,0E0,0E0,0E0,0E0,0E0,0E0,0E0,0E0,0E0,0E0,0E0,0E0,0E0,0E0,0E0,0E0],"parents":[2147483647,0,0,1,1,2,2,3,3,4,4,5,5,6,6,7,7,8,8,9,9,10,10,11,11,12,12,13,13,14,14,15,15,16,16,17,17,18,18,19,19,20,20,21,21,22,22,23,23,25,25,27,27,29,29,30,30,31,31,32,32,34,34,38,38,39,39,40,40,42,42,43,43,44,44,45,45,46,46,53,53,54,54,55,55,56,56],"right_children":[2,4,6,8,10,12,14,16,18,20,22,24,26,28,30,32,34,36,38,40,42,44,46,48,-1,50,-1,52,-1,54,56,58,60,-1,62,-1,-1,-1,64,66,68,-1,70,72,74,76,78,-1,-1,-1,-1,-1,-1,80,82,84,86,-1,-1,-1,-1,-1,-1,-1,-1,-1,-1,-1,-1,-1,-1,-1,-1,-1,-1,-1,-1,-1,-1,-1,-1,-1,-1,-1,-1,-1,-1],"split_conditions":[2.1548004E2,1.6802823E2,2.1839517E2,1.6343108E2,1.8208069E2,7.7E0,2.1966707E2,1.6107143E2,5.292666E0,1.2200001E1,1.3071835E1,1.7111418E1,7.911417E0,2.1000001E0,1.1901798E1,8.000001E-1,4.50725E0,2.1199999E1,1.1019764E1,5.3E0,1.7099998E1,4E-1,1.6690584E1,2.3358425E1,-3.165204E-1,6.4822497E0,-3.883985E-1,1.1019764E1,-6.298399E-1,2.4317216E2,1.6340584E1,2.182183E1,1.4000002E0,2.4736595E0,1.0240583E1,-1.919699E0,-2.8076014E-1,1.0033231E0,2.721038E1,1.764721E2,1.0200001E1,4.0741663E0,2.8530834E0,1E-1,1.3057248E1,3.252177E1,1.6704155E1,-1.1526741E0,-4.049823E-1,1.88972E-2,8.0236964E-2,2.9375553E-1,3.4032166E0,1.6934332E1,3.3521655E2,1.3673916E1,2.4128471E2,-1.0204592E-1,1.2411127E0,7.676925E-1,-1.7500098E-3,-7.518769E-3,-4.5009995E-1,-6.947446E-1,1.0574813E0,3.8262978E-1,2.338735E0,-6.671337E-1,1.6977954E-1,8.569423E-1,-2.8205287E-1,1.2290032E-1,2.636182E0,2.9019327E-3,3.400897E0,-7.746753E-1,5.6307596E-1,8.2858574E-1,-3.180369E-1,3.0328512E0,-8.582395E-1,-1.4346382E-1,1.766592E-1,-8.394321E-2,-2.3953205E-1,4.4953814E-1,-1.7583737E-2],"split_indices":[3,3,3,3,3,1,3,3,0,1,0,0,0,1,2,1,0,1,2,1,1,1,0,2,0,0,0,2,0,3,0,0,1,0,0,0,0,0,2,3,1,0,0,1,0,2,2,0,0,0,0,0,0,0,3,0,3,0,0,0,0,0,0,0,0,0,0,0,0,0,0,0,0,0,0,0,0,0,0,0,0,0,0,0,0,0,0],"split_type":[0,0,0,0,0,0,0,0,0,0,0,0,0,0,0,0,0,0,0,0,0,0,0,0,0,0,0,0,0,0,0,0,0,0,0,0,0,0,0,0,0,0,0,0,0,0,0,0,0,0,0,0,0,0,0,0,0,0,0,0,0,0,0,0,0,0,0,0,0,0,0,0,0,0,0,0,0,0,0,0,0,0,0,0,0,0,0],"sum_hessian":[1.198E3,6.92E2,5.06E2,4.63E2,2.29E2,1.4E1,4.92E2,4.4E2,2.3E1,5.6E1,1.73E2,1.1E1,3E0,5E0,4.87E2,4.35E2,5E0,6E0,1.7E1,5.2E1,4E0,1.19E2,5.4E1,9E0,2E0,2E0,1E0,3E0,2E0,2.5E1,4.62E2,2.72E2,1.63E2,3E0,2E0,5E0,1E0,2E0,1.5E1,3.9E1,1.3E1,2E0,2E0,2.7E1,9.2E1,2.8E1,2.6E1,7E0,2E0,1E0,1E0,1E0,2E0,4E0,2.1E1,4.08E2,5.4E1,2.71E2,1E0,2.5E1,1.38E2,1E0,1E0,1.4E1,1E0,2.7E1,1.2E1,1.2E1,1E0,1E0,1E0,1.7E1,1E1,9.1E1,1E0,2.6E1,2E0,9E0,1.7E1,3E0,1E0,1.8E1,3E0,3.09E2,9.9E1,1.6E1,3.8E1],"tree_param":{"num_deleted":"0","num_feature":"4","num_nodes":"87","size_leaf_vector":"1"}},{"base_weights":[4.778165E-2,2.0489295E-1,-1.6706236E-1,-6.351898E-2,7.45494E-1,8.794358E-1,-2.7339283E-1,2.6996545E-2,-1.7240951E0,1.0935209E0,-9.349718E-1,4.043472E0,2.3651663E-2,-1.6304061E0,-1.7852294E-1,-6.526919E-2,2.6516945E0,-4.3409224E0,-6.1065704E-1,2.4759333E0,4.720483E-1,-3.123488E0,-1.9883843E-1,-1.0125936E0,5.242816E0,-1.9844466E-1,1.5291764E0,-3.1120663E0,-8.472153E-1,4.9388355E-1,-2.7588758E-1,-9.52624E-1,1.7808499E-3,5.1157823E0,-8.952319E-1,-1.4397743E0,-2.3864609E-1,8.026584E-1,-1.1886506E0,1.6650925E0,1.0899996E1,2.5523153E-1,5.9715123E0,-1.0192946E0,-9.840653E-2,1.0924349E0,-4.4822967E-1,3.6832385E0,1.4789944E0,-5.725285E-1,-8.8795826E-2,5.7251304E-1,1.8562676E-3,-9.995354E-1,-1.701904E-1,-1.2915099E0,3.6202043E-2,-1.0954529E0,1.0119033E0,-9.3154675E-1,-2.166884E-1,-3.044399E-1,1.2757038E-1,8.934072E-1,-1.0797977E-2,1.7428331E0,-6.50259E-2,-5.8705205E-1,8.211627E-1,-5.0021607E-1,8.988591E-1,2.3637493E-1,1.3315312E0,-1.0472031E-1,5.5547185E0,1.4709722E-1,-1.1736425E0,4.091135E0,1.937498E-1,3.9490473E-1,-2.5613984E-1,-5.727916E-1,1.9899486E0,-2.7133906E-1,6.875918E-3,-6.1370146E-1,1.6495276E-2,2.2958423E-1,-4.302068E-1,-4.6019953E-1,6.908458E-1,1.3088464E0,2.8540103E-2,-4.1659647E-1,3.6135378E-1,-8.709285E-2,8.188833E-2],"categories":[],"categories_nodes":[],"categories_segments":[],"categories_sizes":[],"default_left":[0,0,0,0,0,0,0,0,0,0,0,0,0,0,0,0,0,0,0,0,0,0,0,0,0,0,0,0,0,0,0,0,0,0,0,0,0,0,0,0,0,0,0,0,0,0,0,0,0,0,0,0,0,0,0,0,0,0,0,0,0,0,0,0,0,0,0,0,0,0,0,0,0,0,0,0,0,0,0,0,0,0,0,0,0,0,0,0,0,0,0,0,0,0,0,0,0],"id":7,"left_children":[1,3,5,7,9,11,13,15,17,19,21,23,25,27,29,31,33,35,37,39,41,43,45,-1,47,49,51,53,55,57,59,61,63,65,67,-1,-1,-1,69,71,73,75,77,-1,-1,-1,79,-1,81,-1,83,-1,-1,-1,-1,85,87,89,91,93,95,-1,-1,-1,-1,-1,-1,-1,-1,-1,-1,-1,-1,-1,-1,-1,-1,-1,-1,-1,-1,-1,-1,-1,-1,-1,-1,-1,-1,-1,-1,-1,-1,-1,-1,-1,-1],"loss_changes":[4.0505783E1,1.0060427E2,5.6656677E1,6.978941E1,1.355373E2,1.27167755E2,5.9057938E1,1.069699E2,6.72774E1,1.6292535E2,6.3820522E1,1.0667288E2,1.3009575E1,3.2176094E1,2.8418697E1,2.5406988E1,1.356789E2,7.5569763E0,3.736936E1,3.8485437E2,1.5706192E2,6.5495605E0,3.1321964E1,0E0,2.2013605E2,6.205462E0,2.87578E0,3.7011871E0,8.289204E0,4.639041E1,1.4470026E1,3.001606E0,4.4852306E1,3.4549957E1,3.2349888E1,0E0,0E0,0E0,3.7050827E1,1.3030199E2,4.3481262E2,1.2830188E2,1.9531543E2,0E0,0E0,0E0,2.2593687E1,0E0,1.3491177E2,0E0,3.0277815E0,0E0,0E0,0E0,0E0,1.4329119E1,9.672707E0,2.4396679E1,1.2860977E2,3.1941359E1,1.262413E1,0E0,0E0,0E0,0E0,0E0,0E0,0E0,0E0,0E0,0E0,0E0,0E0,0E0,0E0,0E0,0E0,0E0,0E0,0E0,0E0,0E0,0E0,0E0,0E0,0E0,0E0,0E0,0E0,0E0,0E0,0E0,0E0,0E0,0E0,0E0,0E0],"parents":[2147483647,0,0,1,1,2,2,3,3,4,4,5,5,6,6,7,7,8,8,9,9,10,10,11,11,12,12,13,13,14,14,15,15,16,16,17,17,18,18,19,19,20,20,21,21,22,22,24,24,25,25,26,26,27,27,28,28,29,29,30,30,31,31,32,32,33,33,34,34,38,38,39,39,40,40,41,41,42,42,46,46,48,48,50,50,55,55,56,56,57,57,58,58,59,59,60,60],"right_children":[2,4,6,8,10,12,14,16,18,20,22,24,26,28,30,32,34,36,38,40,42,44,46,-1,48,50,52,54,56,58,60,62,64,66,68,-1,-1,-1,70,72,74,76,78,-1,-1,-1,80,-1,82,-1,84,-1,-1,-1,-1,86,88,90,92,94,96,-1,-1,-1,-1,-1,-1,-1,-1,-1,-1,-1,-1,-1,-1,-1,-1,-1,-1,-1,-1,-1,-1,-1,-1,-1,-1,-1,-1,-1,-1,-1,-1,-1,-1,-1,-1],"split_conditions":[2.1548004E2,1.6802823E2,1.2475961E1,1.6343108E2,2.8312117E1,2.3828384E2,2.2260434E2,1.5825063E2,5.292666E0,6.553084E0,4.7999997E0,2.3905835E0,1.2313894E1,5E-1,2.3284767E2,1.6260376E1,9.678083E0,2.1199999E1,1.1019764E1,2.1310208E2,1.6300001E1,1.6219751E1,5.3E0,-1.0125936E0,4.0801663E0,2.3954785E2,1E-1,1.7111418E1,1.07E1,5.771833E0,2.3771188E2,2.0736418E1,1.8954338E1,1.3099999E1,1.5007251E1,-1.4397743E0,-2.3864609E-1,8.026584E-1,2.721038E1,5.601E0,1E-1,2.1310208E2,1.1517666E1,-1.0192946E0,-9.840653E-2,1.0924349E0,3.5030832E0,3.6832385E0,2.2746109E2,-5.725285E-1,9.726664E0,5.7251304E-1,1.8562676E-3,-9.995354E-1,-1.701904E-1,1.2867667E1,1.6300001E1,2.81169E1,8.126001E0,2.8856194E1,1.5957249E1,-3.044399E-1,1.2757038E-1,8.934072E-1,-1.0797977E-2,1.7428331E0,-6.50259E-2,-5.8705205E-1,8.211627E-1,-5.0021607E-1,8.988591E-1,2.3637493E-1,1.3315312E0,-1.0472031E-1,5.5547185E0,1.4709722E-1,-1.1736425E0,4.091135E0,1.937498E-1,3.9490473E-1,-2.5613984E-1,-5.727916E-1,1.9899486E0,-2.7133906E-1,6.875918E-3,-6.1370146E-1,1.6495276E-2,2.2958423E-1,-4.302068E-1,-4.6019953E-1,6.908458E-1,1.3088464E0,2.8540103E-2,-4.1659647E-1,3.6135378E-1,-8.709285E-2,8.188833E-2],"split_indices":[3,3,2,3,2,3,3,3,0,0,1,0,2,1,3,3,0,1,2,3,1,0,1,0,0,3,1,0,1,0,3,0,3,1,0,0,0,0,2,0,1,3,0,0,0,0,0,0,3,0,2,0,0,0,0,0,1,2,0,2,0,0,0,0,0,0,0,0,0,0,0,0,0,0,0,0,0,0,0,0,0,0,0,0,0,0,0,0,0,0,0,0,0,0,0,0,0],"split_type":[0,0,0,0,0,0,0,0,0,0,0,0,0,0,0,0,0,0,0,0,0,0,0,0,0,0,0,0,0,0,0,0,0,0,0,0,0,0,0,0,0,0,0,0,0,0,0,0,0,0,0,0,0,0,0,0,0,0,0,0,0,0,0,0,0,0,0,0,0,0,0,0,0,0,0,0,0,0,0,0,0,0,0,0,0,0,0,0,0,0,0,0,0,0,0,0,0],"sum_hessian":[1.198E3,6.92E2,5.06E2,4.63E2,2.29E2,4.6E1,4.6E2,4.4E2,2.3E1,1.9E2,3.9E1,9E0,3.7E1,2.9E1,4.31E2,4.26E2,1.4E1,6E0,1.7E1,5.8E1,1.32E2,9E0,3E1,1E0,8E0,3.3E1,4E0,9E0,2E1,5.4E1,3.77E2,2.9E1,3.97E2,8E0,6E0,5E0,1E0,2E0,1.5E1,5.4E1,4E0,1.28E2,4E0,8E0,1E0,1E0,2.9E1,2E0,6E0,1E0,3.2E1,3E0,1E0,8E0,1E0,1.3E1,7E0,1.3E1,4.1E1,3E1,3.47E2,2.8E1,1E0,4E0,3.93E2,7E0,1E0,5E0,1E0,1.4E1,1E0,4.2E1,1.2E1,2E0,2E0,1.22E2,6E0,1E0,3E0,5E0,2.4E1,4E0,2E0,3E0,2.9E1,8E0,5E0,5E0,2E0,1.2E1,1E0,8E0,3.3E1,2.5E1,5E0,3.02E2,4.5E1],"tree_param":{"num_deleted":"0","num_feature":"4","num_nodes":"97","size_leaf_vector":"1"}},{"base_weights":[4.6704438E-2,4.38212E-1,-1.9737102E-2,1.124645E0,-9.317309E-2,-1.8224262E0,2.5259867E-2,8.0504936E-1,6.6761045E0,-4.4760793E-1,1.2446139E0,-2.3218317E0,1.4599647E-1,-3.559304E-1,1.5111016E-1,3.2644138E-1,2.798723E0,2.9959068E0,-4.8819712E-1,-6.730788E-1,2.4078007E0,3.362701E0,-9.8661983E-1,-1.5248532E0,-1.5385597E0,-3.7142447E-1,7.8722554E-1,3.143057E-1,-6.750617E-1,7.1677405E-1,-1.6034443E-2,4.7097707E-1,-2.5767293E0,1.8842906E-1,3.4934914E0,-1.3035612E0,5.410258E-1,4.7801858E-1,1.253473E0,2.4983468E0,1.3340267E0,-6.8400264E-1,4.7120574E-1,-1.8600228E0,2.9453456E-2,-1.9941022E-1,7.626064E-2,2.9448926E-1,5.9762266E-2,6.6522425E-1,-3.490437E0,-2.2346396E0,-3.0852872E-1,2.4898565E0,4.1242382E-1,1.919874E0,-4.630773E-2,8.298114E-2,9.077597E-1,-9.175057E-1,-2.420225E-1,-1.2842873E-1,3.0570054E-1,1.8496606E-1,1.2192917E0,-5.9203863E-1,2.779265E-1,1.5919589E0,-2.3161476E-2,-7.9165615E-2,2.4398452E-1,-1.7387836E-1,1.1612855E0,-2.4913137E-1,2.692866E-1,-4.5048454E-1,-8.020939E-1,5.4255012E-2,-6.371044E-2,9.6646085E-2,1.6211349E0,-1.4793031E0,-3.5317641E-1,-1.7190972E-1,-9.608857E-1,4.0610712E-2,-4.0860832E-1,3.118879E-1,5.594307E0,-4.3234874E-2,6.4436555E-1,-7.8147724E-2,2.9044209E0,-1.5659457E-1,2.1349993E-2],"categories":[],"categories_nodes":[],"categories_segments":[],"categories_sizes":[],"default_left":[0,0,0,0,0,0,0,0,0,0,0,0,0,0,0,0,0,0,0,0,0,0,0,0,0,0,0,0,0,0,0,0,0,0,0,0,0,0,0,0,0,0,0,0,0,0,0,0,0,0,0,0,0,0,0,0,0,0,0,0,0,0,0,0,0,0,0,0,0,0,0,0,0,0,0,0,0,0,0,0,0,0,0,0,0,0,0,0,0,0,0,0,0,0,0],"id":8,"left_children":[1,3,5,7,9,11,13,15,17,19,21,23,25,27,29,31,33,-1,-1,35,37,39,41,43,-1,45,47,49,51,53,55,57,59,61,63,65,67,69,-1,-1,71,-1,73,75,77,-1,-1,-1,-1,79,81,83,85,87,89,91,93,-1,-1,-1,-1,-1,-1,-1,-1,-1,-1,-1,-1,-1,-1,-1,-1,-1,-1,-1,-1,-1,-1,-1,-1,-1,-1,-1,-1,-1,-1,-1,-1,-1,-1,-1,-1,-1,-1],"loss_changes":[3.1197475E1,6.3573074E1,8.3270584E1,1.2946631E2,4.7498775E1,2.4915E1,4.8122635E1,6.874213E1,1.2619675E2,5.248174E1,1.0256259E2,3.6917343E1,2.283107E0,5.3471615E1,7.130043E1,2.639029E1,2.473143E1,0E0,0E0,5.7350166E1,1.8502125E1,9.968923E1,2.181524E1,8.911041E0,0E0,9.0289396E-1,1.4739299E-1,1.1046947E2,9.591716E1,9.179088E1,3.4256382E1,2.7965958E1,9.010124E-2,2.4845047E0,1.5558273E1,7.502777E1,7.701039E1,1.2095453E0,0E0,0E0,4.5936005E1,0E0,4.075671E0,6.7741394E-2,1.8485063E-1,0E0,0E0,0E0,0E0,1.201837E2,1.752111E1,4.9651154E1,6.47195E1,5.664278E2,1.4325589E2,1.548287E2,3.2167873E1,0E0,0E0,0E0,0E0,0E0,0E0,0E0,0E0,0E0,0E0,0E0,0E0,0E0,0E0,0E0,0E0,0E0,0E0,0E0,0E0,0E0,0E0,0E0,0E0,0E0,0E0,0E0,0E0,0E0,0E0,0E0,0E0,0E0,0E0,0E0,0E0,0E0,0E0],"parents":[2147483647,0,0,1,1,2,2,3,3,4,4,5,5,6,6,7,7,8,8,9,9,10,10,11,11,12,12,13,13,14,14,15,15,16,16,19,19,20,20,21,21,22,22,23,23,25,25,26,26,27,27,28,28,29,29,30,30,31,31,32,32,33,33,34,34,35,35,36,36,37,37,40,40,42,42,43,43,44,44,49,49,50,50,51,51,52,52,53,53,54,54,55,55,56,56],"right_children":[2,4,6,8,10,12,14,16,18,20,22,24,26,28,30,32,34,-1,-1,36,38,40,42,44,-1,46,48,50,52,54,56,58,60,62,64,66,68,70,-1,-1,72,-1,74,76,78,-1,-1,-1,-1,80,82,84,86,88,90,92,94,-1,-1,-1,-1,-1,-1,-1,-1,-1,-1,-1,-1,-1,-1,-1,-1,-1,-1,-1,-1,-1,-1,-1,-1,-1,-1,-1,-1,-1,-1,-1,-1,-1,-1,-1,-1,-1,-1],"split_conditions":[1.31041975E1,4.50725E0,1.3479583E1,3.9822495E0,1.257426E1,1.1000001E0,3.3926666E0,3E-1,1E-1,2.010725E1,1.9455139E2,4E-1,1.6830168E1,1.7106628E1,6.553084E0,3.6447499E0,-1.6010833E0,2.9959068E0,-4.8819712E-1,2.2746109E2,1E-1,7.0468345E0,2.3105302E2,2.705046E2,-1.5385597E0,2.3586076E2,1.926142E1,3.2999997E0,1.8837322E1,1.7313717E1,1.8954338E1,3.0947497E0,3.9009998E0,8.000001E-1,7.3950935E1,3.2999997E0,2.3678108E2,9.531505E0,1.253473E0,2.4983468E0,2E-1,-6.8400264E-1,5.067666E0,1.5621834E1,1.3694751E1,-1.9941022E-1,7.626064E-2,2.9448926E-1,5.9762266E-2,2.5E0,4.7999997E0,7.3950935E1,2.6064596E1,1.7208603E1,5.728083E0,8.000001E-1,1.3994032E2,8.298114E-2,9.077597E-1,-9.175057E-1,-2.420225E-1,-1.2842873E-1,3.0570054E-1,1.8496606E-1,1.2192917E0,-5.9203863E-1,2.779265E-1,1.5919589E0,-2.3161476E-2,-7.9165615E-2,2.4398452E-1,-1.7387836E-1,1.1612855E0,-2.4913137E-1,2.692866E-1,-4.5048454E-1,-8.020939E-1,5.4255012E-2,-6.371044E-2,9.6646085E-2,1.6211349E0,-1.4793031E0,-3.5317641E-1,-1.7190972E-1,-9.608857E-1,4.0610712E-2,-4.0860832E-1,3.118879E-1,5.594307E0,-4.3234874E-2,6.4436555E-1,-7.8147724E-2,2.9044209E0,-1.5659457E-1,2.1349993E-2],"split_indices":[2,0,2,0,2,1,0,1,1,0,3,1,0,2,0,0,0,0,0,3,1,0,3,3,0,3,0,1,2,2,3,0,0,1,3,1,3,2,0,0,1,0,0,0,0,0,0,0,0,1,1,3,2,2,0,1,3,0,0,0,0,0,0,0,0,0,0,0,0,0,0,0,0,0,0,0,0,0,0,0,0,0,0,0,0,0,0,0,0,0,0,0,0,0,0],"split_type":[0,0,0,0,0,0,0,0,0,0,0,0,0,0,0,0,0,0,0,0,0,0,0,0,0,0,0,0,0,0,0,0,0,0,0,0,0,0,0,0,0,0,0,0,0,0,0,0,0,0,0,0,0,0,0,0,0,0,0,0,0,0,0,0,0,0,0,0,0,0,0,0,0,0,0,0,0,0,0,0,0,0,0,0,0,0,0,0,0,0,0,0,0,0,0],"sum_hessian":[1.198E3,1.73E2,1.025E3,7.5E1,9.8E1,2.4E1,1.001E3,7.2E1,3E0,7.8E1,2E1,1.9E1,5E0,2.48E2,7.53E2,5.9E1,1.3E1,2E0,1E0,7.3E1,5E0,1E1,1E1,1.6E1,3E0,3E0,2E0,8E1,1.68E2,1.71E2,5.82E2,5.7E1,2E0,3E0,1E1,4.8E1,2.5E1,3E0,2E0,2E0,8E0,5E0,5E0,1.3E1,3E0,2E0,1E0,1E0,1E0,7.4E1,6E0,3.1E1,1.37E2,2.4E1,1.47E2,8E0,5.74E2,5.4E1,3E0,1E0,1E0,2E0,1E0,2E0,8E0,3.7E1,1.1E1,2E0,2.3E1,1E0,2E0,5E0,3E0,1E0,4E0,1.1E1,2E0,2E0,1E0,7E1,4E0,3E0,3E0,1.2E1,1.9E1,9.7E1,4E1,2.3E1,1E0,1.12E2,3.5E1,7E0,1E0,1.13E2,4.61E2],"tree_param":{"num_deleted":"0","num_feature":"4","num_nodes":"95","size_leaf_vector":"1"}},{"base_weights":[4.4727102E-2,1.720229E-1,-1.2935714E-1,-2.0989619E-1,3.8937944E-1,-1.5680121E0,-8.532229E-2,-3.2970503E-1,2.213756E0,2.8973718E0,2.3844837E-1,-1.7637492E0,-5.8879787E-1,3.2473617E0,-1.2612307E-1,-1.4564084E-1,-1.7831901E0,6.8882923E0,-1.0978863E-1,5.647027E0,-1.1155559E0,-1.1087977E0,3.6062327E-1,-5.503426E-1,-1.4786433E-1,3.0561306E-2,-2.5589335E-1,5.834546E0,-3.8540164E-1,-1.1758285E0,-5.967181E-2,-2.4254636E-1,3.270326E0,5.2172387E-1,-2.6159961E0,2.53202E0,3.3494568E-1,2.0552728E0,-1.021988E0,1.3881071E-1,9.303748E0,4.9766144E-1,-1.5293443E0,-2.1520443E-1,-3.3212605E0,5.2850895E0,2.8171188E-1,4.2441675E-1,2.0508742E0,-1.9016987E0,-4.6720272E-1,1.723044E0,-1.19494826E-1,8.2498826E-2,-1.3836384E-1,-3.7164223E-1,2.4577186E0,8.5361826E-1,-4.3246716E-1,-1.6312946E0,-5.394588E-1,8.745959E-1,5.0276972E-2,-6.345242E-1,3.4214872E-1,4.115536E-1,-1.0889095E0,8.5460925E-1,4.169415E0,-4.1776195E-2,2.6572385E-1,-6.308536E-1,-2.676359E-1,4.7507566E-1,-1.842715E-1,-1.1868567E0,-4.1394606E-1,4.646479E-1,1.7167732E0,1.5714203E-1,-1.6105717E-1,-2.9617444E-1,-8.025342E-1,1.3512932E0,-3.2967728E-1,9.9154323E-1,1.8044387E-1,-6.1512183E-2,1.8865167E-1],"categories":[],"categories_nodes":[],"categories_segments":[],"categories_sizes":[],"default_left":[0,0,0,0,0,0,0,0,0,0,0,0,0,0,0,0,0,0,0,0,0,0,0,0,0,0,0,0,0,0,0,0,0,0,0,0,0,0,0,0,0,0,0,0,0,0,0,0,0,0,0,0,0,0,0,0,0,0,0,0,0,0,0,0,0,0,0,0,0,0,0,0,0,0,0,0,0,0,0,0,0,0,0,0,0,0,0,0,0],"id":9,"left_children":[1,3,5,7,9,11,13,15,17,19,21,23,25,27,29,31,33,35,37,39,41,43,45,-1,-1,-1,-1,47,-1,49,51,53,55,57,59,-1,-1,61,63,65,67,69,71,73,75,77,79,-1,-1,81,83,85,87,-1,-1,-1,-1,-1,-1,-1,-1,-1,-1,-1,-1,-1,-1,-1,-1,-1,-1,-1,-1,-1,-1,-1,-1,-1,-1,-1,-1,-1,-1,-1,-1,-1,-1,-1,-1],"loss_changes":[2.6592323E1,5.7609467E1,3.1985153E1,7.3904366E1,1.6662114E2,1.8365326E0,6.7445786E1,6.421612E1,1.3109418E2,2.8215375E2,6.920252E1,1.7442322E-1,8.1673706E-1,7.7846725E1,3.3969906E1,7.1963806E1,5.319259E1,2.6402954E1,1.9875175E1,3.008387E2,8.103931E0,6.8481705E1,1.477322E2,0E0,0E0,0E0,0E0,8.037964E0,0E0,1.4028263E1,4.9263718E1,2.389235E1,1.4331439E2,4.0597946E1,3.6372986E1,0E0,0E0,4.3819084E0,1.8958805E1,3.7506294E1,2.2731665E2,8.64875E-1,1.4130516E0,1.9634932E1,6.867935E0,9.441376E-1,7.538817E1,0E0,0E0,7.260498E0,5.5199696E1,2.4628426E1,2.8680418E1,0E0,0E0,0E0,0E0,0E0,0E0,0E0,0E0,0E0,0E0,0E0,0E0,0E0,0E0,0E0,0E0,0E0,0E0,0E0,0E0,0E0,0E0,0E0,0E0,0E0,0E0,0E0,0E0,0E0,0E0,0E0,0E0,0E0,0E0,0E0,0E0],"parents":[2147483647,0,0,1,1,2,2,3,3,4,4,5,5,6,6,7,7,8,8,9,9,10,10,11,11,12,12,13,13,14,14,15,15,16,16,17,17,18,18,19,19,20,20,21,21,22,22,27,27,29,29,30,30,31,31,32,32,33,33,34,34,37,37,38,38,39,39,40,40,41,41,42,42,43,43,44,44,45,45,46,46,49,49,50,50,51,51,52,52],"right_children":[2,4,6,8,10,12,14,16,18,20,22,24,26,28,30,32,34,36,38,40,42,44,46,-1,-1,-1,-1,48,-1,50,52,54,56,58,60,-1,-1,62,64,66,68,70,72,74,76,78,80,-1,-1,82,84,86,88,-1,-1,-1,-1,-1,-1,-1,-1,-1,-1,-1,-1,-1,-1,-1,-1,-1,-1,-1,-1,-1,-1,-1,-1,-1,-1,-1,-1,-1,-1,-1,-1,-1,-1,-1,-1],"split_conditions":[2.1548004E2,1E-1,2.1839517E2,2.067639E2,2E-1,7.7E0,2.1966707E2,1.6959326E2,1.375558E1,1.7106628E1,-2.5108334E-1,1.7259333E1,2.495452E1,2.1000001E0,2.2503423E2,1.6802823E2,1.3004922E1,1.7378084E1,2.0932933E2,1.2849528E1,7.0516664E-1,1.2151601E2,-1.0525002E-1,-5.503426E-1,-1.4786433E-1,3.0561306E-2,-2.5589335E-1,1.1019764E1,-3.8540164E-1,1.7E0,2.2746109E2,3.0099997E-1,1.7533146E1,1.8477286E2,2.1718333E0,2.53202E0,3.3494568E-1,2.1905835E0,2.1430928E2,1.8477286E2,1.7271918E2,-1.1739999E0,3.0509999E0,1.5111424E1,-7.4275E-1,1.0948973E1,1.5036418E1,4.2441675E-1,2.0508742E0,1.25947485E1,2.9E0,2.2366402E1,1.6903086E1,8.2498826E-2,-1.3836384E-1,-3.7164223E-1,2.4577186E0,8.5361826E-1,-4.3246716E-1,-1.6312946E0,-5.394588E-1,8.745959E-1,5.0276972E-2,-6.345242E-1,3.4214872E-1,4.115536E-1,-1.0889095E0,8.5460925E-1,4.169415E0,-4.1776195E-2,2.6572385E-1,-6.308536E-1,-2.676359E-1,4.7507566E-1,-1.842715E-1,-1.1868567E0,-4.1394606E-1,4.646479E-1,1.7167732E0,1.5714203E-1,-1.6105717E-1,-2.9617444E-1,-8.025342E-1,1.3512932E0,-3.2967728E-1,9.9154323E-1,1.8044387E-1,-6.1512183E-2,1.8865167E-1],"split_indices":[3,1,3,3,1,1,3,3,2,2,0,0,2,1,3,3,2,0,3,2,0,3,0,0,0,0,0,2,0,1,3,0,2,3,0,0,0,0,3,3,3,0,0,2,0,2,0,0,0,0,1,2,0,0,0,0,0,0,0,0,0,0,0,0,0,0,0,0,0,0,0,0,0,0,0,0,0,0,0,0,0,0,0,0,0,0,0,0,0],"split_type":[0,0,0,0,0,0,0,0,0,0,0,0,0,0,0,0,0,0,0,0,0,0,0,0,0,0,0,0,0,0,0,0,0,0,0,0,0,0,0,0,0,0,0,0,0,0,0,0,0,0,0,0,0,0,0,0,0,0,0,0,0,0,0,0,0,0,0,0,0,0,0,0,0,0,0,0,0,0,0,0,0,0,0,0,0,0,0,0,0],"sum_hessian":[1.198E3,6.92E2,5.06E2,2.51E2,4.41E2,1.4E1,4.92E2,2.4E2,1.1E1,2.4E1,4.17E2,1.1E1,3E0,5E0,4.87E2,2.14E2,2.6E1,3E0,8E0,1.4E1,1E1,3.4E1,3.83E2,1E1,1E0,1E0,2E0,3E0,2E0,2.8E1,4.59E2,2.09E2,5E0,7E0,1.9E1,2E0,1E0,2E0,6E0,6E0,8E0,2E0,8E0,2.5E1,9E0,5E0,3.78E2,1E0,2E0,1.3E1,1.5E1,1.4E1,4.45E2,6.2E1,1.47E2,3E0,2E0,3E0,4E0,3E0,1.6E1,1E0,1E0,4E0,2E0,5E0,1E0,4E0,4E0,1E0,1E0,3E0,5E0,4E0,2.1E1,6E0,3E0,1E0,4E0,2.92E2,8.6E1,7E0,6E0,1E0,1.4E1,5E0,9E0,4E2,4.5E1],"tree_param":{"num_deleted":"0","num_feature":"4","num_nodes":"89","size_leaf_vector":"1"}},{"base_weights":[4.023981E-2,4.9596154E-3,5.92404E-1,9.745099E-2,-4.60986E-1,3.4708266E0,1.6445382E-2,6.7407265E-2,3.5966291E0,-8.1061566E-1,3.306148E-1,5.3039517E0,-1.5633884E-1,-2.2603957E-1,1.0254289E0,1.4228772E-1,-2.9618424E-1,2.091211E0,1.7804447E-1,-3.9173603E-1,-2.0811927E0,-8.505348E-1,9.74655E-1,2.2576609E0,9.628551E0,2.0065457E-1,-2.78824E-1,9.321892E-1,-5.0302124E-1,1.499732E-1,1.8758891E0,3.367361E-1,-6.546785E-2,1.6038043E-2,-3.8056198E-1,-8.8207915E-2,3.6956877E-1,-6.542881E-1,2.3064835E0,-5.1121134E-1,-2.3529963E0,-1.2758744E0,2.1267936E0,3.6600032E0,3.567771E-1,1.6095452E0,5.631327E-1,3.4506905E0,8.8215727E-1,1.7151073E0,-2.3468405E-1,-1.1920513E0,3.5754263E-1,-5.34608E-1,6.386191E-1,1.0652242E0,1.5077335E-1,1.6502618E-3,2.6907274E-1,-8.573571E-2,1.3692133E-1,-1.3492292E-1,8.35825E-2,-1.3774744E-1,-2.5874146E-3,2.1166636E-2,1.3371642E-1,4.7384107E-1,-2.6658598E-1,1.4023964E0,-1.5689525E-1,-2.7068463E-1,-2.7031625E-2,-8.661068E-1,-3.4693497E-1,-4.3270287E-1,2.7821757E-2,1.3368783E0,-3.7982106E-1,1.8059832E0,4.5361146E-1,2.5389573E-1,-1.9642235E-1,7.3274565E-1,-1.5519804E-1,-5.0037515E-1,3.7364575E-1,-5.9645677E-1,-2.581341E-1,4.1950366E-1,-1.0983635E-1,-2.9646817E-1,-1.822249E-2,2.1237452E-1,-2.2809778E-1],"categories":[],"categories_nodes":[],"categories_segments":[],"categories_sizes":[],"default_left":[0,0,0,0,0,0,0,0,0,0,0,0,0,0,0,0,0,0,0,0,0,0,0,0,0,0,0,0,0,0,0,0,0,0,0,0,0,0,0,0,0,0,0,0,0,0,0,0,0,0,0,0,0,0,0,0,0,0,0,0,0,0,0,0,0,0,0,0,0,0,0,0,0,0,0,0,0,0,0,0,0,0,0,0,0,0,0,0,0,0,0,0,0,0,0],"id":10,"left_children":[1,3,5,7,9,11,13,15,17,19,21,23,25,27,29,31,33,-1,35,37,39,41,43,45,47,-1,-1,49,51,53,55,57,59,61,63,-1,65,67,69,71,73,75,77,79,81,-1,83,-1,-1,-1,85,87,89,91,-1,-1,93,-1,-1,-1,-1,-1,-1,-1,-1,-1,-1,-1,-1,-1,-1,-1,-1,-1,-1,-1,-1,-1,-1,-1,-1,-1,-1,-1,-1,-1,-1,-1,-1,-1,-1,-1,-1,-1,-1],"loss_changes":[2.3354136E1,4.865715E1,1.193083E2,9.8788445E1,5.2023453E1,8.06178E1,1.5156249E1,2.5498358E1,9.1035355E1,6.837319E1,4.4950035E1,8.3653854E1,3.8112926E0,1.6509317E1,8.65315E0,3.1370687E1,4.221243E0,0E0,5.607282E-1,7.1643E1,1.2452362E1,2.9307404E1,6.1744446E1,2.8573082E1,3.7723083E0,0E0,0E0,5.717466E1,2.4737339E1,1.0620376E1,1.6800583E1,7.440024E1,4.3362076E1,4.4058113E0,3.6793747E0,0E0,5.9634447E-2,4.9036633E1,6.2750744E1,9.067925E-1,1.3913956E1,4.462553E0,2.935263E1,2.6381111E1,1.6399902E1,0E0,1.1416385E1,0E0,0E0,0E0,2.1170221E1,4.3613358E0,1.48225975E1,1.2297028E0,0E0,0E0,2.5686917E0,0E0,0E0,0E0,0E0,0E0,0E0,0E0,0E0,0E0,0E0,0E0,0E0,0E0,0E0,0E0,0E0,0E0,0E0,0E0,0E0,0E0,0E0,0E0,0E0,0E0,0E0,0E0,0E0,0E0,0E0,0E0,0E0,0E0,0E0,0E0,0E0,0E0,0E0],"parents":[2147483647,0,0,1,1,2,2,3,3,4,4,5,5,6,6,7,7,8,8,9,9,10,10,11,11,12,12,13,13,14,14,15,15,16,16,18,18,19,19,20,20,21,21,22,22,23,23,24,24,27,27,28,28,29,29,30,30,31,31,32,32,33,33,34,34,36,36,37,37,38,38,39,39,40,40,41,41,42,42,43,43,44,44,46,46,50,50,51,51,52,52,53,53,56,56],"right_children":[2,4,6,8,10,12,14,16,18,20,22,24,26,28,30,32,34,-1,36,38,40,42,44,46,48,-1,-1,50,52,54,56,58,60,62,64,-1,66,68,70,72,74,76,78,80,82,-1,84,-1,-1,-1,86,88,90,92,-1,-1,94,-1,-1,-1,-1,-1,-1,-1,-1,-1,-1,-1,-1,-1,-1,-1,-1,-1,-1,-1,-1,-1,-1,-1,-1,-1,-1,-1,-1,-1,-1,-1,-1,-1,-1,-1,-1,-1,-1],"split_conditions":[1.2200001E1,4.7E0,1.9469976E1,4.4999995E0,2.7841293E1,1.9455139E2,2.2900003E1,2.7433362E2,1.7783894E2,2.3688984E1,5.0114164E0,1.7508281E2,1.2700001E1,1.3099999E1,2.721038E1,8.569751E0,1.3570615E1,2.091211E0,3.5364168E0,2.2682856E1,1.9843332E0,1.0500001E1,7.3885016E0,1.3099999E1,1.1517666E1,2.0065457E-1,-2.78824E-1,2.2608458E1,2.1720807E2,1.58885E1,1.7151622E2,4.0051665E0,1.6219751E1,1.1631956E1,2.9168886E1,-8.8207915E-2,5.5301666E0,9.489167E-1,6.7000003E0,2.4490587E1,2.2566469E2,2.3771188E2,3.5030832E0,2.8312117E1,8.9E0,1.6095452E0,1.3447504E0,3.4506905E0,8.8215727E-1,1.7151073E0,9.853085E0,2.289611E1,1.5799999E1,1.8589052E2,6.386191E-1,1.0652242E0,4.439999E1,1.6502618E-3,2.6907274E-1,-8.573571E-2,1.3692133E-1,-1.3492292E-1,8.35825E-2,-1.3774744E-1,-2.5874146E-3,2.1166636E-2,1.3371642E-1,4.7384107E-1,-2.6658598E-1,1.4023964E0,-1.5689525E-1,-2.7068463E-1,-2.7031625E-2,-8.661068E-1,-3.4693497E-1,-4.3270287E-1,2.7821757E-2,1.3368783E0,-3.7982106E-1,1.8059832E0,4.5361146E-1,2.5389573E-1,-1.9642235E-1,7.3274565E-1,-1.5519804E-1,-5.0037515E-1,3.7364575E-1,-5.9645677E-1,-2.581341E-1,4.1950366E-1,-1.0983635E-1,-2.9646817E-1,-1.822249E-2,2.1237452E-1,-2.2809778E-1],"split_indices":[1,1,2,1,2,3,1,3,3,2,0,3,1,1,2,0,2,0,0,2,0,1,0,1,0,0,0,2,3,0,3,0,0,2,2,0,0,0,1,2,3,3,0,2,1,0,0,0,0,0,0,2,1,3,0,0,1,0,0,0,0,0,0,0,0,0,0,0,0,0,0,0,0,0,0,0,0,0,0,0,0,0,0,0,0,0,0,0,0,0,0,0,0,0,0],"split_type":[0,0,0,0,0,0,0,0,0,0,0,0,0,0,0,0,0,0,0,0,0,0,0,0,0,0,0,0,0,0,0,0,0,0,0,0,0,0,0,0,0,0,0,0,0,0,0,0,0,0,0,0,0,0,0,0,0,0,0,0,0,0,0,0,0,0,0,0,0,0,0,0,0,0,0,0,0,0,0,0,0,0,0,0,0,0,0,0,0,0,0,0,0,0,0],"sum_hessian":[1.198E3,1.127E3,7.1E1,9.41E2,1.86E2,1.1E1,6E1,9.34E2,7E0,1.29E2,5.7E1,7E0,4E0,4.9E1,1.1E1,7.75E2,1.59E2,3E0,4E0,9.8E1,3.1E1,2E1,3.7E1,5E0,2E0,2E0,2E0,9E0,4E1,6E0,5E0,4E2,3.75E2,3.4E1,1.25E2,1E0,3E0,9E1,8E0,5E0,2.6E1,1.8E1,2E0,6E0,3.1E1,1E0,4E0,1E0,1E0,1E0,8E0,2.2E1,1.8E1,5E0,1E0,2E0,3E0,2.52E2,1.48E2,2.64E2,1.11E2,1.2E1,2.2E1,1.03E2,2.2E1,1E0,2E0,8E0,8.2E1,4E0,4E0,2E0,3E0,1.7E1,9E0,1.6E1,2E0,1E0,1E0,2E0,4E0,2.1E1,1E1,1E0,3E0,4E0,4E0,5E0,1.7E1,7E0,1.1E1,2E0,3E0,2E0,1E0],"tree_param":{"num_deleted":"0","num_feature":"4","num_nodes":"95","size_leaf_vector":"1"}},{"base_weights":[3.9809287E-2,7.992478E-3,5.377197E-1,7.064473E-2,-3.076568E-1,2.9663932E0,5.113282E-2,2.9563153E-2,1.7872577E0,-3.1219802E0,-2.1318647E-1,4.527759E0,-1.2507105E-1,-5.1686543E-1,1.4047045E-1,2.192758E-1,-8.603768E-2,-1.6886692E0,2.2192838E0,-1.2309465E0,2.6758426E-1,-9.1543335E-1,5.975123E-2,1.9448781E0,8.184268E0,5.350788E-1,-2.2305918E-1,1.3773069E0,-5.2513447E-2,2.9742156E-5,2.3911812E0,-1.266787E0,-1.8469967E-2,-6.5160453E-1,-1.0829666E-1,3.5691593E0,5.1249236E-1,-1.323665E0,1.4442701E0,3.1140609E0,-1.362026E-1,2.8278172E0,-3.7047255E-1,2.933087E0,7.498338E-1,3.829594E-2,2.0248955E-1,-3.8655463E-1,1.3337784E0,-9.25542E-1,2.6222792E-1,1.563448E-1,-1.496132E-1,2.032479E0,3.3569184E-1,-7.881072E-1,2.3816165E-3,3.0394033E-1,-2.6162215E-2,1.3303835E0,-6.507537E-2,9.592929E-3,3.6758167E-1,-5.6914055E-1,-1.8157169E-1,5.682609E-1,1.8894292E-2,1.8251815E0,-4.130402E-1,-1.6851611E-1,1.1943804E-1,1.3272983E0,8.661042E-2,1.4765E-1,-1.9821967E-1,-3.5331765E-1,-1.9559562E-4,-3.7637282E-2,2.6726657E-1],"categories":[],"categories_nodes":[],"categories_segments":[],"categories_sizes":[],"default_left":[0,0,0,0,0,0,0,0,0,0,0,0,0,0,0,0,0,0,0,0,0,0,0,0,0,0,0,0,0,0,0,0,0,0,0,0,0,0,0,0,0,0,0,0,0,0,0,0,0,0,0,0,0,0,0,0,0,0,0,0,0,0,0,0,0,0,0,0,0,0,0,0,0,0,0,0,0,0,0],"id":11,"left_children":[1,3,5,7,9,11,13,15,17,19,21,23,25,-1,27,29,31,33,35,-1,-1,37,39,41,43,45,-1,47,49,51,53,55,57,-1,-1,59,61,63,65,67,69,71,-1,-1,-1,-1,-1,73,-1,75,77,-1,-1,-1,-1,-1,-1,-1,-1,-1,-1,-1,-1,-1,-1,-1,-1,-1,-1,-1,-1,-1,-1,-1,-1,-1,-1,-1,-1],"loss_changes":[1.8990166E1,2.2329216E1,8.493509E1,6.6378105E1,4.9052128E1,5.8489174E1,9.909692E0,2.0217262E1,3.6784836E1,2.7289993E1,3.4938572E1,5.9637207E1,2.4392273E0,0E0,1.4155009E1,1.6618735E2,4.569085E1,1.1411133E0,4.4249954E1,0E0,0E0,5.1040325E1,7.942663E1,2.0337444E1,2.7254944E0,8.481836E-2,0E0,4.5019573E1,1.4531168E1,8.290919E1,1.7088437E2,5.3772648E1,3.859238E1,0E0,0E0,3.700531E1,3.3858404E0,1.6979591E1,4.8526E0,1.1507482E2,2.8644466E1,1.899131E1,0E0,0E0,0E0,0E0,0E0,1.7707446E0,0E0,3.2646208E0,9.616951E0,0E0,0E0,0E0,0E0,0E0,0E0,0E0,0E0,0E0,0E0,0E0,0E0,0E0,0E0,0E0,0E0,0E0,0E0,0E0,0E0,0E0,0E0,0E0,0E0,0E0,0E0,0E0,0E0],"parents":[2147483647,0,0,1,1,2,2,3,3,4,4,5,5,6,6,7,7,8,8,9,9,10,10,11,11,12,12,14,14,15,15,16,16,17,17,18,18,21,21,22,22,23,23,24,24,25,25,27,27,28,28,29,29,30,30,31,31,32,32,35,35,36,36,37,37,38,38,39,39,40,40,41,41,47,47,49,49,50,50],"right_children":[2,4,6,8,10,12,14,16,18,20,22,24,26,-1,28,30,32,34,36,-1,-1,38,40,42,44,46,-1,48,50,52,54,56,58,-1,-1,60,62,64,66,68,70,72,-1,-1,-1,-1,-1,74,-1,76,78,-1,-1,-1,-1,-1,-1,-1,-1,-1,-1,-1,-1,-1,-1,-1,-1,-1,-1,-1,-1,-1,-1,-1,-1,-1,-1,-1,-1],"split_conditions":[1.2200001E1,4.7E0,1.9469976E1,4.1E0,4.7999997E0,1.9455139E2,2.1142147E1,5.0114164E0,8.6766666E-1,1.1548916E1,1.9137648E1,1.7508281E2,1.2700001E1,-5.1686543E-1,2.2608458E1,4.351E0,5.771833E0,1.2599997E-1,1.2867667E1,-1.2309465E0,2.6758426E-1,1.9134333E1,1.9914217E1,1.6E1,1.1517666E1,1.2701E1,-2.2305918E-1,2.1829777E1,2.5153671E1,1.680857E1,1.7313717E1,2.4440167E2,6.553084E0,-6.5160453E-1,-1.0829666E-1,2.6554728E1,1.7259333E1,1.8404709E2,1.539354E2,6.0999994E0,2.7841293E1,9.678083E0,-3.7047255E-1,2.933087E0,7.498338E-1,3.829594E-2,2.0248955E-1,1.3800002E1,1.3337784E0,2.1256676E2,1.2071835E1,1.563448E-1,-1.496132E-1,2.032479E0,3.3569184E-1,-7.881072E-1,2.3816165E-3,3.0394033E-1,-2.6162215E-2,1.3303835E0,-6.507537E-2,9.592929E-3,3.6758167E-1,-5.6914055E-1,-1.8157169E-1,5.682609E-1,1.8894292E-2,1.8251815E0,-4.130402E-1,-1.6851611E-1,1.1943804E-1,1.3272983E0,8.661042E-2,1.4765E-1,-1.9821967E-1,-3.5331765E-1,-1.9559562E-4,-3.7637282E-2,2.6726657E-1],"split_indices":[1,1,2,1,1,3,2,0,0,0,2,3,1,0,2,0,0,0,0,0,0,0,2,1,0,0,0,2,2,2,2,3,0,0,0,2,0,3,3,1,2,0,0,0,0,0,0,1,0,3,0,0,0,0,0,0,0,0,0,0,0,0,0,0,0,0,0,0,0,0,0,0,0,0,0,0,0,0,0],"split_type":[0,0,0,0,0,0,0,0,0,0,0,0,0,0,0,0,0,0,0,0,0,0,0,0,0,0,0,0,0,0,0,0,0,0,0,0,0,0,0,0,0,0,0,0,0,0,0,0,0,0,0,0,0,0,0,0,0,0,0,0,0,0,0,0,0,0,0,0,0,0,0,0,0,0,0,0,0,0,0],"sum_hessian":[1.198E3,1.127E3,7.1E1,9.41E2,1.86E2,1.1E1,6E1,9.2E2,2.1E1,5E0,1.81E2,7E0,4E0,2E0,5.8E1,3.48E2,5.72E2,2E0,1.9E1,4E0,1E0,5E1,1.31E2,5E0,2E0,2E0,2E0,7E0,5.1E1,3.17E2,3.1E1,3E1,5.42E2,1E0,1E0,1E1,9E0,4.3E1,7E0,7E0,1.24E2,4E0,1E0,1E0,1E0,1E0,1E0,5E0,2E0,1.3E1,3.8E1,1.55E2,1.62E2,6E0,2.5E1,1.4E1,1.6E1,3.3E1,5.09E2,8E0,2E0,6E0,3E0,2.3E1,2E1,5E0,2E0,4E0,3E0,6.9E1,5.5E1,2E0,2E0,1E0,4E0,1E1,3E0,2.4E1,1.4E1],"tree_param":{"num_deleted":"0","num_feature":"4","num_nodes":"79","size_leaf_vector":"1"}},{"base_weights":[3.4849152E-2,-2.3388149E-1,8.9206606E-2,2.3011765E-1,-4.269309E-1,6.339769E-1,3.185884E-2,-2.6422513E-1,6.709246E-1,-5.611815E-1,1.2350923E0,1.4200233E0,-1.3292426E-1,-1.6621027E0,6.0372956E-2,4.3193996E-1,-1.0409691E0,1.5031433E0,2.1460515E-1,-9.8359406E-1,-3.8813084E-1,3.1049364E0,1.457837E-1,1.0596025E0,2.6999068E0,-3.5185933E-1,1.8640761E0,-2.7612894E0,4.4689217E-1,-1.8884587E-1,1.663439E-1,-7.5889534E-1,1.0422193E0,-1.4950254E0,7.5337134E-2,9.231706E-1,-3.0905908E-1,-1.4799657E0,-3.4984967E-1,8.2213825E-1,-5.3841954E-1,2.2464778E-1,1.0922095E0,-2.9278144E-1,6.823473E-1,2.3140328E-1,4.43871E0,-7.067692E-1,1.3779452E0,1.4219815E-1,6.2792945E-1,-3.2509935E0,-1.6049458E-1,9.755074E-1,-1.7684301E0,-6.6873825E-1,1.9247054E-1,1.4929398E0,6.5765604E-2,-4.259842E-1,1.1264172E-1,3.5554644E-2,1.0397773E0,-5.723064E-1,-2.1024758E-1,1.2667641E-1,-1.9684997E-1,3.4445083E-1,-2.6652226E-1,-1.9798334E-1,3.4546025E-2,-4.655408E-1,-1.5950301E-1,-3.0908853E-1,2.2869283E-2,-2.1044436E-1,2.40875E0,6.795237E-1,-1.7941497E-1,5.53271E-1,-1.0789694E-1,6.5746486E-1,-1.357466E-1,1.8333141E0,2.4615827E-1,3.5464835E-1,-3.086382E-1,-1.7447484E-1,5.222883E-1,-1.1075566E0,-3.8568175E-1,-9.3863374E-1,-8.161626E-2,1.6608506E-2,-3.39638E-1,6.5182495E-1,-2.886444E-2,2.3912333E-1,2.4756875E0,2.2399028E-1,-2.8883731E-2],"categories":[],"categories_nodes":[],"categories_segments":[],"categories_sizes":[],"default_left":[0,0,0,0,0,0,0,0,0,0,0,0,0,0,0,0,0,0,0,0,0,0,0,0,0,0,0,0,0,0,0,0,0,0,0,0,0,0,0,0,0,0,0,0,0,0,0,0,0,0,0,0,0,0,0,0,0,0,0,0,0,0,0,0,0,0,0,0,0,0,0,0,0,0,0,0,0,0,0,0,0,0,0,0,0,0,0,0,0,0,0,0,0,0,0,0,0,0,0,0,0],"id":12,"left_children":[1,3,5,7,9,11,13,15,17,19,21,23,25,27,29,31,33,-1,35,37,39,41,43,45,-1,47,49,51,53,55,57,59,61,63,65,67,69,71,73,75,77,-1,-1,-1,79,81,83,85,87,-1,-1,89,-1,-1,91,93,95,97,99,-1,-1,-1,-1,-1,-1,-1,-1,-1,-1,-1,-1,-1,-1,-1,-1,-1,-1,-1,-1,-1,-1,-1,-1,-1,-1,-1,-1,-1,-1,-1,-1,-1,-1,-1,-1,-1,-1,-1,-1,-1,-1],"loss_changes":[1.7535273E1,1.8192345E1,3.115868E1,1.325186E1,3.2600353E1,5.7456642E1,4.3765186E1,1.6131157E1,6.2291847E1,9.34037E0,2.1952562E1,1.1886176E2,2.207935E1,3.600668E1,2.3536272E1,1.241881E1,7.2087526E0,0E0,1.1416826E1,1.1435997E1,1.790408E1,2.3230057E0,5.4809294E0,1.27707275E2,0E0,2.8600506E1,5.9968376E-1,9.163101E0,4.303159E1,4.8804276E1,8.329355E1,5.032407E0,2.4215872E1,1.9404106E0,1.5459268E0,6.318878E0,2.7552938E0,6.055107E-1,5.297183E0,1.26420746E2,1.573155E1,0E0,0E0,0E0,7.92745E0,5.1931725E1,4.94431E1,2.433092E1,6.70323E0,0E0,0E0,2.18544E0,0E0,0E0,7.291176E0,3.965633E1,8.538901E1,2.0037964E2,6.4284615E1,0E0,0E0,0E0,0E0,0E0,0E0,0E0,0E0,0E0,0E0,0E0,0E0,0E0,0E0,0E0,0E0,0E0,0E0,0E0,0E0,0E0,0E0,0E0,0E0,0E0,0E0,0E0,0E0,0E0,0E0,0E0,0E0,0E0,0E0,0E0,0E0,0E0,0E0,0E0,0E0,0E0,0E0],"parents":[2147483647,0,0,1,1,2,2,3,3,4,4,5,5,6,6,7,7,8,8,9,9,10,10,11,11,12,12,13,13,14,14,15,15,16,16,18,18,19,19,20,20,21,21,22,22,23,23,25,25,26,26,27,27,28,28,29,29,30,30,31,31,32,32,33,33,34,34,35,35,36,36,37,37,38,38,39,39,40,40,44,44,45,45,46,46,47,47,48,48,51,51,54,54,55,55,56,56,57,57,58,58],"right_children":[2,4,6,8,10,12,14,16,18,20,22,24,26,28,30,32,34,-1,36,38,40,42,44,46,-1,48,50,52,54,56,58,60,62,64,66,68,70,72,74,76,78,-1,-1,-1,80,82,84,86,88,-1,-1,90,-1,-1,92,94,96,98,100,-1,-1,-1,-1,-1,-1,-1,-1,-1,-1,-1,-1,-1,-1,-1,-1,-1,-1,-1,-1,-1,-1,-1,-1,-1,-1,-1,-1,-1,-1,-1,-1,-1,-1,-1,-1,-1,-1,-1,-1,-1,-1],"split_conditions":[7.620057E1,1.405845E1,1.1293215E2,3.454151E1,1.5365584E1,4.830167E0,1.1848497E2,1.1620809E1,3.5378567E1,1.6704155E1,1.6830168E1,4.351E0,2.4826952E1,1.8E0,1.645007E1,9E0,1.7676668E0,1.5031433E0,-2.2698333E0,4.500013E1,1.8954338E1,1.5957249E1,1.7688501E1,1.0709823E2,2.6999068E0,1.869475E1,5.728083E0,7.2093334E0,2.8E0,2.0859644E2,1.7313717E1,3.9822495E0,2.0822845E1,1.257426E1,1E-1,5.915672E1,5.182058E1,1.6327497E1,1.477755E1,2.3000002E0,1.675064E1,2.2464778E-1,1.0922095E0,-2.9278144E-1,1.8067667E1,8.471885E1,1.6327497E1,8.01248E1,7.753509E1,1.4219815E-1,6.2792945E-1,3E-1,-1.6049458E-1,9.755074E-1,3.0099997E-1,1.31041975E1,2.1966707E2,1.7208603E1,1.7783894E2,-4.259842E-1,1.1264172E-1,3.5554644E-2,1.0397773E0,-5.723064E-1,-2.1024758E-1,1.2667641E-1,-1.9684997E-1,3.4445083E-1,-2.6652226E-1,-1.9798334E-1,3.4546025E-2,-4.655408E-1,-1.5950301E-1,-3.0908853E-1,2.2869283E-2,-2.1044436E-1,2.40875E0,6.795237E-1,-1.7941497E-1,5.53271E-1,-1.0789694E-1,6.5746486E-1,-1.357466E-1,1.8333141E0,2.4615827E-1,3.5464835E-1,-3.086382E-1,-1.7447484E-1,5.222883E-1,-1.1075566E0,-3.8568175E-1,-9.3863374E-1,-8.161626E-2,1.6608506E-2,-3.39638E-1,6.5182495E-1,-2.886444E-2,2.3912333E-1,2.4756875E0,2.2399028E-1,-2.8883731E-2],"split_indices":[3,2,3,3,0,0,3,2,3,2,0,0,2,1,2,2,0,0,0,3,3,0,0,3,0,0,0,0,1,3,2,0,3,2,1,3,3,2,2,1,2,0,0,0,0,3,2,3,3,0,0,1,0,0,0,2,3,2,3,0,0,0,0,0,0,0,0,0,0,0,0,0,0,0,0,0,0,0,0,0,0,0,0,0,0,0,0,0,0,0,0,0,0,0,0,0,0,0,0,0,0],"split_type":[0,0,0,0,0,0,0,0,0,0,0,0,0,0,0,0,0,0,0,0,0,0,0,0,0,0,0,0,0,0,0,0,0,0,0,0,0,0,0,0,0,0,0,0,0,0,0,0,0,0,0,0,0,0,0,0,0,0,0,0,0,0,0,0,0,0,0,0,0,0,0,0,0,0,0,0,0,0,0,0,0,0,0,0,0,0,0,0,0,0,0,0,0,0,0,0,0,0,0,0,0],"sum_hessian":[1.198E3,2.01E2,9.97E2,5.9E1,1.42E2,9.4E1,9.03E2,2.8E1,3.1E1,1.32E2,1E1,4.6E1,4.8E1,1.4E1,8.89E2,1.5E1,1.3E1,2E0,2.9E1,3.7E1,9.5E1,3E0,7E0,4.5E1,1E0,4.4E1,4E0,9E0,5E0,2.65E2,6.24E2,5E0,1E1,9E0,4E0,1.2E1,1.7E1,2E1,1.7E1,1E1,8.5E1,1E0,2E0,2E0,5E0,3.7E1,8E0,3.7E1,7E0,1E0,3E0,7E0,2E0,2E0,3E0,1.17E2,1.48E2,4.3E1,5.81E2,3E0,2E0,8E0,2E0,5E0,4E0,3E0,1E0,1.1E1,1E0,9E0,8E0,1.8E1,2E0,6E0,1.1E1,9E0,1E0,1E0,8.4E1,2E0,3E0,9E0,2.8E1,5E0,3E0,5E0,3.2E1,1E0,6E0,5E0,2E0,1E0,2E0,4.6E1,7.1E1,1.8E1,1.3E2,4E1,3E0,1.11E2,4.7E2],"tree_param":{"num_deleted":"0","num_feature":"4","num_nodes":"101","size_leaf_vector":"1"}},{"base_weights":[3.486974E-2,6.6505354E-3,4.4034514E-1,9.9457294E-2,-1.5049148E-1,2.2714171E0,7.300754E-2,2.1090332E-2,1.3378994E0,-1.1961331E0,-4.249539E-2,3.731064E0,-5.3348463E-2,-1.1960316E0,1.5242259E-1,-8.416286E-2,2.9463464E-1,2.1230378E0,-5.768738E-1,1.2479416E-1,-1.3940576E0,1.6146158E0,-1.0107836E-1,1.5365381E0,6.876428E0,5.218308E-1,-2.4074142E-1,-1.0604554E-1,-4.077156E-1,1.4679241E0,-6.5612614E-2,4.7084082E-2,-8.8198745E-1,2.0410094E0,1.172204E-1,3.0005136E0,3.3462396E-1,-5.148881E-1,1.2023433E-1,-4.2730808E-1,4.3279582E-1,-1.7478739E0,-2.1702635E-1,2.2696457E0,1.1263876E-1,-1.4717989E-1,1.2750233E0,2.3085127E0,-3.4850025E-1,2.4595253E0,6.348673E-1,1.8414293E-1,3.6884096E-2,-2.2985804E-1,1.094285E0,-2.1166025E-1,8.188748E-1,-4.524837E-2,3.223026E-1,-1.6057794E-1,-9.2865205E-1,1.1151336E0,-9.277343E-2,5.7097867E-2,-8.8379294E-1,5.532871E-1,2.1493003E0,8.705887E-1,-4.6409777E-1,2.9204816E-1,-1.4059332E-1,3.7578695E-2,-2.5123274E-1,-2.9089218E-1,-6.1196595E-1,-1.5337424E-1,3.205114E-1,1.798731E-1,7.2103715E-1,-5.9394944E-2,2.0326896E-1,-3.7629145E-1,-2.0083535E-2,2.1109642E-1,1.1340119E0,1.0170405E0,1.3721596E-1,-1.4891598E-1,1.654177E-1,-8.882846E-2,5.635151E-1,-1.3414131E-1,3.946206E-1],"categories":[],"categories_nodes":[],"categories_segments":[],"categories_sizes":[],"default_left":[0,0,0,0,0,0,0,0,0,0,0,0,0,0,0,0,0,0,0,0,0,0,0,0,0,0,0,0,0,0,0,0,0,0,0,0,0,0,0,0,0,0,0,0,0,0,0,0,0,0,0,0,0,0,0,0,0,0,0,0,0,0,0,0,0,0,0,0,0,0,0,0,0,0,0,0,0,0,0,0,0,0,0,0,0,0,0,0,0,0,0,0,0],"id":13,"left_children":[1,3,5,7,9,11,13,15,17,19,21,23,25,27,29,31,33,35,37,39,41,43,45,47,49,51,-1,-1,-1,53,55,57,59,61,63,65,67,-1,69,71,-1,73,75,77,79,81,83,85,-1,-1,-1,-1,-1,87,-1,89,91,-1,-1,-1,-1,-1,-1,-1,-1,-1,-1,-1,-1,-1,-1,-1,-1,-1,-1,-1,-1,-1,-1,-1,-1,-1,-1,-1,-1,-1,-1,-1,-1,-1,-1,-1,-1],"loss_changes":[1.3716262E1,1.6378036E1,5.229865E1,6.8491165E1,4.7038982E1,4.4312424E1,6.8338356E0,1.9171083E1,6.436593E1,1.0370293E1,3.695595E1,4.465477E1,3.0040338E0,6.9004536E-2,1.816633E1,5.0408016E1,5.707962E1,4.6074646E1,1.0532243E1,4.982013E0,1.3780052E1,1.2534271E1,2.3470278E1,1.5179402E1,1.529129E0,7.128966E-2,0E0,0E0,0E0,3.414422E1,7.278074E0,8.433099E1,5.0532303E1,6.811704E1,3.840613E1,8.307301E1,5.7627525E1,0E0,4.97842E0,1.2380404E0,0E0,3.9306488E0,3.949922E0,5.702133E-1,1.0115356E0,3.1539478E1,1.4515608E1,8.460489E0,0E0,0E0,0E0,0E0,0E0,1.523057E0,0E0,9.026839E0,5.617041E0,0E0,0E0,0E0,0E0,0E0,0E0,0E0,0E0,0E0,0E0,0E0,0E0,0E0,0E0,0E0,0E0,0E0,0E0,0E0,0E0,0E0,0E0,0E0,0E0,0E0,0E0,0E0,0E0,0E0,0E0,0E0,0E0,0E0,0E0,0E0,0E0],"parents":[2147483647,0,0,1,1,2,2,3,3,4,4,5,5,6,6,7,7,8,8,9,9,10,10,11,11,12,12,13,13,14,14,15,15,16,16,17,17,18,18,19,19,20,20,21,21,22,22,23,23,24,24,25,25,29,29,30,30,31,31,32,32,33,33,34,34,35,35,36,36,38,38,39,39,41,41,42,42,43,43,44,44,45,45,46,46,47,47,53,53,55,55,56,56],"right_children":[2,4,6,8,10,12,14,16,18,20,22,24,26,28,30,32,34,36,38,40,42,44,46,48,50,52,-1,-1,-1,54,56,58,60,62,64,66,68,-1,70,72,-1,74,76,78,80,82,84,86,-1,-1,-1,-1,-1,88,-1,90,92,-1,-1,-1,-1,-1,-1,-1,-1,-1,-1,-1,-1,-1,-1,-1,-1,-1,-1,-1,-1,-1,-1,-1,-1,-1,-1,-1,-1,-1,-1,-1,-1,-1,-1,-1,-1],"split_conditions":[1.1500002E1,1.5E0,1.9469976E1,1.1000001E0,1.8000001E0,1.9455139E2,2.1142147E1,1.9969458E1,2.6064596E1,-7.4275E-1,1.1384198E1,1.7508281E2,1.2700001E1,6.1405835E0,2.2608458E1,4E-1,2.0532627E1,8.569751E0,2.519801E2,-1.1739999E0,2.5310368E2,4.4999995E0,1.9134333E1,1.6E1,1.1517666E1,1.26E1,-2.4074142E-1,-1.0604554E-1,-4.077156E-1,2.1829777E1,2.5899998E1,1E-1,1.9083395E1,2.3354271E2,1.82135E1,8.055167E0,1.8899143E1,-5.148881E-1,2.6577518E2,1.7208603E1,4.3279582E-1,4.915583E0,1.7000002E0,9E0,7.7E0,1.4458382E1,2.038689E2,9.678083E0,-3.4850025E-1,2.4595253E0,6.348673E-1,1.8414293E-1,3.6884096E-2,1.6505167E1,1.094285E0,3.8881668E1,2.721038E1,-4.524837E-2,3.223026E-1,-1.6057794E-1,-9.2865205E-1,1.1151336E0,-9.277343E-2,5.7097867E-2,-8.8379294E-1,5.532871E-1,2.1493003E0,8.705887E-1,-4.6409777E-1,2.9204816E-1,-1.4059332E-1,3.7578695E-2,-2.5123274E-1,-2.9089218E-1,-6.1196595E-1,-1.5337424E-1,3.205114E-1,1.798731E-1,7.2103715E-1,-5.9394944E-2,2.0326896E-1,-3.7629145E-1,-2.0083535E-2,2.1109642E-1,1.1340119E0,1.0170405E0,1.3721596E-1,-1.4891598E-1,1.654177E-1,-8.882846E-2,5.635151E-1,-1.3414131E-1,3.946206E-1],"split_indices":[1,1,2,1,1,3,2,2,2,0,2,3,1,0,2,1,2,0,3,0,3,1,0,1,0,1,0,0,0,2,1,1,2,3,0,0,2,0,3,2,0,0,1,2,1,2,3,0,0,0,0,0,0,0,0,2,2,0,0,0,0,0,0,0,0,0,0,0,0,0,0,0,0,0,0,0,0,0,0,0,0,0,0,0,0,0,0,0,0,0,0,0,0],"split_type":[0,0,0,0,0,0,0,0,0,0,0,0,0,0,0,0,0,0,0,0,0,0,0,0,0,0,0,0,0,0,0,0,0,0,0,0,0,0,0,0,0,0,0,0,0,0,0,0,0,0,0,0,0,0,0,0,0,0,0,0,0,0,0,0,0,0,0,0,0,0,0,0,0,0,0,0,0,0,0,0,0,0,0,0,0,0,0,0,0,0,0,0,0],"sum_hessian":[1.198E3,1.121E3,7.7E1,7.05E2,4.16E2,1.2E1,6.5E1,6.64E2,4.1E1,3.8E1,3.78E2,7E0,5E0,3E0,6.2E1,4.8E2,1.84E2,2.9E1,1.2E1,5E0,3.3E1,1.2E1,3.66E2,5E0,2E0,3E0,2E0,1E0,2E0,8E0,5.4E1,4.13E2,6.7E1,1.6E1,1.68E2,1.9E1,1E1,4E0,8E0,4E0,1E0,2.5E1,8E0,8E0,4E0,3.55E2,1.1E1,4E0,1E0,1E0,1E0,2E0,1E0,5E0,3E0,4.7E1,7E0,3.47E2,6.6E1,5.9E1,8E0,9E0,7E0,1.65E2,3E0,1.6E1,3E0,4E0,6E0,3E0,5E0,2E0,2E0,8E0,1.7E1,7E0,1E0,1E0,7E0,3E0,1E0,2.3E1,3.32E2,1E1,1E0,2E0,2E0,4E0,1E0,4.6E1,1E0,2E0,5E0],"tree_param":{"num_deleted":"0","num_feature":"4","num_nodes":"93","size_leaf_vector":"1"}},{"base_weights":[3.176383E-2,6.870477E-2,-1.9071566E-1,-1.5535614E-1,1.2982808E-1,-3.0086815E-1,4.0863E-2,1.923011E-1,-2.8315908E-1,3.8896992E0,1.0160786E-1,-1.3907063E-1,-6.293191E-1,5.09423E-1,-1.9449234E-1,-4.7713766E-1,3.6960116E-1,-4.860054E-1,7.919981E-2,4.983949E0,-2.3723252E-1,-9.246617E-1,1.4534529E-1,-2.2803491E-1,4.7580552E-1,3.3625296E-1,-7.069138E-1,5.523409E-1,2.444487E-1,-2.87914E-1,4.7967353E-1,-9.975049E-2,-5.105534E-1,-4.1933832E-1,7.409172E-1,-1.5076654E-1,-1.2355814E0,3.898459E0,-1.232033E-1,6.312844E0,-4.9744394E-2,-1.3094721E0,1.0252306E0,1.5180125E0,9.7373806E-2,5.4320544E-1,-2.8999838E-1,-4.046297E-1,-5.6447554E-1,-3.90562E-3,1.0525767E0,-5.429739E-1,1.15241066E-1,-5.9673287E-2,9.9836683E-1,-2.5802556E-1,8.78657E-2,-5.9510734E-2,-5.6008154E-1,3.5316616E-1,-2.3090489E-1,-1.9127499E-1,3.020586E-2,-2.25124E-1,-5.9449816E-1,-2.961434E-1,2.05045E0,-1.2640549E-1,1.110828E-1,2.1577184E0,5.5112875E-1,-1.1120205E-1,-5.431302E-1,9.1025037E-1,4.9828975E-3,7.673912E-1,-1.2051528E-1,-1.1878549E-1,6.975457E-2,5.842209E-3,1.9321708E-1,-1.1097925E-3,-1.6155878E-1,-1.2156875E-1,-3.2259688E-1,1.1371674E-1,-1.3230535E-1,5.7647896E-1,3.6711384E-2,-2.2903636E-1,9.457651E-2,1.956276E-1,-4.9412556E-2,3.9492068E-1,5.434442E-2],"categories":[],"categories_nodes":[],"categories_segments":[],"categories_sizes":[],"default_left":[0,0,0,0,0,0,0,0,0,0,0,0,0,0,0,0,0,0,0,0,0,0,0,0,0,0,0,0,0,0,0,0,0,0,0,0,0,0,0,0,0,0,0,0,0,0,0,0,0,0,0,0,0,0,0,0,0,0,0,0,0,0,0,0,0,0,0,0,0,0,0,0,0,0,0,0,0,0,0,0,0,0,0,0,0,0,0,0,0,0,0,0,0,0,0],"id":14,"left_children":[1,3,5,7,9,11,13,15,17,19,21,23,25,27,29,31,33,35,37,39,-1,41,43,45,-1,-1,47,-1,49,51,53,55,-1,57,59,61,63,65,67,69,-1,71,73,75,77,79,81,-1,83,85,87,89,91,-1,93,-1,-1,-1,-1,-1,-1,-1,-1,-1,-1,-1,-1,-1,-1,-1,-1,-1,-1,-1,-1,-1,-1,-1,-1,-1,-1,-1,-1,-1,-1,-1,-1,-1,-1,-1,-1,-1,-1,-1,-1],"loss_changes":[9.867207E0,1.4112678E1,4.374327E0,9.873839E0,8.544322E1,6.077016E0,6.274652E0,7.297843E0,1.1946006E1,3.467083E1,3.6223045E1,1.2485901E1,5.9528685E0,6.2544627E0,2.5314097E0,5.8386936E0,1.4372099E1,2.594756E1,4.6089073E1,3.5264236E1,0E0,2.6103697E1,5.0687515E1,3.7894728E0,0E0,0E0,2.6213531E0,0E0,3.4160466E0,3.5587478E0,1.9584721E0,3.53579E0,0E0,4.7476583E0,2.2655718E1,9.000227E0,1.0096092E1,4.9784843E1,8.542429E0,2.5334778E0,0E0,1.2497383E1,1.210714E1,5.2934986E1,4.9893585E1,3.0437207E-1,5.0499516E0,0E0,2.167467E0,2.5107296E0,2.9983191E0,4.2143626E0,2.2114818E0,0E0,5.4124975E-1,0E0,0E0,0E0,0E0,0E0,0E0,0E0,0E0,0E0,0E0,0E0,0E0,0E0,0E0,0E0,0E0,0E0,0E0,0E0,0E0,0E0,0E0,0E0,0E0,0E0,0E0,0E0,0E0,0E0,0E0,0E0,0E0,0E0,0E0,0E0,0E0,0E0,0E0,0E0,0E0],"parents":[2147483647,0,0,1,1,2,2,3,3,4,4,5,5,6,6,7,7,8,8,9,9,10,10,11,11,12,12,13,13,14,14,15,15,16,16,17,17,18,18,19,19,21,21,22,22,23,23,26,26,28,28,29,29,30,30,31,31,33,33,34,34,35,35,36,36,37,37,38,38,39,39,41,41,42,42,43,43,44,44,45,45,46,46,48,48,49,49,50,50,51,51,52,52,54,54],"right_children":[2,4,6,8,10,12,14,16,18,20,22,24,26,28,30,32,34,36,38,40,-1,42,44,46,-1,-1,48,-1,50,52,54,56,-1,58,60,62,64,66,68,70,-1,72,74,76,78,80,82,-1,84,86,88,90,92,-1,94,-1,-1,-1,-1,-1,-1,-1,-1,-1,-1,-1,-1,-1,-1,-1,-1,-1,-1,-1,-1,-1,-1,-1,-1,-1,-1,-1,-1,-1,-1,-1,-1,-1,-1,-1,-1,-1,-1,-1,-1],"split_conditions":[2.7500568E2,8.2399796E1,1.1548916E1,1.3627795E1,8.471885E1,6.0926666E0,1.4426E1,9.726664E0,7.3259997E0,1.5580167E1,-7.4275E-1,5.771833E0,1.0195057E1,1.2475961E1,3.398958E2,9.531505E0,1.8954338E1,2.1718333E0,7.6114173E0,2.9999995E0,-2.3723252E-1,2.3586076E2,4.926666E-1,-3.2760837E0,4.7580552E-1,3.3625296E-1,6.4822497E0,5.523409E-1,3.2584302E2,5E-1,1.4965584E1,8.707238E0,-5.105534E-1,1.6260376E1,9.961416E0,3.6284534E1,2E-1,3.1999998E0,2.1142147E1,7.0000005E-1,-4.9744394E-2,1.3570615E1,1.3905509E1,3.9E0,1.5111424E1,-8.053166E0,3.097249E2,-4.046297E-1,3.2584302E2,1E-1,1.2305167E1,1.8411417E1,1.5941944E1,-5.9673287E-2,1.6219751E1,-2.5802556E-1,8.78657E-2,-5.9510734E-2,-5.6008154E-1,3.5316616E-1,-2.3090489E-1,-1.9127499E-1,3.020586E-2,-2.25124E-1,-5.9449816E-1,-2.961434E-1,2.05045E0,-1.2640549E-1,1.110828E-1,2.1577184E0,5.5112875E-1,-1.1120205E-1,-5.431302E-1,9.1025037E-1,4.9828975E-3,7.673912E-1,-1.2051528E-1,-1.1878549E-1,6.975457E-2,5.842209E-3,1.9321708E-1,-1.1097925E-3,-1.6155878E-1,-1.2156875E-1,-3.2259688E-1,1.1371674E-1,-1.3230535E-1,5.7647896E-1,3.6711384E-2,-2.2903636E-1,9.457651E-2,1.956276E-1,-4.9412556E-2,3.9492068E-1,5.434442E-2],"split_indices":[3,3,0,2,3,0,0,2,0,0,0,0,2,2,3,2,3,0,0,1,0,3,0,0,0,0,0,0,3,1,0,2,0,3,0,3,1,1,2,1,0,2,2,1,2,0,3,0,3,1,0,0,2,0,0,0,0,0,0,0,0,0,0,0,0,0,0,0,0,0,0,0,0,0,0,0,0,0,0,0,0,0,0,0,0,0,0,0,0,0,0,0,0,0,0],"split_type":[0,0,0,0,0,0,0,0,0,0,0,0,0,0,0,0,0,0,0,0,0,0,0,0,0,0,0,0,0,0,0,0,0,0,0,0,0,0,0,0,0,0,0,0,0,0,0,0,0,0,0,0,0,0,0,0,0,0,0,0,0,0,0,0,0,0,0,0,0,0,0,0,0,0,0,0,0,0,0,0,0,0,0,0,0,0,0,0,0,0,0,0,0,0,0],"sum_hessian":[1.198E3,1.028E3,1.7E2,2.2E2,8.08E2,1.15E2,5.5E1,5.9E1,1.61E2,5E0,8.03E2,7.8E1,3.7E1,1.8E1,3.7E1,1.2E1,4.7E1,1.03E2,5.8E1,4E0,1E0,3.2E1,7.71E2,7.5E1,3E0,1E0,3.6E1,2E0,1.6E1,3.3E1,4E0,1E1,2E0,1.5E1,3.2E1,7.2E1,3.1E1,2E0,5.6E1,3E0,1E0,2.7E1,5E0,2.5E1,7.46E2,5E0,7E1,5E0,3.1E1,1.3E1,3E0,2E1,1.3E1,2E0,2E0,3E0,7E0,1.4E1,1E0,2.5E1,7E0,2.4E1,4.8E1,2E1,1.1E1,1E0,1E0,3.5E1,2.1E1,2E0,1E0,1E1,1.7E1,1E0,4E0,1.6E1,9E0,1.6E2,5.86E2,1E0,4E0,3.3E1,3.7E1,2.5E1,6E0,7E0,6E0,1E0,2E0,1.6E1,4E0,4E0,9E0,1E0,1E0],"tree_param":{"num_deleted":"0","num_feature":"4","num_nodes":"95","size_leaf_vector":"1"}},{"base_weights":[2.5911754E-2,1.6357481E-2,9.6962553E-1,7.344015E-2,-1.17255494E-1,1.5858288E0,-2.1022491E-1,-4.8548435E-3,9.1380125E-1,3.2713315E-1,-3.7432477E-1,8.3965063E-1,1.0127085E0,-3.7506676E-1,6.737137E-2,1.5640159E-1,-1.5707184E-1,-1.360402E0,2.2580166E0,-3.094086E-1,7.11279E-1,-6.359376E-1,3.55279E-2,3.3905044E-1,4.619279E-2,-4.268856E-2,-1.6100723E-1,-1.3378027E-4,1.8732454E0,-2.8288095E0,-1.08339965E-1,-4.3580234E-1,-2.4798348E0,8.102124E0,9.682566E-1,-5.489434E-1,2.5824776E0,3.2009077E0,3.2894748E-1,-9.6003544E-1,-1.9860974E-1,1.2781812E0,-2.1347646E-1,1.9656217E-2,-4.9850622E-1,-8.108609E-1,6.846126E-1,-1.236052E0,-2.49073E-1,6.591904E-1,-4.3281186E-2,-1.8423924E-1,3.3586872E-1,-7.268229E-2,-7.983673E-1,2.6627078E0,4.030718E-1,-2.5613266E-1,5.2265626E-1,3.859568E-1,-2.109984E-1,1.111014E-1,9.589235E-1,2.6586586E-1,-3.836768E-1,3.146776E-2,-4.2799154E-1,2.3935439E-1,-8.520978E-2,1.5015224E0,9.594219E-2,-1.3411857E-1,3.5586235E-1],"categories":[],"categories_nodes":[],"categories_segments":[],"categories_sizes":[],"default_left":[0,0,0,0,0,0,0,0,0,0,0,0,0,0,0,0,0,0,0,0,0,0,0,0,0,0,0,0,0,0,0,0,0,0,0,0,0,0,0,0,0,0,0,0,0,0,0,0,0,0,0,0,0,0,0,0,0,0,0,0,0,0,0,0,0,0,0,0,0,0,0,0,0],"id":15,"left_children":[1,3,5,7,9,11,13,15,17,19,21,-1,23,25,-1,27,29,31,33,35,37,39,41,-1,-1,-1,-1,43,45,47,49,51,53,55,57,59,61,-1,63,65,67,69,71,-1,-1,-1,-1,-1,-1,-1,-1,-1,-1,-1,-1,-1,-1,-1,-1,-1,-1,-1,-1,-1,-1,-1,-1,-1,-1,-1,-1,-1,-1],"loss_changes":[1.0794923E1,9.069469E0,9.057712E0,5.4812565E1,4.079142E1,2.7271843E0,4.4259217E-1,1.875314E1,2.2012015E2,3.225283E1,2.4254925E1,0E0,5.320449E-1,7.41173E-2,0E0,9.97053E1,5.0861652E1,2.6865013E1,3.313424E2,3.605301E1,3.0869824E2,1.9369038E1,2.7811783E1,0E0,0E0,0E0,0E0,3.730804E1,6.415975E1,1.4645386E1,3.237732E1,5.1254106E0,4.2257004E0,2.9900452E1,5.5072243E1,1.4223124E1,4.2486763E0,0E0,7.281509E1,3.9404633E1,5.333829E0,5.1975697E1,2.5051243E1,0E0,0E0,0E0,0E0,0E0,0E0,0E0,0E0,0E0,0E0,0E0,0E0,0E0,0E0,0E0,0E0,0E0,0E0,0E0,0E0,0E0,0E0,0E0,0E0,0E0,0E0,0E0,0E0,0E0,0E0],"parents":[2147483647,0,0,1,1,2,2,3,3,4,4,5,5,6,6,7,7,8,8,9,9,10,10,12,12,13,13,15,15,16,16,17,17,18,18,19,19,20,20,21,21,22,22,27,27,28,28,29,29,30,30,31,31,32,32,33,33,34,34,35,35,36,36,38,38,39,39,40,40,41,41,42,42],"right_children":[2,4,6,8,10,12,14,16,18,20,22,-1,24,26,-1,28,30,32,34,36,38,40,42,-1,-1,-1,-1,44,46,48,50,52,54,56,58,60,62,-1,64,66,68,70,72,-1,-1,-1,-1,-1,-1,-1,-1,-1,-1,-1,-1,-1,-1,-1,-1,-1,-1,-1,-1,-1,-1,-1,-1,-1,-1,-1,-1,-1,-1],"split_conditions":[2.1473915E1,1.3071835E1,1.4154915E1,1.1625999E1,2E-1,1.0464797E1,3.7999997E0,1.8057367E2,1.8792065E2,1.764721E2,1.6505167E1,8.3965063E-1,3.097249E2,1.7873556E1,6.737137E-2,1.6802823E2,1.8258398E2,1.5825063E2,2.0165952E2,2.196E1,1.8208069E2,2.4223083E2,7E-1,3.3905044E-1,4.619279E-2,-4.268856E-2,-1.6100723E-1,1.6343108E2,1.8641669E-1,1E-1,1.0195057E1,2.5153671E1,1.2849528E1,6.7000003E0,1.2071835E1,1.0086427E1,1.5059334E1,3.2009077E0,1.7611418E1,1.5825063E2,1.3004922E1,1.7051E1,1.926142E1,1.9656217E-2,-4.9850622E-1,-8.108609E-1,6.846126E-1,-1.236052E0,-2.49073E-1,6.591904E-1,-4.3281186E-2,-1.8423924E-1,3.3586872E-1,-7.268229E-2,-7.983673E-1,2.6627078E0,4.030718E-1,-2.5613266E-1,5.2265626E-1,3.859568E-1,-2.109984E-1,1.111014E-1,9.589235E-1,2.6586586E-1,-3.836768E-1,3.146776E-2,-4.2799154E-1,2.3935439E-1,-8.520978E-2,1.5015224E0,9.594219E-2,-1.3411857E-1,3.5586235E-1],"split_indices":[0,0,2,0,1,2,1,3,3,3,0,0,3,2,0,3,3,3,3,2,3,3,1,0,0,0,0,3,0,1,2,2,2,1,0,2,0,0,0,3,2,0,0,0,0,0,0,0,0,0,0,0,0,0,0,0,0,0,0,0,0,0,0,0,0,0,0,0,0,0,0,0,0],"split_type":[0,0,0,0,0,0,0,0,0,0,0,0,0,0,0,0,0,0,0,0,0,0,0,0,0,0,0,0,0,0,0,0,0,0,0,0,0,0,0,0,0,0,0,0,0,0,0,0,0,0,0,0,0,0,0,0,0,0,0,0,0,0,0,0,0,0,0,0,0,0,0,0,0],"sum_hessian":[1.198E3,1.187E3,1.1E1,8.32E2,3.55E2,7E0,4E0,7.62E2,7E1,1.3E2,2.25E2,1E0,6E0,3E0,1E0,3.7E2,3.92E2,2.6E1,4.4E1,4.9E1,8.1E1,1.37E2,8.8E1,5E0,1E0,2E0,1E0,3.4E2,3E1,6E0,3.86E2,1.5E1,1.1E1,7E0,3.7E1,4.6E1,3E0,2E0,7.9E1,7.8E1,5.9E1,1.4E1,7.4E1,3.28E2,1.2E1,2E0,2.8E1,3E0,3E0,5E0,3.81E2,1.4E1,1E0,1E0,1E1,6E0,1E0,1.1E1,2.6E1,3E0,4.3E1,1E0,2E0,5.9E1,2E1,2.4E1,5.4E1,4E0,5.5E1,2E0,1.2E1,6.4E1,1E1],"tree_param":{"num_deleted":"0","num_feature":"4","num_nodes":"73","size_leaf_vector":"1"}},{"base_weights":[2.4920598E-2,-1.2736219E-2,2.8244847E-1,4.877986E-2,-2.8692907E-1,2.245987E0,1.8702523E-1,-2.3009336E-2,4.290095E-1,6.268242E-2,-4.6635765E-1,1.2818283E0,5.807254E-1,6.387098E-1,-2.671867E-1,-2.5139593E-3,-9.259297E-1,4.321619E0,2.4744716E-1,-5.261658E-1,4.83838E-1,-1.2676895E0,-2.575245E-1,3.1587976E-1,-1.9621544E-1,3.1531858E-1,3.2672725E0,-1.7856817E0,2.6291506E-2,-2.620535E-2,8.554961E-1,-9.3531513E-1,-5.719628E-1,2.3568056E0,5.904143E-1,-7.2993416E-1,8.2147413E-1,-6.589955E-1,4.3556154E-1,8.486392E-1,-5.218958E-1,-2.1352293E0,-2.3590103E-1,6.736785E-1,-3.0454144E-1,7.1063226E-1,-1.3814176E0,1.9947745E0,-9.176252E-2,-3.3209581E0,-2.1463315E-1,1.0547959E0,-3.7673825E-1,5.5334903E-3,-1.9066565E-1,6.01874E-1,-1.1424124E-1,-3.9073817E-2,-3.174526E-1,-1.0032124E-1,5.0473046E-1,-3.0267382E-1,5.780577E-1,1.0704812E0,3.36795E-2,-1.0168835E-1,-2.6587188E-1,2.1863201E-1,-6.661109E-2,3.0431135E-2,1.647988E0,1.25144E-1,-4.1218674E-1,-2.0630991E-1,-7.9364145E-1,1.13582775E-1,-1.3743451E-1,-1.0393812E-1,5.831025E-1,8.052472E-2,8.823079E-1,-6.262048E-1,-1.4344221E-1,3.843261E-1,-4.3020734E-1,-2.9109108E-1,-1.0791086E0,-1.0775563E-1,9.790207E-2,1.6530316E-1,6.763307E-1,-3.1911847E-1,5.7788454E-2],"categories":[],"categories_nodes":[],"categories_segments":[],"categories_sizes":[],"default_left":[0,0,0,0,0,0,0,0,0,0,0,0,0,0,0,0,0,0,0,0,0,0,0,0,0,0,0,0,0,0,0,0,0,0,0,0,0,0,0,0,0,0,0,0,0,0,0,0,0,0,0,0,0,0,0,0,0,0,0,0,0,0,0,0,0,0,0,0,0,0,0,0,0,0,0,0,0,0,0,0,0,0,0,0,0,0,0,0,0,0,0,0,0],"id":16,"left_children":[1,3,5,7,9,11,13,15,17,19,21,-1,23,25,27,29,31,33,35,37,39,41,43,-1,-1,45,47,49,51,53,55,-1,57,-1,59,61,63,65,67,69,71,73,75,-1,77,79,81,-1,83,85,87,89,91,-1,-1,-1,-1,-1,-1,-1,-1,-1,-1,-1,-1,-1,-1,-1,-1,-1,-1,-1,-1,-1,-1,-1,-1,-1,-1,-1,-1,-1,-1,-1,-1,-1,-1,-1,-1,-1,-1,-1,-1],"loss_changes":[1.1631116E1,1.7674026E1,2.8247131E1,2.3375574E1,1.2073447E1,2.1144459E1,3.032925E1,1.3340278E1,9.50488E1,1.6622362E1,2.0926313E1,0E0,3.6040237E0,6.1873764E1,3.3024696E1,1.4373599E1,1.0629907E1,7.44871E1,7.409629E1,3.8639207E0,1.4751723E1,2.2769356E1,1.2688167E1,0E0,0E0,4.5921463E1,9.149154E1,2.8231136E1,2.6512005E1,1.8730501E1,2.7794777E1,0E0,3.0836997E0,0E0,4.602296E0,3.8262253E1,1.6128783E2,1.5177469E0,9.330773E-1,1.0008711E2,9.374466E0,8.520973E0,1.9486327E0,0E0,1.0191928E1,5.3458023E1,7.2914257E0,0E0,1.1050728E1,4.034729E-1,6.646091E-1,9.636278E0,1.8197762E1,0E0,0E0,0E0,0E0,0E0,0E0,0E0,0E0,0E0,0E0,0E0,0E0,0E0,0E0,0E0,0E0,0E0,0E0,0E0,0E0,0E0,0E0,0E0,0E0,0E0,0E0,0E0,0E0,0E0,0E0,0E0,0E0,0E0,0E0,0E0,0E0,0E0,0E0,0E0,0E0],"parents":[2147483647,0,0,1,1,2,2,3,3,4,4,5,5,6,6,7,7,8,8,9,9,10,10,12,12,13,13,14,14,15,15,16,16,17,17,18,18,19,19,20,20,21,21,22,22,25,25,26,26,27,27,28,28,29,29,30,30,32,32,34,34,35,35,36,36,37,37,38,38,39,39,40,40,41,41,42,42,44,44,45,45,46,46,48,48,49,49,50,50,51,51,52,52],"right_children":[2,4,6,8,10,12,14,16,18,20,22,-1,24,26,28,30,32,34,36,38,40,42,44,-1,-1,46,48,50,52,54,56,-1,58,-1,60,62,64,66,68,70,72,74,76,-1,78,80,82,-1,84,86,88,90,92,-1,-1,-1,-1,-1,-1,-1,-1,-1,-1,-1,-1,-1,-1,-1,-1,-1,-1,-1,-1,-1,-1,-1,-1,-1,-1,-1,-1,-1,-1,-1,-1,-1,-1,-1,-1,-1,-1,-1,-1],"split_conditions":[1.6505167E1,1.3694751E1,1.6584335E1,1.0998917E1,2E-1,1.0000001E0,7E-1,1.0757249E1,1.1073917E1,1.5007251E1,7E-1,1.2818283E0,1.8171976E1,2.012461E1,1.1000001E0,1.0455166E1,1.257426E1,2.0647006E2,1.9067696E2,2.795567E2,1.7208603E1,2.4532797E2,7.0000005E-1,3.1587976E-1,-1.9621544E-1,1.8089775E1,1.7259333E1,2.1548004E2,1.5725037E1,9.678083E0,2.0532627E1,-9.3531513E-1,3.3999994E0,2.3568056E0,3.0302078E1,9.500001E0,2.0932933E2,1.5315873E1,1.4426E1,1.6489416E1,1.5488499E1,9.079976E1,1.3004922E1,6.736785E-1,3.07E1,1E-1,1.7726002E1,1.9947745E0,3E-1,8.000001E-1,1.1E0,1.883658E2,1.9386591E1,5.5334903E-3,-1.9066565E-1,6.01874E-1,-1.1424124E-1,-3.9073817E-2,-3.174526E-1,-1.0032124E-1,5.0473046E-1,-3.0267382E-1,5.780577E-1,1.0704812E0,3.36795E-2,-1.0168835E-1,-2.6587188E-1,2.1863201E-1,-6.661109E-2,3.0431135E-2,1.647988E0,1.25144E-1,-4.1218674E-1,-2.0630991E-1,-7.9364145E-1,1.13582775E-1,-1.3743451E-1,-1.0393812E-1,5.831025E-1,8.052472E-2,8.823079E-1,-6.262048E-1,-1.4344221E-1,3.843261E-1,-4.3020734E-1,-2.9109108E-1,-1.0791086E0,-1.0775563E-1,9.790207E-2,1.6530316E-1,6.763307E-1,-3.1911847E-1,5.7788454E-2],"split_indices":[0,0,0,0,1,1,1,0,0,0,1,0,2,2,1,0,2,3,3,3,2,3,1,0,0,2,0,3,2,0,2,0,1,0,2,1,3,2,0,2,0,3,2,0,1,1,0,0,1,1,1,3,2,0,0,0,0,0,0,0,0,0,0,0,0,0,0,0,0,0,0,0,0,0,0,0,0,0,0,0,0,0,0,0,0,0,0,0,0,0,0,0,0],"split_type":[0,0,0,0,0,0,0,0,0,0,0,0,0,0,0,0,0,0,0,0,0,0,0,0,0,0,0,0,0,0,0,0,0,0,0,0,0,0,0,0,0,0,0,0,0,0,0,0,0,0,0,0,0,0,0,0,0,0,0,0,0,0,0,0,0,0,0,0,0,0,0,0,0,0,0,0,0,0,0,0,0,0,0,0,0,0,0,0,0,0,0,0,0],"sum_hessian":[1.198E3,1.046E3,1.52E2,8.55E2,1.91E2,6E0,1.46E2,7.2E2,1.35E2,6.5E1,1.26E2,2E0,4E0,7.3E1,7.3E1,7.05E2,1.5E1,5E0,1.3E2,2.7E1,3.8E1,2.5E1,1.01E2,3E0,1E0,6.6E1,7E0,1.1E1,6.2E1,6.87E2,1.8E1,1E0,1.4E1,2E0,3E0,4.8E1,8.2E1,2.4E1,3E0,2.8E1,1E1,1.3E1,1.2E1,1E0,1E2,5.4E1,1.2E1,3E0,4E0,5E0,6E0,1.7E1,4.5E1,6.41E2,4.6E1,9E0,9E0,8E0,6E0,2E0,1E0,4.4E1,4E0,1.6E1,6.6E1,1.1E1,1.3E1,2E0,1E0,2.5E1,3E0,5E0,5E0,4E0,9E0,3E0,9E0,9.9E1,1E0,4.6E1,8E0,6E0,6E0,2E0,2E0,1E0,4E0,5E0,1E0,1.3E1,4E0,2E1,2.5E1],"tree_param":{"num_deleted":"0","num_feature":"4","num_nodes":"93","size_leaf_vector":"1"}},{"base_weights":[2.3449523E-2,-1.11016E0,2.9126413E-2,-3.8841027E-1,-2.8118277E-2,6.01617E-1,1.2335883E-2,-1.5383968E-1,2.1951935E0,-7.8435344E-1,2.2743907E-2,3.6888888E-1,-9.2254853E-1,-2.730259E-1,4.2975473E0,-1.8106757E0,1.6304264E0,2.6678044E-1,-5.235756E-3,-2.654369E-3,5.5678403E-1,-1.7765191E0,8.0253696E-1,-5.9294766E-1,1.9898744E-1,1.5238882E-2,5.1367383E0,-2.377887E0,-6.5444493E-1,-2.1836758E-3,6.1250174E-1,-1.5159412E-2,1.1325668E0,-9.5736766E-1,3.1205583E-2,1.4266914E-1,-3.592609E-1,-5.427711E-2,-6.036893E-1,6.100465E-1,-8.568288E-2,-4.1206956E-2,-2.552669E-1,1.8332238E0,1.8610632E-1,-2.9510316E-1,-8.216506E-1,-5.7114255E-2,-3.7660518E-1,-1.4189206E-1,1.7067976E-1,7.0227766E-1,-1.604145E-1,-3.7339175E-1,8.264412E-2,9.0105087E-1,3.9370833E-3],"categories":[],"categories_nodes":[],"categories_segments":[],"categories_sizes":[],"default_left":[0,0,0,0,0,0,0,0,0,0,0,0,0,0,0,0,0,0,0,0,0,0,0,0,0,0,0,0,0,0,0,0,0,0,0,0,0,0,0,0,0,0,0,0,0,0,0,0,0,0,0,0,0,0,0,0,0],"id":17,"left_children":[1,3,5,-1,-1,7,9,11,13,15,17,19,21,23,25,27,29,31,33,35,-1,37,39,41,-1,-1,43,45,47,-1,-1,49,51,53,55,-1,-1,-1,-1,-1,-1,-1,-1,-1,-1,-1,-1,-1,-1,-1,-1,-1,-1,-1,-1,-1,-1],"loss_changes":[7.748352E0,1.0040908E0,1.1469809E1,0E0,0E0,4.1269566E1,9.644807E0,9.984143E0,5.8253117E1,4.0127316E1,7.833181E0,8.2925205E0,1.6157442E1,2.190587E0,2.1122078E1,5.657902E0,3.3823605E0,2.8820932E1,3.5767746E1,7.9978895E0,0E0,2.2693787E0,5.9386053E0,4.707048E-1,0E0,0E0,1.8204147E1,8.285332E-1,1.155299E0,0E0,0E0,2.4335588E1,5.9677288E1,1.3801037E1,5.332936E1,0E0,0E0,0E0,0E0,0E0,0E0,0E0,0E0,0E0,0E0,0E0,0E0,0E0,0E0,0E0,0E0,0E0,0E0,0E0,0E0,0E0,0E0],"parents":[2147483647,0,0,1,1,2,2,5,5,6,6,7,7,8,8,9,9,10,10,11,11,12,12,13,13,14,14,15,15,16,16,17,17,18,18,19,19,21,21,22,22,23,23,26,26,27,27,28,28,31,31,32,32,33,33,34,34],"right_children":[2,4,6,-1,-1,8,10,12,14,16,18,20,22,24,26,28,30,32,34,36,-1,38,40,42,-1,-1,44,46,48,-1,-1,50,52,54,56,-1,-1,-1,-1,-1,-1,-1,-1,-1,-1,-1,-1,-1,-1,-1,-1,-1,-1,-1,-1,-1,-1],"split_conditions":[8.707238E0,2E-1,1.0195057E1,-3.8841027E-1,-2.8118277E-2,9.904906E0,1.0787993E1,1.3185591E2,6.05284E1,3E-1,1.30447235E1,9.726664E0,1.5992667E1,5.915672E1,-1.9344168E0,5.292666E0,2.3114164E0,1.257426E1,1.3570615E1,9.531505E0,5.5678403E-1,1.4719174E2,1.8411417E1,3.833336E1,1.9898744E-1,1.5238882E-2,2.5780833E0,9.805706E1,1.598008E2,-2.1836758E-3,6.1250174E-1,2.0859644E2,1.9455139E2,1.1000001E0,1.3627795E1,1.4266914E-1,-3.592609E-1,-5.427711E-2,-6.036893E-1,6.100465E-1,-8.568288E-2,-4.1206956E-2,-2.552669E-1,1.8332238E0,1.8610632E-1,-2.9510316E-1,-8.216506E-1,-5.7114255E-2,-3.7660518E-1,-1.4189206E-1,1.7067976E-1,7.0227766E-1,-1.604145E-1,-3.7339175E-1,8.264412E-2,9.0105087E-1,3.9370833E-3],"split_indices":[2,1,2,0,0,2,2,3,3,1,2,2,0,3,0,0,0,2,2,2,0,3,0,3,0,0,0,3,3,0,0,3,3,1,2,0,0,0,0,0,0,0,0,0,0,0,0,0,0,0,0,0,0,0,0,0,0],"split_type":[0,0,0,0,0,0,0,0,0,0,0,0,0,0,0,0,0,0,0,0,0,0,0,0,0,0,0,0,0,0,0,0,0,0,0,0,0,0,0,0,0,0,0,0,0,0,0,0,0,0,0,0,0,0,0,0,0],"sum_hessian":[1.198E3,5E0,1.193E3,4E0,1E0,3.3E1,1.16E3,2.3E1,1E1,1.4E1,1.146E3,1.4E1,9E0,5E0,5E0,1E1,4E0,1.17E2,1.029E3,1.2E1,2E0,6E0,3E0,4E0,1E0,1E0,4E0,6E0,4E0,1E0,3E0,8.9E1,2.8E1,3.7E1,9.92E2,9E0,3E0,1E0,5E0,1E0,2E0,2E0,2E0,3E0,1E0,2E0,4E0,3E0,1E0,5E1,3.9E1,1.6E1,1.2E1,3E1,7E0,5E0,9.87E2],"tree_param":{"num_deleted":"0","num_feature":"4","num_nodes":"57","size_leaf_vector":"1"}},{"base_weights":[1.8059278E-2,4.802939E-2,-1.6873081E-1,1.7554361E-2,1.5172508E0,-9.474505E-1,-9.07734E-2,-9.024295E-3,6.03698E-1,3.406369E0,7.1400326E-1,-1.2769812E0,2.780044E-1,5.884947E-1,-1.6394912E-1,4.4204496E-2,-7.516318E-1,1.2090582E0,-1.16889715E-1,-6.254046E-1,2.2939832E0,-1.7741102E-1,2.2292624E0,-4.4987842E-1,-2.0291045E0,-8.6704735E-3,1.1698208E-1,1.2089268E-1,7.255815E-1,-4.8135954E-1,7.2190434E-2,2.1831576E-2,8.664318E-1,1.8071464E0,-1.0424762E0,2.1516356E0,8.7177925E-2,-5.395036E-1,1.0295621E0,2.8848948E-2,-2.6939446E-1,7.0825684E-1,-5.713182E-1,1.3651539E0,8.549096E-1,-2.1484137E-2,-1.850818E-1,-1.5773122E-1,-6.673851E-1,7.760998E-1,-5.5158484E-1,-1.3258989E0,-2.138615E-1,1.6987972E0,-3.5773043E-2,1.5646374E-2,-1.9095121E-1,1.4515991E0,8.561417E-2,-5.3710755E-2,1.0024626E0,-6.694725E-1,-8.253944E-2,3.8425785E-1,1.8901423E0,-2.1829812E-1,3.0698788E-1,1.5013404E-1,-2.1714424E-1,-2.9307444E-2,3.8236538E-1,2.6488265E-1,9.385082E-2,2.86092E-1,6.899822E-2,-8.970625E-2,8.003839E-2,-1.43935E-1,3.1961328E-1,-4.3326975E-3,-1.9161047E-1,-4.8661154E-2,-5.8631206E-1,4.5879245E-1,-1.11312985E-1,9.9635607E-1,-1.4695746E-1,-2.9102656E-1,3.1263288E-2],"categories":[],"categories_nodes":[],"categories_segments":[],"categories_sizes":[],"default_left":[0,0,0,0,0,0,0,0,0,0,0,0,0,0,0,0,0,0,0,0,0,0,0,0,0,0,0,0,0,0,0,0,0,0,0,0,0,0,0,0,0,0,0,0,0,0,0,0,0,0,0,0,0,0,0,0,0,0,0,0,0,0,0,0,0,0,0,0,0,0,0,0,0,0,0,0,0,0,0,0,0,0,0,0,0,0,0,0,0],"id":18,"left_children":[1,3,5,7,9,11,13,15,17,19,21,23,25,27,29,31,33,35,37,39,-1,41,43,45,47,-1,-1,49,-1,51,53,55,57,59,61,63,65,67,69,-1,-1,71,-1,-1,73,75,-1,-1,-1,77,79,81,83,85,87,-1,-1,-1,-1,-1,-1,-1,-1,-1,-1,-1,-1,-1,-1,-1,-1,-1,-1,-1,-1,-1,-1,-1,-1,-1,-1,-1,-1,-1,-1,-1,-1,-1,-1],"loss_changes":[6.72025E0,4.6270264E1,9.991354E0,1.5802464E1,2.9433868E1,6.412382E0,7.6517835E0,3.8415012E1,1.9334791E1,1.073564E2,2.2007074E1,6.552149E0,1.4868501E-1,1.2544057E1,1.0378285E1,1.6665915E1,5.0257298E1,2.519144E1,1.0730087E1,8.730836E-1,0E0,1.8173668E1,1.5251024E1,4.8772132E-1,5.938835E-1,0E0,0E0,6.156042E0,0E0,1.3045284E1,1.41099E1,1.7680231E1,5.4012825E1,2.1931383E1,5.3220505E1,3.8895203E1,9.897998E0,3.4290113E0,1.7815008E0,0E0,0E0,2.7637768E-1,0E0,0E0,8.915901E-2,3.1980094E-1,0E0,0E0,0E0,3.0542436E0,3.183341E-1,9.92193E0,1.3171187E1,1.938117E1,1.0041074E1,0E0,0E0,0E0,0E0,0E0,0E0,0E0,0E0,0E0,0E0,0E0,0E0,0E0,0E0,0E0,0E0,0E0,0E0,0E0,0E0,0E0,0E0,0E0,0E0,0E0,0E0,0E0,0E0,0E0,0E0,0E0,0E0,0E0,0E0],"parents":[2147483647,0,0,1,1,2,2,3,3,4,4,5,5,6,6,7,7,8,8,9,9,10,10,11,11,12,12,13,13,14,14,15,15,16,16,17,17,18,18,19,19,21,21,22,22,23,23,24,24,27,27,29,29,30,30,31,31,32,32,33,33,34,34,35,35,36,36,37,37,38,38,41,41,44,44,45,45,49,49,50,50,51,51,52,52,53,53,54,54],"right_children":[2,4,6,8,10,12,14,16,18,20,22,24,26,28,30,32,34,36,38,40,-1,42,44,46,48,-1,-1,50,-1,52,54,56,58,60,62,64,66,68,70,-1,-1,72,-1,-1,74,76,-1,-1,-1,78,80,82,84,86,88,-1,-1,-1,-1,-1,-1,-1,-1,-1,-1,-1,-1,-1,-1,-1,-1,-1,-1,-1,-1,-1,-1,-1,-1,-1,-1,-1,-1,-1,-1,-1,-1,-1,-1],"split_conditions":[2.847643E1,2.7841293E1,2.0885E0,1.1500002E1,6.4822497E0,2.0509938E2,1.7151622E2,6.7000003E0,2.2608458E1,4.261417E0,6.1999993E0,1.4040608E2,1E-1,1.6671024E2,3.22034E1,5.9999995E0,1.2599997E-1,1.1517666E1,2.6064596E1,-4.9115005E0,2.2939832E0,5.1000004E0,7.9999995E0,6.475855E1,-1.1739999E0,-8.6704735E-3,1.1698208E-1,3.1093666E1,7.255815E-1,2.1310208E2,3.2343952E1,4.7E0,6.0999994E0,-1.8441665E-1,1.0428083E1,1.1113499E1,1.6505167E1,1.23E1,-1.9344168E0,2.8848948E-2,-2.6939446E-1,1.3000001E0,-5.713182E-1,1.3651539E0,1.18E1,-7.373999E0,-1.850818E-1,-1.5773122E-1,-6.673851E-1,3.7780828E0,2.1905835E0,1.9765907E2,2.2566469E2,5.601E0,2.0509938E2,1.5646374E-2,-1.9095121E-1,1.4515991E0,8.561417E-2,-5.3710755E-2,1.0024626E0,-6.694725E-1,-8.253944E-2,3.8425785E-1,1.8901423E0,-2.1829812E-1,3.0698788E-1,1.5013404E-1,-2.1714424E-1,-2.9307444E-2,3.8236538E-1,2.6488265E-1,9.385082E-2,2.86092E-1,6.899822E-2,-8.970625E-2,8.003839E-2,-1.43935E-1,3.1961328E-1,-4.3326975E-3,-1.9161047E-1,-4.8661154E-2,-5.8631206E-1,4.5879245E-1,-1.11312985E-1,9.9635607E-1,-1.4695746E-1,-2.9102656E-1,3.1263288E-2],"split_indices":[2,2,0,1,0,3,3,1,2,0,1,3,1,3,2,1,0,0,2,0,0,1,1,3,0,0,0,2,0,3,2,1,1,0,0,0,0,1,0,0,0,1,0,0,1,0,0,0,0,0,0,3,3,0,3,0,0,0,0,0,0,0,0,0,0,0,0,0,0,0,0,0,0,0,0,0,0,0,0,0,0,0,0,0,0,0,0,0,0],"split_type":[0,0,0,0,0,0,0,0,0,0,0,0,0,0,0,0,0,0,0,0,0,0,0,0,0,0,0,0,0,0,0,0,0,0,0,0,0,0,0,0,0,0,0,0,0,0,0,0,0,0,0,0,0,0,0,0,0,0,0,0,0,0,0,0,0,0,0,0,0,0,0,0,0,0,0,0,0,0,0,0,0,0,0,0,0,0,0,0,0],"sum_hessian":[1.198E3,1.033E3,1.65E2,1.013E3,2E1,1.4E1,1.51E2,9.7E2,4.3E1,5E0,1.5E1,1.1E1,3E0,1.4E1,1.37E2,9.06E2,6.4E1,2.3E1,2E1,3E0,2E0,1E1,5E0,6E0,5E0,1E0,2E0,1.2E1,2E0,5.8E1,7.9E1,8.83E2,2.3E1,6E0,5.8E1,1.2E1,1.1E1,1.5E1,5E0,1E0,2E0,7E0,3E0,1E0,4E0,2E0,4E0,1E0,4E0,6E0,6E0,1.3E1,4.5E1,4E0,7.5E1,8.45E2,3.8E1,2E0,2.1E1,3E0,3E0,2.2E1,3.6E1,1.1E1,1E0,6E0,5E0,2E0,1.3E1,1E0,4E0,4E0,3E0,3E0,1E0,1E0,1E0,1E0,5E0,1E0,5E0,5E0,8E0,3E0,4.2E1,2E0,2E0,9E0,6.6E1],"tree_param":{"num_deleted":"0","num_feature":"4","num_nodes":"89","size_leaf_vector":"1"}},{"base_weights":[1.9200971E-2,-1.4416894E-1,5.606057E-2,1.9240052E-1,-2.2892293E-1,2.7629933E0,3.9327864E-2,1.53286755E-2,2.0035548E0,-3.674572E-1,9.634105E-3,1.3943322E0,6.586596E-1,-4.3975446E-1,6.3549355E-2,1.5299504E-1,-5.8887774E-1,1.0986829E0,2.2988884E-1,-4.374021E-2,-8.6675304E-1,2.0328968E0,-1.5368763E-1,