{"learner":{"attributes":{"scikit_learn":"{\"_estimator_type\": \"regressor\"}"},"feature_names":["pm25_3day_mean","pm25_3day_trend","temperature_2m_mean","precipitation_sum","wind_speed_10m_max","wind_direction_10m_dominant","season"],"feature_types":["float","float","float","float","float","float","int"],"gradient_booster":{"model":{"gbtree_model_param":{"num_parallel_tree":"1","num_trees":"100"},"iteration_indptr":[0,1,2,3,4,5,6,7,8,9,10,11,12,13,14,15,16,17,18,19,20,21,22,23,24,25,26,27,28,29,30,31,32,33,34,35,36,37,38,39,40,41,42,43,44,45,46,47,48,49,50,51,52,53,54,55,56,57,58,59,60,61,62,63,64,65,66,67,68,69,70,71,72,73,74,75,76,77,78,79,80,81,82,83,84,85,86,87,88,89,90,91,92,93,94,95,96,97,98,99,100],"tree_info":[0,0,0,0,0,0,0,0,0,0,0,0,0,0,0,0,0,0,0,0,0,0,0,0,0,0,0,0,0,0,0,0,0,0,0,0,0,0,0,0,0,0,0,0,0,0,0,0,0,0,0,0,0,0,0,0,0,0,0,0,0,0,0,0,0,0,0,0,0,0,0,0,0,0,0,0,0,0,0,0,0,0,0,0,0,0,0,0,0,0,0,0,0,0,0,0,0,0,0,0],"trees":[{"base_weights":[-3.0040742E-6,-1.7068058E1,2.5449331E1,-2.645808E1,-6.393781E0,1.5954144E1,4.531646E1,-3.423196E1,-2.1683355E1,-1.1808062E1,4.9405026E0,9.599448E0,4.0126186E1,7.180443E0,5.2769108E1,-3.8490513E1,-2.7495148E1,-2.5795021E1,-1.4042379E1,-2.9494357E0,-1.3935345E1,-6.1507453E-3,1.7548512E1,7.537607E-1,1.634462E1,5.0856163E1,2.7409317E1,1.2177201E1,-1.3319478E1,3.844407E1,6.007716E1,-1.2506989E1,-3.260535E1,-2.9230635E1,-1.0808126E1,-3.0236326E1,-2.2693186E1,-1.6240025E1,4.1004786E0,-6.8754015E0,2.605905E0,-1.7889566E1,-1.0855543E1,-9.841072E0,2.1541564E0,1.4200098E1,1.2939023E1,7.885308E0,-5.288615E0,1.0581845E1,2.4461016E1,2.8475544E0,5.1836895E1,1.0857765E1,3.2009644E1,-1.1113698E0,1.8501034E1,-7.20788E0,-2.6796501E1,2.8742294E1,4.766681E1,5.5862934E1,2.5808687E1,-6.8317523E0,-1.1065743E1,-1.8821671E0,-9.013949E0,1.7110497E0,-4.51717E0,-9.241755E0,-4.5412755E0,-3.2651122E0,-7.341518E0,-1.9339005E0,-5.5270753E0,-2.7548804E0,2.1203806E0,4.38512E0,-2.5198338E0,-1.7386742E0,2.253856E0,-6.025381E0,-4.2838554E0,-5.3491654E0,-2.2264802E0,6.3372463E-1,-3.7825167E0,2.3694453E0,-1.9878338E-1,5.324824E0,3.7661135E-1,5.2365637E-1,5.497451E0,-2.3517787E0,5.363678E-1,8.902731E0,2.3406045E0,7.588391E0,-8.445734E0,7.5407E0,-6.2593007E0,4.78605E0,1.58500805E1,6.96512E0,1.8950621E0,1.540326E1,8.416814E0,3.5232599E0,-4.1567407E0,6.3447886E0,-2.7889504E0,-3.9588006E0,7.8511965E-1,-9.245734E0,-2.2093003E0,1.5112629E1,7.6399198E0,1.4652902E1,-3.2593005E0,9.393544E0,1.7395239E1],"categories":[],"categories_nodes":[],"categories_segments":[],"categories_sizes":[],"default_left":[0,0,0,0,0,0,0,0,0,0,0,0,0,0,0,0,0,0,0,0,0,0,0,0,0,0,0,0,0,0,0,0,0,0,0,0,0,0,0,0,0,0,0,0,0,0,0,0,0,0,0,0,0,0,0,0,0,0,0,0,0,0,0,0,0,0,0,0,0,0,0,0,0,0,0,0,0,0,0,0,0,0,0,0,0,0,0,0,0,0,0,0,0,0,0,0,0,0,0,0,0,0,0,0,0,0,0,0,0,0,0,0,0,0,0,0,0,0,0,0,0],"id":0,"left_children":[1,3,5,7,9,11,13,15,17,19,21,23,25,27,29,31,33,35,37,39,41,43,45,47,49,51,53,55,57,59,61,-1,63,65,67,69,71,73,75,77,79,81,83,85,87,89,-1,91,93,95,97,99,101,103,105,107,109,111,113,115,117,119,-1,-1,-1,-1,-1,-1,-1,-1,-1,-1,-1,-1,-1,-1,-1,-1,-1,-1,-1,-1,-1,-1,-1,-1,-1,-1,-1,-1,-1,-1,-1,-1,-1,-1,-1,-1,-1,-1,-1,-1,-1,-1,-1,-1,-1,-1,-1,-1,-1,-1,-1,-1,-1,-1,-1,-1,-1,-1,-1],"loss_changes":[1.3904204E6,1.9187481E5,2.4168219E5,3.7081125E4,5.51659E4,1.3340561E5,1.1757E5,1.00156875E4,1.955625E4,1.1416531E4,1.8149035E4,4.1216664E4,2.3303812E4,7.23008E3,3.4017125E4,3.0467188E3,4.1149688E3,4.9758438E3,8.99782E3,2.613316E3,5.773133E3,4.482954E3,6.4114746E3,1.2969148E4,1.8076148E4,4.4195156E3,6.1245703E3,4.726505E3,9.5998E2,9.3671875E3,2.0129812E4,0E0,2.8217656E3,2.396164E3,1.2084333E3,9.61125E2,4.9005547E3,4.158258E3,1.0503533E3,2.4156584E3,2.1048237E3,1.4010469E3,6.52626E3,1.2836392E3,2.8042866E3,3.3776416E3,0E0,8.813326E3,2.9561128E3,1.2029461E4,7.817375E3,2.1099185E3,2.5547812E3,9.7578564E2,3.6045938E3,3.2756265E3,2.9939883E3,6.816974E2,8.570996E1,3.0400586E3,4.6612812E3,8.547875E3,0E0,0E0,0E0,0E0,0E0,0E0,0E0,0E0,0E0,0E0,0E0,0E0,0E0,0E0,0E0,0E0,0E0,0E0,0E0,0E0,0E0,0E0,0E0,0E0,0E0,0E0,0E0,0E0,0E0,0E0,0E0,0E0,0E0,0E0,0E0,0E0,0E0,0E0,0E0,0E0,0E0,0E0,0E0,0E0,0E0,0E0,0E0,0E0,0E0,0E0,0E0,0E0,0E0,0E0,0E0,0E0,0E0,0E0,0E0],"parents":[2147483647,0,0,1,1,2,2,3,3,4,4,5,5,6,6,7,7,8,8,9,9,10,10,11,11,12,12,13,13,14,14,15,15,16,16,17,17,18,18,19,19,20,20,21,21,22,22,23,23,24,24,25,25,26,26,27,27,28,28,29,29,30,30,32,32,33,33,34,34,35,35,36,36,37,37,38,38,39,39,40,40,41,41,42,42,43,43,44,44,45,45,47,47,48,48,49,49,50,50,51,51,52,52,53,53,54,54,55,55,56,56,57,57,58,58,59,59,60,60,61,61],"right_children":[2,4,6,8,10,12,14,16,18,20,22,24,26,28,30,32,34,36,38,40,42,44,46,48,50,52,54,56,58,60,62,-1,64,66,68,70,72,74,76,78,80,82,84,86,88,90,-1,92,94,96,98,100,102,104,106,108,110,112,114,116,118,120,-1,-1,-1,-1,-1,-1,-1,-1,-1,-1,-1,-1,-1,-1,-1,-1,-1,-1,-1,-1,-1,-1,-1,-1,-1,-1,-1,-1,-1,-1,-1,-1,-1,-1,-1,-1,-1,-1,-1,-1,-1,-1,-1,-1,-1,-1,-1,-1,-1,-1,-1,-1,-1,-1,-1,-1,-1,-1,-1],"split_conditions":[7.3333336E1,5.3666668E1,1.12E2,3.8333332E1,5E0,1.45E1,-2E1,3E0,4.5E0,2.6704165E1,1.55E1,-5E0,1E0,2.6704165E1,-4.710277E-16,3.3666668E1,1.55E1,4.5333332E1,1.95E1,-6E0,6.0333332E1,5.7E1,3.05E1,1E0,8.8E1,7.4E1,7.8333336E1,-3.4E1,1.32E2,1.32E2,1.56E2,-1.2506989E1,2.9464586E1,2.7016665E1,2.7779165E1,2.1999998E0,2.6566666E1,2.7691666E1,1.9770523E1,2.4622915E1,6.2E1,-2.3551386E-16,-7.5E0,1E0,2.7304169E1,7.7999794E1,1.2939023E1,-1.65E1,-9E0,2.5427084E1,1.11E2,7.3666664E1,2.4154167E1,7.4333336E1,2.5537498E1,2.490625E1,2E-1,2.7981247E1,1.4633333E2,1.14333336E2,2.9497917E1,2.4622915E1,2.5808687E1,-6.8317523E0,-1.1065743E1,-1.8821671E0,-9.013949E0,1.7110497E0,-4.51717E0,-9.241755E0,-4.5412755E0,-3.2651122E0,-7.341518E0,-1.9339005E0,-5.5270753E0,-2.7548804E0,2.1203806E0,4.38512E0,-2.5198338E0,-1.7386742E0,2.253856E0,-6.025381E0,-4.2838554E0,-5.3491654E0,-2.2264802E0,6.3372463E-1,-3.7825167E0,2.3694453E0,-1.9878338E-1,5.324824E0,3.7661135E-1,5.2365637E-1,5.497451E0,-2.3517787E0,5.363678E-1,8.902731E0,2.3406045E0,7.588391E0,-8.445734E0,7.5407E0,-6.2593007E0,4.78605E0,1.58500805E1,6.96512E0,1.8950621E0,1.540326E1,8.416814E0,3.5232599E0,-4.1567407E0,6.3447886E0,-2.7889504E0,-3.9588006E0,7.8511965E-1,-9.245734E0,-2.2093003E0,1.5112629E1,7.6399198E0,1.4652902E1,-3.2593005E0,9.393544E0,1.7395239E1],"split_indices":[0,0,0,0,1,1,1,1,1,2,1,1,6,2,1,0,1,0,1,1,0,0,1,6,0,0,0,1,0,0,0,0,2,2,2,3,2,2,4,2,0,1,1,6,2,5,0,1,1,2,0,0,2,0,2,2,3,2,0,0,2,2,0,0,0,0,0,0,0,0,0,0,0,0,0,0,0,0,0,0,0,0,0,0,0,0,0,0,0,0,0,0,0,0,0,0,0,0,0,0,0,0,0,0,0,0,0,0,0,0,0,0,0,0,0,0,0,0,0,0,0],"split_type":[0,0,0,0,0,0,0,0,0,0,0,0,0,0,0,0,0,0,0,0,0,0,0,0,0,0,0,0,0,0,0,0,0,0,0,0,0,0,0,0,0,0,0,0,0,0,0,0,0,0,0,0,0,0,0,0,0,0,0,0,0,0,0,0,0,0,0,0,0,0,0,0,0,0,0,0,0,0,0,0,0,0,0,0,0,0,0,0,0,0,0,0,0,0,0,0,0,0,0,0,0,0,0,0,0,0,0,0,0,0,0,0,0,0,0,0,0,0,0,0,0],"sum_hessian":[3.199E3,1.915E3,1.284E3,1.018E3,8.97E2,8.7E2,4.14E2,3.85E2,6.33E2,6.07E2,2.9E2,6.9E2,1.8E2,6.8E1,3.46E2,2.33E2,1.52E2,4.1E2,2.23E2,1.18E2,4.89E2,2.09E2,8.1E1,2.99E2,3.91E2,9.6E1,8.4E1,5.5E1,1.3E1,1.19E2,2.27E2,1.47E2,8.6E1,1.37E2,1.5E1,1.65E2,2.45E2,1.99E2,2.4E1,6.9E1,4.9E1,2.12E2,2.77E2,3.7E1,1.72E2,7.3E1,8E0,1.37E2,1.62E2,2.3E2,1.61E2,2E0,9.4E1,1.9E1,6.5E1,1.8E1,3.7E1,1E1,3E0,6E1,5.9E1,1.98E2,2.9E1,2.8E1,5.8E1,5E0,1.32E2,3E0,1.2E1,1.58E2,7E0,3.3E1,2.12E2,3.7E1,1.62E2,4E0,2E1,4E0,6.5E1,1.8E1,3.1E1,1.29E2,8.3E1,9E1,1.87E2,7E0,3E1,5.6E1,1.16E2,5.7E1,1.6E1,8.7E1,5E1,1.19E2,4.3E1,2.8E1,2.02E2,1.59E2,2E0,1E0,1E0,3E0,9.1E1,4E0,1.5E1,9E0,5.6E1,9E0,9E0,3.4E1,3E0,6E0,4E0,2E0,1E0,6E0,5.4E1,5.8E1,1E0,1.7E1,1.81E2],"tree_param":{"num_deleted":"0","num_feature":"7","num_nodes":"121","size_leaf_vector":"1"}},{"base_weights":[2.1807322E-2,-9.82063E0,2.216477E1,-1.8169445E1,-1.8817205E0,1.1003526E1,3.145571E1,-2.2087807E1,-1.2939592E1,-6.194438E0,6.6247635E0,8.624212E0,3.8901E1,2.6449104E1,4.920208E1,-2.3489807E1,-1.0443895E1,-1.7426666E1,-8.435572E0,-9.184297E0,-1.7530588E0,2.1224169E1,3.8470902E0,3.5673163E0,1.4366515E1,4.2014805E1,-8.317833E0,1.8889915E1,3.5540066E1,-6.724782E0,5.0642532E1,-2.7690992E1,-2.1097372E1,-1.1876569E1,1.5448034E1,-4.9423943E0,-1.8517084E1,-9.365951E0,1.3341516E1,-6.61958E-1,-1.0390851E1,-1.2928709E1,7.0277333E-1,1.5369618E1,3.1643803E1,2.4283154E0,2.641968E1,1.2141683E1,9.3563296E-2,3.4695745E0,2.2146893E1,5.677185E0,4.6831123E1,3.6421052E-1,-4.1072354E0,2.5525424E0,2.0335257E1,3.6773376E1,6.650855E0,4.783705E1,7.531638E1,1.5230244E0,-8.3655205E0,2.8096356E0,-6.4153266E0,-1.4067218E0,-4.4230146E0,1.3182747E0,5.300364E0,-3.2859073E0,4.5840306E0,-5.6403537E0,2.2909563E0,-2.6728373E0,-6.1903944E0,5.329247E0,-8.698105E-1,-7.890742E-1,4.1319003E0,-4.768997E0,-2.6957889E0,-1.7661248E0,-6.967067E0,3.1451652E0,-6.872845E-1,4.992178E0,-5.3204055E0,1.3842151E1,7.268942E0,1.6770124E-1,2.5743814E0,1.8930207E-1,8.824957E0,4.3360324E0,-5.408327E0,-2.1084065E0,1.7321329E0,2.0414011E0,-3.9646523E0,4.1205117E-1,7.114964E0,3.514147E0,-2.7704053E0,6.4722304E0,1.5744574E1,-4.41803E-1,7.7559032E0,7.43988E0,4.9592752E0,9.66135E0,1.3136704E1,-1.8363713E0,7.2438846E0,1.2425605E1,1.698938E1,2.3723373E1,6.219397E0],"categories":[],"categories_nodes":[],"categories_segments":[],"categories_sizes":[],"default_left":[0,0,0,0,0,0,0,0,0,0,0,0,0,0,0,0,0,0,0,0,0,0,0,0,0,0,0,0,0,0,0,0,0,0,0,0,0,0,0,0,0,0,0,0,0,0,0,0,0,0,0,0,0,0,0,0,0,0,0,0,0,0,0,0,0,0,0,0,0,0,0,0,0,0,0,0,0,0,0,0,0,0,0,0,0,0,0,0,0,0,0,0,0,0,0,0,0,0,0,0,0,0,0,0,0,0,0,0,0,0,0,0,0,0,0,0,0],"id":1,"left_children":[1,3,5,7,9,11,13,15,17,19,21,23,25,27,29,31,33,35,37,39,41,43,45,47,49,51,53,55,57,-1,59,61,63,65,67,69,71,73,75,77,79,81,83,85,87,89,91,93,95,97,99,101,103,-1,-1,105,107,109,111,113,115,-1,-1,-1,-1,-1,-1,-1,-1,-1,-1,-1,-1,-1,-1,-1,-1,-1,-1,-1,-1,-1,-1,-1,-1,-1,-1,-1,-1,-1,-1,-1,-1,-1,-1,-1,-1,-1,-1,-1,-1,-1,-1,-1,-1,-1,-1,-1,-1,-1,-1,-1,-1,-1,-1,-1,-1],"loss_changes":[6.9762806E5,1.4684334E5,1.0179681E5,2.1846062E4,4.1753086E4,2.946771E4,4.6410562E4,9.810719E3,9.250586E3,1.0009619E4,1.5449908E4,1.1999617E4,5.4955312E3,2.8259906E4,1.32051875E4,4.9338125E3,2.7059097E3,3.0667188E3,4.8660176E3,4.6306055E3,8.379971E3,3.2347852E3,1.0280055E4,6.611184E3,1.637093E4,5.509578E3,1.7026387E2,5.426328E3,6.5250156E3,0E0,4.357625E3,1.388E3,3.2957656E3,1.2702051E3,2.0513672E1,2.598362E3,1.7261797E3,9.735781E2,7.697809E2,1.6557203E3,2.9124922E3,3.8503662E3,7.3737812E3,2.0201797E3,1.1390742E3,3.5032485E3,1.4498457E3,4.724208E3,6.4724644E3,4.652927E3,3.6520195E3,5.582612E2,3.0066836E3,0E0,0E0,1.9138628E3,3.2076016E3,4.423547E3,2.1588838E3,3.6375469E3,4.1383984E2,0E0,0E0,0E0,0E0,0E0,0E0,0E0,0E0,0E0,0E0,0E0,0E0,0E0,0E0,0E0,0E0,0E0,0E0,0E0,0E0,0E0,0E0,0E0,0E0,0E0,0E0,0E0,0E0,0E0,0E0,0E0,0E0,0E0,0E0,0E0,0E0,0E0,0E0,0E0,0E0,0E0,0E0,0E0,0E0,0E0,0E0,0E0,0E0,0E0,0E0,0E0,0E0,0E0,0E0,0E0,0E0],"parents":[2147483647,0,0,1,1,2,2,3,3,4,4,5,5,6,6,7,7,8,8,9,9,10,10,11,11,12,12,13,13,14,14,15,15,16,16,17,17,18,18,19,19,20,20,21,21,22,22,23,23,24,24,25,25,26,26,27,27,28,28,30,30,31,31,32,32,33,33,34,34,35,35,36,36,37,37,38,38,39,39,40,40,41,41,42,42,43,43,44,44,45,45,46,46,47,47,48,48,49,49,50,50,51,51,52,52,55,55,56,56,57,57,58,58,59,59,60,60],"right_children":[2,4,6,8,10,12,14,16,18,20,22,24,26,28,30,32,34,36,38,40,42,44,46,48,50,52,54,56,58,-1,60,62,64,66,68,70,72,74,76,78,80,82,84,86,88,90,92,94,96,98,100,102,104,-1,-1,106,108,110,112,114,116,-1,-1,-1,-1,-1,-1,-1,-1,-1,-1,-1,-1,-1,-1,-1,-1,-1,-1,-1,-1,-1,-1,-1,-1,-1,-1,-1,-1,-1,-1,-1,-1,-1,-1,-1,-1,-1,-1,-1,-1,-1,-1,-1,-1,-1,-1,-1,-1,-1,-1,-1,-1,-1,-1,-1,-1],"split_conditions":[8.1666664E1,5.5E1,3.925231E-17,4.5E1,5E0,1.49E2,1.3033333E2,1.2E1,4.710277E-16,6.8666664E1,2.55875E1,1.05333336E2,9E-1,1.55E1,4.821134E1,3.2333332E1,8.000001E-1,1E0,2.75E1,2.5954168E1,-1.65E1,7.4E1,2.6E1,2.5564585E1,-2E1,6.6274956E1,-4.25E1,6.503511E1,2.9835419E1,-6.724782E0,1.7E2,2.564167E1,2.5564585E1,2.8189583E1,3.8333332E1,2.6368752E1,3.2760418E1,3E0,2.4993439E1,7.723752E1,-1.05E1,7.8333336E1,1E0,7.3666664E1,1.15E1,1.55E1,5.9333332E1,6E-1,-1.3E1,2.6743752E1,1.51884165E1,1.6066667E2,2.4622915E1,3.6421052E-1,-4.1072354E0,2.8491667E1,2.6739542E1,2.8E1,3.1835417E1,1.3E1,1.96E2,1.5230244E0,-8.3655205E0,2.8096356E0,-6.4153266E0,-1.4067218E0,-4.4230146E0,1.3182747E0,5.300364E0,-3.2859073E0,4.5840306E0,-5.6403537E0,2.2909563E0,-2.6728373E0,-6.1903944E0,5.329247E0,-8.698105E-1,-7.890742E-1,4.1319003E0,-4.768997E0,-2.6957889E0,-1.7661248E0,-6.967067E0,3.1451652E0,-6.872845E-1,4.992178E0,-5.3204055E0,1.3842151E1,7.268942E0,1.6770124E-1,2.5743814E0,1.8930207E-1,8.824957E0,4.3360324E0,-5.408327E0,-2.1084065E0,1.7321329E0,2.0414011E0,-3.9646523E0,4.1205117E-1,7.114964E0,3.514147E0,-2.7704053E0,6.4722304E0,1.5744574E1,-4.41803E-1,7.7559032E0,7.43988E0,4.9592752E0,9.66135E0,1.3136704E1,-1.8363713E0,7.2438846E0,1.2425605E1,1.698938E1,2.3723373E1,6.219397E0],"split_indices":[0,0,1,0,1,0,0,1,1,0,2,0,3,1,5,0,3,6,1,2,1,0,1,2,1,5,1,5,2,0,0,2,2,2,0,2,2,3,4,5,1,0,6,0,1,1,0,3,1,2,4,0,2,0,0,2,4,1,2,1,0,0,0,0,0,0,0,0,0,0,0,0,0,0,0,0,0,0,0,0,0,0,0,0,0,0,0,0,0,0,0,0,0,0,0,0,0,0,0,0,0,0,0,0,0,0,0,0,0,0,0,0,0,0,0,0,0],"split_type":[0,0,0,0,0,0,0,0,0,0,0,0,0,0,0,0,0,0,0,0,0,0,0,0,0,0,0,0,0,0,0,0,0,0,0,0,0,0,0,0,0,0,0,0,0,0,0,0,0,0,0,0,0,0,0,0,0,0,0,0,0,0,0,0,0,0,0,0,0,0,0,0,0,0,0,0,0,0,0,0,0,0,0,0,0,0,0,0,0,0,0,0,0,0,0,0,0,0,0,0,0,0,0,0,0,0,0,0,0,0,0,0,0,0,0,0,0],"sum_hessian":[3.199E3,2.215E3,9.84E2,1.079E3,1.136E3,4.48E2,5.36E2,6.15E2,4.64E2,7.54E2,3.82E2,4.14E2,3.4E1,4.2E2,1.16E2,5.48E2,6.7E1,2.31E2,2.33E2,4.5E2,3.04E2,6E1,3.22E2,2.21E2,1.93E2,3.2E1,2E0,2.31E2,1.89E2,2E0,1.14E2,1.95E2,3.53E2,6.4E1,3E0,1.9E1,2.12E2,2.24E2,9E0,5.6E1,3.94E2,5.4E1,2.5E2,4E1,2E1,3.04E2,1.8E1,6.3E1,1.58E2,8.1E1,1.12E2,4E0,2.8E1,1E0,1E0,1.9E1,2.12E2,1.81E2,8E0,1.05E2,9E0,1E0,1.94E2,3E0,3.5E2,1.9E1,4.5E1,1E0,2E0,1.5E1,4E0,2.1E2,2E0,2.17E2,7E0,7E0,2E0,5E1,6E0,7.8E1,3.16E2,3.3E1,2.1E1,5.8E1,1.92E2,3.9E1,1E0,5E0,1.5E1,2.34E2,7E1,2E0,1.6E1,5.9E1,4E0,7E1,8.8E1,6.8E1,1.3E1,8E0,1.04E2,3E0,1E0,6E0,2.2E1,1.7E1,2E0,9.5E1,1.17E2,1.13E2,6.8E1,5E0,3E0,6.4E1,4.1E1,8E0,1E0],"tree_param":{"num_deleted":"0","num_feature":"7","num_nodes":"117","size_leaf_vector":"1"}},{"base_weights":[5.5874866E-2,-8.475941E0,1.27772E1,-1.4554954E1,-4.2801127E0,7.0797496E0,2.1649757E1,-1.5717502E1,-5.773094E0,-5.4226527E0,8.284773E0,6.468782E-1,1.4094143E1,1.0051977E1,2.7990353E1,-3.5403654E-1,-1.6105057E1,-8.74875E0,-5.9204364E-1,-8.129775E0,-2.7464526E0,6.457855E0,7.507335E0,-8.3945E0,2.0126696E0,2.2340048E1,1.067505E1,1.130988E0,1.5637589E1,2.5855883E1,4.733046E1,3.7911339E0,-7.4094663E0,-1.8429733E1,-1.3801264E1,-5.2509546E0,-1.3995257E1,-5.838013E0,2.7732115E0,-6.181467E-1,-8.8620825E0,-7.5037875E0,-8.765264E-1,3.8080673E0,1.5144241E1,-1.8490726E1,-5.381727E0,-2.5697196E0,4.9119363E0,2.022587E1,4.6503304E1,3.2068715E0,1.3852844E1,6.6374784E0,-6.8829284E0,1.7215487E1,-1.0039385E1,2.1153889E1,3.1872255E1,1.6218245E1,2.1223091E1,-2.2746523E-1,2.5400567E0,-4.9239774E0,1.0340072E0,-6.732063E0,-4.825136E0,-5.1721106E0,-3.6614597E0,-4.4592485E0,-4.8903963E-1,-5.294656E0,-2.2442105E0,-4.7724304E-1,-3.949445E0,-3.690758E-1,1.5446342E0,3.276302E-1,-5.7828994E0,-5.099117E0,-2.3952038E0,-1.6123441E0,-3.2426758E0,6.9620824E-1,-8.495833E-1,3.801931E-3,3.229729E0,5.2370524E0,-1.1338319E0,1.2927017E0,-6.286547E0,1.9965256E0,-2.254053E0,-2.47921E0,9.9806654E-1,3.863443E0,5.681729E-1,7.1184187E0,1.6762521E0,1.4755834E1,4.15855E0,-2.9386872E-1,6.5077453E0,2.4537442E0,5.743751E0,-2.672893E0,3.9459946E0,2.3619993E0,-4.1750736E0,6.177184E0,2.7989678E0,6.554985E-1,-4.6098413E0,5.2820435E0,9.053579E0,7.622588E0,1.2810451E1,9.951101E0,-2.923729E0],"categories":[],"categories_nodes":[],"categories_segments":[],"categories_sizes":[],"default_left":[0,0,0,0,0,0,0,0,0,0,0,0,0,0,0,0,0,0,0,0,0,0,0,0,0,0,0,0,0,0,0,0,0,0,0,0,0,0,0,0,0,0,0,0,0,0,0,0,0,0,0,0,0,0,0,0,0,0,0,0,0,0,0,0,0,0,0,0,0,0,0,0,0,0,0,0,0,0,0,0,0,0,0,0,0,0,0,0,0,0,0,0,0,0,0,0,0,0,0,0,0,0,0,0,0,0,0,0,0,0,0,0,0,0,0,0,0,0,0],"id":2,"left_children":[1,3,5,7,9,11,13,15,17,19,21,23,25,27,29,31,33,35,37,39,41,43,-1,45,47,49,51,53,55,57,59,61,63,65,67,69,71,73,75,77,79,81,83,85,87,89,91,93,95,97,99,101,103,105,107,109,111,113,115,-1,117,-1,-1,-1,-1,-1,-1,-1,-1,-1,-1,-1,-1,-1,-1,-1,-1,-1,-1,-1,-1,-1,-1,-1,-1,-1,-1,-1,-1,-1,-1,-1,-1,-1,-1,-1,-1,-1,-1,-1,-1,-1,-1,-1,-1,-1,-1,-1,-1,-1,-1,-1,-1,-1,-1,-1,-1,-1,-1],"loss_changes":[3.4742347E5,4.8808156E4,6.480472E4,7.892953E3,1.6338854E4,3.5367066E4,3.663411E4,4.1026875E3,1.428603E3,7.51951E3,2.743687E3,5.0798364E3,1.0334086E4,8.901738E3,1.2151219E4,5.545175E2,3.3499531E3,1.0092329E3,6.3408093E2,2.8384453E3,4.6637515E3,1.9448154E3,0E0,1.5430403E3,4.7555703E3,4.6277383E3,6.2921094E3,3.1346838E3,4.629549E3,7.6427344E3,4.2997344E3,2.6167767E2,7.407973E2,2.7626562E3,1.6672227E3,1.263655E3,4.1540967E2,4.1471512E2,2.1556541E2,1.5208269E3,3.2286836E3,9.834785E2,2.3697913E3,1.7955531E3,9.4123535E2,7.6455615E2,1.1533773E3,4.694715E3,5.2408564E3,5.096586E3,1.875586E1,6.2897417E3,5.459168E3,4.371896E3,3.1196357E3,2.5758398E3,4.8938855E2,4.8465625E3,7.804539E3,0E0,3.2832107E3,0E0,0E0,0E0,0E0,0E0,0E0,0E0,0E0,0E0,0E0,0E0,0E0,0E0,0E0,0E0,0E0,0E0,0E0,0E0,0E0,0E0,0E0,0E0,0E0,0E0,0E0,0E0,0E0,0E0,0E0,0E0,0E0,0E0,0E0,0E0,0E0,0E0,0E0,0E0,0E0,0E0,0E0,0E0,0E0,0E0,0E0,0E0,0E0,0E0,0E0,0E0,0E0,0E0,0E0,0E0,0E0,0E0,0E0],"parents":[2147483647,0,0,1,1,2,2,3,3,4,4,5,5,6,6,7,7,8,8,9,9,10,10,11,11,12,12,13,13,14,14,15,15,16,16,17,17,18,18,19,19,20,20,21,21,23,23,24,24,25,25,26,26,27,27,28,28,29,29,30,30,31,31,32,32,33,33,34,34,35,35,36,36,37,37,38,38,39,39,40,40,41,41,42,42,43,43,44,44,45,45,46,46,47,47,48,48,49,49,50,50,51,51,52,52,53,53,54,54,55,55,56,56,57,57,58,58,60,60],"right_children":[2,4,6,8,10,12,14,16,18,20,22,24,26,28,30,32,34,36,38,40,42,44,-1,46,48,50,52,54,56,58,60,62,64,66,68,70,72,74,76,78,80,82,84,86,88,90,92,94,96,98,100,102,104,106,108,110,112,114,116,-1,118,-1,-1,-1,-1,-1,-1,-1,-1,-1,-1,-1,-1,-1,-1,-1,-1,-1,-1,-1,-1,-1,-1,-1,-1,-1,-1,-1,-1,-1,-1,-1,-1,-1,-1,-1,-1,-1,-1,-1,-1,-1,-1,-1,-1,-1,-1,-1,-1,-1,-1,-1,-1,-1,-1,-1,-1,-1,-1],"split_conditions":[7.3333336E1,4.9E1,1.05333336E2,1.2E1,1.55E1,2.5E0,-4E0,2.565625E1,1.65E1,5.9666668E1,3.05E1,6.694871E1,2.5537498E1,-2.7E1,1.59E2,2.7238943E1,-1.5E0,2.9888672E1,7.291368E1,1E0,-6.5E0,1E-1,7.507335E0,5.8137165E1,-1.4E1,3.4921856E1,7.184153E1,2.5210283E1,1.0048361E2,1.55E1,1E0,2.4863468E1,3E-1,3.5333332E1,3.2333332E1,3.3666668E1,3.1597918E1,6.984926E1,3.9E1,5.9333332E1,-1.3E1,2.8622915E1,2.838125E1,6.5333336E1,7.827061E1,7.4E1,-2.75E1,8.8E1,2.615625E1,2.9808346E1,2.5427084E1,3.1235058E1,8.3333336E1,-4.15E1,-4.15E1,2.7345785E1,1.3556282E1,1.4633333E2,7.652852E1,1.6218245E1,2E-1,-2.2746523E-1,2.5400567E0,-4.9239774E0,1.0340072E0,-6.732063E0,-4.825136E0,-5.1721106E0,-3.6614597E0,-4.4592485E0,-4.8903963E-1,-5.294656E0,-2.2442105E0,-4.7724304E-1,-3.949445E0,-3.690758E-1,1.5446342E0,3.276302E-1,-5.7828994E0,-5.099117E0,-2.3952038E0,-1.6123441E0,-3.2426758E0,6.9620824E-1,-8.495833E-1,3.801931E-3,3.229729E0,5.2370524E0,-1.1338319E0,1.2927017E0,-6.286547E0,1.9965256E0,-2.254053E0,-2.47921E0,9.9806654E-1,3.863443E0,5.681729E-1,7.1184187E0,1.6762521E0,1.4755834E1,4.15855E0,-2.9386872E-1,6.5077453E0,2.4537442E0,5.743751E0,-2.672893E0,3.9459946E0,2.3619993E0,-4.1750736E0,6.177184E0,2.7989678E0,6.554985E-1,-4.6098413E0,5.2820435E0,9.053579E0,7.622588E0,1.2810451E1,9.951101E0,-2.923729E0],"split_indices":[0,0,0,1,1,1,1,2,1,0,1,5,2,1,0,4,1,4,5,6,1,3,0,5,1,4,5,4,5,1,6,4,3,0,0,0,2,5,0,0,1,2,2,0,5,0,1,0,2,4,2,4,0,1,1,4,4,0,5,0,3,0,0,0,0,0,0,0,0,0,0,0,0,0,0,0,0,0,0,0,0,0,0,0,0,0,0,0,0,0,0,0,0,0,0,0,0,0,0,0,0,0,0,0,0,0,0,0,0,0,0,0,0,0,0,0,0,0,0],"split_type":[0,0,0,0,0,0,0,0,0,0,0,0,0,0,0,0,0,0,0,0,0,0,0,0,0,0,0,0,0,0,0,0,0,0,0,0,0,0,0,0,0,0,0,0,0,0,0,0,0,0,0,0,0,0,0,0,0,0,0,0,0,0,0,0,0,0,0,0,0,0,0,0,0,0,0,0,0,0,0,0,0,0,0,0,0,0,0,0,0,0,0,0,0,0,0,0,0,0,0,0,0,0,0,0,0,0,0,0,0,0,0,0,0,0,0,0,0,0,0],"sum_hessian":[3.199E3,1.915E3,1.284E3,7.81E2,1.134E3,7.83E2,5.01E2,6.89E2,9.2E1,1.04E3,9.4E1,4.09E2,3.74E2,1.78E2,3.23E2,1.7E1,6.72E2,5.8E1,3.4E1,5.16E2,5.24E2,8.6E1,8E0,5.3E1,3.56E2,1.08E2,2.66E2,6.9E1,1.09E2,2.93E2,3E1,1.1E1,6E0,3.31E2,3.41E2,3.6E1,2.2E1,1.3E1,2.1E1,4.6E1,4.7E2,1.47E2,3.77E2,6.7E1,1.9E1,1.1E1,4.2E1,1.38E2,2.18E2,1.01E2,7E0,8E1,1.86E2,4.1E1,2.8E1,1.03E2,6E0,1.67E2,1.26E2,2.3E1,7E0,6E0,5E0,3E0,3E0,1.19E2,2.12E2,1.05E2,2.36E2,9E0,2.7E1,1.3E1,9E0,9E0,4E0,8E0,1.3E1,4.3E1,3E0,4.4E1,4.26E2,9.1E1,5.6E1,1.43E2,2.34E2,4.4E1,2.3E1,1.7E1,2E0,1E0,1E1,6E0,3.6E1,7E1,6.8E1,5.9E1,1.59E2,8.1E1,2E1,6E0,1E0,6.6E1,1.4E1,9.1E1,9.5E1,1.2E1,2.9E1,9E0,1.9E1,7.1E1,3.2E1,2E0,4E0,1.22E2,4.5E1,8.1E1,4.5E1,5E0,2E0],"tree_param":{"num_deleted":"0","num_feature":"7","num_nodes":"119","size_leaf_vector":"1"}},{"base_weights":[5.8329992E-2,-4.2690196E0,1.2644031E1,-8.506318E0,3.8606846E-1,4.6144414E0,1.64339E1,-1.0909302E1,-6.003217E0,-1.0512397E0,9.627409E0,7.011355E0,-1.4070206E0,1.3922164E1,2.615759E1,-6.4010315E0,-1.2302582E1,-7.1765943E0,-1.8739914E0,-3.938472E0,9.3306065E-1,1.6576286E1,5.9904585E0,8.534623E0,-4.3537354E0,4.275764E0,-7.839997E0,9.464488E0,1.8103714E1,-6.8133874E0,2.7242718E1,2.3654273E0,-9.142048E0,-1.4781562E1,-1.023247E1,-6.7637005E0,-1.5408552E1,6.4601398E0,-3.1084945E0,-1.4351199E1,-3.1183445E0,-1.4231529E0,3.874739E0,1.0061449E1,2.139628E1,4.8300476E0,8.260924E0,4.995217E0,1.7465122E1,-1.38261595E1,3.2512226E1,-1.0033181E0,2.0741251E1,-1.4646929E1,1.4208236E1,6.850967E0,1.7037933E1,1.2697221E1,2.222834E1,6.0386353E0,2.9054462E1,-1.854923E0,1.8659738E0,-4.0360236E0,-1.5904444E0,-4.8360605E0,-2.736445E0,-3.2312703E0,-9.132903E-1,-7.950845E-1,-2.395998E0,-5.6039724E0,-1.7189847E0,-4.0411625E0,3.4032936E0,-4.766869E0,-7.243877E-1,5.3972E-1,-4.885166E0,-3.0946782E0,-5.602993E-1,6.31582E-1,-9.070481E-1,6.959681E0,9.026926E-1,4.2438025E0,-2.486723E0,8.230236E0,3.5564334E0,2.581549E0,3.9751175E-1,2.043452E0,-3.1853776E0,1.5198401E0,6.471438E0,-6.692718E0,7.0685945E0,4.1139154E0,1.2142198E1,2.9922442E0,-1.719752E0,-2.3043358E0,8.642096E0,-6.8014765E0,-2.436264E0,6.1936293E0,-1.6643883E0,3.1993167E0,8.9879796E-2,1.1293163E1,4.4051E0,6.397837E0,1.4375861E0,8.103471E0,4.108065E0,6.827054E0,-2.6698937E0,7.7271E0,1.17782E1],"categories":[],"categories_nodes":[],"categories_segments":[],"categories_sizes":[],"default_left":[0,0,0,0,0,0,0,0,0,0,0,0,0,0,0,0,0,0,0,0,0,0,0,0,0,0,0,0,0,0,0,0,0,0,0,0,0,0,0,0,0,0,0,0,0,0,0,0,0,0,0,0,0,0,0,0,0,0,0,0,0,0,0,0,0,0,0,0,0,0,0,0,0,0,0,0,0,0,0,0,0,0,0,0,0,0,0,0,0,0,0,0,0,0,0,0,0,0,0,0,0,0,0,0,0,0,0,0,0,0,0,0,0,0,0,0,0,0,0],"id":3,"left_children":[1,3,5,7,9,11,13,15,17,19,21,23,25,27,29,31,33,35,37,39,41,43,45,47,49,51,53,55,57,-1,59,61,63,65,67,69,71,73,75,77,79,81,83,85,87,89,-1,91,93,95,97,99,101,103,105,107,109,111,113,115,117,-1,-1,-1,-1,-1,-1,-1,-1,-1,-1,-1,-1,-1,-1,-1,-1,-1,-1,-1,-1,-1,-1,-1,-1,-1,-1,-1,-1,-1,-1,-1,-1,-1,-1,-1,-1,-1,-1,-1,-1,-1,-1,-1,-1,-1,-1,-1,-1,-1,-1,-1,-1,-1,-1,-1,-1,-1,-1],"loss_changes":[1.743347E5,4.698823E4,2.484725E4,7.4350938E3,1.5099216E4,3.8201572E3,1.3215203E4,3.909875E3,2.956621E3,5.641145E3,3.7674287E3,3.3091396E3,2.8118704E3,8.1048047E3,6.610992E3,3.6740352E3,2.3325234E3,1.5170703E3,1.4296074E3,3.3796934E3,4.0533486E3,1.4175986E3,2.4172175E3,5.1914043E3,8.48135E3,3.5846396E3,5.6110166E3,4.1784355E3,4.8021094E3,0E0,4.0887656E3,1.2576112E3,1.8494141E3,1.5046992E3,1.00058984E3,2.2727598E3,5.895322E2,1.9050217E3,1.0258386E3,9.3448486E2,3.3382778E3,1.8415376E3,4.2800435E3,1.916148E3,1.3454668E3,1.285315E3,0E0,3.5036416E3,2.2836934E3,6.551683E3,1.9335156E2,1.7184409E3,2.5137422E3,1.2822275E3,1.2591101E3,4.0690542E3,2.1154053E3,6.7873965E3,4.8555664E3,2.699941E3,2.4215234E3,0E0,0E0,0E0,0E0,0E0,0E0,0E0,0E0,0E0,0E0,0E0,0E0,0E0,0E0,0E0,0E0,0E0,0E0,0E0,0E0,0E0,0E0,0E0,0E0,0E0,0E0,0E0,0E0,0E0,0E0,0E0,0E0,0E0,0E0,0E0,0E0,0E0,0E0,0E0,0E0,0E0,0E0,0E0,0E0,0E0,0E0,0E0,0E0,0E0,0E0,0E0,0E0,0E0,0E0,0E0,0E0,0E0,0E0],"parents":[2147483647,0,0,1,1,2,2,3,3,4,4,5,5,6,6,7,7,8,8,9,9,10,10,11,11,12,12,13,13,14,14,15,15,16,16,17,17,18,18,19,19,20,20,21,21,22,22,23,23,24,24,25,25,26,26,27,27,28,28,30,30,31,31,32,32,33,33,34,34,35,35,36,36,37,37,38,38,39,39,40,40,41,41,42,42,43,43,44,44,45,45,47,47,48,48,49,49,50,50,51,51,52,52,53,53,54,54,55,55,56,56,57,57,58,58,59,59,60,60],"right_children":[2,4,6,8,10,12,14,16,18,20,22,24,26,28,30,32,34,36,38,40,42,44,46,48,50,52,54,56,58,-1,60,62,64,66,68,70,72,74,76,78,80,82,84,86,88,90,-1,92,94,96,98,100,102,104,106,108,110,112,114,116,118,-1,-1,-1,-1,-1,-1,-1,-1,-1,-1,-1,-1,-1,-1,-1,-1,-1,-1,-1,-1,-1,-1,-1,-1,-1,-1,-1,-1,-1,-1,-1,-1,-1,-1,-1,-1,-1,-1,-1,-1,-1,-1,-1,-1,-1,-1,-1,-1,-1,-1,-1,-1,-1,-1,-1,-1,-1,-1],"split_conditions":[8.8E1,5.8E1,-6.5E0,4.5333332E1,1.45E1,2.6743752E1,1.3933333E2,2.871875E1,7.5E0,-3E0,1E0,-9.5E0,7.349558E1,1.1E1,4.821134E1,2.2077717E1,-4.710277E-16,1.3000002E0,1E0,6.517068E1,7.1333336E1,7.4333336E1,2.7E0,-1.85E1,2.6206251E1,1.2E2,-9E0,3E0,2.3933908E1,-6.8133874E0,2.4741669E1,1.731746E1,1.8841109E-15,3.1664581E1,1.55E1,2.7887503E1,-2.3551386E-16,5.1E1,2.5854162E1,1.539184E1,-2.65E1,2.4379204E1,2.4787498E1,3.1820824E1,2.35E1,2.6739542E1,8.260924E0,3E-1,6.880168E1,-7E0,-7.5E0,9.2E1,6.6274956E1,2.8014585E1,3.170208E1,2.6206251E1,1.51884165E1,1.933639E1,1E0,2.4574999E1,1.25E1,-1.854923E0,1.8659738E0,-4.0360236E0,-1.5904444E0,-4.8360605E0,-2.736445E0,-3.2312703E0,-9.132903E-1,-7.950845E-1,-2.395998E0,-5.6039724E0,-1.7189847E0,-4.0411625E0,3.4032936E0,-4.766869E0,-7.243877E-1,5.3972E-1,-4.885166E0,-3.0946782E0,-5.602993E-1,6.31582E-1,-9.070481E-1,6.959681E0,9.026926E-1,4.2438025E0,-2.486723E0,8.230236E0,3.5564334E0,2.581549E0,3.9751175E-1,2.043452E0,-3.1853776E0,1.5198401E0,6.471438E0,-6.692718E0,7.0685945E0,4.1139154E0,1.2142198E1,2.9922442E0,-1.719752E0,-2.3043358E0,8.642096E0,-6.8014765E0,-2.436264E0,6.1936293E0,-1.6643883E0,3.1993167E0,8.9879796E-2,1.1293163E1,4.4051E0,6.397837E0,1.4375861E0,8.103471E0,4.108065E0,6.827054E0,-2.6698937E0,7.7271E0,1.17782E1],"split_indices":[0,0,1,0,1,2,0,2,1,1,6,1,5,1,5,4,1,3,6,5,0,0,3,1,2,0,1,6,4,0,2,4,1,2,1,2,1,0,2,4,1,4,2,4,1,4,0,3,5,1,1,0,5,2,2,2,4,4,6,2,1,0,0,0,0,0,0,0,0,0,0,0,0,0,0,0,0,0,0,0,0,0,0,0,0,0,0,0,0,0,0,0,0,0,0,0,0,0,0,0,0,0,0,0,0,0,0,0,0,0,0,0,0,0,0,0,0,0,0],"split_type":[0,0,0,0,0,0,0,0,0,0,0,0,0,0,0,0,0,0,0,0,0,0,0,0,0,0,0,0,0,0,0,0,0,0,0,0,0,0,0,0,0,0,0,0,0,0,0,0,0,0,0,0,0,0,0,0,0,0,0,0,0,0,0,0,0,0,0,0,0,0,0,0,0,0,0,0,0,0,0,0,0,0,0,0,0,0,0,0,0,0,0,0,0,0,0,0,0,0,0,0,0,0,0,0,0,0,0,0,0,0,0,0,0,0,0,0,0,0,0],"sum_hessian":[3.199E3,2.381E3,8.18E2,1.246E3,1.135E3,2.63E2,5.55E2,6.34E2,6.12E2,9.83E2,1.52E2,1.88E2,7.5E1,4.43E2,1.12E2,1.51E2,4.83E2,4.76E2,1.36E2,4E2,5.83E2,5.1E1,1.01E2,1.66E2,2.2E1,4E1,3.5E1,2.16E2,2.27E2,2E0,1.1E2,3.6E1,1.15E2,2.17E2,2.66E2,4.55E2,2.1E1,1.7E1,1.19E2,2.8E1,3.72E2,3.24E2,2.59E2,2.3E1,2.8E1,9.7E1,4E0,1.2E2,4.6E1,1.8E1,4E0,3.1E1,9E0,2.7E1,8E0,1.62E2,5.4E1,1E2,1.27E2,9E0,1.01E2,1.1E1,2.5E1,5.3E1,6.2E1,1.74E2,4.3E1,2.47E2,1.9E1,1.05E2,3.5E2,1.5E1,6E0,3E0,1.4E1,5E0,1.14E2,3E0,2.5E1,5.4E1,3.18E2,1.01E2,2.23E2,1E1,2.49E2,1.9E1,4E0,1.6E1,1.2E1,4.6E1,5.1E1,1.08E2,1.2E1,1.2E1,3.4E1,1.5E1,3E0,2E0,2E0,9E0,2.2E1,2E0,7E0,1.1E1,1.6E1,6E0,2E0,1.02E2,6E1,4E0,5E1,4.7E1,5.3E1,8E1,4.7E1,4E0,5E0,7.9E1,2.2E1],"tree_param":{"num_deleted":"0","num_feature":"7","num_nodes":"119","size_leaf_vector":"1"}},{"base_weights":[6.3537866E-2,-3.8052256E0,7.173363E0,-6.1545343E0,-6.939837E-1,3.0098414E0,1.0629066E1,-6.481001E0,3.5712519E0,5.80072E0,-1.6806861E0,2.6622143E0,1.1338895E1,7.453559E0,1.600031E1,-8.895103E0,-5.276522E0,-2.4712126E0,5.1561627E0,2.2834854E0,1.4791067E1,-2.9878206E0,1.8108783E0,-2.254876E0,4.407501E0,2.5448847E0,9.740845E0,8.186423E0,1.9481836E1,4.2793164E0,-9.055802E0,-7.240253E0,-4.055666E0,6.5263863E0,-2.1283998E0,-1.6297726E1,3.8807979E0,1.7506414E1,-3.9161575E0,-2.2070684E1,-2.8124156E0,2.615045E0,-1.0700216E1,1.1397831E1,-2.8431497E0,-1.214145E1,4.939501E0,9.3927354E-1,2.590954E1,1.08606415E1,9.092734E0,1.1527893E1,-1.6484743E1,2.0417416E1,-1.3043294E1,-4.1522746E0,-2.375895E0,-2.8594968E-1,-2.3322802E0,3.759368E0,-1.2777654E0,-1.027015E0,2.4210138E0,-1.8240842E0,-6.732222E0,1.665429E-1,3.9593608E0,-1.488434E0,5.8063374E0,3.7166314E0,-5.6747103E0,-1.3971732E0,-7.5779204E0,2.9001982E0,-9.448493E-1,1.5252608E-1,1.8819091E0,-6.74345E0,-1.5876761E-1,-6.6788907E0,-4.7627422E-1,-1.0492204E0,-7.0630913E0,1.7719594E0,-1.4905185E0,1.4647607E0,-3.7595441E0,8.220629E0,2.3192472E0,2.5663877E0,9.134072E0,2.248128E0,7.2619443E0,-9.084405E0,1.8264359E-1,-1.7328583E0,6.4024096E0,1.3074875E0,-5.544979E0],"categories":[],"categories_nodes":[],"categories_segments":[],"categories_sizes":[],"default_left":[0,0,0,0,0,0,0,0,0,0,0,0,0,0,0,0,0,0,0,0,0,0,0,0,0,0,0,0,0,0,0,0,0,0,0,0,0,0,0,0,0,0,0,0,0,0,0,0,0,0,0,0,0,0,0,0,0,0,0,0,0,0,0,0,0,0,0,0,0,0,0,0,0,0,0,0,0,0,0,0,0,0,0,0,0,0,0,0,0,0,0,0,0,0,0,0,0,0,0],"id":4,"left_children":[1,3,5,7,9,11,13,15,17,19,21,23,-1,25,27,29,31,-1,33,35,37,39,41,43,45,47,49,51,53,-1,55,57,59,61,-1,63,65,67,69,71,73,75,77,-1,79,81,83,85,87,-1,89,91,93,95,97,-1,-1,-1,-1,-1,-1,-1,-1,-1,-1,-1,-1,-1,-1,-1,-1,-1,-1,-1,-1,-1,-1,-1,-1,-1,-1,-1,-1,-1,-1,-1,-1,-1,-1,-1,-1,-1,-1,-1,-1,-1,-1,-1,-1],"loss_changes":[8.8047234E4,1.5147844E4,1.6197555E4,3.7729883E3,5.732397E3,6.1029434E3,1.03875E4,3.2766055E3,7.7238245E2,3.6975215E3,3.5470312E3,4.37804E3,0E0,4.3427227E3,6.043082E3,1.5396973E3,1.8046719E3,0E0,6.338256E2,2.6157283E3,1.7448462E3,1.8291118E3,2.1609146E3,3.2806877E3,3.3702915E3,4.664983E3,4.2155273E3,6.125567E3,5.0438047E3,0E0,1.9399902E3,9.7294824E2,1.6537334E3,5.191166E2,0E0,3.0291516E2,2.4715022E3,1.3001523E3,1.4571747E3,1.60021E2,2.3904019E3,1.5380114E3,1.545419E3,0E0,3.2075845E3,1.1003911E3,3.526496E3,6.3293506E3,5.2216797E0,0E0,2.727166E3,3.0920166E3,2.1409326E3,3.8261094E3,5.5387585E2,0E0,0E0,0E0,0E0,0E0,0E0,0E0,0E0,0E0,0E0,0E0,0E0,0E0,0E0,0E0,0E0,0E0,0E0,0E0,0E0,0E0,0E0,0E0,0E0,0E0,0E0,0E0,0E0,0E0,0E0,0E0,0E0,0E0,0E0,0E0,0E0,0E0,0E0,0E0,0E0,0E0,0E0,0E0,0E0],"parents":[2147483647,0,0,1,1,2,2,3,3,4,4,5,5,6,6,7,7,8,8,9,9,10,10,11,11,13,13,14,14,15,15,16,16,18,18,19,19,20,20,21,21,22,22,23,23,24,24,25,25,26,26,27,27,28,28,30,30,31,31,32,32,33,33,35,35,36,36,37,37,38,38,39,39,40,40,41,41,42,42,44,44,45,45,46,46,47,47,48,48,50,50,51,51,52,52,53,53,54,54],"right_children":[2,4,6,8,10,12,14,16,18,20,22,24,-1,26,28,30,32,-1,34,36,38,40,42,44,46,48,50,52,54,-1,56,58,60,62,-1,64,66,68,70,72,74,76,78,-1,80,82,84,86,88,-1,90,92,94,96,98,-1,-1,-1,-1,-1,-1,-1,-1,-1,-1,-1,-1,-1,-1,-1,-1,-1,-1,-1,-1,-1,-1,-1,-1,-1,-1,-1,-1,-1,-1,-1,-1,-1,-1,-1,-1,-1,-1,-1,-1,-1,-1,-1,-1],"split_conditions":[7.7E1,5.7E1,-4.710277E-16,1.95E1,2.564167E1,3.0030087E2,1.12E2,3.8333332E1,1.7057314E1,7.3333336E1,6E0,8.7E1,1.1338895E1,7.184153E1,2.126744E1,-2.4E1,-2.5E0,-2.4712126E0,1.3000002E0,6.643497E1,1.85E1,2.568125E1,7.5666664E1,-6.15E1,-5.05E1,3.4921856E1,7.203937E1,2.0696087E1,2.9497917E1,4.2793164E0,-8E0,2.6099997E1,-2E0,6.940174E1,-2.1283998E0,1.6263872E1,1E1,2.4372915E1,2.5041666E1,-3.65E1,2.582292E1,3E0,6.7141205E1,1.1397831E1,2.4816666E1,7.298916E1,2.9497917E1,7.081319E1,1.2000001E1,1.08606415E1,3.7E0,2.63125E1,1E0,2.4574999E1,1.2E1,-4.1522746E0,-2.375895E0,-2.8594968E-1,-2.3322802E0,3.759368E0,-1.2777654E0,-1.027015E0,2.4210138E0,-1.8240842E0,-6.732222E0,1.665429E-1,3.9593608E0,-1.488434E0,5.8063374E0,3.7166314E0,-5.6747103E0,-1.3971732E0,-7.5779204E0,2.9001982E0,-9.448493E-1,1.5252608E-1,1.8819091E0,-6.74345E0,-1.5876761E-1,-6.6788907E0,-4.7627422E-1,-1.0492204E0,-7.0630913E0,1.7719594E0,-1.4905185E0,1.4647607E0,-3.7595441E0,8.220629E0,2.3192472E0,2.5663877E0,9.134072E0,2.248128E0,7.2619443E0,-9.084405E0,1.8264359E-1,-1.7328583E0,6.4024096E0,1.3074875E0,-5.544979E0],"split_indices":[0,0,1,1,2,5,0,0,4,0,1,0,0,5,4,1,1,0,3,5,1,2,0,1,1,4,5,4,2,0,1,2,1,5,0,4,1,2,2,1,2,6,5,0,2,5,2,5,3,0,3,2,6,2,1,0,0,0,0,0,0,0,0,0,0,0,0,0,0,0,0,0,0,0,0,0,0,0,0,0,0,0,0,0,0,0,0,0,0,0,0,0,0,0,0,0,0,0,0],"split_type":[0,0,0,0,0,0,0,0,0,0,0,0,0,0,0,0,0,0,0,0,0,0,0,0,0,0,0,0,0,0,0,0,0,0,0,0,0,0,0,0,0,0,0,0,0,0,0,0,0,0,0,0,0,0,0,0,0,0,0,0,0,0,0,0,0,0,0,0,0,0,0,0,0,0,0,0,0,0,0,0,0,0,0,0,0,0,0,0,0,0,0,0,0,0,0,0,0,0,0],"sum_hessian":[3.199E3,2.072E3,1.127E3,1.18E3,8.92E2,5.12E2,6.15E2,1.142E3,3.8E1,1.17E2,7.75E2,5.08E2,4E0,3.88E2,2.27E2,3.78E2,7.64E2,4E0,3.4E1,8.5E1,3.2E1,5.64E2,2.11E2,1.33E2,3.75E2,1.24E2,2.64E2,7.1E1,1.56E2,2E0,3.76E2,2.91E2,4.73E2,3.1E1,3E0,6E0,7.9E1,2.8E1,4E0,4E0,5.6E2,1.99E2,1.2E1,1E0,1.32E2,1.1E1,3.64E2,1.17E2,7E0,5E0,2.59E2,6.3E1,8E0,1.52E2,4E0,7E1,3.06E2,2.3E1,2.68E2,5E0,4.68E2,4E0,2.7E1,3E0,3E0,5.9E1,2E1,2E0,2.6E1,2E0,2E0,1E0,3E0,1.4E1,5.46E2,1.27E2,7.2E1,5E0,7E0,7E0,1.25E2,7E0,4E0,3.32E2,3.2E1,9.1E1,2.6E1,6E0,1E0,2.54E2,5E0,4.9E1,1.4E1,4E0,4E0,5E0,1.47E2,1E0,3E0],"tree_param":{"num_deleted":"0","num_feature":"7","num_nodes":"99","size_leaf_vector":"1"}},{"base_weights":[5.0741468E-2,-3.3866224E0,4.108576E0,-5.288129E0,-1.9875304E0,3.356701E0,1.5583323E1,-6.0610557E0,-2.857763E0,-3.6685033E0,-3.5228002E-1,1.822772E0,9.344E0,5.919427E0,2.107436E1,-4.036365E0,-6.663277E0,-9.110007E-1,-7.2302637E0,-2.852471E-1,-4.917636E0,-1.9597795E1,-2.3747997E-1,1.5945928E0,1.4053314E1,5.194866E0,1.2062983E1,1.946041E0,2.4137554E1,2.4447227E1,-2.640355E0,2.7087338E0,-5.830796E0,-1.106386E1,-6.2666197E0,-4.8967576E-1,-1.3533661E1,-9.087568E0,2.0363636E0,1.1219315E1,-1.7209402E0,-1.2575214E1,-4.208739E0,-1.8313146E0,-6.9876943E0,-6.2211096E-1,5.6761274E0,2.3222091E0,-4.3008814E0,-1.452568E0,1.802057E1,2.9427338E0,1.0803617E1,-8.987618E0,1.289299E1,-5.57843E0,1.3070578E1,3.0267632E1,-9.7692496E-1,2.5315157E1,-2.7121937E0,-1.679696E1,7.9658923E0,-7.522539E-1,2.6761098E0,-1.9091767E0,1.1546183E0,-2.1238804E0,-5.33351E0,-1.9540533E0,4.4106606E-1,-3.465712E-1,1.5539E0,-6.05634E-1,-5.0097084E0,-3.1138268E0,-7.8700364E-1,1.3273158E0,-8.791466E-2,-1.1678888E0,4.5965395E0,-1.361977E0,5.7850164E-1,-4.7497993E0,9.280077E-1,-1.8163291E0,-7.4020416E-1,-1.2672676E-1,-5.8044834E0,2.0019345E0,-3.6350248E0,9.9251753E-1,-4.355065E-1,-4.1811433E0,-3.964073E-1,7.783339E-1,-2.6460938E0,5.9873652E0,8.9187473E-1,2.8507237E0,-3.073303E-1,4.053652E0,-9.5564693E-1,9.513325E0,-9.482795E0,2.847863E0,5.66541E0,-3.770552E0,3.1489418E0,-2.908674E0,6.5209756E0,9.983562E0,2.7335978E0,8.820836E0,5.824793E0,-7.1813254E0,-5.030762E-1],"categories":[],"categories_nodes":[],"categories_segments":[],"categories_sizes":[],"default_left":[0,0,0,0,0,0,0,0,0,0,0,0,0,0,0,0,0,0,0,0,0,0,0,0,0,0,0,0,0,0,0,0,0,0,0,0,0,0,0,0,0,0,0,0,0,0,0,0,0,0,0,0,0,0,0,0,0,0,0,0,0,0,0,0,0,0,0,0,0,0,0,0,0,0,0,0,0,0,0,0,0,0,0,0,0,0,0,0,0,0,0,0,0,0,0,0,0,0,0,0,0,0,0,0,0,0,0,0,0,0,0,0,0,0,0,0,0],"id":5,"left_children":[1,3,5,7,9,11,13,15,17,19,21,23,25,27,29,31,33,35,37,39,41,43,45,47,49,51,53,55,57,59,61,63,65,67,69,71,73,75,77,79,81,83,85,-1,-1,87,89,91,93,95,97,99,101,103,105,107,109,111,-1,113,-1,115,-1,-1,-1,-1,-1,-1,-1,-1,-1,-1,-1,-1,-1,-1,-1,-1,-1,-1,-1,-1,-1,-1,-1,-1,-1,-1,-1,-1,-1,-1,-1,-1,-1,-1,-1,-1,-1,-1,-1,-1,-1,-1,-1,-1,-1,-1,-1,-1,-1,-1,-1,-1,-1,-1,-1],"loss_changes":[4.4648324E4,4.5999336E3,1.2612973E4,1.3614961E3,2.747519E3,1.2647829E4,4.651088E3,6.5104297E2,1.5171005E3,2.0820825E3,1.1177141E3,3.044632E3,3.107414E3,2.4142075E3,4.623783E3,1.5892637E3,6.7600586E2,6.58153E2,9.651079E2,2.2325884E3,1.9013105E3,7.369751E0,1.1544568E3,4.642802E3,1.2564924E3,1.3955842E3,3.0686738E3,2.5003945E3,1.1061267E3,1.6821211E3,3.7522366E3,9.296073E2,5.560149E2,7.8371533E2,7.621787E2,4.6632593E2,1.1208362E2,3.5690918E2,5.6923454E1,9.896151E2,1.2432252E3,1.5801636E3,1.048919E3,0E0,0E0,1.7717808E3,6.30774E2,3.5851274E3,3.3982495E3,1.7197066E2,4.070996E2,2.143649E3,1.2555322E3,7.4470815E3,3.1414453E3,2.1544912E3,2.5782488E3,1.5254883E1,0E0,6.106836E2,0E0,6.076725E2,0E0,0E0,0E0,0E0,0E0,0E0,0E0,0E0,0E0,0E0,0E0,0E0,0E0,0E0,0E0,0E0,0E0,0E0,0E0,0E0,0E0,0E0,0E0,0E0,0E0,0E0,0E0,0E0,0E0,0E0,0E0,0E0,0E0,0E0,0E0,0E0,0E0,0E0,0E0,0E0,0E0,0E0,0E0,0E0,0E0,0E0,0E0,0E0,0E0,0E0,0E0,0E0,0E0,0E0,0E0],"parents":[2147483647,0,0,1,1,2,2,3,3,4,4,5,5,6,6,7,7,8,8,9,9,10,10,11,11,12,12,13,13,14,14,15,15,16,16,17,17,18,18,19,19,20,20,21,21,22,22,23,23,24,24,25,25,26,26,27,27,28,28,29,29,30,30,31,31,32,32,33,33,34,34,35,35,36,36,37,37,38,38,39,39,40,40,41,41,42,42,45,45,46,46,47,47,48,48,49,49,50,50,51,51,52,52,53,53,54,54,55,55,56,56,57,57,59,59,61,61],"right_children":[2,4,6,8,10,12,14,16,18,20,22,24,26,28,30,32,34,36,38,40,42,44,46,48,50,52,54,56,58,60,62,64,66,68,70,72,74,76,78,80,82,84,86,-1,-1,88,90,92,94,96,98,100,102,104,106,108,110,112,-1,114,-1,116,-1,-1,-1,-1,-1,-1,-1,-1,-1,-1,-1,-1,-1,-1,-1,-1,-1,-1,-1,-1,-1,-1,-1,-1,-1,-1,-1,-1,-1,-1,-1,-1,-1,-1,-1,-1,-1,-1,-1,-1,-1,-1,-1,-1,-1,-1,-1,-1,-1,-1,-1,-1,-1,-1,-1],"split_conditions":[6.8666664E1,4.7666668E1,1.49E2,7E0,4.710277E-16,1.55E1,2.1578989E1,2.8652086E1,2.1317665E2,2.7568748E1,2.4512499E1,4.6E0,9.3333336E1,2.7887503E1,1.2E0,2.2027763E1,-1.35E1,4.7333332E1,3.1968748E1,1.7057314E1,-1.8E1,5.4666668E1,2.3E1,3E-1,8.5E1,2.65E1,2.4297918E1,3.5E0,2.9714582E1,2.9497917E1,2.1000001E0,2E0,3.590808E1,3.0770838E1,3.2391666E1,3.1364584E1,7.298916E1,1.5E1,1.05E1,2.5608335E1,7.30724E1,2.2477946E2,3.0681246E1,-1.8313146E0,-6.9876943E0,1.36E1,3.2177082E1,2.993125E1,-1.95E1,8.2333336E1,7.938345E1,1.85E1,2E-1,2.3854164E1,7.652852E1,1.6066667E2,6.694871E1,6E0,-9.7692496E-1,2.5564585E1,-2.7121937E0,3.0141266E1,7.9658923E0,-7.522539E-1,2.6761098E0,-1.9091767E0,1.1546183E0,-2.1238804E0,-5.33351E0,-1.9540533E0,4.4106606E-1,-3.465712E-1,1.5539E0,-6.05634E-1,-5.0097084E0,-3.1138268E0,-7.8700364E-1,1.3273158E0,-8.791466E-2,-1.1678888E0,4.5965395E0,-1.361977E0,5.7850164E-1,-4.7497993E0,9.280077E-1,-1.8163291E0,-7.4020416E-1,-1.2672676E-1,-5.8044834E0,2.0019345E0,-3.6350248E0,9.9251753E-1,-4.355065E-1,-4.1811433E0,-3.964073E-1,7.783339E-1,-2.6460938E0,5.9873652E0,8.9187473E-1,2.8507237E0,-3.073303E-1,4.053652E0,-9.5564693E-1,9.513325E0,-9.482795E0,2.847863E0,5.66541E0,-3.770552E0,3.1489418E0,-2.908674E0,6.5209756E0,9.983562E0,2.7335978E0,8.820836E0,5.824793E0,-7.1813254E0,-5.030762E-1],"split_indices":[0,0,0,1,1,1,4,2,5,2,2,3,0,2,3,4,1,0,2,4,1,0,1,3,0,1,2,1,2,2,3,6,4,2,2,2,5,1,1,2,5,5,2,0,0,3,2,2,1,0,5,1,3,2,5,0,5,1,0,2,0,4,0,0,0,0,0,0,0,0,0,0,0,0,0,0,0,0,0,0,0,0,0,0,0,0,0,0,0,0,0,0,0,0,0,0,0,0,0,0,0,0,0,0,0,0,0,0,0,0,0,0,0,0,0,0,0],"split_type":[0,0,0,0,0,0,0,0,0,0,0,0,0,0,0,0,0,0,0,0,0,0,0,0,0,0,0,0,0,0,0,0,0,0,0,0,0,0,0,0,0,0,0,0,0,0,0,0,0,0,0,0,0,0,0,0,0,0,0,0,0,0,0,0,0,0,0,0,0,0,0,0,0,0,0,0,0,0,0,0,0,0,0,0,0,0,0,0,0,0,0,0,0,0,0,0,0,0,0,0,0,0,0,0,0,0,0,0,0,0,0,0,0,0,0,0,0],"sum_hessian":[3.199E3,1.732E3,1.467E3,7.33E2,9.99E2,1.378E3,8.9E1,5.55E2,1.78E2,4.92E2,5.07E2,1.098E3,2.8E2,3.3E1,5.6E1,1.29E2,4.26E2,1.24E2,5.4E1,1.33E2,3.59E2,2E0,5.05E2,1.079E3,1.9E1,1.12E2,1.68E2,2.8E1,5E0,4.9E1,7E0,2.7E1,1.02E2,3.3E1,3.93E2,1.21E2,3E0,4.5E1,9E0,1.4E1,1.19E2,2.9E1,3.3E2,1E0,1E0,4.75E2,3E1,9.61E2,1.18E2,4E0,1.5E1,8.1E1,3.1E1,6E0,1.62E2,1.7E1,1.1E1,4E0,1E0,4.8E1,1E0,5E0,2E0,1.5E1,1.2E1,9.7E1,5E0,2.2E1,1.1E1,3.81E2,1.2E1,1.09E2,1.2E1,1E0,2E0,3.7E1,8E0,4E0,5E0,3E0,1.1E1,6.7E1,5.2E1,2.4E1,5E0,1.59E2,1.71E2,4.71E2,4E0,2.9E1,1E0,7.62E2,1.99E2,2.7E1,9.1E1,3E0,1E0,1.3E1,2E0,3E1,5.1E1,2.6E1,5E0,2E0,4E0,1.05E2,5.7E1,1.2E1,5E0,3E0,8E0,3E0,1E0,2.6E1,2.2E1,3E0,2E0],"tree_param":{"num_deleted":"0","num_feature":"7","num_nodes":"117","size_leaf_vector":"1"}},{"base_weights":[3.7749078E-2,-1.5932708E0,4.585258E0,-3.1001399E0,-7.864009E-2,4.2710013E0,2.1689396E1,-6.672423E-1,-3.6286697E0,-8.487752E-1,3.5305855E0,3.0511746E0,8.129691E0,2.3519018E1,-5.8880085E-1,7.822702E-1,-4.3523784E0,-5.5103717E0,-2.924551E0,-5.972002E-1,-1.2768726E1,5.4054165E0,-6.483594E-1,2.293804E0,7.973826E0,1.2854506E1,4.9777064E0,1.02034E1,8.934863E0,-1.3619577E0,3.7853677E0,-1.2827077E1,-1.494273E0,-8.89273E0,-4.0098333E0,-1.0317739E1,-2.6946359E0,9.539279E0,-6.6477114E-1,-2.0179712E1,3.877351E0,3.214709E0,1.1827388E1,-2.342846E1,1.2294906E0,2.5585885E0,-1.22604265E1,-1.2200859E0,1.3104149E1,6.522437E-1,1.816727E1,9.387738E-1,1.2552395E1,4.7306175E0,-2.6434834E0,-6.5824E-1,2.2326329E0,2.5833637E-1,2.7986636E0,-1.0911548E0,-5.5648627E0,-1.0962409E0,2.7665539E0,-1.2306737E0,-2.9805346E0,1.9068271E0,-1.4309975E0,-7.2130597E-1,-3.4509184E0,2.2483347E-1,-1.001172E0,-2.0816488E0,-8.589828E-2,-2.9000285E0,-1.1150902E1,1.7251928E0,-1.6117553E-1,-1.3968987E0,1.5169483E0,6.9052964E-2,4.70538E0,-8.944419E0,-2.7698114E0,7.2393066E-1,-3.0067396E0,-3.3572927E0,8.515804E-1,1.2200524E0,-8.820319E0,-6.5669556E0,2.0763392E0,4.758183E0,2.6610553E-1,6.693521E0,-1.7634648E0,-4.1680586E-1,6.3144674E0,-2.092362E0,1.7478758E0,4.455614E0,-2.230629E0],"categories":[],"categories_nodes":[],"categories_segments":[],"categories_sizes":[],"default_left":[0,0,0,0,0,0,0,0,0,0,0,0,0,0,0,0,0,0,0,0,0,0,0,0,0,0,0,0,0,0,0,0,0,0,0,0,0,0,0,0,0,0,0,0,0,0,0,0,0,0,0,0,0,0,0,0,0,0,0,0,0,0,0,0,0,0,0,0,0,0,0,0,0,0,0,0,0,0,0,0,0,0,0,0,0,0,0,0,0,0,0,0,0,0,0,0,0,0,0,0,0],"id":6,"left_children":[1,3,5,7,9,11,13,15,17,19,21,23,25,27,-1,29,31,33,35,37,39,41,43,45,47,49,51,53,-1,55,57,59,61,63,65,67,69,-1,71,73,75,77,79,81,83,85,87,89,91,93,95,97,99,-1,-1,-1,-1,-1,-1,-1,-1,-1,-1,-1,-1,-1,-1,-1,-1,-1,-1,-1,-1,-1,-1,-1,-1,-1,-1,-1,-1,-1,-1,-1,-1,-1,-1,-1,-1,-1,-1,-1,-1,-1,-1,-1,-1,-1,-1,-1,-1],"loss_changes":[2.3741951E4,5.3769727E3,4.4493145E3,1.5161787E3,3.2717961E3,3.8866543E3,6.952759E2,1.1358347E3,1.2690781E3,2.9011729E3,1.6253118E3,2.3417056E3,2.89963E3,8.638125E2,0E0,9.9037225E2,1.4341276E3,1.2991602E3,1.1756592E3,2.1028264E3,2.5455205E3,1.9737964E3,2.8093499E3,2.1509246E3,3.9780776E3,5.109542E3,3.690049E3,7.7389606E2,0E0,6.757167E2,1.0294445E3,7.2136475E2,1.098384E3,3.5872607E2,1.4801902E3,1.6932056E2,1.5251685E3,0E0,2.2536711E3,2.141295E3,6.097841E1,1.5891948E3,1.6067749E3,1.7801904E2,8.365798E2,2.1146433E3,2.918167E3,5.3680903E3,1.8044385E3,3.6673137E3,3.128037E3,3.1347273E3,2.0409614E3,0E0,0E0,0E0,0E0,0E0,0E0,0E0,0E0,0E0,0E0,0E0,0E0,0E0,0E0,0E0,0E0,0E0,0E0,0E0,0E0,0E0,0E0,0E0,0E0,0E0,0E0,0E0,0E0,0E0,0E0,0E0,0E0,0E0,0E0,0E0,0E0,0E0,0E0,0E0,0E0,0E0,0E0,0E0,0E0,0E0,0E0,0E0,0E0],"parents":[2147483647,0,0,1,1,2,2,3,3,4,4,5,5,6,6,7,7,8,8,9,9,10,10,11,11,12,12,13,13,15,15,16,16,17,17,18,18,19,19,20,20,21,21,22,22,23,23,24,24,25,25,26,26,27,27,29,29,30,30,31,31,32,32,33,33,34,34,35,35,36,36,38,38,39,39,40,40,41,41,42,42,43,43,44,44,45,45,46,46,47,47,48,48,49,49,50,50,51,51,52,52],"right_children":[2,4,6,8,10,12,14,16,18,20,22,24,26,28,-1,30,32,34,36,38,40,42,44,46,48,50,52,54,-1,56,58,60,62,64,66,68,70,-1,72,74,76,78,80,82,84,86,88,90,92,94,96,98,100,-1,-1,-1,-1,-1,-1,-1,-1,-1,-1,-1,-1,-1,-1,-1,-1,-1,-1,-1,-1,-1,-1,-1,-1,-1,-1,-1,-1,-1,-1,-1,-1,-1,-1,-1,-1,-1,-1,-1,-1,-1,-1,-1,-1,-1,-1,-1,-1],"split_conditions":[8.7E1,5.7E1,1.7E2,2.7818754E1,1.2E1,1.6E1,1.96E2,2.9168886E1,2E0,8.6E1,2.9006248E1,1.4633333E2,2.5329163E1,7.1275856E1,-5.8880085E-1,2.5E0,-1.3E1,3.4E1,5.2968487E1,-6.15E1,2.9197916E1,7.9666664E1,2.9224998E1,1.43E2,2.5410416E1,2.4691666E1,7.539631E1,2.506042E1,8.934863E0,8.094666E1,5.0333332E1,-2.05E1,8E-1,2.3666666E1,3.6333332E1,3.0666666E1,7.833261E1,9.539279E0,-2.65E1,2.6781252E1,3.024375E1,6.809222E1,2.4987501E1,1.45E1,3.2268757E1,1.2758432E1,1E-1,1.8388212E1,1.6066667E2,7.0605354E1,1.95E1,2.3933908E1,2.9835419E1,4.7306175E0,-2.6434834E0,-6.5824E-1,2.2326329E0,2.5833637E-1,2.7986636E0,-1.0911548E0,-5.5648627E0,-1.0962409E0,2.7665539E0,-1.2306737E0,-2.9805346E0,1.9068271E0,-1.4309975E0,-7.2130597E-1,-3.4509184E0,2.2483347E-1,-1.001172E0,-2.0816488E0,-8.589828E-2,-2.9000285E0,-1.1150902E1,1.7251928E0,-1.6117553E-1,-1.3968987E0,1.5169483E0,6.9052964E-2,4.70538E0,-8.944419E0,-2.7698114E0,7.2393066E-1,-3.0067396E0,-3.3572927E0,8.515804E-1,1.2200524E0,-8.820319E0,-6.5669556E0,2.0763392E0,4.758183E0,2.6610553E-1,6.693521E0,-1.7634648E0,-4.1680586E-1,6.3144674E0,-2.092362E0,1.7478758E0,4.455614E0,-2.230629E0],"split_indices":[0,0,0,2,1,1,0,4,6,0,2,0,2,5,0,1,1,0,5,1,2,0,2,0,2,2,5,2,0,5,0,1,3,0,0,0,5,0,1,2,2,5,2,1,2,4,3,4,0,5,1,4,2,0,0,0,0,0,0,0,0,0,0,0,0,0,0,0,0,0,0,0,0,0,0,0,0,0,0,0,0,0,0,0,0,0,0,0,0,0,0,0,0,0,0,0,0,0,0,0,0],"split_type":[0,0,0,0,0,0,0,0,0,0,0,0,0,0,0,0,0,0,0,0,0,0,0,0,0,0,0,0,0,0,0,0,0,0,0,0,0,0,0,0,0,0,0,0,0,0,0,0,0,0,0,0,0,0,0,0,0,0,0,0,0,0,0,0,0,0,0,0,0,0,0,0,0,0,0,0,0,0,0,0,0,0,0,0,0,0,0,0,0,0,0,0,0,0,0,0,0,0,0,0,0],"sum_hessian":[3.199E3,2.355E3,8.44E2,1.18E3,1.175E3,8.3E2,1.4E1,2.11E2,9.69E2,9.69E2,2.06E2,6.32E2,1.98E2,1.3E1,1E0,1.52E2,5.9E1,2.62E2,7.07E2,9.5E2,1.9E1,1.42E2,6.4E1,5.49E2,8.3E1,7.8E1,1.2E2,5E0,8E0,8.9E1,6.3E1,1.4E1,4.5E1,7.9E1,1.83E2,2E1,6.87E2,1E0,9.49E2,1.3E1,6E0,1.07E2,3.5E1,4E0,6E1,5.4E2,9E0,3E1,5.3E1,2.4E1,5.4E1,7.9E1,4.1E1,4E0,1E0,8.2E1,7E0,4.2E1,2.1E1,6E0,8E0,3.8E1,7E0,1.5E1,6.4E1,1.2E1,1.71E2,3E0,1.7E1,1.08E2,5.79E2,5.3E1,8.96E2,9E0,4E0,4E0,2E0,2E1,8.7E1,9E0,2.6E1,2E0,2E0,5.5E1,5E0,1E1,5.3E2,5E0,4E0,8E0,2.2E1,4.3E1,1E1,5E0,1.9E1,7E0,4.7E1,3E1,4.9E1,3.7E1,4E0],"tree_param":{"num_deleted":"0","num_feature":"7","num_nodes":"101","size_leaf_vector":"1"}},{"base_weights":[2.339781E-2,-1.279414E0,2.9202611E0,1.9230974E0,-1.6819323E0,2.652215E0,1.4109493E1,-2.2577796E0,3.6561313E0,-2.4138947E0,1.7804037E-1,-4.376178E0,3.0465891E0,1.0470589E1,1.046726E1,-4.9603257E0,8.522754E0,1.6792866E1,3.0088098E0,-4.18038E0,-1.5299634E0,2.1837432E0,-2.350195E0,9.4146097E-1,-1.6399706E1,8.782346E0,2.6002657E0,1.832543E0,6.5329804E0,-5.978181E0,4.8097086E0,-1.0016547E1,1.3992291E1,8.197893E0,5.007538E0,2.149733E0,1.0512978E1,-4.041978E0,-7.299441E0,9.4774705E-1,-1.87649E0,1.4938332E-1,4.8900013E0,-3.6777747E0,9.092026E-1,6.9715586E0,-5.810951E0,-2.367676E1,1.1350645E1,-7.5403705E0,1.1163761E1,2.11652E0,9.211109E0,-1.0299999E1,6.5023055E0,-5.4247314E-1,-3.4909506E0,-3.8616526E-1,-5.4306808E0,6.0288973E0,2.0284102E0,2.773406E0,4.911238E-1,1.2712219E0,-8.2593304E-1,-1.5310841E0,3.8806293E0,-2.1549025E0,-1.0683836E0,-9.1796E-1,1.3833994E0,-8.1742704E-1,-3.3919703E-2,4.033096E-1,-1.6034201E0,1.2442269E0,6.921157E0,-6.131972E-1,-2.2199984E0,-7.0399004E-1,2.5246487E0,-2.773284E0,4.374453E0,-3.9066398E0,1.4492373E0,-3.1083992E0,-8.533041E0,9.037415E-1,5.454775E0,1.3529812E0,-2.8831205E0,1.5512916E0,5.2199793E0,5.4062885E-1,3.4149532E0,6.3210225E0,1.3752778E0,-4.005209E0,-1.7218667E-1,-9.5310634E-1,2.3792367E0],"categories":[],"categories_nodes":[],"categories_segments":[],"categories_sizes":[],"default_left":[0,0,0,0,0,0,0,0,0,0,0,0,0,0,0,0,0,0,0,0,0,0,0,0,0,0,0,0,0,0,0,0,0,0,0,0,0,0,0,0,0,0,0,0,0,0,0,0,0,0,0,0,0,0,0,0,0,0,0,0,0,0,0,0,0,0,0,0,0,0,0,0,0,0,0,0,0,0,0,0,0,0,0,0,0,0,0,0,0,0,0,0,0,0,0,0,0,0,0,0,0],"id":7,"left_children":[1,3,5,7,9,11,13,15,17,19,21,23,25,-1,27,29,31,33,35,37,39,41,43,45,47,49,51,53,-1,55,-1,57,59,-1,61,63,65,67,-1,69,71,73,75,77,79,81,83,85,87,89,91,93,95,97,99,-1,-1,-1,-1,-1,-1,-1,-1,-1,-1,-1,-1,-1,-1,-1,-1,-1,-1,-1,-1,-1,-1,-1,-1,-1,-1,-1,-1,-1,-1,-1,-1,-1,-1,-1,-1,-1,-1,-1,-1,-1,-1,-1,-1,-1,-1],"loss_changes":[1.2080752E4,2.8494995E3,2.9408125E3,1.7979185E3,2.6715562E3,2.7047666E3,1.3764854E3,2.1691226E3,1.4376191E3,2.192128E3,2.8194756E3,3.340152E3,2.3323652E3,0E0,2.0108054E3,1.3565277E3,1.6611758E3,8.562832E2,1.0604381E3,1.209668E3,8.088557E2,1.7059753E3,1.067813E3,1.5470664E3,3.4997993E3,2.6496763E3,2.714767E3,8.035029E2,0E0,1.3238643E3,0E0,2.5903012E2,3.9377466E2,0E0,5.627137E1,1.567467E3,7.0913513E2,6.7953906E2,0E0,1.7172485E3,1.2337717E3,1.1758213E3,1.6998782E3,1.0491025E3,1.7793748E3,2.60283E3,1.4442185E3,5.304082E2,1.7308905E2,2.6784286E2,2.077604E3,2.3045852E3,3.085849E3,1.11022156E2,1.634638E2,0E0,0E0,0E0,0E0,0E0,0E0,0E0,0E0,0E0,0E0,0E0,0E0,0E0,0E0,0E0,0E0,0E0,0E0,0E0,0E0,0E0,0E0,0E0,0E0,0E0,0E0,0E0,0E0,0E0,0E0,0E0,0E0,0E0,0E0,0E0,0E0,0E0,0E0,0E0,0E0,0E0,0E0,0E0,0E0,0E0,0E0],"parents":[2147483647,0,0,1,1,2,2,3,3,4,4,5,5,6,6,7,7,8,8,9,9,10,10,11,11,12,12,14,14,15,15,16,16,17,17,18,18,19,19,20,20,21,21,22,22,23,23,24,24,25,25,26,26,27,27,29,29,31,31,32,32,34,34,35,35,36,36,37,37,39,39,40,40,41,41,42,42,43,43,44,44,45,45,46,46,47,47,48,48,49,49,50,50,51,51,52,52,53,53,54,54],"right_children":[2,4,6,8,10,12,14,16,18,20,22,24,26,-1,28,30,32,34,36,38,40,42,44,46,48,50,52,54,-1,56,-1,58,60,-1,62,64,66,68,-1,70,72,74,76,78,80,82,84,86,88,90,92,94,96,98,100,-1,-1,-1,-1,-1,-1,-1,-1,-1,-1,-1,-1,-1,-1,-1,-1,-1,-1,-1,-1,-1,-1,-1,-1,-1,-1,-1,-1,-1,-1,-1,-1,-1,-1,-1,-1,-1,-1,-1,-1,-1,-1,-1,-1,-1,-1],"split_conditions":[8.1333336E1,2.5908333E1,2.6128262E2,7.121867E1,3E0,-3.95E1,1.4417988E1,2.568125E1,7.158944E1,-3.5E0,2.9795832E1,-4.45E1,1.609969E1,1.0470589E1,1.24333336E2,3.1E1,6.503511E1,2.5959969E1,7.948403E1,8.1E1,2.7016665E1,6.2333332E1,3.1256248E1,2.5410416E1,2.7729347E1,5.686865E1,3.05E1,2.5800001E1,6.5329804E0,2.5454165E1,4.8097086E0,-3.5E0,1E0,8.197893E0,2.5087502E1,7.615993E1,1.584409E1,-1.8E1,-7.299441E0,2.6283333E1,3.1206253E1,1.5E0,2.961458E1,6.0666668E1,5.9333332E1,2.4787498E1,-4.95E1,9.5666664E1,-4.2E1,8.8666664E1,2.5202082E1,4E0,7.244671E1,1.04333336E2,-1.4E1,-5.4247314E-1,-3.4909506E0,-3.8616526E-1,-5.4306808E0,6.0288973E0,2.0284102E0,2.773406E0,4.911238E-1,1.2712219E0,-8.2593304E-1,-1.5310841E0,3.8806293E0,-2.1549025E0,-1.0683836E0,-9.1796E-1,1.3833994E0,-8.1742704E-1,-3.3919703E-2,4.033096E-1,-1.6034201E0,1.2442269E0,6.921157E0,-6.131972E-1,-2.2199984E0,-7.0399004E-1,2.5246487E0,-2.773284E0,4.374453E0,-3.9066398E0,1.4492373E0,-3.1083992E0,-8.533041E0,9.037415E-1,5.454775E0,1.3529812E0,-2.8831205E0,1.5512916E0,5.2199793E0,5.4062885E-1,3.4149532E0,6.3210225E0,1.3752778E0,-4.005209E0,-1.7218667E-1,-9.5310634E-1,2.3792367E0],"split_indices":[0,2,5,5,6,1,4,2,5,1,2,1,4,0,0,1,5,4,5,0,2,0,2,2,4,5,1,2,0,2,0,1,6,0,2,5,4,1,0,2,2,3,2,0,0,2,1,0,1,0,2,3,5,0,1,0,0,0,0,0,0,0,0,0,0,0,0,0,0,0,0,0,0,0,0,0,0,0,0,0,0,0,0,0,0,0,0,0,0,0,0,0,0,0,0,0,0,0,0,0,0],"split_type":[0,0,0,0,0,0,0,0,0,0,0,0,0,0,0,0,0,0,0,0,0,0,0,0,0,0,0,0,0,0,0,0,0,0,0,0,0,0,0,0,0,0,0,0,0,0,0,0,0,0,0,0,0,0,0,0,0,0,0,0,0,0,0,0,0,0,0,0,0,0,0,0,0,0,0,0,0,0,0,0,0,0,0,0,0,0,0,0,0,0,0,0,0,0,0,0,0,0,0,0,0],"sum_hessian":[3.199E3,2.207E3,9.92E2,2.46E2,1.961E3,9.7E2,2.2E1,7.2E1,1.74E2,1.407E3,5.54E2,5.1E1,9.19E2,2E0,2E1,5.8E1,1.4E1,7E0,1.67E2,4.68E2,9.39E2,3.09E2,2.45E2,3.6E1,1.5E1,6.5E1,8.54E2,1.2E1,8E0,5.6E1,2E0,3E0,1.1E1,3E0,4E0,1.51E2,1.6E1,4.66E2,2E0,1.15E2,8.24E2,1.77E2,1.32E2,1.74E2,7.1E1,1.9E1,1.7E1,1.2E1,3E0,8E0,5.7E1,7.97E2,5.7E1,3E0,9E0,3.3E1,2.3E1,2E0,1E0,5E0,6E0,1E0,3E0,1.06E2,4.5E1,2E0,1.4E1,6E1,4.06E2,5.5E1,6E1,5.56E2,2.68E2,1.46E2,3.1E1,1.28E2,4E0,1.22E2,5.2E1,5E1,2.1E1,6E0,1.3E1,1E1,7E0,4E0,8E0,2E0,1E0,1E0,7E0,3E1,2.7E1,7.72E2,2.5E1,1.5E1,4.2E1,2E0,1E0,1E0,8E0],"tree_param":{"num_deleted":"0","num_feature":"7","num_nodes":"101","size_leaf_vector":"1"}},{"base_weights":[2.8042903E-2,-7.367635E-1,2.6539807E0,2.3600376E0,-1.0575547E0,-1.3556935E-1,3.9008849E0,2.0386455E0,2.0250072E1,-3.4870641E0,-7.4066156E-1,-2.0582998E0,5.035961E0,-1.9292877E0,4.9205604E0,-5.91569E-1,4.1764693E0,7.2046905E0,1.3430077E0,-1.5368233E1,-3.0960464E0,-2.3646715E0,-2.5191304E-1,6.6056876E0,-4.723675E0,1.3569779E1,-3.6603074E0,1.5403363E1,-5.8119946E0,-5.152476E0,5.753867E0,-9.132921E0,1.6795312E0,1.0501378E1,2.8960998E0,-1.3759372E0,-2.0920006E1,-6.7860074E0,-2.0554209E0,-1.0794886E0,-4.030012E0,-8.45627E-1,1.3089416E0,2.246646E0,3.5797844E1,-6.555766E0,5.9389334E0,1.4757402E0,2.2222378E1,-9.020067E0,6.904716E0,2.1562874E1,3.6682128E-3,-1.0979661E0,-1.822572E1,7.5802547E-1,-1.7042389E1,1.5472611E1,5.023186E0,-6.3557357E-1,-7.158301E0,1.2751276E0,-1.2360412E0,-9.2953855E-1,4.844363E0,2.1477876E0,-5.2521706E-1,-7.3144765E0,-1.0610516E0,-3.8575177E0,-8.846074E-1,3.3294685E0,-7.786793E-1,-6.896216E-1,1.3931721E-1,-3.0163834E0,-9.9142605E-1,-1.3729998E0,-1.3649267E-1,3.0318108E-1,5.6555285E0,-1.9483017E0,2.514967E0,2.5944777E0,1.2126953E1,-2.2508876E0,5.984097E0,6.3700824E0,-3.1204066E-1,-3.1670399E0,2.2033308E0,8.243439E0,-9.1268295E-1,-5.733862E0,-7.825375E-1,3.2135115E0,-7.3063207E-1,-1.956371E0,7.622374E0,-3.326245E0,3.3280795E0,-2.5762246E0,1.3471318E0,-7.3121943E0,2.354887E0,1.5872693E0,-4.9855485E0,-5.976501E0,1.7625607E0,-2.220848E0,7.1547475E0,-8.1238574E-1,2.018215E0],"categories":[],"categories_nodes":[],"categories_segments":[],"categories_sizes":[],"default_left":[0,0,0,0,0,0,0,0,0,0,0,0,0,0,0,0,0,0,0,0,0,0,0,0,0,0,0,0,0,0,0,0,0,0,0,0,0,0,0,0,0,0,0,0,0,0,0,0,0,0,0,0,0,0,0,0,0,0,0,0,0,0,0,0,0,0,0,0,0,0,0,0,0,0,0,0,0,0,0,0,0,0,0,0,0,0,0,0,0,0,0,0,0,0,0,0,0,0,0,0,0,0,0,0,0,0,0,0,0,0,0,0,0],"id":8,"left_children":[1,3,5,7,9,11,13,15,17,19,21,23,25,27,29,31,33,-1,-1,35,37,39,41,43,45,47,49,51,53,55,57,59,61,63,65,-1,67,69,71,73,75,77,79,81,83,85,87,89,91,93,95,97,99,101,103,105,107,109,111,-1,-1,-1,-1,-1,-1,-1,-1,-1,-1,-1,-1,-1,-1,-1,-1,-1,-1,-1,-1,-1,-1,-1,-1,-1,-1,-1,-1,-1,-1,-1,-1,-1,-1,-1,-1,-1,-1,-1,-1,-1,-1,-1,-1,-1,-1,-1,-1,-1,-1,-1,-1,-1,-1],"loss_changes":[6.428624E3,2.4652004E3,2.5118623E3,1.2984009E3,1.7273711E3,2.2377004E3,2.9759902E3,1.2957461E3,1.3007214E2,1.1556672E3,1.5781382E3,3.8184182E3,4.576625E3,5.1368447E3,3.5970664E3,2.0327588E3,9.9806055E2,0E0,0E0,3.8291504E2,9.536987E2,9.801726E2,1.4189596E3,4.8823184E3,2.5003284E3,3.2111953E3,1.8176864E3,1.327885E3,3.6081455E3,2.3320051E3,2.7130908E3,2.2222202E3,1.2550701E3,1.662655E3,2.1322356E3,0E0,2.1463281E2,1.2436755E3,1.435655E3,4.9236737E2,8.4065063E2,1.614325E3,2.1895664E3,1.931834E3,2.7828955E2,2.860809E3,2.0501946E3,1.0661481E3,2.4737217E3,1.3090784E3,4.1722424E2,1.2455361E3,7.3800055E2,1.9638488E3,2.916732E3,1.8995342E3,8.4289136E2,5.350214E3,4.853581E3,0E0,0E0,0E0,0E0,0E0,0E0,0E0,0E0,0E0,0E0,0E0,0E0,0E0,0E0,0E0,0E0,0E0,0E0,0E0,0E0,0E0,0E0,0E0,0E0,0E0,0E0,0E0,0E0,0E0,0E0,0E0,0E0,0E0,0E0,0E0,0E0,0E0,0E0,0E0,0E0,0E0,0E0,0E0,0E0,0E0,0E0,0E0,0E0,0E0,0E0,0E0,0E0,0E0,0E0],"parents":[2147483647,0,0,1,1,2,2,3,3,4,4,5,5,6,6,7,7,8,8,9,9,10,10,11,11,12,12,13,13,14,14,15,15,16,16,19,19,20,20,21,21,22,22,23,23,24,24,25,25,26,26,27,27,28,28,29,29,30,30,31,31,32,32,33,33,34,34,36,36,37,37,38,38,39,39,40,40,41,41,42,42,43,43,44,44,45,45,46,46,47,47,48,48,49,49,50,50,51,51,52,52,53,53,54,54,55,55,56,56,57,57,58,58],"right_children":[2,4,6,8,10,12,14,16,18,20,22,24,26,28,30,32,34,-1,-1,36,38,40,42,44,46,48,50,52,54,56,58,60,62,64,66,-1,68,70,72,74,76,78,80,82,84,86,88,90,92,94,96,98,100,102,104,106,108,110,112,-1,-1,-1,-1,-1,-1,-1,-1,-1,-1,-1,-1,-1,-1,-1,-1,-1,-1,-1,-1,-1,-1,-1,-1,-1,-1,-1,-1,-1,-1,-1,-1,-1,-1,-1,-1,-1,-1,-1,-1,-1,-1,-1,-1,-1,-1,-1,-1,-1,-1,-1,-1,-1,-1],"split_conditions":[9.2666664E1,2.5552086E1,-7E0,3.612398E1,-1.25E1,7.74028E1,2.490625E1,7.320625E1,6E0,2.5618752E1,4.1333332E1,1.9161337E1,2.5510416E1,7.020257E1,6.643497E1,2.1316135E1,1.825026E1,7.2046905E0,1.3430077E0,6.4666664E1,2.0898611E1,2.1317665E2,3E0,1.8388212E1,3.189608E1,1.9386593E1,1E-1,1.36E2,2.6168804E1,6.422136E1,6.880168E1,1.9602652E1,2.8817993E1,7.599732E1,7.615993E1,-1.3759372E0,8.7666664E1,7.184153E1,2.1659916E1,2.5E0,2.3584808E1,6.643497E1,9.1333336E1,6.586129E1,1.04333336E2,1.5166667E2,6.966236E1,-4.3E1,1.28E2,2.1578989E1,8.025542E1,9.6666664E1,1.43E2,1.8388212E1,1.95E1,1E-1,3.2138947E1,2.259699E1,7.191239E1,-6.3557357E-1,-7.158301E0,1.2751276E0,-1.2360412E0,-9.2953855E-1,4.844363E0,2.1477876E0,-5.2521706E-1,-7.3144765E0,-1.0610516E0,-3.8575177E0,-8.846074E-1,3.3294685E0,-7.786793E-1,-6.896216E-1,1.3931721E-1,-3.0163834E0,-9.9142605E-1,-1.3729998E0,-1.3649267E-1,3.0318108E-1,5.6555285E0,-1.9483017E0,2.514967E0,2.5944777E0,1.2126953E1,-2.2508876E0,5.984097E0,6.3700824E0,-3.1204066E-1,-3.1670399E0,2.2033308E0,8.243439E0,-9.1268295E-1,-5.733862E0,-7.825375E-1,3.2135115E0,-7.3063207E-1,-1.956371E0,7.622374E0,-3.326245E0,3.3280795E0,-2.5762246E0,1.3471318E0,-7.3121943E0,2.354887E0,1.5872693E0,-4.9855485E0,-5.976501E0,1.7625607E0,-2.220848E0,7.1547475E0,-8.1238574E-1,2.018215E0],"split_indices":[0,2,1,4,1,5,2,5,1,2,0,4,2,5,5,4,4,0,0,0,4,5,6,4,4,4,3,0,4,5,5,4,4,5,5,0,0,5,4,1,4,5,0,5,0,0,5,1,0,4,5,0,0,4,1,3,4,4,5,0,0,0,0,0,0,0,0,0,0,0,0,0,0,0,0,0,0,0,0,0,0,0,0,0,0,0,0,0,0,0,0,0,0,0,0,0,0,0,0,0,0,0,0,0,0,0,0,0,0,0,0,0,0],"split_type":[0,0,0,0,0,0,0,0,0,0,0,0,0,0,0,0,0,0,0,0,0,0,0,0,0,0,0,0,0,0,0,0,0,0,0,0,0,0,0,0,0,0,0,0,0,0,0,0,0,0,0,0,0,0,0,0,0,0,0,0,0,0,0,0,0,0,0,0,0,0,0,0,0,0,0,0,0,0,0,0,0,0,0,0,0,0,0,0,0,0,0,0,0,0,0,0,0,0,0,0,0,0,0,0,0,0,0,0,0,0,0,0,0],"sum_hessian":[3.199E3,2.478E3,7.21E2,2.32E2,2.246E3,2.23E2,4.98E2,2.29E2,3E0,2.58E2,1.988E3,1.63E2,6E1,7.4E1,4.24E2,1.03E2,1.26E2,2E0,1E0,7E0,2.51E2,4.59E2,1.529E3,3.8E1,1.25E2,3E1,3E1,1.3E1,6.1E1,3.2E1,3.92E2,2.1E1,8.2E1,2E1,1.06E2,3E0,4E0,5.4E1,1.97E2,2.6E2,1.99E2,1.108E3,4.21E2,3.4E1,4E0,1.07E2,1.8E1,1.3E1,1.7E1,2E1,1E1,9E0,4E0,4.5E1,1.6E1,2.2E1,1E1,2.6E1,3.66E2,1.5E1,6E0,5.7E1,2.5E1,6E0,1.4E1,5.5E1,5.1E1,3E0,1E0,2E1,3.4E1,7E0,1.9E2,1.45E2,1.15E2,2E1,1.79E2,1.04E2,1.004E3,4.15E2,6E0,1.4E1,2E1,1E0,3E0,1.04E2,3E0,5E0,1.3E1,4E0,9E0,1.4E1,3E0,7E0,1.3E1,7E0,3E0,1E0,8E0,2E0,2E0,1.9E1,2.6E1,1.3E1,3E0,1.8E1,4E0,9E0,1E0,7E0,1.9E1,6.6E1,3E2],"tree_param":{"num_deleted":"0","num_feature":"7","num_nodes":"113","size_leaf_vector":"1"}},{"base_weights":[2.5785878E-2,1.9245431E0,-6.100473E-1,1.5451784E0,8.9374895E0,-8.887485E-1,6.3071046E0,2.2078114E0,-3.0817378E0,1.4518391E1,4.7849774E0,-7.9566956E-1,-1.0093251E1,1.0149734E1,-1.335086E0,4.366176E-1,4.615843E0,-9.589019E0,1.3469815E0,7.336306E0,2.008732E1,-2.8247943E0,1.3264297E1,-1.330914E0,3.6414033E-1,-4.8801E0,-8.365373E0,5.9456058E0,1.868112E1,1.3826062E1,-7.8688426E0,-1.2982519E0,5.839598E0,1.9468117E0,8.555487E0,-1.1539627E1,-6.9885263E0,-6.788611E0,2.6073399E0,1.2242858E1,-1.9673249E0,5.0022683E0,7.104818E0,-1.7916481E1,5.0035286E0,-1.7549905E0,1.55337715E1,1.2312919E1,-1.3826034E0,2.344437E0,-8.100092E-1,-1.4424774E1,1.0046925E1,1.0605637E1,-8.574995E0,2.2674928E0,2.2642809E1,1.668611E1,-1.7871553E0,-2.5475805E0,-1.58632965E1,2.416645E-1,-2.607039E0,2.9512103E0,-4.5138705E-1,1.0321494E0,-3.5096247E0,-2.3757315E-1,3.1658158E0,-1.0506096E0,-7.325523E0,2.3984067E0,-1.4726714E0,4.695941E0,-1.2328217E0,1.09945685E-1,2.1410751E0,-5.958906E0,-1.5195489E0,2.0688796E0,-5.1348346E-1,-5.5627674E-1,5.2374E0,2.2904206E-2,4.423489E0,-2.947917E0,-3.84923E-1,1.3550726E0,-3.437116E-1,-6.8499035E-1,6.9410115E-1,-6.216603E0,1.0050583E0,5.111058E0,-3.6066744E-1,-2.0896409E0,3.9808278E0,1.6520005E0,-3.6948316E0,9.2904913E-1,-1.5747872E-1,7.4578133E0,1.4253663E0,2.7574897E0,7.12689E0,-4.183343E0,8.593273E-1,-5.91082E0,2.2278283E0],"categories":[],"categories_nodes":[],"categories_segments":[],"categories_sizes":[],"default_left":[0,0,0,0,0,0,0,0,0,0,0,0,0,0,0,0,0,0,0,0,0,0,0,0,0,0,0,0,0,0,0,0,0,0,0,0,0,0,0,0,0,0,0,0,0,0,0,0,0,0,0,0,0,0,0,0,0,0,0,0,0,0,0,0,0,0,0,0,0,0,0,0,0,0,0,0,0,0,0,0,0,0,0,0,0,0,0,0,0,0,0,0,0,0,0,0,0,0,0,0,0,0,0,0,0,0,0,0,0],"id":9,"left_children":[1,3,5,7,9,11,13,15,17,19,21,23,25,27,29,31,33,35,37,39,41,43,45,47,49,51,-1,53,55,57,59,61,63,65,67,-1,69,-1,71,73,-1,75,-1,77,79,-1,81,83,85,87,89,91,93,95,97,99,101,103,-1,105,107,-1,-1,-1,-1,-1,-1,-1,-1,-1,-1,-1,-1,-1,-1,-1,-1,-1,-1,-1,-1,-1,-1,-1,-1,-1,-1,-1,-1,-1,-1,-1,-1,-1,-1,-1,-1,-1,-1,-1,-1,-1,-1,-1,-1,-1,-1,-1,-1],"loss_changes":[3.8645112E3,2.1225432E3,4.628515E3,2.346121E3,8.806953E2,1.967624E3,2.7445984E3,2.8470652E3,2.779533E3,5.325742E2,1.6506108E3,1.4183502E3,1.9971443E3,2.1126855E3,3.278691E3,3.625739E3,2.9590977E3,2.6598052E3,1.8116423E3,6.938327E2,3.696643E2,1.743642E3,6.1142456E2,1.1193162E3,1.6806677E3,2.8519229E3,0E0,3.0006003E3,1.2491714E3,6.652125E2,9.380205E2,4.563453E3,2.7746887E3,3.5052212E3,2.1366152E3,0E0,2.1629463E3,0E0,2.3068325E3,4.5468542E2,0E0,2.7071724E1,0E0,2.4468506E1,1.3890364E2,0E0,4.0041553E2,1.7743365E2,1.2967083E3,2.0447964E3,2.0946326E3,1.4126204E3,6.495286E2,1.6370166E3,6.473124E2,1.3204922E1,5.1641504E2,2.5852734E2,0E0,9.651436E2,9.510774E2,0E0,0E0,0E0,0E0,0E0,0E0,0E0,0E0,0E0,0E0,0E0,0E0,0E0,0E0,0E0,0E0,0E0,0E0,0E0,0E0,0E0,0E0,0E0,0E0,0E0,0E0,0E0,0E0,0E0,0E0,0E0,0E0,0E0,0E0,0E0,0E0,0E0,0E0,0E0,0E0,0E0,0E0,0E0,0E0,0E0,0E0,0E0,0E0],"parents":[2147483647,0,0,1,1,2,2,3,3,4,4,5,5,6,6,7,7,8,8,9,9,10,10,11,11,12,12,13,13,14,14,15,15,16,16,17,17,18,18,19,19,20,20,21,21,22,22,23,23,24,24,25,25,27,27,28,28,29,29,30,30,31,31,32,32,33,33,34,34,36,36,38,38,39,39,41,41,43,43,44,44,46,46,47,47,48,48,49,49,50,50,51,51,52,52,53,53,54,54,55,55,56,56,57,57,59,59,60,60],"right_children":[2,4,6,8,10,12,14,16,18,20,22,24,26,28,30,32,34,36,38,40,42,44,46,48,50,52,-1,54,56,58,60,62,64,66,68,-1,70,-1,72,74,-1,76,-1,78,80,-1,82,84,86,88,90,92,94,96,98,100,102,104,-1,106,108,-1,-1,-1,-1,-1,-1,-1,-1,-1,-1,-1,-1,-1,-1,-1,-1,-1,-1,-1,-1,-1,-1,-1,-1,-1,-1,-1,-1,-1,-1,-1,-1,-1,-1,-1,-1,-1,-1,-1,-1,-1,-1,-1,-1,-1,-1,-1,-1],"split_conditions":[1E0,1.56E2,1.2E2,3E-1,7.488192E1,1.16E2,2.7579382E1,2.5772078E1,6E-1,7.081319E1,8.2622475E1,3E0,1.2E1,2.3933908E1,7.226335E1,7.9201584E1,8E0,6.788226E1,2.4574999E1,3E-1,2.4429163E1,2.1434364E1,2.3854164E1,2.506042E1,7.349558E1,-9.420554E-16,-8.365373E0,2.1749481E1,-1.2E1,7E0,5.5E0,1.19333336E2,8.695907E1,6.5E0,2.4866669E1,-1.1539627E1,1.21E2,-6.788611E0,7.520933E1,2.7497026E1,-1.9673249E0,1.59E2,7.104818E0,2E-1,1.6066667E2,-1.7549905E0,-7E0,-2.45E1,2.5308334E1,2.9224998E1,6.5E0,1E-1,2.8264582E1,2.501667E1,-1.6E1,1.43E2,2.8652086E1,3.189608E1,-1.7871553E0,2.8442278E1,9.200001E0,2.416645E-1,-2.607039E0,2.9512103E0,-4.5138705E-1,1.0321494E0,-3.5096247E0,-2.3757315E-1,3.1658158E0,-1.0506096E0,-7.325523E0,2.3984067E0,-1.4726714E0,4.695941E0,-1.2328217E0,1.09945685E-1,2.1410751E0,-5.958906E0,-1.5195489E0,2.0688796E0,-5.1348346E-1,-5.5627674E-1,5.2374E0,2.2904206E-2,4.423489E0,-2.947917E0,-3.84923E-1,1.3550726E0,-3.437116E-1,-6.8499035E-1,6.9410115E-1,-6.216603E0,1.0050583E0,5.111058E0,-3.6066744E-1,-2.0896409E0,3.9808278E0,1.6520005E0,-3.6948316E0,9.2904913E-1,-1.5747872E-1,7.4578133E0,1.4253663E0,2.7574897E0,7.12689E0,-4.183343E0,8.593273E-1,-5.91082E0,2.2278283E0],"split_indices":[6,0,0,3,5,0,4,4,3,5,5,6,1,4,5,5,1,5,2,3,2,4,2,2,5,1,0,4,1,1,1,0,5,1,2,0,0,0,5,4,0,0,0,3,0,0,1,1,2,2,1,3,2,2,1,0,2,4,0,4,3,0,0,0,0,0,0,0,0,0,0,0,0,0,0,0,0,0,0,0,0,0,0,0,0,0,0,0,0,0,0,0,0,0,0,0,0,0,0,0,0,0,0,0,0,0,0,0,0],"split_type":[0,0,0,0,0,0,0,0,0,0,0,0,0,0,0,0,0,0,0,0,0,0,0,0,0,0,0,0,0,0,0,0,0,0,0,0,0,0,0,0,0,0,0,0,0,0,0,0,0,0,0,0,0,0,0,0,0,0,0,0,0,0,0,0,0,0,0,0,0,0,0,0,0,0,0,0,0,0,0,0,0,0,0,0,0,0,0,0,0,0,0,0,0,0,0,0,0,0,0,0,0,0,0,0,0,0,0,0,0],"sum_hessian":[3.199E3,8.02E2,2.397E3,7.62E2,4E1,2.305E3,9.2E1,6.67E2,9.5E1,1.6E1,2.4E1,2.283E3,2.2E1,6.1E1,3.1E1,3.85E2,2.82E2,3.8E1,5.7E1,8E0,8E0,1.3E1,1.1E1,1.562E3,7.21E2,1.8E1,4E0,4.2E1,1.9E1,9E0,2.2E1,2.92E2,9.3E1,1.69E2,1.13E2,2E0,3.6E1,2E0,5.5E1,6E0,2E0,2E0,6E0,4E0,9E0,1E0,1E1,5E0,1.557E3,2.68E2,4.53E2,1.1E1,7E0,3.2E1,1E1,4E0,1.5E1,8E0,1E0,1.4E1,8E0,2.28E2,6.4E1,6E1,3.3E1,1.53E2,1.6E1,2E1,9.3E1,3.1E1,5E0,3.2E1,2.3E1,5E0,1E0,1E0,1E0,3E0,1E0,7E0,2E0,1E0,9E0,1E0,4E0,1.7E1,1.54E3,1.65E2,1.03E2,3.08E2,1.45E2,8E0,3E0,4E0,3E0,4E0,2.8E1,2E0,8E0,3E0,1E0,1.3E1,2E0,5E0,3E0,4E0,1E1,7E0,1E0],"tree_param":{"num_deleted":"0","num_feature":"7","num_nodes":"109","size_leaf_vector":"1"}},{"base_weights":[1.3851096E-2,-3.504015E-1,1.9722254E0,-2.6240098E-1,-6.5058484E0,-2.4854865E0,2.6883168E0,-3.235162E-1,8.7327175E0,-1.7972807E0,-2.3938318E1,-4.948325E0,4.3857293E0,6.9401245E0,1.8632761E0,1.6661963E0,-5.70191E-1,1.8218111E1,-1.3274423E1,-4.98643E0,1.2321915E1,-3.167725E1,-2.4840226E0,3.072807E0,-7.9843426E0,1.4084656E1,-5.751771E0,1.0188973E1,-2.3167324E0,-1.6355263E1,2.2143E0,8.877605E-1,7.9632444E0,-8.032476E0,-4.8015484E-1,5.5205183E0,3.211188E1,-5.639345E0,-1.4850897E0,6.110069E0,-1.3531201E1,1.1133828E0,4.7098246E0,-1.669352E0,-1.1044292E1,-6.0149484E0,6.156554E0,-9.154802E0,8.722626E0,-9.312372E-1,2.0653072E1,-1.1103518E1,1.04368105E1,1.4843383E1,5.329581E0,-8.496196E0,1.2488136E1,-8.677055E0,-5.543257E0,1.0250993E1,1.6061214E0,5.280404E-1,-1.0727719E0,3.963519E0,-9.772971E-1,1.1886405E0,-3.0590005E0,-4.7892815E-1,-4.1113093E-2,6.8033967E0,-2.7928684E0,1.3140621E0,1.1034654E1,-1.257232E0,5.889416E-1,-6.005832E-1,4.366722E0,-6.156201E-1,-5.7196684E0,3.0060601E0,-3.405064E0,-3.0332816E0,3.6464906E0,3.7340767E0,1.911049E-1,-9.875508E-1,9.225838E-1,9.668397E0,1.174466E0,-5.1110687E0,-1.2408334E0,4.858722E0,-1.6215706E-1,-4.1911176E-1,5.9356084E0,8.262193E-1,5.835086E0,5.9550416E-1,-4.981569E0,-4.564625E-1,4.678314E0,5.581135E-1,-2.3577783E0,5.9371104E0,-5.1975805E-1,-6.801686E-1,8.505001E-1],"categories":[],"categories_nodes":[],"categories_segments":[],"categories_sizes":[],"default_left":[0,0,0,0,0,0,0,0,0,0,0,0,0,0,0,0,0,0,0,0,0,0,0,0,0,0,0,0,0,0,0,0,0,0,0,0,0,0,0,0,0,0,0,0,0,0,0,0,0,0,0,0,0,0,0,0,0,0,0,0,0,0,0,0,0,0,0,0,0,0,0,0,0,0,0,0,0,0,0,0,0,0,0,0,0,0,0,0,0,0,0,0,0,0,0,0,0,0,0,0,0,0,0,0,0,0,0],"id":10,"left_children":[1,3,5,7,9,11,13,15,17,19,21,23,25,27,29,31,33,35,37,39,41,43,-1,45,47,49,51,53,55,57,59,61,63,65,67,69,71,-1,73,75,77,-1,-1,-1,-1,-1,79,81,83,85,87,89,91,93,95,97,99,-1,101,103,105,-1,-1,-1,-1,-1,-1,-1,-1,-1,-1,-1,-1,-1,-1,-1,-1,-1,-1,-1,-1,-1,-1,-1,-1,-1,-1,-1,-1,-1,-1,-1,-1,-1,-1,-1,-1,-1,-1,-1,-1,-1,-1,-1,-1,-1,-1],"loss_changes":[2.2833884E3,1.4602941E3,1.6091309E3,1.4662291E3,3.0760908E3,1.2062905E3,1.5059958E3,1.2991478E3,3.9992698E3,1.4573174E3,7.0713477E2,1.2908538E3,1.9491462E3,2.1287942E3,2.3640464E3,1.4242701E3,1.5777385E3,2.1161523E3,3.6278638E2,2.54792E3,1.162298E2,4.6585986E2,0E0,1.1930032E3,8.22938E2,1.0055393E3,9.8225726E2,1.0970059E3,1.8443381E3,7.9088586E2,1.7333478E3,1.02262463E3,1.927607E3,7.672422E2,8.91035E2,2.246695E3,6.1597705E2,0E0,3.6216507E1,8.5127625E2,9.1382104E2,0E0,0E0,0E0,0E0,0E0,1.0606907E3,8.563989E2,8.241072E1,4.7954422E1,1.230033E3,2.602556E2,1.9840723E2,2.114396E3,9.2837164E2,1.2228562E3,2.8483234E2,0E0,1.0035541E2,2.892169E3,1.5962268E3,0E0,0E0,0E0,0E0,0E0,0E0,0E0,0E0,0E0,0E0,0E0,0E0,0E0,0E0,0E0,0E0,0E0,0E0,0E0,0E0,0E0,0E0,0E0,0E0,0E0,0E0,0E0,0E0,0E0,0E0,0E0,0E0,0E0,0E0,0E0,0E0,0E0,0E0,0E0,0E0,0E0,0E0,0E0,0E0,0E0,0E0],"parents":[2147483647,0,0,1,1,2,2,3,3,4,4,5,5,6,6,7,7,8,8,9,9,10,10,11,11,12,12,13,13,14,14,15,15,16,16,17,17,18,18,19,19,20,20,21,21,23,23,24,24,25,25,26,26,27,27,28,28,29,29,30,30,31,31,32,32,33,33,34,34,35,35,36,36,38,38,39,39,40,40,46,46,47,47,48,48,49,49,50,50,51,51,52,52,53,53,54,54,55,55,56,56,58,58,59,59,60,60],"right_children":[2,4,6,8,10,12,14,16,18,20,22,24,26,28,30,32,34,36,38,40,42,44,-1,46,48,50,52,54,56,58,60,62,64,66,68,70,72,-1,74,76,78,-1,-1,-1,-1,-1,80,82,84,86,88,90,92,94,96,98,100,-1,102,104,106,-1,-1,-1,-1,-1,-1,-1,-1,-1,-1,-1,-1,-1,-1,-1,-1,-1,-1,-1,-1,-1,-1,-1,-1,-1,-1,-1,-1,-1,-1,-1,-1,-1,-1,-1,-1,-1,-1,-1,-1,-1,-1,-1,-1,-1,-1],"split_conditions":[1.05333336E2,1.02E2,-2.7E1,1.00666664E2,2.996662E1,7.74028E1,-9.5E0,2.5564585E1,4E-1,7.948403E1,1.2E1,6.940174E1,2.5087502E1,2.7345785E1,-8E0,3.2396E1,-3.85E1,2.6704165E1,2.665417E1,7.302113E1,1.7106628E1,-3.85E1,-2.4840226E0,2.4466667E1,1.5166667E2,1.1E2,2.6606249E1,1.23333336E2,7.432586E1,1.12E2,1.07666664E2,2.9370352E1,7.63423E1,6.8366425E1,-6.5E0,2.501667E1,-1.1E1,-5.639345E0,-1.2560739E-15,-1.55E1,-1E0,1.1133828E0,4.7098246E0,-1.669352E0,-1.1044292E1,-6.0149484E0,-2.85E1,1.3000002E0,1.6066667E2,2.4866669E1,1.19333336E2,2.2415602E1,1.11E2,6.809222E1,8.094666E1,7.151407E1,2.9275326E1,-8.677055E0,1.23333336E2,1E0,1.17666664E2,5.280404E-1,-1.0727719E0,3.963519E0,-9.772971E-1,1.1886405E0,-3.0590005E0,-4.7892815E-1,-4.1113093E-2,6.8033967E0,-2.7928684E0,1.3140621E0,1.1034654E1,-1.257232E0,5.889416E-1,-6.005832E-1,4.366722E0,-6.156201E-1,-5.7196684E0,3.0060601E0,-3.405064E0,-3.0332816E0,3.6464906E0,3.7340767E0,1.911049E-1,-9.875508E-1,9.225838E-1,9.668397E0,1.174466E0,-5.1110687E0,-1.2408334E0,4.858722E0,-1.6215706E-1,-4.1911176E-1,5.9356084E0,8.262193E-1,5.835086E0,5.9550416E-1,-4.981569E0,-4.564625E-1,4.678314E0,5.581135E-1,-2.3577783E0,5.9371104E0,-5.1975805E-1,-6.801686E-1,8.505001E-1],"split_indices":[0,0,1,0,4,5,1,2,3,5,1,5,2,4,1,4,1,2,2,5,4,1,0,2,0,0,2,0,5,0,0,4,5,5,1,2,1,0,1,1,1,0,0,0,0,0,1,3,0,2,0,4,0,5,5,5,4,0,0,6,0,0,0,0,0,0,0,0,0,0,0,0,0,0,0,0,0,0,0,0,0,0,0,0,0,0,0,0,0,0,0,0,0,0,0,0,0,0,0,0,0,0,0,0,0,0,0],"split_type":[0,0,0,0,0,0,0,0,0,0,0,0,0,0,0,0,0,0,0,0,0,0,0,0,0,0,0,0,0,0,0,0,0,0,0,0,0,0,0,0,0,0,0,0,0,0,0,0,0,0,0,0,0,0,0,0,0,0,0,0,0,0,0,0,0,0,0,0,0,0,0,0,0,0,0,0,0,0,0,0,0,0,0,0,0,0,0,0,0,0,0,0,0,0,0,0,0,0,0,0,0,0,0,0,0,0,0],"sum_hessian":[3.199E3,2.698E3,5.01E2,2.661E3,3.7E1,6.9E1,4.32E2,2.644E3,1.7E1,3E1,7E0,5.1E1,1.8E1,6.9E1,3.63E2,2.91E2,2.353E3,1.2E1,5E0,2.5E1,5E0,4E0,3E0,1.4E1,3.7E1,9E0,9E0,5.1E1,1.8E1,6E0,3.57E2,2.6E2,3.1E1,2.7E1,2.326E3,7E0,5E0,3E0,2E0,1.1E1,1.4E1,2E0,3E0,1E0,3E0,1E0,1.3E1,3.5E1,2E0,3E0,6E0,7E0,2E0,2.5E1,2.6E1,1.3E1,5E0,2E0,4E0,2.4E1,3.33E2,2.18E2,4.2E1,2.1E1,1E1,4E0,2.3E1,5.46E2,1.78E3,3E0,4E0,1E0,4E0,1E0,1E0,6E0,5E0,5E0,9E0,1.1E1,2E0,3.4E1,1E0,1E0,1E0,2E0,1E0,3E0,3E0,3E0,4E0,1E0,1E0,6E0,1.9E1,2.3E1,3E0,6E0,7E0,1E0,4E0,1E0,3E0,1.3E1,1.1E1,8E1,2.53E2],"tree_param":{"num_deleted":"0","num_feature":"7","num_nodes":"107","size_leaf_vector":"1"}},{"base_weights":[1.3612716E-2,-7.570867E-1,7.0353806E-1,-6.0701394E-1,-3.8399136E0,-2.05002E0,1.0170925E0,-6.904578E-1,1.0318635E1,-5.8211155E0,5.294672E0,7.3386484E-1,-8.723899E0,4.8295364E0,7.126751E-1,-5.2053676E0,-5.8691466E-1,3.73655E0,-1.6570027E0,-9.0235615E0,-2.937142E0,5.322563E0,-2.1367721E-1,7.6099353E0,-8.39239E-1,-2.054061E1,-4.140798E0,3.8230667E0,6.5919976E0,-2.9203625E0,1.0725837E0,-6.182341E0,1.3067585E0,-2.3173099E0,-3.621316E-1,7.432573E-1,-1.3175025E1,-4.5729813E-1,-1.031951E1,2.179022E0,-2.9908738E0,-8.835383E0,1.3933894E1,-3.5158668E0,2.7081165E0,-2.420492E1,9.63501E-1,-1.4646858E1,-1.2959824E0,4.9699802E0,-1.631164E1,3.5886202E0,-5.4356127E0,7.443898E-1,4.855604E0,-2.4651725E0,-8.3531123E-1,7.6310307E-1,-5.461373E-1,-9.657001E-1,2.3747139E-1,4.878812E-1,-1.7583103E-1,-3.230566E0,1.0584909E0,-2.255699E0,-5.2540655E0,1.825015E0,-1.3549929E0,-6.367321E-2,-3.5199256E0,-2.2605028E0,1.0311041E0,4.0743142E-1,-5.046008E0,5.1466126E0,-2.4742872E-1,5.3273886E-1,-1.782453E0,-2.8182805E0,1.5754969E0,-2.461349E0,-9.353871E0,1.0108407E0,-5.772652E-1,2.080607E0,-5.616239E0,-1.6545734E0,1.4910969E0,1.3405873E-1,2.3288739E0,1.833933E-1,-1.0031509E1,2.2893496E0,-1.8878169E0,-3.2118995E0,-1.2294497E0,1.0430393E0,1.08260855E-1,9.2909765E-1,3.7124887E0],"categories":[],"categories_nodes":[],"categories_segments":[],"categories_sizes":[],"default_left":[0,0,0,0,0,0,0,0,0,0,0,0,0,0,0,0,0,0,0,0,0,0,0,0,0,0,0,0,0,0,0,0,0,0,0,0,0,0,0,0,0,0,0,0,0,0,0,0,0,0,0,0,0,0,0,0,0,0,0,0,0,0,0,0,0,0,0,0,0,0,0,0,0,0,0,0,0,0,0,0,0,0,0,0,0,0,0,0,0,0,0,0,0,0,0,0,0,0,0,0,0],"id":11,"left_children":[1,3,5,7,9,11,13,15,17,19,21,23,25,27,29,31,33,-1,-1,35,37,-1,39,41,43,45,47,49,-1,51,53,55,57,59,61,63,65,67,69,-1,71,73,75,77,79,81,83,85,87,89,91,93,95,97,99,-1,-1,-1,-1,-1,-1,-1,-1,-1,-1,-1,-1,-1,-1,-1,-1,-1,-1,-1,-1,-1,-1,-1,-1,-1,-1,-1,-1,-1,-1,-1,-1,-1,-1,-1,-1,-1,-1,-1,-1,-1,-1,-1,-1,-1,-1],"loss_changes":[1.7020527E3,6.9719324E2,1.4603514E3,1.3226772E3,1.2976431E3,3.220623E3,1.7571492E3,6.668554E2,4.4111E2,5.0917114E2,8.951172E2,1.3368497E3,2.6769617E3,1.8485215E3,1.841564E3,2.1166846E2,5.444876E2,0E0,0E0,1.1045503E3,5.8110876E2,0E0,2.2937724E2,2.5151E3,9.685113E2,1.1264897E3,1.1167545E3,2.5519946E3,0E0,2.0987146E3,1.5855879E3,1.7072693E2,2.397121E1,4.538709E2,5.5407306E2,3.2654294E2,3.3455347E2,6.912485E2,1.1180878E2,0E0,2.5957147E2,5.9258295E2,8.224092E2,7.550208E2,1.4037827E3,1.0833555E3,2.732686E1,8.332323E2,8.470273E2,1.2850728E3,1.7594493E3,1.4860686E3,6.0466016E2,1.2342593E3,1.3104856E3,0E0,0E0,0E0,0E0,0E0,0E0,0E0,0E0,0E0,0E0,0E0,0E0,0E0,0E0,0E0,0E0,0E0,0E0,0E0,0E0,0E0,0E0,0E0,0E0,0E0,0E0,0E0,0E0,0E0,0E0,0E0,0E0,0E0,0E0,0E0,0E0,0E0,0E0,0E0,0E0,0E0,0E0,0E0,0E0,0E0,0E0],"parents":[2147483647,0,0,1,1,2,2,3,3,4,4,5,5,6,6,7,7,8,8,9,9,10,10,11,11,12,12,13,13,14,14,15,15,16,16,19,19,20,20,22,22,23,23,24,24,25,25,26,26,27,27,29,29,30,30,31,31,32,32,33,33,34,34,35,35,36,36,37,37,38,38,40,40,41,41,42,42,43,43,44,44,45,45,46,46,47,47,48,48,49,49,50,50,51,51,52,52,53,53,54,54],"right_children":[2,4,6,8,10,12,14,16,18,20,22,24,26,28,30,32,34,-1,-1,36,38,-1,40,42,44,46,48,50,-1,52,54,56,58,60,62,64,66,68,70,-1,72,74,76,78,80,82,84,86,88,90,92,94,96,98,100,-1,-1,-1,-1,-1,-1,-1,-1,-1,-1,-1,-1,-1,-1,-1,-1,-1,-1,-1,-1,-1,-1,-1,-1,-1,-1,-1,-1,-1,-1,-1,-1,-1,-1,-1,-1,-1,-1,-1,-1,-1,-1,-1,-1,-1,-1],"split_conditions":[6.3333332E1,1.5E0,6.643497E1,1.1000001E0,1.1E1,6.4595436E1,6.880168E1,5.0968555E1,6.0666668E1,7.756514E1,4.2E1,2.5364584E1,1E0,2.8E1,-2.7E1,3.0870832E1,3.0666666E1,3.73655E0,-1.6570027E0,7.191239E1,4E0,5.322563E0,2.9999998E0,5.686865E1,2E0,1E-1,6.503511E1,2.35E1,6.5919976E0,2.5087502E1,1.4066667E2,4.4666668E1,-3.5E0,3.1085419E1,6.8366425E1,1.6E0,2.4863468E1,8.534183E1,1.7E1,2.179022E0,4.8666668E1,1.26666664E2,6.308083E1,2.6535418E1,2.5933336E1,1.8E1,1.22E2,6.6E1,2.8050001E1,2.597083E1,7.1333336E1,1.19333336E2,2.5270834E1,1.9386593E1,1.25E1,-2.4651725E0,-8.3531123E-1,7.6310307E-1,-5.461373E-1,-9.657001E-1,2.3747139E-1,4.878812E-1,-1.7583103E-1,-3.230566E0,1.0584909E0,-2.255699E0,-5.2540655E0,1.825015E0,-1.3549929E0,-6.367321E-2,-3.5199256E0,-2.2605028E0,1.0311041E0,4.0743142E-1,-5.046008E0,5.1466126E0,-2.4742872E-1,5.3273886E-1,-1.782453E0,-2.8182805E0,1.5754969E0,-2.461349E0,-9.353871E0,1.0108407E0,-5.772652E-1,2.080607E0,-5.616239E0,-1.6545734E0,1.4910969E0,1.3405873E-1,2.3288739E0,1.833933E-1,-1.0031509E1,2.2893496E0,-1.8878169E0,-3.2118995E0,-1.2294497E0,1.0430393E0,1.08260855E-1,9.2909765E-1,3.7124887E0],"split_indices":[0,3,5,3,1,5,5,5,0,5,0,2,6,1,1,2,0,0,0,5,1,0,3,5,1,3,5,1,0,2,0,0,1,2,5,3,4,5,0,0,0,0,5,2,2,4,0,0,2,2,0,0,2,4,1,0,0,0,0,0,0,0,0,0,0,0,0,0,0,0,0,0,0,0,0,0,0,0,0,0,0,0,0,0,0,0,0,0,0,0,0,0,0,0,0,0,0,0,0,0,0],"split_type":[0,0,0,0,0,0,0,0,0,0,0,0,0,0,0,0,0,0,0,0,0,0,0,0,0,0,0,0,0,0,0,0,0,0,0,0,0,0,0,0,0,0,0,0,0,0,0,0,0,0,0,0,0,0,0,0,0,0,0,0,0,0,0,0,0,0,0,0,0,0,0,0,0,0,0,0,0,0,0,0,0,0,0,0,0,0,0,0,0,0,0,0,0,0,0,0,0,0,0,0,0],"sum_hessian":[3.199E3,1.511E3,1.688E3,1.442E3,6.9E1,1.72E2,1.516E3,1.432E3,1E1,5.7E1,1.2E1,1.22E2,5E1,1.11E2,1.405E3,3.1E1,1.401E3,9E0,1E0,2.6E1,3.1E1,3E0,9E0,2.2E1,1E2,1.3E1,3.7E1,1.06E2,5E0,1.26E2,1.279E3,2.7E1,4E0,1.6E2,1.241E3,8E0,1.8E1,2.4E1,7E0,2E0,7E0,6E0,1.6E1,5.7E1,4.3E1,1.1E1,2E0,7E0,3E1,1.01E2,5E0,3.5E1,9.1E1,1.178E3,1.01E2,1.6E1,1.1E1,3E0,1E0,1.24E2,3.6E1,1.25E2,1.116E3,1E0,7E0,9E0,9E0,9E0,1.5E1,1E0,6E0,4E0,3E0,3E0,3E0,1.3E1,3E0,1.8E1,3.9E1,7E0,3.6E1,4E0,7E0,1E0,1E0,1E0,6E0,1.8E1,1.2E1,3.9E1,6.2E1,3E0,2E0,2.5E1,1E1,1.7E1,7.4E1,1.44E2,1.034E3,8.3E1,1.8E1],"tree_param":{"num_deleted":"0","num_feature":"7","num_nodes":"101","size_leaf_vector":"1"}},{"base_weights":[1.9363713E-3,-5.948608E-1,4.5075813E-1,-3.0880508E0,-4.7269523E-1,-4.4427294E-1,1.142212E0,6.072396E0,-3.9672818E0,6.1959434E-1,-8.884175E-1,1.4277945E-1,-5.115912E0,-7.950957E0,1.3946687E0,-9.0135574E-1,9.784611E0,2.8726801E-2,-5.454837E0,2.5985277E-1,8.924293E0,-6.1639917E-1,-4.985908E0,4.921099E0,-2.9049805E-1,8.514625E0,-7.350731E0,-1.2834854E1,-3.6952272E-1,1.1731434E1,1.1726497E0,-8.1982785E-1,4.1421777E-1,3.6434095E0,4.0565243E-1,2.3756628E0,-3.514659E0,-1.2967515E1,-3.3671527E0,-1.4105195E0,1.4044567E0,1.1708869E1,-1.8350899E0,-7.821874E-1,3.7228222E0,-8.820853E0,-2.6344686E0,8.272204E0,-1.0453922E1,-1.3006241E0,2.6448412E0,6.271763E-1,1.7612118E1,-1.5308688E0,-1.3283462E1,-2.7224693E0,-1.9641275E1,4.5986586E0,-3.1901815E0,-3.6740036E0,1.5572361E1,2.538217E0,-8.606462E-2,-1.2513939E0,1.1111281E0,1.1008587E0,-4.651751E0,-3.0236182E0,-1.968816E-1,-6.1094475E-1,3.9352157E0,4.574486E0,3.1696716E-1,5.657561E-1,4.7595344E0,-2.6984203E-1,1.638259E0,3.1673772E0,8.7599695E-2,-3.0323777E0,2.7311509E0,8.0407447E-1,-1.5571505E0,-3.1602433E0,2.9183125E0,-4.155321E0,3.5276346E0,-9.4586754E-1,2.7789176E-1,2.5879025E-1,2.6650007E0,2.3340266E0,-1.5661767E0,2.458087E0,7.289822E0,-1.5001539E0,1.3755716E0,-5.07108E0,-4.3701315E-1,1.2736399E0,-2.3256974E0,-6.64114E0,4.2321625E-1,2.5493035E0,-2.019501E0,6.274973E-1,-4.0104976E0,-1.8659872E0,5.6678E0,-1.7127885E0,9.33276E-1,-9.56854E-2,4.396433E0],"categories":[],"categories_nodes":[],"categories_segments":[],"categories_sizes":[],"default_left":[0,0,0,0,0,0,0,0,0,0,0,0,0,0,0,0,0,0,0,0,0,0,0,0,0,0,0,0,0,0,0,0,0,0,0,0,0,0,0,0,0,0,0,0,0,0,0,0,0,0,0,0,0,0,0,0,0,0,0,0,0,0,0,0,0,0,0,0,0,0,0,0,0,0,0,0,0,0,0,0,0,0,0,0,0,0,0,0,0,0,0,0,0,0,0,0,0,0,0,0,0,0,0,0,0,0,0,0,0,0,0,0,0],"id":12,"left_children":[1,3,5,7,9,11,13,15,17,19,21,23,25,27,29,31,33,35,37,39,41,43,45,47,49,51,53,55,57,59,61,-1,-1,-1,-1,63,-1,65,67,69,71,73,-1,75,77,79,81,83,85,87,89,91,93,95,97,99,101,-1,103,105,107,109,111,-1,-1,-1,-1,-1,-1,-1,-1,-1,-1,-1,-1,-1,-1,-1,-1,-1,-1,-1,-1,-1,-1,-1,-1,-1,-1,-1,-1,-1,-1,-1,-1,-1,-1,-1,-1,-1,-1,-1,-1,-1,-1,-1,-1,-1,-1,-1,-1,-1,-1],"loss_changes":[8.574058E2,4.170358E2,1.131188E3,5.3955646E2,5.958613E2,2.1865005E3,2.3778845E3,1.641478E2,3.5086932E2,1.0791724E3,1.0557896E3,1.4692997E3,2.7736875E3,1.0320118E3,2.2903818E3,1.631143E1,6.318335E1,4.9640344E2,6.307527E2,6.6732733E2,6.9987573E2,6.446096E2,5.088025E2,3.126352E3,1.9336957E3,9.217822E2,2.6382954E3,1.116623E3,5.802593E2,1.2998069E3,1.6915758E3,0E0,0E0,0E0,0E0,1.4587488E2,0E0,4.369707E2,6.301853E2,1.3180511E3,9.8085535E2,5.0082996E2,0E0,6.3462286E2,7.707678E2,5.9956946E2,5.301261E2,1.4437363E3,9.9292993E2,2.0034824E3,1.8490906E3,3.7524506E2,1.7880493E2,8.717571E2,1.6023271E3,3.1329385E2,5.566572E2,0E0,5.125202E2,3.074328E2,1.3475835E3,2.2471936E3,1.7657751E3,0E0,0E0,0E0,0E0,0E0,0E0,0E0,0E0,0E0,0E0,0E0,0E0,0E0,0E0,0E0,0E0,0E0,0E0,0E0,0E0,0E0,0E0,0E0,0E0,0E0,0E0,0E0,0E0,0E0,0E0,0E0,0E0,0E0,0E0,0E0,0E0,0E0,0E0,0E0,0E0,0E0,0E0,0E0,0E0,0E0,0E0,0E0,0E0,0E0,0E0],"parents":[2147483647,0,0,1,1,2,2,3,3,4,4,5,5,6,6,7,7,8,8,9,9,10,10,11,11,12,12,13,13,14,14,15,15,16,16,17,17,18,18,19,19,20,20,21,21,22,22,23,23,24,24,25,25,26,26,27,27,28,28,29,29,30,30,35,35,37,37,38,38,39,39,40,40,41,41,43,43,44,44,45,45,46,46,47,47,48,48,49,49,50,50,51,51,52,52,53,53,54,54,55,55,56,56,58,58,59,59,60,60,61,61,62,62],"right_children":[2,4,6,8,10,12,14,16,18,20,22,24,26,28,30,32,34,36,38,40,42,44,46,48,50,52,54,56,58,60,62,-1,-1,-1,-1,64,-1,66,68,70,72,74,-1,76,78,80,82,84,86,88,90,92,94,96,98,100,102,-1,104,106,108,110,112,-1,-1,-1,-1,-1,-1,-1,-1,-1,-1,-1,-1,-1,-1,-1,-1,-1,-1,-1,-1,-1,-1,-1,-1,-1,-1,-1,-1,-1,-1,-1,-1,-1,-1,-1,-1,-1,-1,-1,-1,-1,-1,-1,-1,-1,-1,-1,-1,-1,-1],"split_conditions":[6.0333332E1,1.609969E1,2.4993439E1,2.5333334E1,2.418707E1,2.41388E1,2.4574999E1,2.3666666E1,-3.5E0,2.4033876E1,5.9E1,2.4574999E1,-1.6E1,2.5E0,2.5210283E1,1.7E1,5E0,1.584409E1,2.7183336E1,7.137417E1,1.4E1,5.8E1,3.1722921E1,3.15E1,2.8316668E1,1.08333336E2,8.4333336E1,2.4297918E1,7.2333336E1,7.3333336E1,2.7183336E1,-8.1982785E-1,4.1421777E-1,3.6434095E0,4.0565243E-1,2.7E1,-3.514659E0,2.4574999E1,3.1E1,5.9E1,7.166935E1,-6E0,-1.8350899E0,3.2597916E1,2.665417E1,2.55E1,3.0158333E1,-4.5E1,1.3033333E2,2.0948164E1,9.6E1,7.8333336E1,7.458386E1,7.6333336E1,1E-1,7.63423E1,1.24333336E2,4.5986586E0,2.6554728E1,6.5333336E1,-4.8E1,2.5772078E1,2.8E1,-1.2513939E0,1.1111281E0,1.1008587E0,-4.651751E0,-3.0236182E0,-1.968816E-1,-6.1094475E-1,3.9352157E0,4.574486E0,3.1696716E-1,5.657561E-1,4.7595344E0,-2.6984203E-1,1.638259E0,3.1673772E0,8.7599695E-2,-3.0323777E0,2.7311509E0,8.0407447E-1,-1.5571505E0,-3.1602433E0,2.9183125E0,-4.155321E0,3.5276346E0,-9.4586754E-1,2.7789176E-1,2.5879025E-1,2.6650007E0,2.3340266E0,-1.5661767E0,2.458087E0,7.289822E0,-1.5001539E0,1.3755716E0,-5.07108E0,-4.3701315E-1,1.2736399E0,-2.3256974E0,-6.64114E0,4.2321625E-1,2.5493035E0,-2.019501E0,6.274973E-1,-4.0104976E0,-1.8659872E0,5.6678E0,-1.7127885E0,9.33276E-1,-9.56854E-2,4.396433E0],"split_indices":[0,4,4,0,4,4,2,0,1,4,0,2,1,1,4,0,1,4,2,5,1,0,4,1,2,0,0,2,0,0,2,0,0,0,0,0,0,2,0,0,5,1,0,2,2,1,2,1,0,4,0,0,5,0,3,5,0,0,4,0,1,4,1,0,0,0,0,0,0,0,0,0,0,0,0,0,0,0,0,0,0,0,0,0,0,0,0,0,0,0,0,0,0,0,0,0,0,0,0,0,0,0,0,0,0,0,0,0,0,0,0,0,0],"split_type":[0,0,0,0,0,0,0,0,0,0,0,0,0,0,0,0,0,0,0,0,0,0,0,0,0,0,0,0,0,0,0,0,0,0,0,0,0,0,0,0,0,0,0,0,0,0,0,0,0,0,0,0,0,0,0,0,0,0,0,0,0,0,0,0,0,0,0,0,0,0,0,0,0,0,0,0,0,0,0,0,0,0,0,0,0,0,0,0,0,0,0,0,0,0,0,0,0,0,0,0,0,0,0,0,0,0,0,0,0,0,0,0,0],"sum_hessian":[3.199E3,1.373E3,1.826E3,6.3E1,1.31E3,7.96E2,1.03E3,5E0,5.8E1,3.61E2,9.49E2,7.08E2,8.8E1,2.7E1,1.003E3,2E0,3E0,1.6E1,4.2E1,3.47E2,1.4E1,8.91E2,5.8E1,5.8E1,6.5E2,1.2E1,7.6E1,1.6E1,1.1E1,2E1,9.83E2,1E0,1E0,2E0,1E0,1.4E1,2E0,8E0,3.4E1,1.41E2,2.06E2,1.2E1,2E0,8.59E2,3.2E1,2.1E1,3.7E1,4.8E1,1E1,4.84E2,1.66E2,7E0,5E0,3.9E1,3.7E1,7E0,9E0,1E0,1E1,4E0,1.6E1,4.71E2,5.12E2,2E0,1.2E1,1E0,7E0,9E0,2.5E1,1.36E2,5E0,4E0,2.02E2,4E0,8E0,8.44E2,1.5E1,1E1,2.2E1,2E1,1E0,1.2E1,2.5E1,3E0,4.5E1,9E0,1E0,2.64E2,2.2E2,1.3E2,3.6E1,3E0,4E0,3E0,2E0,2.5E1,1.4E1,2.8E1,9E0,3E0,4E0,8E0,1E0,2E0,8E0,3E0,1E0,2E0,1.4E1,3E1,4.41E2,5.05E2,7E0],"tree_param":{"num_deleted":"0","num_feature":"7","num_nodes":"113","size_leaf_vector":"1"}},{"base_weights":[6.530636E-3,-6.477422E-2,2.4712293E0,-3.283886E-1,7.1013385E-1,-1.6599225E0,4.8920703E0,6.4126296E0,-3.4694925E-1,3.7926504E-1,5.1248484E0,6.954136E0,-5.039149E0,6.5289555E0,-7.732677E0,-2.0311E-1,-3.079384E0,-5.001785E0,4.4844267E-1,1.180961E1,9.675668E-1,-3.868696E0,1.0592518E1,-7.3571954E0,8.969894E0,5.920207E-1,8.146812E0,-1.996701E1,6.434826E0,8.8750714E-1,-6.367417E-1,-9.918277E0,5.1327944E-1,1.8415397E0,-5.079437E-1,3.172295E0,1.505305E1,2.8345013E0,-1.4209801E1,-6.075909E-1,1.2422909E1,2.789319E0,-1.227819E1,-1.4166756E0,4.532408E0,1.1799194E1,-4.4547253E0,4.6528444E0,1.1086457E1,-7.1282597E0,-1.2878175E0,-6.306656E-1,2.9943743E0,4.0975484E-1,-7.5087893E-1,-3.6877382E-1,1.04354255E-1,-5.569605E0,-1.664802E0,3.161827E0,-6.867919E-1,1.972698E-1,1.6297722E0,-5.5442685E-1,8.1936604E-1,1.3354664E0,-5.1704408E-3,5.1212196E0,3.8762286E-1,-1.8436383E0,2.3492796E0,8.6325306E-1,-6.2594223E0,4.5749545E0,7.8841865E-1,2.3762102E0,-2.520965E0,-4.5371E0,1.24348E0,4.0673084E0,9.7855455E-1,-2.6229954E0,9.275534E-1,4.1780643E0,1.8991213E-1,3.6136556E0,-1.2142136E0],"categories":[],"categories_nodes":[],"categories_segments":[],"categories_sizes":[],"default_left":[0,0,0,0,0,0,0,0,0,0,0,0,0,0,0,0,0,0,0,0,0,0,0,0,0,0,0,0,0,0,0,0,0,0,0,0,0,0,0,0,0,0,0,0,0,0,0,0,0,0,0,0,0,0,0,0,0,0,0,0,0,0,0,0,0,0,0,0,0,0,0,0,0,0,0,0,0,0,0,0,0,0,0,0,0,0,0],"id":13,"left_children":[1,3,5,7,9,11,13,-1,15,17,19,21,23,25,27,29,31,-1,33,35,37,-1,39,41,43,45,47,49,51,53,55,57,59,61,63,65,67,69,71,-1,73,75,77,-1,-1,79,81,83,85,-1,-1,-1,-1,-1,-1,-1,-1,-1,-1,-1,-1,-1,-1,-1,-1,-1,-1,-1,-1,-1,-1,-1,-1,-1,-1,-1,-1,-1,-1,-1,-1,-1,-1,-1,-1,-1,-1],"loss_changes":[5.62544E2,6.357387E2,9.081979E2,9.4280334E2,1.1520022E3,1.0247439E3,1.2284064E3,0E0,9.1160034E2,8.7566864E2,1.5170476E3,8.588088E2,8.778336E2,4.850376E2,1.341794E3,1.0438402E3,2.855192E3,0E0,9.788722E2,5.4055396E2,1.0320079E3,0E0,2.3301996E2,1.1327286E3,4.0752078E2,7.312793E2,3.5925732E2,1.3586487E2,1.4208661E2,1.0219021E3,9.2157404E2,1.4081157E3,2.1877607E3,1.2676829E3,1.8977021E3,2.8638367E1,3.9442236E2,1.4838928E3,5.1489874E2,0E0,1.8143787E2,5.260246E2,7.636604E2,0E0,0E0,1.5828491E1,3.183105E2,7.3678E2,3.535525E2,0E0,0E0,0E0,0E0,0E0,0E0,0E0,0E0,0E0,0E0,0E0,0E0,0E0,0E0,0E0,0E0,0E0,0E0,0E0,0E0,0E0,0E0,0E0,0E0,0E0,0E0,0E0,0E0,0E0,0E0,0E0,0E0,0E0,0E0,0E0,0E0,0E0,0E0],"parents":[2147483647,0,0,1,1,2,2,3,3,4,4,5,5,6,6,8,8,9,9,10,10,11,11,12,12,13,13,14,14,15,15,16,16,18,18,19,19,20,20,22,22,23,23,24,24,25,25,26,26,27,27,28,28,29,29,30,30,31,31,32,32,33,33,34,34,35,35,36,36,37,37,38,38,40,40,41,41,42,42,45,45,46,46,47,47,48,48],"right_children":[2,4,6,8,10,12,14,-1,16,18,20,22,24,26,28,30,32,-1,34,36,38,-1,40,42,44,46,48,50,52,54,56,58,60,62,64,66,68,70,72,-1,74,76,78,-1,-1,80,82,84,86,-1,-1,-1,-1,-1,-1,-1,-1,-1,-1,-1,-1,-1,-1,-1,-1,-1,-1,-1,-1,-1,-1,-1,-1,-1,-1,-1,-1,-1,-1,-1,-1,-1,-1,-1,-1,-1,-1],"split_conditions":[1.49E2,3E0,2.1578989E1,-6.15E1,1.2E2,1.7106628E1,1.3000002E0,6.4126296E0,1.26666664E2,2.6068748E1,7.30724E1,4.821134E1,3E-1,-4E0,2.0000002E0,1E0,2.5110415E1,-5.001785E0,2.2768398E1,-1.2E1,3.2559605E1,-3.868696E0,-2.35E1,-1E0,3E0,2.5166664E1,2.5294964E1,4E0,1.5700924E-16,3E-1,3.0806253E1,1.3033333E2,6.966236E1,2.1316135E1,3.07542E1,7.107036E1,1.43E2,-4.5E0,-1.1E1,-6.075909E-1,1.7E2,1E-1,1.7E2,-1.4166756E0,4.532408E0,1.6066667E2,2.8442278E1,2.506042E1,1.96E2,-7.1282597E0,-1.2878175E0,-6.306656E-1,2.9943743E0,4.0975484E-1,-7.5087893E-1,-3.6877382E-1,1.04354255E-1,-5.569605E0,-1.664802E0,3.161827E0,-6.867919E-1,1.972698E-1,1.6297722E0,-5.5442685E-1,8.1936604E-1,1.3354664E0,-5.1704408E-3,5.1212196E0,3.8762286E-1,-1.8436383E0,2.3492796E0,8.6325306E-1,-6.2594223E0,4.5749545E0,7.8841865E-1,2.3762102E0,-2.520965E0,-4.5371E0,1.24348E0,4.0673084E0,9.7855455E-1,-2.6229954E0,9.275534E-1,4.1780643E0,1.8991213E-1,3.6136556E0,-1.2142136E0],"split_indices":[0,6,4,1,0,4,3,0,0,2,5,5,3,1,3,6,2,0,4,1,4,0,1,1,1,2,4,1,1,3,2,0,5,4,4,5,0,1,1,0,0,3,0,0,0,0,4,2,0,0,0,0,0,0,0,0,0,0,0,0,0,0,0,0,0,0,0,0,0,0,0,0,0,0,0,0,0,0,0,0,0,0,0,0,0,0,0],"split_type":[0,0,0,0,0,0,0,0,0,0,0,0,0,0,0,0,0,0,0,0,0,0,0,0,0,0,0,0,0,0,0,0,0,0,0,0,0,0,0,0,0,0,0,0,0,0,0,0,0,0,0,0,0,0,0,0,0,0,0,0,0,0,0,0,0,0,0,0,0,0,0,0,0,0,0,0,0,0,0,0,0,0,0,0,0,0,0],"sum_hessian":[3.199E3,3.11E3,8.9E1,2.321E3,7.89E2,3.3E1,5.6E1,1E0,2.32E3,7.35E2,5.4E1,9E0,2.4E1,5E1,6E0,2.205E3,1.15E2,2E0,7.33E2,2E1,3.4E1,1E0,8E0,2.1E1,3E0,1.1E1,3.9E1,3E0,3E0,6.27E2,1.578E3,3.9E1,7.6E1,2.98E2,4.35E2,6E0,1.4E1,3.1E1,3E0,1E0,7E0,7E0,1.4E1,1E0,2E0,3E0,8E0,1.9E1,2E1,2E0,1E0,1E0,2E0,5.5E2,7.7E1,9.85E2,5.93E2,1.2E1,2.7E1,1.6E1,6E1,2.25E2,7.3E1,3.08E2,1.27E2,4E0,2E0,1.2E1,2E0,1.1E1,2E1,1E0,2E0,5E0,2E0,5E0,2E0,1.2E1,2E0,2E0,1E0,5E0,3E0,5E0,1.4E1,1.9E1,1E0],"tree_param":{"num_deleted":"0","num_feature":"7","num_nodes":"87","size_leaf_vector":"1"}},{"base_weights":[6.0456977E-3,1.7632098E0,-8.034587E-2,6.34641E-1,1.3607771E1,-2.21371E0,1.2309727E-2,-1.3382033E-1,1.0484327E1,-3.6991062E0,1.9169744E1,-3.197149E0,5.342443E0,3.8114133E0,-5.3742945E-2,-4.8431566E-1,4.424527E0,1.5644214E1,-1.1665545E0,3.3418524E-1,-5.6747756E0,-1.2312287E0,2.2211737E1,-1.1798921E0,-8.738896E0,1.14892235E1,-5.792599E0,-2.3640178E-1,7.8686843E0,-7.820624E-1,1.99863E-1,-1.4814372E1,1.0214447E-1,2.0536427E1,2.2757862E0,-1.2769485E0,1.2822571E0,-2.0670862E0,-4.8656276E-1,2.4157402E1,9.9696356E-1,-1.7011074E0,6.312148E0,-1.0862731E1,7.7817116E0,1.3657785E1,-1.2041749E0,2.1207848E-1,-7.2338905E0,5.62971E0,-2.6018145E0,1.1460745E1,-5.4162993E0,-1.1814667E0,1.3650191E0,-2.570621E0,3.020276E-1,-5.0933256E0,-9.241288E-1,5.668929E0,-2.0651692E-1,1.6876214E0,6.85735E0,1.3275009E0,-3.0339718E-1,2.309189E-2,5.5392385E-1,2.3157563E0,8.505083E0,-2.0911999E0,-1.3085851E-1,-1.8448542E0,-5.881767E0,2.7113512E0,6.020005E-1,7.4584734E-1,4.9483547E0,-2.7881627E0,1.5090752E-1,7.2437286E-1,-2.9598656E0,-2.8920333E0,4.302254E0,9.1328317E-1,-2.315181E0,-2.0664108E-1,-1.7224327E0,8.5644764E-1,-1.8009847E0,-2.8871636E0,-2.0353347E-1,7.563209E-1,3.6017016E-2],"categories":[],"categories_nodes":[],"categories_segments":[],"categories_sizes":[],"default_left":[0,0,0,0,0,0,0,0,0,0,0,0,0,0,0,0,0,0,0,0,0,0,0,0,0,0,0,0,0,0,0,0,0,0,0,0,0,0,0,0,0,0,0,0,0,0,0,0,0,0,0,0,0,0,0,0,0,0,0,0,0,0,0,0,0,0,0,0,0,0,0,0,0,0,0,0,0,0,0,0,0,0,0,0,0,0,0,0,0,0,0,0,0],"id":14,"left_children":[1,3,5,7,9,11,13,15,17,19,21,23,25,27,29,31,-1,33,35,-1,37,-1,39,41,43,45,47,49,51,53,55,57,59,61,63,-1,65,-1,-1,67,-1,69,-1,71,73,75,-1,-1,77,-1,79,81,83,85,87,89,91,-1,-1,-1,-1,-1,-1,-1,-1,-1,-1,-1,-1,-1,-1,-1,-1,-1,-1,-1,-1,-1,-1,-1,-1,-1,-1,-1,-1,-1,-1,-1,-1,-1,-1,-1,-1],"loss_changes":[4.8591495E2,1.996474E3,6.0311273E2,1.0459391E3,1.3222964E3,9.6081946E2,7.342071E2,6.8002716E2,6.19422E2,4.4357456E1,7.9914746E2,1.2529307E3,1.0932224E3,8.230142E2,5.313712E2,1.0688221E3,0E0,4.110719E2,3.5724644E1,0E0,3.6038513E0,0E0,2.5047607E2,1.0086471E3,1.1371416E3,3.9101624E2,6.1320084E1,1.217468E3,1.2550867E3,6.387749E2,6.047952E2,7.462598E1,1.8404836E3,4.4488037E1,2.566925E1,0E0,1.8977795E0,0E0,0E0,3.325454E2,0E0,5.501985E2,0E0,9.920603E2,1.0880783E1,2.4421008E2,0E0,0E0,8.4364746E1,0E0,8.984088E2,1.3536995E3,1.4029875E2,1.4046208E3,1.3014872E3,1.0077672E3,8.3112366E2,0E0,0E0,0E0,0E0,0E0,0E0,0E0,0E0,0E0,0E0,0E0,0E0,0E0,0E0,0E0,0E0,0E0,0E0,0E0,0E0,0E0,0E0,0E0,0E0,0E0,0E0,0E0,0E0,0E0,0E0,0E0,0E0,0E0,0E0,0E0,0E0],"parents":[2147483647,0,0,1,1,2,2,3,3,4,4,5,5,6,6,7,7,8,8,9,9,10,10,11,11,12,12,13,13,14,14,15,15,17,17,18,18,20,20,22,22,23,23,24,24,25,25,26,26,27,27,28,28,29,29,30,30,31,31,32,32,33,33,34,34,36,36,39,39,41,41,43,43,44,44,45,45,48,48,50,50,51,51,52,52,53,53,54,54,55,55,56,56],"right_children":[2,4,6,8,10,12,14,16,18,20,22,24,26,28,30,32,-1,34,36,-1,38,-1,40,42,44,46,48,50,52,54,56,58,60,62,64,-1,66,-1,-1,68,-1,70,-1,72,74,76,-1,-1,78,-1,80,82,84,86,88,90,92,-1,-1,-1,-1,-1,-1,-1,-1,-1,-1,-1,-1,-1,-1,-1,-1,-1,-1,-1,-1,-1,-1,-1,-1,-1,-1,-1,-1,-1,-1,-1,-1,-1,-1,-1,-1],"split_conditions":[1.5596767E1,1.539184E1,1.731746E1,2.452838E2,6.1333332E1,2E-1,1.7873554E1,3.7E1,3.5E0,-4E0,5.686865E1,9.0333336E1,2.7735418E1,1.757744E1,-7E0,2.4372915E1,4.424527E0,3.1671344E2,2.8333334E1,3.3418524E-1,2.8333334E1,-1.2312287E0,1.17666664E2,8.8666664E1,2.871875E1,1.38E2,2.7818754E1,4.0333332E1,8.2622475E1,1.07E2,6.222868E1,3.5E1,2.4466667E1,2.8652086E1,4.3333332E1,-1.2769485E0,2.9333334E1,-2.0670862E0,-4.8656276E-1,7.7333336E1,9.9696356E-1,-1.3E1,6.312148E0,7E0,1.8E1,1.6394829E1,-1.2041749E0,2.1207848E-1,6.2333332E1,5.62971E0,2.6606249E1,6.503511E1,3.2333332E1,9.4E1,-1.1E1,2.0008356E1,6.8366425E1,-5.0933256E0,-9.241288E-1,5.668929E0,-2.0651692E-1,1.6876214E0,6.85735E0,1.3275009E0,-3.0339718E-1,2.309189E-2,5.5392385E-1,2.3157563E0,8.505083E0,-2.0911999E0,-1.3085851E-1,-1.8448542E0,-5.881767E0,2.7113512E0,6.020005E-1,7.4584734E-1,4.9483547E0,-2.7881627E0,1.5090752E-1,7.2437286E-1,-2.9598656E0,-2.8920333E0,4.302254E0,9.1328317E-1,-2.315181E0,-2.0664108E-1,-1.7224327E0,8.5644764E-1,-1.8009847E0,-2.8871636E0,-2.0353347E-1,7.563209E-1,3.6017016E-2],"split_indices":[4,4,4,5,0,3,4,1,1,1,5,0,2,4,1,2,0,5,0,0,0,0,0,0,2,0,2,0,5,0,5,1,2,2,0,0,0,0,0,0,0,1,0,1,1,4,0,0,0,0,2,5,0,0,1,4,5,0,0,0,0,0,0,0,0,0,0,0,0,0,0,0,0,0,0,0,0,0,0,0,0,0,0,0,0,0,0,0,0,0,0,0,0],"split_type":[0,0,0,0,0,0,0,0,0,0,0,0,0,0,0,0,0,0,0,0,0,0,0,0,0,0,0,0,0,0,0,0,0,0,0,0,0,0,0,0,0,0,0,0,0,0,0,0,0,0,0,0,0,0,0,0,0,0,0,0,0,0,0,0,0,0,0,0,0,0,0,0,0,0,0,0,0,0,0,0,0,0,0,0,0,0,0,0,0,0,0,0,0],"sum_hessian":[3.199E3,1.49E2,3.05E3,1.37E2,1.2E1,1.26E2,2.924E3,1.28E2,9E0,3E0,9E0,1.12E2,1.4E1,4.9E1,2.875E3,1.26E2,2E0,6E0,3E0,1E0,2E0,1E0,8E0,8.3E1,2.9E1,9E0,5E0,2.5E1,2.4E1,7.42E2,2.133E3,4E0,1.22E2,4E0,2E0,1E0,2E0,1E0,1E0,7E0,1E0,8.2E1,1E0,2.6E1,3E0,8E0,1E0,1E0,4E0,2E0,2.3E1,1.9E1,5E0,6.26E2,1.16E2,7.5E1,2.058E3,3E0,1E0,4E0,1.18E2,1E0,3E0,1E0,1E0,1E0,1E0,2E0,5E0,1.5E1,6.7E1,1.8E1,8E0,2E0,1E0,2E0,6E0,3E0,1E0,1.4E1,9E0,2E0,1.7E1,1E0,4E0,5.66E2,6E1,9.7E1,1.9E1,1.5E1,6E1,1.55E2,1.903E3],"tree_param":{"num_deleted":"0","num_feature":"7","num_nodes":"93","size_leaf_vector":"1"}},{"base_weights":[1.08188605E-2,5.4821153E0,-1.3219096E-2,1.028443E0,6.4408298E0,-3.4866056E0,2.8686272E-2,-1.2065437E0,3.8419945E0,-7.375904E-1,-1.1110089E1,4.4232197E0,-7.885426E-3,2.9715466E0,-3.308229E0,-5.297579E0,2.7928472E0,-1.4790039E1,7.219422E-1,1.1322296E1,-6.013911E0,-7.0037503E0,2.133209E-2,-2.701649E0,1.9908651E0,3.1900678E-2,-2.9610784E0,1.136122E1,-1.7240766E0,-1.9122139E0,-1.8564825E1,1.5933836E1,-6.4957848E0,-1.16843605E1,2.0491397E0,-1.0684151E1,2.64769E0,3.043236E-2,-4.2448063E0,-7.7221256E-1,3.72231E0,-2.3775308E0,8.036755E-1,4.802891E-1,6.176347E0,3.3805392E0,-1.6348294E0,-2.2228074E0,-7.059606E0,5.4114075E0,-1.3974656E0,-1.0056306E-1,-3.7466264E0,9.415329E-1,-4.275076E0,-5.6024837E0,-1.6059703E0,4.0252665E-3,3.9742746E0],"categories":[],"categories_nodes":[],"categories_segments":[],"categories_sizes":[],"default_left":[0,0,0,0,0,0,0,0,0,0,0,0,0,0,0,0,0,0,0,0,0,0,0,0,0,0,0,0,0,0,0,0,0,0,0,0,0,0,0,0,0,0,0,0,0,0,0,0,0,0,0,0,0,0,0,0,0,0,0],"id":15,"left_children":[1,3,5,7,-1,9,11,13,-1,15,17,19,21,-1,23,25,27,29,-1,31,33,35,37,-1,39,41,-1,43,45,-1,47,49,51,53,-1,55,-1,57,-1,-1,-1,-1,-1,-1,-1,-1,-1,-1,-1,-1,-1,-1,-1,-1,-1,-1,-1,-1,-1],"loss_changes":[4.209326E2,9.747516E2,4.6397916E2,3.3134134E2,0E0,7.8817395E2,5.0628885E2,2.896548E2,0E0,4.8165918E2,5.329945E2,1.9402618E3,6.38905E2,0E0,3.1983228E2,3.1712512E2,6.7753326E2,1.3581555E2,0E0,1.4182034E3,8.809768E2,8.516544E2,4.018739E2,0E0,3.172492E2,1.6866698E2,0E0,5.073637E2,6.422284E2,0E0,1.0269971E2,6.473096E2,1.4349417E2,3.489934E2,0E0,3.686095E2,0E0,6.996712E2,0E0,0E0,0E0,0E0,0E0,0E0,0E0,0E0,0E0,0E0,0E0,0E0,0E0,0E0,0E0,0E0,0E0,0E0,0E0,0E0,0E0],"parents":[2147483647,0,0,1,1,2,2,3,3,5,5,6,6,7,7,9,9,10,10,11,11,12,12,14,14,15,15,16,16,17,17,19,19,20,20,21,21,22,22,24,24,25,25,27,27,28,28,30,30,31,31,32,32,33,33,35,35,37,37],"right_children":[2,4,6,8,-1,10,12,14,-1,16,18,20,22,-1,24,26,28,30,-1,32,34,36,38,-1,40,42,-1,44,46,-1,48,50,52,54,-1,56,-1,58,-1,-1,-1,-1,-1,-1,-1,-1,-1,-1,-1,-1,-1,-1,-1,-1,-1,-1,-1,-1,-1],"split_conditions":[2.3854164E1,1.5E1,2.4372915E1,3.1104082E1,6.4408298E0,1.15E2,2.4466667E1,7.587068E1,3.8419945E0,1.05E1,1.3033333E2,2.1889065E1,2.4512499E1,2.9715466E0,8.5333336E1,-1.55E1,1.6E1,1.17666664E2,7.219422E-1,1.17666664E2,1.35E1,1.2933333E2,5.15E1,-2.701649E0,2.0275383E1,-4.85E1,-2.9610784E0,8.2666664E1,7.0605354E1,-1.9122139E0,2.8E1,1.65E1,-8.5E0,5.1E1,2.0491397E0,8.3E1,2.64769E0,4.85E1,-4.2448063E0,-7.7221256E-1,3.72231E0,-2.3775308E0,8.036755E-1,4.802891E-1,6.176347E0,3.3805392E0,-1.6348294E0,-2.2228074E0,-7.059606E0,5.4114075E0,-1.3974656E0,-1.0056306E-1,-3.7466264E0,9.415329E-1,-4.275076E0,-5.6024837E0,-1.6059703E0,4.0252665E-3,3.9742746E0],"split_indices":[2,1,2,4,0,0,2,5,0,1,0,4,2,0,0,1,1,0,0,0,1,0,1,0,4,1,0,0,5,0,1,1,1,0,0,0,0,1,0,0,0,0,0,0,0,0,0,0,0,0,0,0,0,0,0,0,0,0,0],"split_type":[0,0,0,0,0,0,0,0,0,0,0,0,0,0,0,0,0,0,0,0,0,0,0,0,0,0,0,0,0,0,0,0,0,0,0,0,0,0,0,0,0,0,0,0,0,0,0,0,0,0,0,0,0,0,0,0,0,0,0],"sum_hessian":[3.199E3,1.3E1,3.186E3,1.1E1,2E0,3.7E1,3.149E3,1E1,1E0,2.8E1,9E0,2.5E1,3.124E3,1E0,9E0,1.2E1,1.6E1,7E0,2E0,1.5E1,1E1,1.2E1,3.112E3,4E0,5E0,6E0,6E0,5E0,1.1E1,3E0,4E0,1.2E1,3E0,7E0,3E0,1E1,2E0,3.111E3,1E0,4E0,1E0,1E0,5E0,3E0,2E0,2E0,9E0,2E0,2E0,1.1E1,1E0,2E0,1E0,1E0,6E0,3E0,7E0,3.108E3,3E0],"tree_param":{"num_deleted":"0","num_feature":"7","num_nodes":"59","size_leaf_vector":"1"}},{"base_weights":[7.869779E-3,-3.0097574E-2,3.008043E0,2.6267874E-1,-4.1750392E-1,1.1697561E1,1.7176089E0,-2.2557199E-2,2.0406256E0,-9.797155E-1,4.7407895E-1,1.931736E0,5.26926E0,-5.651128E0,3.6911361E0,1.9985826E-1,-3.7726827E0,1.4258969E0,1.521149E1,-6.849605E-1,-4.580762E0,1.1876162E0,-1.6274716E0,1.1277723E0,-2.5849116E-1,-6.97253E0,5.3980297E-1,4.603307E0,1.7563663E0,-5.801036E-1,9.503565E-1,-5.128711E0,6.0624866E0,2.3585627E0,-6.652066E0,7.9479213E0,7.6692634E0,-8.240954E-1,4.3366394E0,-1.1653826E1,-5.0122005E-1,-7.9132617E-1,2.165093E0,9.5801896E-1,-2.5870194E0,-2.5569797E0,3.497818E-1,-1.0347802E-1,7.9730935E0,-3.8443282E-2,-9.678221E-1,4.6511823E-1,-5.357229E-1,-1.1038688E0,-5.1503015E0,3.226767E0,-1.4519824E0,2.9768595E-1,2.8808374E0,2.754863E0,-3.0316577E0,-1.042601E0,5.9048095E0,-2.1666647E-1,-3.4733293E0,-6.3617973E0,2.002221E0,-2.1145692E0,-5.0807433E0,2.355002E0,-1.034517E0,-3.4174488E0,-5.7415824E-2,9.421795E-1,-7.578684E-1,1.159896E0,-2.555886E0,-4.034083E0,-5.9455276E-1,-1.9794751E0,8.802943E-1,9.2990917E-1,3.5439775E0],"categories":[],"categories_nodes":[],"categories_segments":[],"categories_sizes":[],"default_left":[0,0,0,0,0,0,0,0,0,0,0,0,0,0,0,0,0,0,0,0,0,0,0,0,0,0,0,0,0,0,0,0,0,0,0,0,0,0,0,0,0,0,0,0,0,0,0,0,0,0,0,0,0,0,0,0,0,0,0,0,0,0,0,0,0,0,0,0,0,0,0,0,0,0,0,0,0,0,0,0,0,0,0],"id":16,"left_children":[1,3,5,7,9,11,13,15,17,19,21,23,-1,25,27,29,31,33,35,37,39,41,43,-1,-1,45,-1,-1,47,49,51,53,55,57,59,-1,61,63,65,67,69,71,73,75,77,-1,-1,79,81,-1,-1,-1,-1,-1,-1,-1,-1,-1,-1,-1,-1,-1,-1,-1,-1,-1,-1,-1,-1,-1,-1,-1,-1,-1,-1,-1,-1,-1,-1,-1,-1,-1,-1],"loss_changes":[3.6459818E2,3.5864105E2,4.2843823E2,9.1339484E2,6.82677E2,2.5253339E2,5.4438556E2,1.2960895E3,1.9943402E3,8.8315356E2,7.921875E2,1.8553814E1,0E0,9.130653E1,6.2689233E2,8.5927435E2,1.1913915E3,1.816325E3,7.327883E2,5.4365356E2,1.8120153E3,7.638551E2,3.3491928E2,0E0,0E0,9.828186E1,0E0,0E0,3.0144083E2,8.606135E2,1.2308069E3,1.2801912E3,6.1492224E2,2.118459E3,1.4599312E3,0E0,1.1394833E3,8.165631E2,1.3953169E3,4.4009985E2,1.0361816E3,8.309099E2,1.2161056E3,1.0528011E3,6.1742334E2,0E0,0E0,4.3368646E2,7.567032E1,0E0,0E0,0E0,0E0,0E0,0E0,0E0,0E0,0E0,0E0,0E0,0E0,0E0,0E0,0E0,0E0,0E0,0E0,0E0,0E0,0E0,0E0,0E0,0E0,0E0,0E0,0E0,0E0,0E0,0E0,0E0,0E0,0E0,0E0],"parents":[2147483647,0,0,1,1,2,2,3,3,4,4,5,5,6,6,7,7,8,8,9,9,10,10,11,11,13,13,14,14,15,15,16,16,17,17,18,18,19,19,20,20,21,21,22,22,25,25,28,28,29,29,30,30,31,31,32,32,33,33,34,34,36,36,37,37,38,38,39,39,40,40,41,41,42,42,43,43,44,44,47,47,48,48],"right_children":[2,4,6,8,10,12,14,16,18,20,22,24,-1,26,28,30,32,34,36,38,40,42,44,-1,-1,46,-1,-1,48,50,52,54,56,58,60,-1,62,64,66,68,70,72,74,76,78,-1,-1,80,82,-1,-1,-1,-1,-1,-1,-1,-1,-1,-1,-1,-1,-1,-1,-1,-1,-1,-1,-1,-1,-1,-1,-1,-1,-1,-1,-1,-1,-1,-1,-1,-1,-1,-1],"split_conditions":[2.8640057E2,2.9162504E1,1.539184E1,2.8220833E1,3.1185417E1,6.8666664E1,1.933639E1,2.7981247E1,2.4E1,8.8666664E1,2.3137967E2,4.3333332E1,5.26926E0,3.0681246E1,2.0456745E1,2.4993439E1,7.7999794E1,1.4E1,2.226477E1,8.2333336E1,9.6E1,4.9333332E1,3.1462503E1,1.1277723E0,-2.5849116E-1,1.05E1,5.3980297E-1,4.603307E0,1.32E2,2.3857979E1,3E-1,9.5666664E1,7.976663E1,8.5333336E1,6.809222E1,7.9479213E0,2.6282465E1,8.1666664E1,2.9197916E1,2.378453E1,1.9161337E1,-1.4E1,4.8386196E1,4.065291E1,2.1316135E1,-2.5569797E0,3.497818E-1,2.5875002E1,3.5598152E1,-3.8443282E-2,-9.678221E-1,4.6511823E-1,-5.357229E-1,-1.1038688E0,-5.1503015E0,3.226767E0,-1.4519824E0,2.9768595E-1,2.8808374E0,2.754863E0,-3.0316577E0,-1.042601E0,5.9048095E0,-2.1666647E-1,-3.4733293E0,-6.3617973E0,2.002221E0,-2.1145692E0,-5.0807433E0,2.355002E0,-1.034517E0,-3.4174488E0,-5.7415824E-2,9.421795E-1,-7.578684E-1,1.159896E0,-2.555886E0,-4.034083E0,-5.9455276E-1,-1.9794751E0,8.802943E-1,9.2990917E-1,3.5439775E0],"split_indices":[5,2,4,2,2,0,4,2,1,0,5,0,0,2,4,4,5,1,4,0,0,0,2,0,0,1,0,0,0,4,3,0,5,0,5,0,4,0,2,4,4,1,4,4,4,0,0,2,4,0,0,0,0,0,0,0,0,0,0,0,0,0,0,0,0,0,0,0,0,0,0,0,0,0,0,0,0,0,0,0,0,0,0],"split_type":[0,0,0,0,0,0,0,0,0,0,0,0,0,0,0,0,0,0,0,0,0,0,0,0,0,0,0,0,0,0,0,0,0,0,0,0,0,0,0,0,0,0,0,0,0,0,0,0,0,0,0,0,0,0,0,0,0,0,0,0,0,0,0,0,0,0,0,0,0,0,0,0,0,0,0,0,0,0,0,0,0,0,0],"sum_hessian":[3.199E3,3.16E3,3.9E1,1.8E3,1.36E3,4E0,3.5E1,1.552E3,2.48E2,8.34E2,5.26E2,2E0,2E0,7E0,2.8E1,1.466E3,8.6E1,2.38E2,1E1,7.72E2,6.2E1,3.93E2,1.33E2,1E0,1E0,6E0,1E0,3E0,2.5E1,7.19E2,7.47E2,7.6E1,1E1,2.14E2,2.4E1,3E0,7E0,7.52E2,2E1,2.2E1,4E1,1.3E2,2.63E2,3.6E1,9.7E1,5E0,1E0,2E1,5E0,6.15E2,1.04E2,6.13E2,1.34E2,6.9E1,7E0,7E0,3E0,1.81E2,3.3E1,4E0,2E1,4E0,3E0,7.46E2,6E0,1E0,1.9E1,1.3E1,9E0,1E1,3E1,6E0,1.24E2,2.18E2,4.5E1,2.8E1,8E0,4E0,9.3E1,6E0,1.4E1,3E0,2E0],"tree_param":{"num_deleted":"0","num_feature":"7","num_nodes":"83","size_leaf_vector":"1"}},{"base_weights":[5.310489E-3,-2.5918522E0,4.6520527E-2,2.475294E0,-5.0491943E0,9.182875E0,2.818953E-3,5.507798E0,-5.904275E0,-1.3203896E1,6.2771046E-1,-9.0384483E-1,1.1779875E1,2.043777E0,-5.5380378E-2,9.905426E0,-1.2736715E0,-1.3411242E0,-2.5498002E0,-1.578353E1,3.049704E0,3.1632166E0,-1.0938994E1,3.0761843E0,-5.1565833E0,1.4835693E1,1.9593143E0,6.994879E-1,9.6420765E0,-5.6037855E0,-2.9793462E-2,-1.9059805E0,1.4160224E1,-4.085229E0,8.698887E-1,-1.5386582E-2,-5.881193E-1,-1.8630682E1,-8.279546E-2,-3.3779416E0,7.6328573E0,-3.7398732E0,-9.53587E-1,1.2955766E0,1.5610508E1,-6.5522003E-1,1.2205392E0,-3.7833457E0,3.772118E0,-3.1579037E0,1.3797861E1,-6.7406015E0,8.1140643E-1,-3.4149864E0,2.8312518E-3,-8.745484E-1,1.6857147E-2,1.7730168E0,5.0423384E0,-1.8052822E0,2.56786E-1,-1.329319E0,-6.3881445E0,3.780882E-1,-4.1534618E-1,-2.2364001E0,1.6770813E-1,2.5627866E0,-2.1971741E-1,4.976513E0,1.314817E0,-6.025867E-1,-5.903368E0,-3.810243E-1,2.730372E0,3.1595364E-1,-1.4737972E0,-1.0413815E0,4.830705E0,-4.3790704E-1,-2.759579E0,5.840058E-1,-2.1887285E-1,-4.9656196E0,-5.486491E-1,1.4189278E0,-5.7752314E-3],"categories":[],"categories_nodes":[],"categories_segments":[],"categories_sizes":[],"default_left":[0,0,0,0,0,0,0,0,0,0,0,0,0,0,0,0,0,0,0,0,0,0,0,0,0,0,0,0,0,0,0,0,0,0,0,0,0,0,0,0,0,0,0,0,0,0,0,0,0,0,0,0,0,0,0,0,0,0,0,0,0,0,0,0,0,0,0,0,0,0,0,0,0,0,0,0,0,0,0,0,0,0,0,0,0,0,0],"id":17,"left_children":[1,3,5,7,9,11,13,15,17,19,21,23,25,27,29,31,33,35,-1,37,-1,39,41,-1,-1,43,45,47,49,51,53,55,57,59,-1,-1,-1,61,63,65,67,-1,-1,-1,69,-1,-1,71,73,75,77,79,81,83,85,-1,-1,-1,-1,-1,-1,-1,-1,-1,-1,-1,-1,-1,-1,-1,-1,-1,-1,-1,-1,-1,-1,-1,-1,-1,-1,-1,-1,-1,-1,-1,-1],"loss_changes":[3.4261395E2,6.3508386E2,1.2580835E3,4.645078E2,1.5822661E3,4.0357544E2,3.7273355E2,4.003072E2,4.7809555E1,1.0044397E3,6.504789E2,9.0305914E2,3.310503E2,8.819005E2,4.3297308E2,4.2903033E2,8.224648E1,2.2957373E0,0E0,5.795886E2,0E0,5.5204266E2,7.7825623E0,0E0,0E0,5.92395E0,4.3841835E1,1.0473279E3,7.350939E2,1.07569885E2,3.355293E2,6.1043596E0,3.1722412E1,4.3343727E1,0E0,0E0,0E0,3.2161548E2,6.989726E0,1.325669E2,8.997101E1,0E0,0E0,0E0,1.5131836E1,0E0,0E0,8.349358E2,1.2207312E3,3.4731556E1,4.5386084E2,1.4233832E2,6.6685925E0,5.7401544E2,3.1427524E2,0E0,0E0,0E0,0E0,0E0,0E0,0E0,0E0,0E0,0E0,0E0,0E0,0E0,